{
  "layers": {
    "input": {
      "biases": [
        0.021231981829062496,
        -0.06927331112843152,
        0.160214258074524,
        -0.009963443126665167,
        -0.0685666006805937,
        0.0731584663301253,
        0.1725957687413756,
        0.10597836557899881,
        0.005111252741460431,
        0.07344514241762318,
        -0.09439765742140241,
        0.08701307002056985,
        -0.15072541140057366,
        -0.1580649819767524,
        -0.09783557953190924,
        -0.12576886880461224,
        0.030842983023245285,
        0.1900360605737998,
        -0.1272693319597425,
        -0.08224985625178323,
        0.05935910568871505,
        -0.07769029013262481,
        0.1879222234795922,
        0.0443361866607383,
        -0.05734602856379287,
        -0.16300229885454176,
        0.07754267687620331,
        0.047148834284373164,
        -0.1257742406902757,
        0.1474756073892735,
        -0.09537650026600134,
        -0.0805351869024233
      ]
    },
    "layer1": {
      "biases": [
        0.13584919376129,
        0.004052462320868061,
        0.16798677242274002,
        0.1376976903153967,
        0.03886199418906125,
        0.09496554450569783,
        0.03655109788233907,
        -0.14180086737536862,
        0.17849604874603647,
        -0.0924144390068895,
        -0.11497763949201634,
        -0.18015401945859988,
        -0.1283874279972938,
        -0.17238318317700002,
        0.13399360368041796,
        -0.06970369325239023,
        0.11453225855002541,
        -0.19996094547483367,
        -0.09837483027422037,
        0.1119385491838592,
        -0.1232530610205243,
        -0.137386412977484,
        -0.06972398498463242,
        -0.13707430394009434,
        -0.1754929960989935,
        0.0008980408063724854,
        -0.07781044862220679,
        0.15079628205696322,
        -0.1044094658437202,
        -0.11156404677346937,
        0.11234671267840957,
        0.10794914631081792,
        -0.16442090376667728,
        -0.09760856256991352,
        0.07435790358534722,
        -0.13598010849669134,
        0.02299536472495861,
        0.10500173479494046,
        0.15441882334959384,
        0.15650265248367695,
        -0.12647076381584568,
        0.19254090307113342,
        0.13874068768179043,
        0.14236978033220077,
        -0.14268318290951304,
        0.04319193380532002,
        -0.13170597742614792,
        0.15340527192477993,
        -0.18222625047756727,
        -0.17242888335102508,
        -0.17991340042041923,
        0.12926966723872307,
        -0.14570699060634903,
        0.1528690316577932,
        -0.16710046357551642,
        -0.08138296810671145,
        -0.15390272399095842,
        0.05799499784351253,
        -0.1272781849963618,
        0.045154353606985775,
        -0.07990650747590339,
        -0.04292442441843872,
        -0.00004139656380836021,
        -0.1981085716607044,
        -0.046387325896268206,
        -0.07976539704023398,
        0.17704702306075454,
        0.05380399990339774,
        -0.05610447578348929,
        -0.016284208353252894,
        -0.18137700547877467,
        -0.059557512562278564,
        0.15226734520640223,
        0.04413297022319304,
        0.020829487774280675,
        0.0652191326283792,
        0.12238406623519904,
        -0.19322118560788903,
        -0.13542417417701408,
        0.13600001103021853,
        0.1828255402849765,
        0.02765519439312264,
        0.04567117476350546,
        -0.17753679596955407,
        -0.008939409409793264,
        -0.15942929712919696,
        0.11924057970000973,
        -0.19970899790220079,
        0.06162713731558078,
        0.15240513041217246,
        0.042899608119645716,
        -0.006225694097228784,
        -0.1359395199392875,
        -0.016192406128764963,
        0.030199650496394448,
        0.021951796138825974,
        0.11683654361063506,
        0.13354762839877604,
        0.03424035637024653,
        -0.03222956705642152,
        -0.019796023363365556,
        -0.0097263623132669,
        -0.11249713475756798,
        0.1724422803238258,
        0.04319556293151611,
        -0.08967711232903582,
        -0.056344034018934425,
        0.08923048934409394,
        0.05135044804212341,
        -0.028600236997640194,
        0.1397129544273637,
        0.03229821320926693,
        0.193108240914236,
        -0.01789055523123917,
        -0.020634009251793012,
        -0.14369613264185832,
        0.18840180194888467,
        0.006188565655493472,
        -0.08396836824544454,
        -0.1311756392036513,
        -0.13240873157034222,
        -0.007783059815419879,
        0.02858129768776574,
        -0.13136161338018992,
        0.1544941817946488,
        -0.07298236367794453,
        0.14116177262320284,
        0.0034316988667893455,
        -0.10317634508195961,
        -0.1701731098355932,
        0.16663431364383868,
        -0.018051651656467133,
        -0.05050641742223938,
        0.16247945110058176,
        -0.15007878173447328,
        -0.003960073444558843,
        0.12192867374594274,
        0.007730273019492945,
        -0.06829319377791224,
        -0.07808621897486426,
        -0.09046825357537265,
        -0.06425577231773644,
        0.13250387077997483,
        -0.09072435167182046,
        0.13564226387801048,
        0.09322317376630485,
        0.09848350455426463,
        0.09043727317127509,
        -0.11820788110691965,
        0.07502103644800939,
        0.00210956187746994,
        -0.17328409567780928,
        -0.007236896856720826,
        0.09992029739289554,
        0.11953138810955777,
        0.10843615896728981,
        0.1038220246450931,
        0.05548250767944751,
        0.05622717361116425,
        0.0741663831182594
      ]
    },
    "layer2": {
      "biases": [
        -0.19800714214794338,
        -0.14397103538490963,
        0.17968877633400948,
        0.09927403055260436,
        0.18554054927597752,
        -0.027839997744140227,
        0.07657866295312254,
        -0.08925765397891641,
        0.06188651685999674,
        0.19825515481554573,
        -0.15959007603044514,
        -0.10548783737477435,
        -0.049336403364479364,
        0.1095867174062028,
        -0.19388295232819708,
        0.10148039932676778,
        -0.1412376007296075,
        0.1512536086008477,
        0.05037897047013107,
        -0.03789661622567181,
        0.0946847358803441,
        0.12918194822625317,
        -0.08527565537873066,
        -0.12874051963590538,
        0.17874678499582325,
        0.0038593596069739777,
        -0.10188020996512348,
        0.18905914555076103,
        0.14978186396298399,
        -0.18636761741810878,
        -0.099790964288613,
        -0.07576860284211917,
        -0.13683339524529564,
        -0.08826921643921773,
        0.01164315309518607,
        -0.14907149552510043,
        0.16253670032481815,
        0.11765774835679205,
        0.012178466548073003,
        -0.053535474018489654
      ]
    },
    "layer3": {
      "biases": [
        0.0932375614203147,
        -0.18903859788757427,
        -0.026150768722742634,
        0.14761757361946198,
        -0.09141279874595516,
        0.005618995512212344,
        -0.0016943466683682629,
        -0.0019568141230570935,
        0.07909302266980872,
        0.0567809663749696
      ]
    }
  },
  "layers_connections": {
    "input_layer1": {
      "weights": [
        -0.04569642270552293,
        -0.0867034549203377,
        -0.017513797455113334,
        -0.07513030218144007,
        0.04296709494199166,
        -0.06348098606879748,
        -0.06831302660583824,
        0.05042135896034039,
        0.08765307791322308,
        -0.19512329387478156,
        0.05177535453097876,
        -0.16068426121942603,
        -0.16774413785362965,
        0.01108004376095506,
        -0.1610756282708415,
        -0.10562901663142275,
        0.024883974652260443,
        -0.11593134912382852,
        -0.028152982026180023,
        0.06279212014705593,
        0.00922030670503654,
        0.13886033900828715,
        -0.07107740830202675,
        -0.11236754777617373,
        -0.17436622515306582,
        -0.08055933846730845,
        0.19951293684151727,
        0.013190478551157236,
        -0.19203647353489856,
        -0.11159029160638312,
        -0.12316900045568553,
        -0.033424203259586116,
        -0.058784997210176465,
        -0.031404826726550095,
        -0.08423936887777739,
        0.17824337017881886,
        0.13411112496915356,
        0.006646110844530512,
        -0.06973649302902318,
        0.17813179229326886,
        0.14307985101262394,
        0.19881627652579692,
        0.05838771014299088,
        -0.0017869333121399156,
        0.04341812087645178,
        0.15122306075246367,
        0.09389127394621277,
        0.04751693284620115,
        0.1365522453465699,
        0.06597509188118877,
        -0.10333579357621257,
        -0.012597422024462901,
        0.16436747666466245,
        -0.15019411475651806,
        0.042371507614613,
        0.13766979848850952,
        -0.14363278088424059,
        0.004489898766323941,
        0.07620097346895555,
        -0.14963750597476966,
        -0.11195076132203803,
        -0.13397831618535572,
        0.0018609952555592724,
        -0.016189497278331688,
        -0.14533492183203253,
        -0.10205632226448431,
        -0.14056671823363837,
        -0.10993948620752923,
        0.13152686484659593,
        0.03542941928634891,
        -0.10186363692656025,
        0.11293741464886253,
        -0.01101840974636975,
        -0.19026027895344516,
        -0.11960730127952704,
        -0.1363518067451194,
        -0.07049370804652738,
        -0.19286581229616503,
        -0.1090785347844629,
        -0.04214773175632308,
        0.16095211538085386,
        0.0018553461463923782,
        0.05697552855967508,
        -0.004371630816891653,
        -0.0437630890329225,
        0.11450528788805053,
        0.041572161168008354,
        0.06311275016571966,
        -0.1205876437314132,
        -0.05133282446825538,
        -0.0038547958620485934,
        0.011641576094199746,
        -0.07517504453758704,
        -0.031676520048594364,
        -0.18098933225372438,
        -0.15337757168176105,
        -0.18697633565558458,
        0.10295750153611205,
        0.09630761885760764,
        -0.07922610675273255,
        -0.17177214523140025,
        0.19126924595952255,
        -0.11235501484360172,
        0.010766896395960457,
        0.19775353784844985,
        -0.08370810849919225,
        0.06988319487332972,
        -0.18302522027312296,
        -0.020212112052655412,
        0.12156743829346961,
        0.1736595520896892,
        -0.18642979351845532,
        -0.10388712925461184,
        -0.1547869046978951,
        0.10099258834517838,
        0.00815600057491453,
        -0.17631953452058424,
        0.03681006056475744,
        -0.1947229253984551,
        -0.07573822332984617,
        -0.1795031729934985,
        0.10864907108017169,
        -0.1648617686424796,
        -0.1041163979961341,
        0.07402289146919971,
        -0.11752367603043026,
        -0.07510406617580112,
        -0.10235940130728483,
        -0.04875893011697721,
        -0.1653990978926022,
        -0.1951406731931593,
        -0.1652251411576113,
        -0.13662929375744393,
        0.15864738208579893,
        0.023185762361170564,
        -0.03359194583732683,
        -0.18056365566992227,
        0.12702214955677577,
        -0.14000248757874634,
        0.10111043748368059,
        0.003053569759505159,
        -0.13457795164538644,
        0.029777541119593298,
        -0.13985961416151996,
        -0.03672776222603588,
        -0.19741575823649185,
        0.07322613160146041,
        0.17318108520029613,
        -0.08740784558714343,
        0.01465223452992892,
        -0.0011916019230486241,
        -0.19556920506458586,
        -0.05544482484798313,
        -0.1936656167840293,
        -0.14671954697104395,
        -0.11692979066431973,
        0.111337400532869,
        -0.05972896256086835,
        0.0663836382239767,
        -0.16117420369351065,
        0.052338514672293224,
        0.10896059276872727,
        -0.04307254927623294,
        0.1565278293276524,
        0.08014476333904047,
        -0.11290626187018948,
        -0.08985016714454074,
        0.0342849344985105,
        -0.06034807078561269,
        0.12258782044459421,
        0.13871332614366355,
        -0.0490070810333354,
        0.12207510888649381,
        0.020746074758362182,
        0.03423586891679076,
        0.1235147042379679,
        0.09561683618596617,
        -0.09400003677333801,
        0.06853213484946646,
        -0.028192309793556053,
        0.04249152871474285,
        0.003245287350678472,
        -0.09634870054877541,
        -0.18355142939886143,
        -0.05673642526917058,
        -0.12515669280556563,
        0.09007799956476514,
        -0.15445050207854744,
        0.13499180163683,
        0.03219222082995202,
        0.15737553612264438,
        0.028125797090702426,
        -0.06401276598127223,
        0.025663370977053346,
        0.1795013761162459,
        -0.014593822203296275,
        0.08851566981403097,
        -0.018232858754207548,
        0.11325486473353336,
        -0.1067295130500523,
        -0.16997296033292755,
        -0.016940200301285874,
        -0.029570466618933505,
        0.11089291006452379,
        -0.0675216997825594,
        0.14388470934402386,
        0.08768018340754952,
        0.06478115188492473,
        -0.0098486072812074,
        0.13660059441392142,
        0.18586067518829225,
        0.029719107086411067,
        0.0765519682916242,
        0.040134747367567336,
        -0.055764699515878674,
        0.11060737249692554,
        0.14447170305882845,
        -0.1790899134226762,
        0.013425226576042087,
        0.1114047644720288,
        -0.06751925085103255,
        0.1976076661817352,
        0.08557359108696738,
        0.011167502887336533,
        0.16957271373335736,
        0.07563519339841385,
        0.1055718704509534,
        0.0960496621741832,
        0.16841091270243808,
        -0.1328357666663717,
        -0.1383485316871053,
        0.1637221352980986,
        -0.022182138250974648,
        -0.03200724302522798,
        -0.00971023713677982,
        -0.18369449997551957,
        -0.012934986257897407,
        0.08686350144307037,
        0.08097471858049138,
        0.04252070862965099,
        0.10890137283208745,
        -0.057203618375295945,
        -0.03946907529783611,
        0.17755796514799593,
        -0.1176379921410828,
        0.13310045960433298,
        0.11307192253372933,
        -0.11743683874113633,
        0.15975039999029855,
        0.14527599987378892,
        -0.16910729450612727,
        -0.093782030601496,
        0.1964310575961129,
        0.13058920898894216,
        0.04708170142900947,
        -0.16680735825120385,
        -0.14576344477391445,
        -0.09739763680983954,
        -0.07060647818344698,
        0.09788092552162497,
        0.031885581330637514,
        -0.021419649865924567,
        -0.11125285926942925,
        -0.0736972646530524,
        -0.0732644086529593,
        -0.14497378588769158,
        0.15829807962811993,
        0.039157006074492934,
        -0.1424762853903303,
        0.04199447877151191,
        0.03315443334005863,
        -0.11270563336073264,
        0.09321449928291325,
        0.14284666114163175,
        -0.12665014335448066,
        -0.08405180963460031,
        0.1314299959644341,
        0.027343867350462625,
        0.16111639471966605,
        0.002256867812830299,
        0.08237864096422709,
        0.08649094834915638,
        -0.0719908646863989,
        -0.14890172075932995,
        0.08239420504905615,
        0.08821794832774044,
        -0.09251732004742236,
        -0.1549412666975453,
        0.1745154451053585,
        -0.10576271390330715,
        0.025855517188997867,
        -0.19509768904728686,
        0.10250144445306664,
        -0.06818487405969256,
        0.07168554838968133,
        0.027216219171119993,
        0.07542946318240112,
        0.0718795892200122,
        0.1635761431145381,
        0.15150708184617784,
        -0.10210930935129486,
        -0.05273428650703191,
        0.05921524229334768,
        0.12382668154479282,
        0.047578010033906104,
        0.11138552097923476,
        -0.11007388523174635,
        0.02250923412140099,
        -0.16334852965682023,
        0.009770815853785114,
        0.17345153482375414,
        0.07382166174441229,
        0.006051972348037976,
        0.16185004692603017,
        0.17729933942496034,
        0.09488248024302443,
        -0.13136481320410712,
        0.06433302798299717,
        -0.1005432867641825,
        -0.16890002670841298,
        -0.13158769634281486,
        -0.07040031881104941,
        -0.06973082110321202,
        -0.12866149529262771,
        -0.1350190570196751,
        0.02277790661330953,
        0.052436933539390995,
        0.07483986932898967,
        0.10343566444493901,
        -0.001985369179364177,
        -0.04597662012756834,
        -0.1452283549853457,
        0.04943708133752786,
        -0.003937218259520592,
        0.1460857467281947,
        -0.1414323856358097,
        0.03592140785488382,
        -0.14251879022471156,
        -0.04093397289008899,
        0.17379382028100931,
        0.012502572261137379,
        -0.13431853454626333,
        -0.08934085254895835,
        0.19124173519856624,
        0.07402781332672215,
        0.17863546429150584,
        0.0299579275916603,
        0.08035103326698151,
        -0.03771175848494282,
        -0.1565221898464361,
        -0.08756492796009147,
        -0.17773174454067006,
        -0.12391439356450303,
        0.08505030134149039,
        -0.15945613647106516,
        0.19420306118972286,
        0.046161598917093066,
        0.10132466677920354,
        -0.02654532671575746,
        -0.16066478723502994,
        -0.08640540988053941,
        0.10585862710751948,
        -0.15697996281576676,
        0.006723520164729158,
        -0.04339954246324673,
        0.17577538169407336,
        0.02965580248303562,
        -0.14993670800387138,
        0.04762766133577667,
        -0.13455543605549736,
        -0.09953885631411913,
        -0.07311890056236159,
        -0.08407914230092071,
        -0.06165851119864421,
        0.18983049611233838,
        0.12539767016478381,
        -0.025207046284078105,
        0.06317391802041372,
        -0.17178242828803067,
        -0.10013343746297605,
        0.09722479189944921,
        0.09230984369365552,
        -0.020358013755248316,
        -0.16834136135609326,
        0.03557942853505458,
        -0.06307865219212916,
        -0.1392624600797986,
        0.1984513983793934,
        -0.18921009784574158,
        0.003191876036523267,
        0.021889112253933363,
        0.1746147465846925,
        0.11758052642775285,
        0.13997472548207063,
        0.1673559756145402,
        0.1487228161968021,
        0.076604729511983,
        0.1471980093936583,
        -0.13553376722405144,
        -0.11883650546094718,
        0.12320057642831583,
        0.15364560361305402,
        -0.1381342298375765,
        -0.08454876648416759,
        -0.040225265837685376,
        -0.15590635102599487,
        0.03756272135592606,
        0.062840249584862,
        -0.06602552033196041,
        -0.10163364497098137,
        0.08352154078879326,
        0.0035533967249248843,
        -0.09527507407163278,
        0.16341064726917104,
        0.10327600765775463,
        0.06718502012837146,
        0.10819802150675478,
        0.05060772501924815,
        0.10951319944585597,
        -0.1597463695745224,
        -0.18278915275011395,
        0.04218795651851953,
        -0.10289013096814013,
        0.018802357125836527,
        -0.12430702144078892,
        0.1812439233109049,
        -0.06441358090591007,
        0.06932118149676747,
        0.14903789692857256,
        -0.10283011328041347,
        -0.12695143087664412,
        -0.07494286573647227,
        -0.043414583248788496,
        -0.1122466601879688,
        0.17349065872547514,
        0.17259670652897152,
        -0.0228892282403374,
        0.1866937688500961,
        -0.04494907610852797,
        -0.11904136411602195,
        0.07952091777504233,
        -0.0984811021492925,
        -0.05260037300551543,
        -0.01536574983215569,
        0.15698638499655215,
        0.08191311619574398,
        -0.14926310913586782,
        0.028488363263906635,
        -0.08391122001555616,
        0.0639175495484714,
        -0.05936863593204028,
        -0.12913763463522815,
        0.07143938873944528,
        -0.11215926074799537,
        -0.04446321963813152,
        0.13201243208240004,
        0.10683925719348936,
        -0.07791131055782441,
        -0.10061477823384829,
        0.12555278052969487,
        -0.07630118240594466,
        0.147110104050499,
        -0.023623420631885772,
        -0.12920585424418046,
        0.19801795926969723,
        -0.006924913951328687,
        0.18068688939447347,
        -0.13952005958783442,
        0.198756225827106,
        0.015687734730494063,
        0.09544338414716169,
        -0.08624508770354185,
        -0.03023392487615456,
        -0.19123272552715875,
        0.07563251720793218,
        0.12620068818075836,
        -0.048026836449464566,
        0.1452354498646029,
        0.12841670422113854,
        0.07017209854652906,
        0.045660767300678445,
        -0.1392784626414926,
        -0.034294979364351885,
        0.061393965335877376,
        -0.17085137188968105,
        0.16724609848352595,
        0.19562290559918966,
        0.14620214520311164,
        0.08631973394242076,
        0.04165132187167214,
        -0.056316106830620966,
        0.09675161521126557,
        0.06782443005167355,
        -0.04159189433304816,
        0.11643542727828204,
        -0.03888141827261479,
        -0.041694050014497636,
        -0.06529319187225538,
        -0.1040830672173838,
        0.09956652879426664,
        -0.050559732241290345,
        0.006329494275348679,
        -0.011173320157302463,
        -0.1817982432868612,
        -0.03450562029308196,
        0.05584809982152261,
        -0.03160803910465543,
        0.17867898916711794,
        -0.09310273700189114,
        0.12341993390705214,
        -0.16263151123176428,
        0.18536660179233239,
        0.09854805202719957,
        0.08107376689827672,
        -0.07310946778657487,
        0.10152550302281171,
        0.10142748498639736,
        -0.015847274071555673,
        -0.14026913654589004,
        -0.18786291180573622,
        0.007163695086504163,
        0.13679170197651896,
        -0.09494839856971171,
        -0.02560180597403955,
        0.10732006763512486,
        -0.17276890556135993,
        0.14345344104099728,
        -0.15353501077808507,
        -0.09045651006831075,
        -0.03776987763289924,
        0.03953707739193146,
        0.13820674477781408,
        -0.1245617718039322,
        0.17402646429004787,
        0.10142731518588755,
        -0.09764232273513512,
        -0.19161705260518766,
        0.15475499965543765,
        0.15053282856687122,
        0.04722371573796952,
        0.08565676413974865,
        0.021992673002080965,
        0.14437594537603943,
        0.08672545338530713,
        0.09201757183162707,
        -0.12647687548057462,
        -0.023737709776973093,
        0.12979833053796858,
        0.10918438788795881,
        0.0767183193843376,
        0.08324794804022961,
        0.1314591117743581,
        -0.10042562890793603,
        -0.126482367874591,
        -0.17949511226956816,
        0.0823133312078691,
        0.15017199202081905,
        -0.10789923694587196,
        -0.12620118067832597,
        -0.16216778148412447,
        -0.16944180446497456,
        -0.18619476737271443,
        0.12360652427736002,
        -0.17257999523766437,
        0.1111879863707328,
        -0.035234771549977506,
        0.19088081187055822,
        -0.1994402960254917,
        -0.05724534572320103,
        0.026294097616690687,
        -0.15183755847189095,
        0.15367564527586725,
        -0.08296029658579936,
        -0.029980320195612975,
        -0.03657337633014052,
        -0.003200263238861384,
        -0.1042434993775891,
        0.19631713477325136,
        -0.06375845228528779,
        -0.003179270733297157,
        0.031613383855330024,
        0.17149776888933177,
        0.1987534559576387,
        -0.013489813857679056,
        -0.026405513130687286,
        0.09496170300738904,
        0.006462978463332492,
        0.05961889676257126,
        0.1470431696047455,
        -0.09879326953707507,
        -0.020123310760371188,
        0.016922495019784517,
        0.10665339841735133,
        0.13424499378413562,
        0.1634519620939986,
        -0.18713521289793117,
        0.18866086201745996,
        0.19913040628613737,
        -0.1739468297834056,
        0.11398008469841403,
        0.17170183910129427,
        -0.0774196252109257,
        -0.19407007698415427,
        -0.0994432425284198,
        -0.1745263368040207,
        -0.09401813411819596,
        0.01674077922436959,
        0.18802191642135668,
        0.14464145890552177,
        -0.09057901873539086,
        -0.05242230237508114,
        -0.12145352526994874,
        -0.042121128591769474,
        0.11675578493452948,
        0.17755269024415798,
        -0.05723345345566694,
        -0.04485204418527178,
        0.1383326826604278,
        -0.05883197305121596,
        -0.039759433030224306,
        0.07007983427099906,
        -0.043088993266048536,
        -0.1379750606038299,
        -0.06867995608428432,
        0.011321371183864837,
        0.128599407937447,
        -0.09159085036978687,
        0.0056270789921728515,
        0.09283740863662715,
        0.0845743502268892,
        0.017199748681660187,
        -0.014101314792981295,
        0.18595493595738571,
        0.10436192253133347,
        -0.113295933836404,
        -0.007798362059000391,
        0.005352762886617596,
        0.0617051664143668,
        0.14933043663396917,
        0.09181933818074295,
        0.1692188125253517,
        0.08971786474300042,
        -0.13893625636550866,
        0.15608406254638624,
        -0.17434956871810617,
        -0.15126624064767494,
        -0.1254354741443257,
        -0.06928227143660814,
        0.14847372522235708,
        0.1972392897929165,
        0.07841412111962903,
        -0.08549881497694983,
        -0.07956993848860505,
        0.03960436182540658,
        -0.12322028286016758,
        -0.06537162946369277,
        -0.1558412865401933,
        0.14810494477747083,
        0.07774511747188467,
        -0.13473093952632836,
        -0.07359754080154257,
        0.16821380760263333,
        0.05487716877966703,
        -0.19525852102506375,
        -0.10711971021469867,
        0.19931457786850976,
        -0.16364013234495522,
        -0.02347580555954759,
        0.1484183481243732,
        0.16051145699014158,
        -0.007904004760005412,
        0.18742849099877174,
        0.14230231953887906,
        0.12092438840962466,
        0.16163722700098526,
        -0.04437983392096195,
        0.11100177245275566,
        0.13434586545441796,
        0.0012867724018744975,
        -0.19795483636160172,
        0.1919722973726088,
        -0.18996454643386237,
        0.03527465293433529,
        -0.16776554609553485,
        -0.1731416568998826,
        -0.13033000592723815,
        0.09683589794915198,
        -0.0550417354080385,
        0.013191514058446124,
        -0.10883937602836702,
        -0.19046642568028474,
        -0.13316341224854183,
        0.15623434643648598,
        -0.10385221797605122,
        0.0629853092421192,
        0.06783150286621703,
        -0.042188676126579644,
        -0.1262069239520341,
        0.1013889928756479,
        0.15758925792261452,
        -0.07293454128772542,
        0.18172297741630877,
        0.15924480634738886,
        0.13067929222131525,
        0.13973642133560332,
        0.17186137396135853,
        0.19276676897086303,
        0.15732727140765368,
        0.030734636396198584,
        -0.10630649623444413,
        -0.18118763286200001,
        0.04117663696617324,
        -0.16054058148226524,
        0.12918311345817202,
        0.16063275756027096,
        0.1835881275049595,
        0.06366032323650017,
        -0.119359080727468,
        -0.0318652958747819,
        -0.03284419972689384,
        -0.1951444974604522,
        -0.07174289717099044,
        -0.11384754680738252,
        0.0026235828749510137,
        0.07176868615382404,
        -0.05784180745729969,
        0.026716628709480383,
        0.0007083495729196532,
        0.06871653873566419,
        -0.19582793236641183,
        0.020680901278888053,
        -0.07850050474369895,
        -0.1649441992024944,
        0.06658484248054697,
        -0.18743205271518698,
        -0.1352118900250269,
        -0.14169377413283946,
        -0.13496881024221113,
        0.19563722186535903,
        -0.056857940030324544,
        -0.031192933469568557,
        0.09929622385433512,
        0.0009224083223681456,
        0.0885365782772698,
        0.12609410519723058,
        -0.1154785525409182,
        0.046055263703885435,
        0.0028684108231809557,
        -0.1307659180730486,
        -0.05015591174705972,
        0.03324527402838204,
        0.024315215049440175,
        -0.07869457626765382,
        0.03448925951839826,
        -0.1484099603528186,
        0.07395820857282825,
        0.19176559164455487,
        0.09681228704296158,
        0.18252873507627937,
        -0.04737547957296018,
        -0.05691106614577923,
        -0.01108806100256654,
        -0.028879289874695097,
        -0.14348760306270908,
        -0.12114745142188182,
        0.13353284987928732,
        0.13087165580062182,
        -0.024649699158641347,
        0.0618328471271547,
        0.15636925176236466,
        0.06204130428577792,
        -0.012564548493289529,
        0.04900772801279407,
        -0.08541146444290951,
        -0.09687892386452837,
        0.08044130649705938,
        0.10264564573263518,
        -0.12115439375675768,
        -0.08241760509460186,
        0.019746487208647828,
        0.1077257682116724,
        -0.04350600085467726,
        -0.13835773344107874,
        0.18334351407786503,
        0.14123836574515547,
        -0.1373460609703142,
        0.05160964665294315,
        0.11503113095663065,
        0.14240888921860623,
        0.1565413882505987,
        0.11721937358436396,
        0.04529808239423577,
        0.1447872587318672,
        -0.15397796552925552,
        0.19603417096864245,
        0.02626250606502506,
        0.19196613571276117,
        -0.1532959532699704,
        0.16232803643617755,
        -0.190410199641038,
        0.007950252828997029,
        -0.19000283746742896,
        -0.09628791570541276,
        0.13363609084836597,
        -0.18854283159070034,
        0.08917581342925263,
        0.1425769361425528,
        0.09808276698142293,
        -0.1041785553607141,
        0.1160978367539876,
        0.10118455958504147,
        -0.10852535934889712,
        -0.024509472349951128,
        0.19927918694735314,
        0.13489829142368798,
        0.1554345797100824,
        -0.0024666943084517,
        -0.11905501212426534,
        0.17308297846291265,
        0.08783693719584407,
        -0.13653471119316687,
        -0.13497907501395007,
        -0.11784235270846276,
        -0.17137975944262124,
        0.0007120235698621913,
        -0.013290156628275762,
        0.019412973782056142,
        0.034978590869287285,
        -0.17100495805501043,
        0.0957404615496128,
        0.013368994846098381,
        -0.02018009208562424,
        0.12344640545767288,
        0.07855307255494426,
        -0.11469547896332864,
        0.09094490695653334,
        0.0642260990332651,
        -0.15252644224952128,
        0.02774044776620696,
        -0.06462551000745584,
        0.004237087142175078,
        0.18131871006285916,
        -0.17942809392182407,
        0.13751887908820437,
        -0.0519638418963517,
        -0.15970003071248612,
        0.16833360378611933,
        0.15089242898124094,
        -0.1747377614749055,
        0.029191834447964415,
        -0.13426609186535587,
        0.08496981746294247,
        -0.07357661262031279,
        -0.1770027099283008,
        0.1651112829535965,
        0.08590559984454693,
        -0.021104027006315806,
        0.0703810187658635,
        -0.12504228230478356,
        -0.04935732457821254,
        0.02289617109358094,
        0.18644141549459425,
        0.15820831474997882,
        0.18798420425458545,
        0.017355647319306222,
        0.10292202382739002,
        0.010178964726538009,
        0.12691620939294346,
        0.01090592428090234,
        -0.17461828660514103,
        -0.11378592855370578,
        0.005920872144298095,
        -0.08880415792518442,
        -0.17302433750004864,
        0.007521222233691033,
        -0.02433727798607674,
        0.14443210988635202,
        0.10541952797008741,
        0.17730278068669658,
        0.1660468815847091,
        -0.09568165134636258,
        0.1472854185106866,
        -0.012417367317679506,
        0.16029618971182102,
        0.19193771297609707,
        -0.17291511767739404,
        -0.01590108397928805,
        0.17317876120512343,
        0.07540670388575266,
        0.0500411114914216,
        0.05708898269919571,
        -0.14119036711247662,
        0.14872523515427416,
        0.046383853926285024,
        -0.029474935482502934,
        -0.12158643955098247,
        -0.08310903501980023,
        0.04179018108787419,
        -0.11910437431259085,
        -0.018238059246841937,
        -0.07730510929871084,
        -0.0700541333476227,
        -0.12294839928954655,
        0.18297283481500742,
        0.13555441847420696,
        0.022988356483606365,
        -0.002786434817399208,
        -0.1935310343657093,
        0.023223273940424394,
        -0.17441849886307215,
        -0.006571921625193516,
        -0.10028490732241342,
        0.07590148810317215,
        -0.05545170433456356,
        -0.060069667836490565,
        0.12419817736431965,
        0.1650973350388486,
        0.05909492510151737,
        -0.16776163951681858,
        0.07421749390424043,
        -0.1751911075286576,
        -0.06168917723902481,
        -0.03871131669497441,
        0.18836092208734606,
        0.1200067884792061,
        0.0642003700362056,
        -0.09436748930776347,
        -0.021233322676105892,
        0.05735033539451617,
        0.04755565902509801,
        -0.12298413383791758,
        0.10871892202766537,
        -0.10572651757222938,
        -0.089279038263353,
        -0.19134996964615036,
        0.16371534125117232,
        -0.11704097713050308,
        -0.12544660176933842,
        -0.1145317241205584,
        0.12232573332200042,
        0.09051738102511148,
        0.113539994765738,
        0.1315623035919155,
        -0.025902674944269732,
        -0.11779582439320967,
        -0.023489544901417136,
        0.18664011862481428,
        0.06714859201116297,
        0.16076417315824676,
        -0.09236496444101423,
        -0.05801544304395076,
        -0.055902625562554986,
        -0.019994807962495587,
        -0.03313955649969347,
        0.03990187897446665,
        0.009048677638848007,
        -0.10873552517901973,
        0.11201799910060684,
        0.04500054529099318,
        -0.1569637130770144,
        -0.09769994999346006,
        0.1384578479606191,
        -0.09576796824749963,
        -0.16415995846801332,
        -0.09272948762459882,
        -0.06188855501838503,
        0.10021518387889183,
        -0.16163078854111934,
        0.012119968752934224,
        -0.19123966868480574,
        0.10246550000641563,
        0.03663987863802415,
        0.010718116397044064,
        -0.08131772265583313,
        -0.1843651578471619,
        -0.04412873312119095,
        -0.042375512971682655,
        -0.033051939258421786,
        0.039195841495900524,
        -0.1328492828770248,
        0.10100825321535772,
        0.1595722711648382,
        0.1403651828423193,
        0.19431720200378505,
        0.12895881349128463,
        0.004406346267520123,
        0.12506123728132096,
        -0.16159586264564943,
        -0.003472500279160906,
        -0.16767233975247425,
        -0.1855181449980694,
        0.013931368585866133,
        0.11525486891378828,
        -0.12915841119697302,
        -0.035037112106748036,
        -0.06139209087090408,
        0.17958392969540354,
        0.18525635786168404,
        0.1852658996386523,
        0.05083733718036815,
        0.18492860740583072,
        -0.18222226918774498,
        0.1545117006317563,
        0.13496237202115519,
        -0.05370163063020966,
        0.12241642406019793,
        -0.06999863091862069,
        0.06986931913581185,
        0.12808627268271394,
        0.14829648211110552,
        0.022436089533094533,
        -0.19561598991825885,
        -0.1529879007428309,
        0.18771918063068332,
        -0.12664284120534486,
        -0.10908839386313063,
        -0.06658262306664234,
        0.008729596718277444,
        -0.1748902047620846,
        -0.19458393584822448,
        0.10281552072526162,
        -0.08684827937863707,
        -0.07099833977466324,
        -0.025452893251546455,
        -0.03716769857325475,
        -0.1343443943263261,
        0.013638158731577643,
        0.16136178700574905,
        0.04814146514394807,
        0.09270237797077746,
        -0.027231119635242523,
        -0.13741771522522953,
        0.05907325444951861,
        -0.17164288441577458,
        -0.15321074389334172,
        -0.04770305576562045,
        0.18022260273324747,
        -0.1766655868193741,
        -0.13134824829533082,
        -0.1299884022398869,
        0.18772373916458068,
        0.059156436896260045,
        -0.06857868069227924,
        0.18355105981511038,
        -0.005622456707921886,
        0.14202852855076037,
        0.17114182681342788,
        0.16722068771761156,
        0.10263927736121398,
        0.170488080179939,
        0.0435917146294158,
        0.09161473542879506,
        -0.07291973546971997,
        -0.059797493969825505,
        -0.12370790815303807,
        0.15805177926744413,
        0.008906196150760548,
        -0.1226755527946918,
        0.18449692555098707,
        0.03051855206114129,
        -0.12843020954659182,
        -0.16171144603475873,
        -0.10211361435642329,
        0.09305666983331162,
        -0.0700890001523447,
        -0.05518225752302383,
        -0.08779032567854057,
        -0.09601670491736153,
        -0.15419971691853096,
        0.05400796910699873,
        -0.15218490209780033,
        -0.07392635826607238,
        0.0597648719687896,
        -0.13997140220252882,
        0.053129343353216396,
        0.16882074515096662,
        -0.1970289724113135,
        -0.014721750416751611,
        -0.1132989874683088,
        -0.06478329506305344,
        0.037064467700114706,
        -0.13151034786762322,
        -0.07839289593616137,
        0.07485202795098578,
        -0.1757275858013829,
        -0.016273710213794035,
        -0.15039853401381298,
        0.11851702191388241,
        -0.1000849370281216,
        0.16953508820921676,
        0.19895987879251703,
        0.04185340113199865,
        0.1988344977979401,
        -0.04145137013120084,
        0.1346431533228773,
        -0.048724716313264305,
        0.16443912643923814,
        0.13802126229178863,
        0.022307139276117688,
        -0.0780000495195719,
        0.17121974240345095,
        -0.18485591519076827,
        -0.18963087988345884,
        0.1714939233712518,
        0.1524863268655276,
        0.052239271440515656,
        -0.10880968023382392,
        -0.08853925826689424,
        -0.022460080731725063,
        0.05290580793394256,
        0.17996327466353962,
        0.038021958043461535,
        -0.12914693264882143,
        -0.08404147471047502,
        0.18036157044563422,
        0.013628209088926202,
        0.03572420441580321,
        0.09772056338893442,
        -0.01706688017755087,
        0.17154451711127694,
        0.17389202134695492,
        0.17813566436875378,
        -0.037828252240663385,
        0.12140922396112297,
        0.11092232165587063,
        0.030182881129591277,
        0.19261425243768254,
        -0.04321418751170292,
        -0.12282388263095761,
        0.0577231308837452,
        0.012950753070228416,
        0.025428662803068658,
        0.04242587416375651,
        -0.021324505213932532,
        -0.19327533657981963,
        -0.07959534912625604,
        0.01293855881627598,
        -0.011313687871206068,
        -0.0030667879919034358,
        -0.15052063412053648,
        -0.0692988656502258,
        -0.16843589241272336,
        -0.17067477423611246,
        -0.12655938345410556,
        -0.146481552037984,
        -0.01052883187195533,
        0.17261707468377135,
        0.026132785917356877,
        0.09882334814758276,
        -0.03848466294873684,
        0.1487909479612723,
        0.1284542597447495,
        -0.07284753695519061,
        -0.06915103352799418,
        0.06625781534564701,
        0.1875669015327492,
        0.061751936763989934,
        -0.13041400158355287,
        0.047278909230773214,
        0.13793991915001136,
        -0.005805488140483789,
        -0.1324002033368234,
        0.12019486772624383,
        0.029778247904964722,
        0.0490040351628557,
        0.031098885036615703,
        0.02657234153847962,
        -0.06858473939819745,
        0.19921311671536923,
        0.03511976630632191,
        0.15347703912375538,
        -0.1799651218393411,
        -0.13290465120218026,
        0.12451447284269701,
        -0.028520508259242405,
        0.1855232598094802,
        -0.06156114720027936,
        -0.16416744119979854,
        -0.0014712161299579307,
        0.017885138923937782,
        -0.1179130976271829,
        0.18669858892882962,
        -0.15204749165804599,
        -0.0685015381901525,
        -0.12987817175977734,
        -0.08106958165644979,
        0.007323347204514163,
        -0.038643592355097456,
        0.19473926721288642,
        -0.10942133031560104,
        -0.014534361385848238,
        0.0010573745375206944,
        0.07419084672969567,
        -0.09362112295312702,
        0.15670899708376468,
        -0.06532272027981817,
        -0.029489247117048756,
        -0.16096764000608071,
        0.06057705982331474,
        -0.11708828791782522,
        0.04316781794424082,
        0.07225223755079274,
        0.12132849724342426,
        -0.11191784270422916,
        0.03815295705400787,
        -0.015140637263423157,
        0.12545926299307503,
        0.08299712049633567,
        -0.07806084486778771,
        -0.19734115837792704,
        -0.053057694846897985,
        -0.08619869029544801,
        0.001541828973552567,
        -0.19834507325724232,
        0.1878545453897515,
        0.1505365183424081,
        -0.11043233853420512,
        -0.1819799204573662,
        -0.05177971577987747,
        -0.06671521957786633,
        -0.09372020191995625,
        -0.11572371350594533,
        -0.06247997671542316,
        0.1271260918474248,
        0.051814374476305214,
        0.0456677552381306,
        0.10580793998194354,
        -0.03098683510389505,
        0.169103837928256,
        0.1758942753613152,
        -0.19887609411381568,
        -0.04854797504097089,
        -0.08981179885435209,
        0.13367637102964142,
        -0.1178114217226781,
        -0.18597180860073564,
        -0.13017070175993356,
        0.1445797878939203,
        -0.09738830020655542,
        -0.03515198158240587,
        0.001061735974725364,
        0.011822357448118131,
        0.013542273012284278,
        0.03385781173321978,
        -0.09155041482892351,
        0.1617000959029416,
        0.18093201053208113,
        -0.19317779111773487,
        0.19021185431335236,
        0.16863794587060593,
        -0.19163308817620234,
        0.19698171037601908,
        0.09792804524865972,
        -0.033287827360861305,
        -0.04810848179366678,
        0.12309676718086543,
        0.16884531598069363,
        -0.13751501186688433,
        0.12590542929156068,
        0.14672771286704372,
        0.03499714229905532,
        0.0005146554981181328,
        -0.047452276392859816,
        0.18329428178685253,
        -0.10053045035356663,
        -0.0907497002657204,
        -0.07305968296935667,
        0.18355596247332767,
        -0.028642826195848847,
        -0.0703603503616615,
        -0.19202129451166,
        -0.02954314717480569,
        0.023327162147791652,
        0.18207120251850734,
        -0.08287523394325357,
        0.06547512789582366,
        0.14103194961568566,
        -0.14288212375072795,
        -0.19552243592858753,
        -0.03239630478529176,
        -0.05941302531486101,
        -0.1393073981442603,
        -0.07795799223094915,
        -0.18680725839477416,
        0.12660772326928188,
        -0.06340145477242998,
        0.06388335606366724,
        0.0786907384944131,
        -0.004441271785116246,
        0.15292145591780443,
        -0.08364805221657666,
        0.1437640652330946,
        -0.0359064767825418,
        -0.19037614428450456,
        -0.18269730101041817,
        -0.07822143973323659,
        0.17997363875838784,
        -0.08759564908882585,
        0.1255068242618964,
        -0.1823344786660059,
        -0.11491360396843993,
        0.19785575682010492,
        0.056855463258912164,
        0.18810881777819594,
        -0.18216298462828584,
        -0.08994846782198028,
        0.07321950989979631,
        -0.08700122606478305,
        0.00744038289896104,
        0.17455133639676002,
        -0.007677166144547776,
        -0.0862585595949883,
        -0.18968972060659392,
        -0.04972117155764494,
        0.030518419642794503,
        -0.03450776195586949,
        -0.18570940265402874,
        -0.08817247213572849,
        -0.17719917416628125,
        0.00782196385635836,
        -0.07166640196074178,
        -0.09122326695329508,
        -0.07839941277610518,
        0.15821016732356052,
        -0.009838575665012922,
        -0.18065907634218467,
        -0.12330846993888037,
        -0.16388923418417725,
        -0.07651955003382659,
        -0.07300254432311812,
        0.09915931869915873,
        0.14465523397774932,
        -0.05840435558804585,
        -0.06950510636721341,
        -0.1599687118598595,
        -0.1262828695096267,
        -0.10547086586837065,
        -0.07971016631000355,
        0.13460378960680963,
        0.05268455308330405,
        0.185668795026311,
        -0.07697333188385357,
        0.027484979518430264,
        0.05939322334045022,
        -0.050608065245048905,
        0.06239761050284065,
        0.0976179775095326,
        -0.04487050582763649,
        -0.060810597741090405,
        0.0483841057709779,
        -0.19867984819482842,
        0.14135908265118913,
        0.07596050913890118,
        0.18935710924234755,
        -0.03918459211901365,
        -0.115665162594102,
        0.04819947145853304,
        -0.18411661027997242,
        -0.05593828945787266,
        0.1570803749205717,
        0.0862796539524252,
        0.09690983047580864,
        -0.18486195460951196,
        -0.06768814660519099,
        0.04679353837429287,
        0.1577051449215527,
        -0.055018131355925454,
        0.16605460532503563,
        0.018269763270965855,
        0.07094564313017099,
        0.03833480423411664,
        -0.03888304888945232,
        -0.07616225548661833,
        0.10143070402366072,
        0.12677710067562736,
        0.07141231215330829,
        0.010908999585006407,
        0.026300167113453676,
        -0.064120210332056,
        0.031084506370483073,
        0.04498965047799991,
        0.15095897446441991,
        0.15155165686836009,
        0.07144177626625414,
        0.10379941803131215,
        0.10085876757674717,
        0.09487653854623124,
        -0.055465259656643146,
        -0.19020102985924692,
        0.04677441170245719,
        0.08448483020514586,
        -0.05878377896550885,
        0.028528929848287754,
        0.13110428644505068,
        -0.024149806179906752,
        -0.18411804315355731,
        0.13637944400863228,
        -0.07059961716985957,
        -0.06425355283151188,
        0.03993287254822117,
        -0.12228542526144946,
        -0.17708911510045808,
        -0.05304025726337974,
        -0.041375239825458016,
        0.10286557715666306,
        0.08347866886789623,
        -0.033950776274213335,
        0.04967945026879844,
        -0.0881667417428686,
        0.12097143445480218,
        -0.036814438240843156,
        -0.03723468298456195,
        0.14900195310743936,
        0.15979684550225226,
        0.029749929229241856,
        -0.03767469979086013,
        0.07617655718821625,
        -0.05153883263826717,
        -0.1834017036616199,
        0.004996362005698002,
        -0.09590497323355938,
        -0.08241795052370762,
        -0.07769329716630816,
        0.06251773653623471,
        0.10222647669584578,
        -0.0584879020038703,
        -0.13824984176670393,
        0.008416173214925327,
        -0.15088484021099574,
        -0.021581209767011444,
        -0.05535915637854516,
        0.1073808261447633,
        0.10318527930822691,
        0.18251030440197102,
        0.004039153195570938,
        0.11246284632750186,
        -0.19213865155268361,
        0.022633573703976534,
        0.11321058725172084,
        -0.00902039916661379,
        0.113177969435457,
        -0.1424964434513898,
        0.07484865308661853,
        -0.08759752442523028,
        0.07977052051939304,
        0.04833245209105569,
        -0.1254867243199817,
        0.13415751173035528,
        0.07116222707000397,
        -0.04770819769764012,
        -0.10544381471642011,
        -0.024915280656287175,
        0.14145321497233548,
        -0.04356595791327794,
        0.11225606216618328,
        0.03348880553239861,
        0.04868169890444407,
        -0.13618546847352953,
        -0.11666566104959011,
        0.17743530327116924,
        -0.09205707224640891,
        -0.17699601262438935,
        -0.043187998904160585,
        -0.040007377728781185,
        0.16091314478530866,
        -0.13300010832750686,
        -0.12254685658640292,
        -0.16411100932450756,
        -0.057373263269894226,
        0.005568954481292854,
        -0.14310138803234282,
        0.17233404135851,
        0.13556583899527197,
        0.0769106870353839,
        -0.010147840644707473,
        0.17969415059329813,
        0.03481585812125276,
        -0.12941762518085154,
        -0.09888413015483631,
        -0.09341490860737345,
        0.042240293376724164,
        -0.022151999387566734,
        0.17222400234758978,
        -0.07292217928694952,
        0.06135369965330384,
        0.13236482408459982,
        -0.1248347543555458,
        -0.1424213851238613,
        0.05029058183369839,
        0.16953671302490825,
        0.12433700715371704,
        0.013452822048672125,
        0.16202253092213798,
        -0.023974666015637247,
        -0.1357455294902697,
        -0.1668685473974788,
        0.024830040781459672,
        0.09554162887278256,
        0.08034920230745607,
        0.09330652288903213,
        0.07271774555142663,
        -0.13675990737023647,
        -0.12631123242813047,
        0.08043302229290117,
        -0.18222764906795041,
        0.01768651093790216,
        -0.11347470583951794,
        0.060548731275742784,
        0.12508556235772866,
        0.1401765418724204,
        0.08973433431284727,
        0.03859035933063443,
        -0.13999773443826943,
        -0.06368186228732806,
        -0.011553164686603085,
        0.031103046332370182,
        -0.19667829894724426,
        0.1517518581358691,
        0.0870814162546742,
        -0.09541073337282313,
        -0.014589693097605189,
        0.14516780899970033,
        0.03446092277151319,
        -0.13958446891587678,
        -0.11504338607496832,
        -0.05903228449841738,
        -0.15845471485499085,
        -0.05376715505659166,
        -0.01972410943067468,
        -0.14373336516307963,
        0.16571557792196362,
        0.12262972220328988,
        -0.13930531351012665,
        -0.05769568186125684,
        -0.06702671405907679,
        -0.06658508133601057,
        0.08171792089500773,
        0.15192148764615393,
        -0.03548584602776059,
        0.0822300864852572,
        -0.08589528795467621,
        -0.05625144197262752,
        0.1681761472790364,
        0.06683069719821993,
        0.12379249868535047,
        0.1493450105953641,
        -0.07393846255240355,
        0.15505710178531446,
        0.08866206753366523,
        0.1986729493806813,
        -0.14131931795161906,
        -0.16698010306774444,
        0.09602826555380456,
        -0.16890739877642208,
        -0.16113219329128495,
        0.07086261964354901,
        0.14784203612818841,
        -0.11796090967808391,
        0.0064149666641666325,
        -0.06280242454046334,
        -0.0008063173987829797,
        0.006686204776439053,
        -0.06908962655165349,
        -0.08143634731650168,
        -0.17721766994968657,
        -0.05294018456199631,
        -0.12476207652425471,
        -0.18077362706222444,
        -0.14257181391916043,
        0.18733244653260256,
        -0.06362782779215365,
        0.03308777439310098,
        -0.15594263259372446,
        -0.05210942391547807,
        -0.16268341288346436,
        0.10924849405197284,
        0.12536649942824463,
        0.11431998205566307,
        0.11995526892568598,
        -0.049695069340358666,
        0.020543312295074945,
        0.17712621158936215,
        0.060860121254340704,
        0.12147370038050825,
        0.1765064483231526,
        0.11242550518678385,
        0.0690943731324789,
        0.129017970157432,
        -0.03609942438467212,
        -0.04540722966682592,
        0.1181208128948894,
        -0.03693544231527762,
        -0.1395025026321689,
        0.1479161183383041,
        0.05502942713070563,
        -0.055327401802575615,
        0.09676877292998137,
        -0.18795463266272622,
        -0.1899183649692606,
        0.039221266536155264,
        -0.08898012894673202,
        -0.12694175713290018,
        -0.06946562808632689,
        0.12949919334356963,
        0.1917592221924967,
        0.16630925824720538,
        -0.14780869936085217,
        -0.12990945844806429,
        -0.058107888007465386,
        -0.16584954477189548,
        -0.15122258343239015,
        0.05294333605838597,
        -0.16913648108929946,
        0.15753185104294437,
        -0.09094987616118361,
        -0.14856349741169092,
        -0.19987576299683654,
        0.04104521376591608,
        -0.15355438152626075,
        -0.1727216911212439,
        0.040319939368092694,
        0.037158055561450964,
        -0.08593810893773757,
        -0.19075849854896432,
        -0.18848102566909827,
        -0.05202731526556656,
        -0.0043376182760117565,
        0.11557402049315585,
        -0.15432680989867095,
        0.03658255587124276,
        0.1621787141214247,
        -0.1842142307030403,
        0.12458291670989136,
        0.13028349498608932,
        -0.17711094126243512,
        -0.1796026186223414,
        -0.14085263810886006,
        0.15599719165605014,
        0.10511321001210788,
        0.034072430343925875,
        0.19651559522361267,
        0.13396431277937831,
        0.1658310581132607,
        0.14454721799834647,
        -0.07598645234144184,
        -0.17174760128375427,
        -0.021800602012124914,
        -0.1655345435872851,
        -0.007339978189078833,
        0.041308163588101854,
        -0.16748161002713338,
        0.051229108681365265,
        0.09972138293244492,
        0.18649765879425928,
        0.14096572842258798,
        0.09295419522565879,
        0.02684605296598236,
        -0.05459373707410076,
        -0.10266390290767076,
        0.029512495331690036,
        0.17045762429655353,
        -0.13011995614458838,
        0.01891384267042992,
        -0.01598228196110346,
        0.05103109574227449,
        0.17572588347915724,
        0.13154130957328003,
        0.00941947657817449,
        -0.17109608562791065,
        0.0026591519760942872,
        -0.008661412348858422,
        -0.19156075053517707,
        -0.07337500851839104,
        -0.1900115392298305,
        0.12108351685519031,
        -0.10670103746782962,
        -0.1776593911400482,
        -0.15499857635646302,
        0.18255874661298893,
        -0.138566882672876,
        -0.009246530072350378,
        0.1646883537374048,
        -0.012864143632422775,
        -0.025887162565895794,
        0.12429058899698131,
        -0.026178022180212646,
        0.04368862814035959,
        0.06118856604479195,
        0.09494400651461421,
        -0.10599511552333835,
        -0.013589022990856486,
        -0.13300505594624457,
        0.12496499453882542,
        0.15937179907648658,
        0.1211860363454152,
        -0.12813368695606067,
        0.12123030372160265,
        -0.02131079141273226,
        -0.1523064525942613,
        0.13261748846736354,
        -0.07969359084367547,
        -0.13866663718686068,
        -0.1338876981052594,
        -0.009445666347794812,
        0.16609919764135833,
        0.07459810617172186,
        -0.16732937244274232,
        -0.10612245668868248,
        0.16352446666662213,
        0.0970757167864888,
        0.1100245892913197,
        0.12030924459021924,
        0.029028171044427648,
        0.1583958654741553,
        0.0019183449807450292,
        0.12461300976331335,
        0.0655216397003896,
        0.10106857500373595,
        -0.008238690701641849,
        0.12628122254456436,
        -0.030357827966706802,
        -0.010313676598187438,
        0.04244539478496004,
        0.16444319042814814,
        0.0016256484384051806,
        -0.1777648571771099,
        0.06820779079050149,
        0.026918983973818256,
        -0.1337203832328358,
        0.08615853228335002,
        -0.17369960322339187,
        -0.1037188511815558,
        0.010078067206539976,
        0.0038974413776031724,
        -0.15671787621498373,
        0.16873828089876025,
        -0.05893131922289149,
        0.12794869720156704,
        0.013790015530296656,
        -0.036918019941863195,
        -0.05167691737639926,
        0.03461065706633945,
        -0.18011265942855148,
        -0.16336919892350893,
        0.1050017752531599,
        0.07440615667152245,
        -0.032168504671382436,
        -0.016556322009182722,
        -0.15346049785228413,
        -0.07655852175631078,
        0.11526194666344919,
        -0.11535329517125481,
        0.12567524501714733,
        0.015199492196003528,
        0.16545301668101686,
        0.19187097808882053,
        0.04597351148303375,
        -0.045063603563668536,
        -0.01650641948179224,
        0.15586779704646564,
        0.010296357820767627,
        0.10001746513805787,
        0.13254585605154307,
        -0.14014329665220202,
        -0.0052586676512524355,
        -0.15546940282923633,
        -0.09065649821624229,
        -0.07870542585923533,
        -0.13879582770181115,
        -0.04635062440179802,
        0.19662456164035497,
        0.07410572034467161,
        0.01262284891488305,
        0.0660630824691083,
        0.19441829394780924,
        0.13683501237470558,
        0.014448722166997913,
        -0.06956966514163931,
        -0.08487420435326701,
        -0.14689709201654463,
        -0.05953997094094307,
        -0.04161051911312291,
        -0.11910786166352856,
        -0.06284692472074394,
        -0.15110888198538147,
        -0.0578888997007522,
        -0.17171178438169574,
        -0.05950498417177616,
        -0.1381246251460048,
        -0.04116346370545637,
        -0.13529783377399354,
        -0.03053380398891195,
        0.017894755398737583,
        -0.08789690446050331,
        -0.16748388742633713,
        0.18236396992149956,
        -0.1831146863391714,
        0.02418241809126842,
        -0.1093385446125375,
        0.15262348472149795,
        -0.09919982856627865,
        0.07775785784737155,
        -0.1818262676705695,
        0.0075037537669777055,
        -0.031042877980328842,
        0.008028411682927977,
        -0.07873790434605787,
        0.003571164740843541,
        -0.03566581082011627,
        -0.09141177724940386,
        0.1931590376645792,
        0.07367915513517925,
        -0.12247881813221705,
        -0.1904096873721627,
        0.059477972562979486,
        0.1263474632671388,
        0.11144344875769302,
        -0.15005232473339386,
        -0.16541578437221177,
        0.1102103352428297,
        0.17606718987015496,
        -0.18496287083757387,
        0.054878797679122904,
        -0.0018434780650119775,
        -0.09103310151065372,
        -0.030293717886973714,
        -0.06627982975003274,
        -0.05918144057604832,
        0.07524840599772109,
        0.10508029316603973,
        0.035960139819618014,
        0.1639014197718966,
        0.03867986308216312,
        0.154644355302975,
        -0.046369996042951916,
        0.05635880063335419,
        0.02643891061520201,
        -0.050755182979816266,
        -0.03159950054851443,
        -0.08236623121857099,
        0.03052372560307698,
        0.002176330732902715,
        -0.07967085252004198,
        -0.06749394520491278,
        -0.1961170048353172,
        0.19794978443441053,
        -0.059482457111779796,
        -0.1491909469515762,
        -0.04291468841830684,
        0.10719221221219905,
        -0.1122078856681244,
        -0.0648369634851724,
        0.18736563368631448,
        -0.19086138305933315,
        -0.17442036865267851,
        0.002544703084560729,
        -0.08464342486681696,
        0.16475122171056394,
        -0.05906833087956695,
        0.06981287646186168,
        -0.19511088276363384,
        -0.09969486551690615,
        -0.12651922012295314,
        -0.04093957920976199,
        -0.07712213992929887,
        -0.1554835972039301,
        -0.12491003799145513,
        0.11542050122266057,
        -0.051067916275917696,
        -0.0693324569439053,
        0.10071104813764459,
        -0.01471722545273918,
        0.15067270738000776,
        -0.1817338697275528,
        -0.16035584204793946,
        0.017225455006734697,
        0.06138921023965971,
        -0.016483233348618537,
        0.12469626291427605,
        0.1541447965186577,
        0.09161786636555502,
        -0.09541190015085706,
        -0.10814698059931996,
        0.16836740557689744,
        -0.08476716517973482,
        -0.01612288799295833,
        0.1455084027743948,
        -0.09347599611828766,
        0.1729353528184706,
        -0.0007778847878340545,
        -0.19337749737307552,
        -0.071527975512616,
        -0.14189843388830276,
        -0.12331305686409078,
        0.029933592739144144,
        0.0277158757104031,
        -0.03626279861985751,
        0.17960055113273782,
        0.12382563897394683,
        0.03065441700986976,
        -0.17526729078409142,
        -0.0931869735321564,
        -0.025150080221237797,
        0.09389612130779873,
        0.18414151634429438,
        0.15397375664658697,
        0.016046048770259475,
        0.0813045622801184,
        -0.06150734223856316,
        0.1364805163273055,
        -0.029817088019434113,
        -0.15655774531284875,
        -0.1784900550337626,
        0.13308323599859023,
        -0.020019442101967794,
        0.19071480135034252,
        -0.08856713847780823,
        0.1026240312582184,
        -0.009567696879342613,
        -0.1021167373118431,
        -0.06211597162969193,
        0.05787236094479786,
        0.16046058382121997,
        0.10787106040833572,
        0.09355986316936782,
        -0.09609071749264163,
        -0.18130824704146287,
        -0.008023975417116302,
        -0.0012905622563584573,
        -0.14518811645946467,
        0.06907461506602253,
        -0.03538483003884069,
        -0.17465976278859002,
        0.058293042995908484,
        -0.10686391103037836,
        0.04889630356282701,
        0.1218448812896627,
        -0.14514275793472262,
        -0.11416633646706545,
        0.06441271704278012,
        -0.044676462793561994,
        0.17505798906873687,
        0.14362432725990193,
        0.03229080448008975,
        0.12574095880510805,
        0.16484130023439175,
        -0.15495067773787838,
        0.17579004440679835,
        -0.10919537927060632,
        -0.10909014901927822,
        -0.046478229446500624,
        0.09106060245694375,
        0.06908525099370438,
        0.08122705345786796,
        0.09233552869169476,
        0.17022958149888334,
        -0.16877427766079334,
        -0.012304352033154053,
        0.17195879806399245,
        0.11048612045540329,
        -0.023887144731580212,
        -0.05269993958480379,
        0.17709710777249416,
        0.029382704038896923,
        0.14817870684304996,
        0.016180847480397137,
        -0.006516857162640166,
        0.0775660374070753,
        -0.10207800063196114,
        -0.06498672682658682,
        -0.02153642327381422,
        -0.14977230836338196,
        -0.006969722824388708,
        -0.08773873092902909,
        0.15844062331797587,
        -0.18167579225084696,
        0.12488341703064604,
        -0.13345983556677732,
        -0.1848308506075665,
        0.027369891548371494,
        -0.03516091596889606,
        -0.14379381692229487,
        -0.08482402625187042,
        -0.1369876340456193,
        0.13718298026795267,
        -0.005965636545444075,
        -0.07739340117960576,
        -0.0728586134783813,
        -0.1477614163636766,
        0.14869307651133362,
        -0.12262611701019793,
        0.1574501684503447,
        -0.19620757555152207,
        0.008664110463297348,
        -0.16171343497226529,
        0.14939305653311225,
        -0.16250190170833104,
        -0.07647580281150193,
        0.009585245764193562,
        0.16159179240301452,
        -0.1909171009086494,
        -0.020662327389118745,
        0.11163671967111466,
        -0.09399064143575053,
        -0.01684038822939854,
        0.16982865940425212,
        0.13227650250495304,
        -0.05069347062103757,
        0.03709133455427088,
        -0.07274574796083871,
        -0.0393969899467741,
        -0.082781626274071,
        -0.07850019505338182,
        0.012126681646837889,
        0.17294508154661575,
        -0.1840545429909625,
        0.15865343503321777,
        -0.18867424345476203,
        -0.1691795631297972,
        -0.08249349695311065,
        -0.06393208244864365,
        -0.07377131502002696,
        -0.0523250517229521,
        -0.19230997223480573,
        -0.09916360971173362,
        0.04010322694023544,
        -0.14067936518585597,
        0.14780622078669742,
        0.13522847356431578,
        0.168032377518325,
        0.12547098800327783,
        0.05978600132688139,
        0.050565890864433916,
        0.03837922901236274,
        0.007384784005643796,
        0.06880861688122325,
        0.1429869372645836,
        -0.1951412125446749,
        -0.0007181727097967661,
        0.17287933766879388,
        0.0643813290982429,
        0.0271421759353892,
        0.03300538212130388,
        -0.17199631210238026,
        0.10993432648495055,
        0.03663701459821253,
        0.18967216260551956,
        -0.1736258005158423,
        -0.029729291329426782,
        0.02152227016430408,
        0.1568749682022232,
        0.16872988356260465,
        0.1821789881320497,
        -0.16760916623374908,
        0.023711251831729452,
        -0.008761750149540115,
        -0.031658517273192466,
        -0.18409531595744164,
        0.021578486493207732,
        0.05154489559261799,
        -0.04889149264825271,
        -0.014695195335921646,
        -0.12155650065129914,
        0.07116003127294673,
        -0.10327125988301496,
        -0.13286887574534412,
        0.11634105438857234,
        0.1399296594345159,
        0.014972434548617158,
        0.03526124318910645,
        0.06336272123077535,
        -0.06075886087664287,
        -0.041805915666468074,
        -0.0007952650349679902,
        0.0998431163436157,
        0.09792242437301468,
        0.19700075841293868,
        -0.044020794437243105,
        0.1813089996650581,
        -0.18265253946775195,
        -0.1210035241072569,
        -0.032926915962683045,
        0.00462740491940089,
        -0.11028888917819796,
        -0.16252252375586146,
        -0.061612221630398534,
        0.17305791723517355,
        -0.1354260882750813,
        -0.009764096978527037,
        0.19813524888715656,
        -0.15518723502598386,
        -0.073099620088593,
        0.16151722203961477,
        0.09111115081035476,
        -0.0419279349894488,
        0.10072399499507695,
        -0.1236572825506443,
        0.18305837113846202,
        -0.05280936685661794,
        0.00023857898942161726,
        -0.15246104582577302,
        -0.12058059495328521,
        0.019627686580701686,
        -0.13124126669585906,
        -0.04989065994414524,
        0.05236637378750336,
        -0.19187079208451197,
        -0.06800901691667391,
        0.16883774343352548,
        0.16950867608335213,
        0.14000457984395748,
        -0.06925287406901184,
        0.09267106137502001,
        0.12139245505576762,
        -0.18251565562528463,
        -0.057846834083818494,
        0.0395436672163334,
        0.15947226890913208,
        -0.032481000712622166,
        0.0804555543485922,
        0.11264398596398956,
        0.03968986683866843,
        -0.16513832561472377,
        -0.19907297516872174,
        -0.08065574247813762,
        0.11215379476128845,
        -0.19401091866318507,
        -0.06313844031576976,
        0.04430068068935067,
        -0.010242700429687224,
        0.13682599332152745,
        -0.07935529623831089,
        0.18702086351454916,
        -0.18049821389583587,
        -0.1317034880736096,
        -0.006849853537624739,
        0.12110727915935332,
        -0.14913390591285275,
        -0.09656462165285468,
        -0.07346899473221022,
        0.17591342616517774,
        0.13868388020126354,
        0.15169738172876407,
        -0.0631021838935904,
        0.09933450711397268,
        0.18971493266086864,
        0.08885830282376384,
        0.1556470041851089,
        0.15686340596904624,
        0.07840436698654718,
        0.05180531529607968,
        -0.1332025429779419,
        -0.15978693140864553,
        -0.04041130592374148,
        -0.06179694580791986,
        -0.16303204113076908,
        -0.17738572799128877,
        0.06302841950886073,
        0.08481842875528295,
        0.0420580987420201,
        0.16901054835237134,
        -0.020245302215425143,
        -0.16950965716934097,
        0.1621842213046043,
        0.15346751093535754,
        0.09789939676115389,
        0.19640533065590376,
        -0.01552762862790752,
        0.11611575845887406,
        0.19247250931056298,
        -0.11725154951010462,
        0.031633077781178104,
        0.1481474247643751,
        -0.09074579693673966,
        -0.1867998356039025,
        0.07827845932179722,
        -0.024126244457825408,
        -0.05671066372549999,
        -0.10404982548450392,
        -0.17420993633489346,
        0.17319716655169537,
        0.03723044225115424,
        -0.15430136041243536,
        0.13458841291625523,
        0.19750439479259357,
        0.12588151459217473,
        -0.17279124314889352,
        0.04062001000015206,
        -0.15628382067253185,
        -0.042031919655116295,
        -0.07367666503863313,
        -0.11628286003874262,
        0.1340480756027333,
        0.10397061204556979,
        -0.00784183722266682,
        0.13324830434337137,
        -0.15737448340926147,
        -0.05289205217308143,
        0.06039182488734929,
        -0.04810658780367105,
        -0.1309797163042059,
        0.008959240026076953,
        -0.06935167253481805,
        0.012348618394996569,
        0.05532261715374209,
        0.018159908815167436,
        0.10249232201260383,
        0.16163817748180997,
        0.18736305131886344,
        -0.1930332135441654,
        0.006447861819319167,
        -0.01580956473740286,
        -0.15489391933013608,
        -0.1346217643660138,
        0.1381805446404673,
        0.15118254964377842,
        0.10180992040591258,
        -0.03507081941396292,
        0.02725893095370635,
        0.13293769216223128,
        0.12882450496424558,
        -0.009783133918187886,
        0.07308607969745368,
        -0.07737532646582901,
        0.10565205947022399,
        -0.008114340972827316,
        0.12220593935461244,
        0.07386098117967899,
        -0.16181126241221255,
        0.13448161455615237,
        0.10847434249701665,
        -0.10102154085584779,
        0.1617892106341992,
        0.16496215934177139,
        -0.009608848853804947,
        -0.12448248760773005,
        -0.07654661307646982,
        0.1507834399605107,
        -0.022077181683147623,
        -0.06333869728496921,
        -0.013778131751006562,
        0.1870105708976465,
        -0.10061391097797562,
        0.15642214482907135,
        -0.04772997777144239,
        -0.010392054991481409,
        -0.0947708379441413,
        0.01109871677133642,
        0.09909339113393661,
        0.14041544977671067,
        -0.05665412806684697,
        0.0040718232261361675,
        0.033757884524959036,
        0.047214240873733715,
        0.1134940684085799,
        -0.12857753353826032,
        -0.054789015954855996,
        0.06589879836875034,
        -0.0800437821350411,
        -0.0986877529387214,
        0.18233611488973023,
        0.07997328712068691,
        0.11566163686674352,
        -0.06314845892438078,
        0.17476574612839973,
        -0.029260175321460524,
        -0.04917642604179706,
        -0.029831457239792192,
        -0.0471564192651332,
        0.01931397266968568,
        -0.007534415381500986,
        -0.05773404357665668,
        0.08400319916731075,
        0.059989126176658414,
        0.12899640958684983,
        0.007833562660862686,
        0.04365543410726311,
        0.012393097284887578,
        -0.0062503603117252116,
        0.08668319228898197,
        0.10361098567448024,
        -0.15951085031188206,
        0.06134245680276851,
        -0.06813071343617488,
        0.09055919675895213,
        -0.03952238317179643,
        -0.17902965691084277,
        -0.12366422909995732,
        0.0721502384395627,
        -0.08011226787860073,
        0.1160984090916567,
        -0.1981476489892872,
        0.08679542805872109,
        -0.19936963108625294,
        -0.19340087216102608,
        0.1307895995142359,
        -0.0594164696746613,
        0.12039318395010024,
        -0.0644334274725667,
        -0.015605860028784002,
        -0.12304109223414837,
        0.020761968994574664,
        -0.15759714074047806,
        -0.13069054608067143,
        -0.15338460578639942,
        0.13420139172297668,
        0.008785632965326778,
        0.1100532050958195,
        0.19930937414752087,
        0.15939811875505572,
        -0.07658024158860735,
        -0.15496213078026308,
        -0.17582103302036495,
        -0.03802478196918968,
        0.016392761479954915,
        0.12294222781594288,
        -0.060091393515029984,
        -0.09115901326559338,
        0.09456269473069917,
        -0.006181613157692167,
        -0.11011099822577011,
        0.03935396631242094,
        0.10322962496547133,
        0.05556032956769347,
        -0.03009703707388578,
        -0.02890901670641463,
        0.06755847282166777,
        0.14917142711957604,
        -0.14983584993896215,
        -0.15997387443979116,
        0.03856660963313105,
        0.039023170070729085,
        -0.07389453771432408,
        0.08523956247135095,
        0.09393582495031227,
        -0.19425279320892885,
        0.1203238753057922,
        -0.04148540609224155,
        -0.06668124621358729,
        0.03174115846324441,
        -0.151802010184603,
        -0.09302174281391294,
        -0.03072306775459216,
        -0.05153043059981785,
        0.04769480824999897,
        -0.1960359797446313,
        -0.07367601530138998,
        -0.11516116218325317,
        0.09925920557760992,
        -0.021542442422305574,
        0.10123310160589288,
        -0.14955821641058928,
        -0.19880565518653143,
        -0.024529538762297187,
        0.15202176825189379,
        -0.06086308634198315,
        -0.08834680998879124,
        0.15919257983045398,
        0.15229398481583284,
        -0.081741115837298,
        0.1650149252626576,
        -0.026763876560519595,
        -0.19993893449987832,
        -0.19531176160652627,
        -0.17148123922872333,
        -0.1859305750934106,
        0.02820576955635462,
        0.07589634834181014,
        -0.14588118068090303,
        -0.011731435951275071,
        0.02240605303240084,
        -0.010730242540902019,
        -0.12165951458165139,
        0.17408810252026047,
        0.09435368412745149,
        -0.1443787180598445,
        0.0852631027084923,
        0.01411210749326916,
        0.0974587642766439,
        -0.1292120322168801,
        0.09310770967171372,
        0.05459950728786972,
        -0.01987110356595259,
        0.11633723176853383,
        0.04952749675539683,
        0.041159526581735495,
        0.18014533939682287,
        -0.05761722000553787,
        0.18237282685039935,
        0.1460931633733606,
        0.16096551308570278,
        -0.08051496059029528,
        0.010220116595448886,
        0.13306589129448898,
        0.1633241779123003,
        -0.13242932811909794,
        -0.08233510493508836,
        0.1301331727534979,
        0.08162920505599175,
        0.19974227256240623,
        0.006857483189461444,
        -0.02534254871331104,
        0.18366775647839612,
        -0.08998823401962129,
        -0.13261634005047243,
        -0.0006206173103534829,
        0.17363552273586202,
        -0.019866253892982494,
        0.07350666225002367,
        -0.010362728405974853,
        0.07679436489401797,
        0.17683232816725836,
        0.19205048847665324,
        0.0021832758496558857,
        0.020237027929214835,
        0.0618505976386145,
        -0.1194078759918233,
        -0.02377379685265843,
        0.0634189595688357,
        0.09044828404386446,
        0.14407473756811984,
        0.1357382139756393,
        0.12865196502127946,
        -0.16607107661599008,
        0.15624488435731154,
        -0.12411121965943789,
        0.12437064617830668,
        -0.03887145497915573,
        -0.17594158841466867,
        0.09961032279900628,
        -0.04288370117735743,
        -0.1391476033918585,
        0.16067520063432655,
        0.030462008851926653,
        -0.03363609265262707,
        0.12639929818315537,
        0.13219091427446011,
        -0.16790376324775133,
        -0.16206636162008392,
        0.04473942232105327,
        0.19906641405302394,
        0.07402054351602505,
        -0.14596084772447704,
        0.04545056800484709,
        0.16299354957196155,
        0.08396710012225983,
        -0.042690957039412725,
        -0.17275221730728482,
        -0.13037176499395547,
        0.11090912011826909,
        -0.005775784991265687,
        0.12904236303670985,
        0.1424030662453613,
        0.04838702977864448,
        -0.07328861437526543,
        0.113182738108277,
        0.0468777106418822,
        0.050795899714536685,
        -0.07913200232807452,
        0.15418263066648763,
        -0.1972535502075862,
        0.009190501988398742,
        0.044776218623008596,
        -0.04145869219831119,
        0.16447736239395255,
        -0.06789094892502057,
        -0.11445866485411789,
        -0.17294341580849146,
        -0.1751140992031188,
        0.17650572865653957,
        -0.11540911323746746,
        -0.18315773582542214,
        0.04653811887671325,
        0.10362461953692881,
        0.018117642220324193,
        -0.08179819762893877,
        0.044221020741444045,
        0.11840781380724585,
        -0.18703631791999464,
        -0.0019945315963130206,
        -0.14143472877303764,
        -0.1544702132584467,
        -0.17310901649977867,
        0.17277299387946865,
        0.06922860756637783,
        -0.03238933062453375,
        -0.1686512454775204,
        0.03769089458657632,
        0.17295289283233395,
        0.11277143861287064,
        0.09279268855382539,
        0.062038560769889284,
        -0.1057291818508356,
        0.08165141803110687,
        0.15932924105593055,
        -0.003262412545990634,
        -0.002309815606014759,
        0.007748342559044552,
        0.03283122952062195,
        0.10082310387761007,
        0.012450862239924337,
        0.09824290029137861,
        -0.11073938044937277,
        -0.15135832137314226,
        -0.0064301167734153175,
        -0.006978697764417063,
        -0.0993488642419739,
        -0.1272388989757991,
        0.06927917267147599,
        -0.08555050323300702,
        0.17147759470373397,
        0.12005788411683471,
        0.13124038376360142,
        0.07502923853165289,
        -0.12872548141798582,
        -0.13241548563134525,
        -0.09848767675372333,
        -0.19302162860873306,
        -0.17938841191329186,
        0.157888071441105,
        0.0256710764432993,
        -0.14105970880360263,
        -0.14074335121957518,
        -0.05250699603511669,
        0.12056533492767058,
        -0.021924503927019667,
        0.08472213418602265,
        -0.1837525987206013,
        0.15868293822010898,
        -0.04830401711988089,
        -0.011926754816372037,
        0.1381309593518072,
        -0.08094026734320314,
        0.15792066505560248,
        -0.018690375758043526,
        -0.015477035772697795,
        0.11902151412848155,
        -0.13531240667291378,
        0.14450729392672185,
        -0.1828994124641532,
        0.09882142518318332,
        -0.17901276895721266,
        -0.06929577142838372,
        -0.10925444169437651,
        0.011612449474920877,
        -0.11018420529796087,
        0.05220137149723414,
        -0.03035539429205497,
        0.08478553565545022,
        -0.08793500327453692,
        -0.11853038209231884,
        0.06669377287167161,
        -0.11587934776033362,
        -0.097563662135006,
        0.007853426718562734,
        0.12927478783829588,
        -0.1663769977896582,
        -0.04542939379497862,
        0.08026612129176325,
        0.03262552238442945,
        -0.0023092595377168512,
        -0.0636392367191379,
        0.12708440541744703,
        0.03345623355426025,
        0.19801605037040532,
        -0.07549201591219888,
        -0.15798878468983837,
        -0.19630678107262597,
        -0.16831740478963822,
        0.0042328421238369,
        -0.07926717367789915,
        -0.112595187031005,
        0.17242919928479478,
        -0.024143419491807677,
        0.19706410671569502,
        0.02793373364185156,
        0.03507324747437898,
        -0.116490653530406,
        -0.1262664080101008,
        -0.007595597493185696,
        -0.036378541464776204,
        0.05035162420812911,
        0.10667377753833612,
        0.1972508100112369,
        -0.08912380541995867,
        -0.14098561311153063,
        -0.07662622289665522,
        0.13647270153924962,
        0.12123177098245158,
        -0.014498361278813487,
        0.0675749187263045,
        0.023049165579654918,
        0.07088696609453299,
        0.02189773413006421,
        -0.1563898552723146,
        0.018044613924876524,
        -0.0010541263079259233,
        -0.13946444513507852,
        0.12672691445493206,
        0.19221367861181332,
        -0.09767526617996043,
        -0.004303819897462174,
        0.1558416607073625,
        0.1834912629431617,
        0.013885063633368222,
        -0.039271227437498446,
        0.015742941955351808,
        -0.001856219441966095,
        0.002353781834125712,
        -0.028992663134223357,
        0.09026382860173521,
        -0.06939235065911728,
        -0.18999173667646516,
        -0.02954663892202386,
        0.13383921581857394,
        0.1265849620718663,
        -0.14145764499743974,
        0.1435971724058921,
        0.1603168846598928,
        -0.18773819523569754,
        -0.10250550902418332,
        0.09782849018484624,
        0.16489446142864372,
        -0.10595682404510415,
        0.02236564552511444,
        0.17199333662485067,
        -0.14296890312960683,
        0.11360022046661761,
        -0.0745811359522229,
        -0.13546622738518388,
        -0.1017241162183983,
        0.0319051107021559,
        0.1841191973216209,
        0.19906216967877383,
        -0.16259152150748762,
        -0.09723065317825177,
        -0.0008162656044921057,
        -0.12251009849623706,
        0.13889666420962643,
        -0.153049648937626,
        0.13129534811423615,
        0.1596591219696008,
        -0.027012011985013407,
        0.08563008780182635,
        -0.004847228569314466,
        -0.17780138796943784,
        0.03201095137158644,
        -0.016784992348534866,
        0.053215135509619205,
        0.13655113010441522,
        0.03220657299841906,
        0.027317368531001585,
        0.043998184273025875,
        -0.13062886116827144,
        -0.08590442631107105,
        0.14669804142793458,
        -0.027581171191696674,
        0.17940582484497408,
        0.13956102977906942,
        -0.011173684193868938,
        0.1557629231631944,
        0.08183841987103513,
        -0.022035045045165014,
        0.001529724860131948,
        0.13628285934188328,
        -0.16993612057662585,
        0.19120668328735552,
        -0.008652182363131727,
        -0.07704789934238354,
        0.1524286448796111,
        -0.19288119666137377,
        0.012240425919541581,
        -0.1968173359760669,
        -0.0808003453141089,
        0.1629024661267573,
        0.1883074384103644,
        -0.024329779845058852,
        0.03234622617129723,
        -0.15306477474634092,
        -0.17928167920543917,
        -0.011551286528566879,
        0.18483405421362376,
        0.1499873383179205,
        -0.05569339949799912,
        -0.19436619904345195,
        0.12965408371936754,
        0.15971573351957358,
        -0.17370801136228514,
        -0.0771327665513249,
        -0.10065983492169135,
        0.11437685796623992,
        -0.06759096355287306,
        -0.09194572329820434,
        0.13405364996508107,
        -0.17174922485169924,
        -0.18709560471682868,
        -0.1413013453898635,
        0.08087518903568697,
        0.13711939843753096,
        0.1287434627444503,
        0.17943784660292145,
        0.1557083447542839,
        0.009077637061248062,
        -0.14211199326087443,
        -0.1146131370701605,
        0.1968724861208509,
        0.02735978775318898,
        -0.18992961801241628,
        0.15821242070713487,
        0.09226058582942342,
        0.09877211865445357,
        0.00898056563699226,
        0.11615941938183816,
        0.1966993078981092,
        -0.08085277605772388,
        0.1898370547589721,
        0.13208635836578242,
        -0.1241581324018347,
        0.1056414973106094,
        -0.054355714357181756,
        0.06477935930253498,
        0.19856309137942074,
        -0.08243436034855112,
        -0.09071637526558543,
        0.05504063720494512,
        -0.016948880944560096,
        0.11969378468828995,
        0.024964504479439487,
        -0.1099152465667363,
        -0.13040872699364625,
        0.13506971995606593,
        0.10756828855551887,
        0.08459470673129404,
        -0.030122567464978045,
        -0.04370204752082979,
        0.10489039268179284,
        -0.04799207743464157,
        -0.11476734344142558,
        -0.05405011405685242,
        0.16449717976799988,
        0.19073716293871884,
        0.020144828763310668,
        -0.07156434484815377,
        -0.03280538394306243,
        0.16602474995818967,
        0.03395628850081414,
        0.03467514074167283,
        0.11391610118625822,
        0.032376799004244644,
        -0.07819316778915636,
        0.1686226160479779,
        -0.008890037701708653,
        -0.19133730574636842,
        0.19374677745474417,
        0.049898292073689815,
        -0.17043958589863825,
        0.08166991065689733,
        -0.026180215064481566,
        0.11871545579229487,
        0.17710306215809674,
        -0.06954653197501376,
        0.1446141247192534,
        -0.08238647362697687,
        -0.1856224340008404,
        -0.05666930422503444,
        0.06222382394650283,
        -0.019611038485511323,
        0.15253895743341134,
        -0.013726862693037356,
        0.07657543196081207,
        0.08629684055867554,
        -0.18665124151660734,
        -0.16292551975957356,
        0.0982892842719647,
        -0.1280984800354067,
        0.06222019673924356,
        0.1645805339575926,
        0.15391736672043782,
        -0.037775397116188325,
        0.15970516118309747,
        0.07746673264036918,
        -0.19651881951711314,
        0.12091021601852153,
        0.17405594121366708,
        -0.07539753524310067,
        -0.08673326851498411,
        0.03789876710590795,
        -0.041439692330270894,
        0.04001455100919435,
        0.13045398844111394,
        0.036544393332789055,
        0.04821771705576189,
        0.08162963578488125,
        -0.15042324706350785,
        -0.04455984932920348,
        -0.14631790705882175,
        -0.14839193411021717,
        0.18886379025022648,
        -0.13710105378877482,
        0.018926061175784797,
        0.18266660863335998,
        0.02300934062852847,
        0.14663708491216004,
        -0.16926551584583927,
        -0.055520526435910045,
        -0.043618496654457106,
        -0.1742990759180416,
        -0.19590756744556748,
        -0.034161630589780945,
        0.04716567408363059,
        0.1488643672508722,
        0.029049719202925095,
        0.12016527684731915,
        0.010333356245283504,
        -0.016662904018898583,
        -0.019034005150731226,
        -0.024922886528059518,
        0.0724401642144451,
        0.19138261082391123,
        0.016558687961659546,
        0.10548986167018354,
        0.15133910144289564,
        -0.018241550395684175,
        0.07702727930113362,
        0.031371837043392026,
        0.1356152489325141,
        -0.037455057177889384,
        -0.03549059771456381,
        0.1656469238681077,
        -0.0014756039959955003,
        -0.01589767187457944,
        -0.04034294017550963,
        -0.027786057321436797,
        0.12952888150863034,
        0.012975659390742189,
        -0.021976086540516304,
        -0.15274971154932074,
        0.04033273808628443,
        0.0173593940635412,
        -0.07638333027326505,
        0.16427137751356302,
        0.18866145925325478,
        0.059890313245299476,
        -0.01741014749137121,
        -0.15907694953087123,
        0.17247847125459298,
        -0.11371091470630011,
        -0.17609399474150017,
        0.07599421409391344,
        -0.1516098678534588,
        -0.16181452233712723,
        0.06939330638912822,
        0.023961478298307165,
        0.19826637857034912,
        0.038464287394229746,
        0.11099901170865883,
        -0.12514299844570187,
        -0.12143329321283125,
        0.103171996980921,
        -0.18460279449653225,
        0.08961186960490802,
        -0.15128829403840982,
        0.013617745436223544,
        -0.14899519446604723,
        -0.03312368745051045,
        0.19424803486061448,
        0.12418154909283236,
        -0.09337552554249871,
        0.06914631948596683,
        0.09774085920083331,
        0.04815459574009889,
        0.18296413649828885,
        -0.16059215665239268,
        0.08718682602958261,
        -0.03499710973453474,
        -0.019740308162185916,
        0.1867254950699877,
        -0.105165047413806,
        -0.1720716324897619,
        0.10614872416858717,
        0.09960107835566895,
        0.017163565410378334,
        0.1701940770808294,
        0.14363302058834565,
        0.07375449926901456,
        0.05724037870442411,
        0.0779632136107411,
        -0.06266176252756522,
        0.09156772878274932,
        -0.08638038110202856,
        0.12977207083213943,
        0.14340199669129067,
        -0.07723697526885168,
        -0.13892504521771676,
        -0.12643133741314388,
        0.17911727983822706,
        0.11364819963981831,
        0.09707167137529699,
        0.11882035193295176,
        -0.031195360217381285,
        0.15112069852438853,
        -0.14813609450093357,
        0.06646581223689968,
        -0.057131700919564654,
        -0.05250181682386185,
        0.06636550769593275,
        0.07205253332732031,
        -0.16111744389263213,
        0.17998519025834575,
        -0.19504617891040255,
        -0.14387856678436137,
        -0.15609765784558483,
        -0.1422326385928425,
        0.13651746672107973,
        -0.18335429326541905,
        0.020198341715963603,
        -0.1550456686785402,
        -0.0758801047914408,
        0.1280147302190653,
        0.07312420093908412,
        0.1792411176836779,
        0.0003777025221092245,
        0.04256202152608726,
        -0.16281397539323705,
        0.012709428669305911,
        0.06270272328182142,
        0.15109915379629346,
        0.04304910850406901,
        -0.1419638065069093,
        0.024772605757494903,
        0.13067307593848676,
        -0.1676848069509112,
        0.1805666630696497,
        -0.14376575235905398,
        -0.13840150244961588,
        0.18396216720620373,
        0.11668469452530811,
        0.0479116539854339,
        0.16607734415142994,
        0.015852920562634987,
        0.09892746383787154,
        -0.013164239523077381,
        0.198695642257172,
        0.19019430140018123,
        0.09772435426190562,
        -0.09779595834474969,
        -0.16550776838784875,
        0.17153064151748249,
        0.18257584442930658,
        0.12615715201829497,
        -0.17552703797980948,
        0.1974371131267984,
        -0.18296372777450035,
        0.147503566871378,
        -0.11123414206860889,
        -0.0767867719017239,
        -0.044864577556857854,
        -0.0570835897866723,
        0.13868453792208513,
        0.1337643727951316,
        0.043934106208983525,
        -0.1456783315421667,
        -0.10900634794707256,
        -0.010208210970610143,
        -0.09213591008680538,
        -0.11191355928051126,
        -0.19403955466778333,
        0.0525290792318856,
        -0.06775246169625207,
        0.12907325204164638,
        -0.07237541074265055,
        0.09702028158789322,
        0.019937607820355918,
        -0.19252243747272013,
        -0.026443812944426798,
        0.1200374430551242,
        0.15794634900119486,
        -0.10650965168480675,
        0.11927173788504919,
        0.18002532053297737,
        0.01956453827821339,
        0.18023777782501121,
        0.14013827942820084,
        0.037327183193077845,
        -0.12558898077805347,
        -0.10077901918172848,
        -0.046649536952334814,
        -0.003286903445710282,
        -0.1851958392900402,
        -0.1347557880151952,
        0.020335018096957536,
        -0.023135276832987717,
        -0.16964695984098307,
        -0.18888536933902333,
        0.08612240624098544,
        0.013621464140351008,
        0.13956128096536957,
        -0.06932660516554559,
        -0.190580379837087,
        -0.17451750036944913,
        -0.18692871245566908,
        -0.1281875147051067,
        0.14321268434477802,
        0.14883856298659465,
        0.0946442086850443,
        -0.16630950731729996,
        -0.10601412183223786,
        0.1111844254503111,
        0.1075610878057493,
        0.10762335073519197,
        -0.11879900760935391,
        0.09565206444355268,
        0.11177128819421733,
        -0.11822832860464283,
        -0.114709377121119,
        -0.03283163459858862,
        -0.04513990641448312,
        -0.1768335334065061,
        0.07598481476198454,
        -0.1805473769309013,
        -0.009117159536074115,
        -0.15407708495926672,
        -0.08030406192279181,
        0.072849285391972,
        -0.09192448788080072,
        -0.05638325034332578,
        -0.026007272870366555,
        -0.14220820126313832,
        -0.18658582905000298,
        0.057677767741253216,
        -0.1874529874064398,
        0.039567599777673296,
        -0.10014160187810753,
        -0.04684790849942583,
        -0.04912604538163565,
        0.14366441897315024,
        -0.04111924083095597,
        0.1399771844323024,
        -0.18897899958103995,
        0.026531383526490426,
        -0.1642676720524095,
        -0.07673107014377144,
        -0.16265032095641857,
        -0.1750607398840811,
        -0.19816191897771268,
        0.14123452641124923,
        -0.10001474592825602,
        0.110441238482755,
        -0.15902758703969413,
        -0.12791594197633616,
        0.01092533553131797,
        0.07067120296940926,
        -0.11915307887277914,
        -0.04330925064632277,
        -0.15296418704527395,
        0.0840450525653128,
        -0.19112848374613606,
        -0.08254230671108248,
        0.16518947078853263,
        -0.08036726812303262,
        -0.029556697139125093,
        -0.014855023795145972,
        0.110886123667926,
        0.032837139644663005,
        -0.13044550909094432,
        0.10014353603654913,
        0.14525114371621828,
        0.17901231415412971,
        -0.0158822039352772,
        -0.13725473527752918,
        -0.15306324931057158,
        0.1947849979353204,
        0.197352976998044,
        -0.1262498102860048,
        -0.011433750268962456,
        0.03296439636033249,
        0.04954675843777459,
        -0.11768519812392482,
        -0.09267744212596916,
        0.1746265655569913,
        0.1652851139342969,
        0.14869491684976743,
        -0.07660282372192612,
        0.16808506378439458,
        0.011133137429771123,
        0.11600005628631765,
        0.15204804485221485,
        0.0603935965558236,
        -0.19282899908866882,
        0.14041018186227133,
        -0.14696603744637177,
        0.16527053313670542,
        0.015016373187338589,
        -0.08319424119353402,
        0.15912501609001117,
        -0.04889714909448811,
        0.11819980538933778,
        -0.13196075187697223,
        -0.16688483987042618,
        0.09203368185618754,
        0.06792239784159121,
        -0.17132066484282255,
        -0.054332468024914204,
        -0.07848866683135586,
        0.0747169180322666,
        0.08513776355905922,
        -0.037810420914448,
        -0.12188008770568204,
        0.11099933388139888,
        -0.019201520722286425,
        -0.07899465941259694,
        -0.11074434421785427,
        0.0770908274332106,
        -0.14893040713321837,
        0.08414066659251018,
        0.189483080943264,
        -0.06433627929250957,
        -0.04498352445722764,
        0.15747608876447716,
        -0.06944934277970513,
        0.07950316895433474,
        -0.11581253149913824,
        -0.05269389177876968,
        0.027910536205030645,
        0.1275996208217986,
        0.15401688655781415,
        0.06961059668812869,
        0.08873805060292417,
        0.009139739412915265,
        0.1684414557567534,
        -0.08526723494592964,
        0.06828106042100673,
        0.16724329861630022,
        -0.12225983850813385,
        0.18882555283530683,
        -0.08171386367155123,
        0.14269056577493183,
        -0.1717844632873137,
