{
  "layers": {
    "input": {
      "biases": [
        0.08342573164781208,
        0.14918109446358357,
        0.19855310694792344,
        -0.07628830519595123,
        0.013068075487414038,
        -0.13212365379496321,
        -0.11967661176097288,
        0.1389581417760316,
        0.13121994098536416,
        0.10860505970683215,
        0.15119289408860342,
        -0.17738370539309775,
        0.04434520837825154,
        -0.11325749892818418,
        -0.09734821656598656,
        -0.14816717830615656,
        -0.0923247934694142,
        -0.12016150786342861,
        -0.1872471585973346,
        0.011414761637704995,
        0.03544026859150348,
        -0.00477313405479407,
        -0.03565913626634831,
        0.047336869473045884,
        -0.07350650009928708,
        0.0878337522994242,
        -0.09145186762550549,
        0.039958309989018476,
        0.05187281857638498,
        0.0942535285879007,
        0.1192817389391786,
        0.14962160963952637
      ]
    },
    "layer1": {
      "biases": [
        -0.16197050141803243,
        0.11335419674315383,
        0.023333168090172357,
        -0.0927202471245673,
        0.18977687989254005,
        -0.19398027593726874,
        -0.18321442430567123,
        -0.13492538506820956,
        -0.060096501195557955,
        -0.11653629492139568,
        -0.06994414895964912,
        -0.073433492847373,
        0.11584815192757464,
        -0.08522481490248529,
        0.07922857007443063,
        0.17534659597786212,
        0.033832244845166504,
        0.11770808769764163,
        -0.04965594074725882,
        -0.11890841799864256,
        -0.13041900676949864,
        -0.1361656147138205,
        0.11573346753956504,
        -0.1811364931516958,
        0.06829429432442585,
        0.19691857178692812,
        -0.06807242735138483,
        0.0023075440438311,
        0.1007561587027529,
        -0.16578750485543484,
        0.16385705622480357,
        0.009016553753278422,
        0.07334791131220675,
        -0.08114834493934331,
        0.004685157631015763,
        0.09330769315904369,
        -0.0624899362274903,
        -0.07333685064831716,
        0.07629635832274995,
        -0.015962508984664225,
        0.10265832675017711,
        -0.013298696949913313,
        -0.12892712246284357,
        0.10990715831745657,
        0.1867329638940795,
        -0.14984289864209482,
        0.12035337548917502,
        -0.08269193081828537,
        -0.06585421417885903,
        0.15514838253455498,
        -0.06230362256217867,
        -0.07461223301006756,
        -0.04756203700134526,
        0.142875080787782,
        0.10353152526961734,
        0.03833169542740095,
        -0.1997374686058629,
        -0.025270817754701913,
        -0.15178126777310844,
        0.19059653570096796,
        -0.17055462950463737,
        -0.09394934204554227,
        -0.10678508013410877,
        0.06467157894950454,
        -0.12633052903972933,
        -0.16342961286990973,
        0.15281685178344068,
        -0.06453348600135125,
        0.11513136191370021,
        -0.0350998640028545,
        -0.07100365584707125,
        -0.19562710514210277,
        0.0779795258308954,
        -0.00421098464562103,
        0.013231059782604804,
        -0.1328953633023336,
        0.04008473718743369,
        0.19856068130343435,
        0.05508835073350726,
        -0.08069727143344521,
        0.03528790326109496,
        -0.035468171901225254,
        0.11883064291249512,
        0.12044065811398008,
        0.11466329040841416,
        -0.10009840123412257,
        0.197583584633806,
        0.008123004051497018,
        0.11548692788508991,
        -0.13398955241786661,
        -0.046400460815062994,
        0.09587783552142415,
        0.08899627534296861,
        -0.0903245070786404,
        -0.015191035154767274,
        0.12516066865566627,
        -0.07028752816493941,
        -0.17011604115353998,
        0.19249155137139357,
        0.13506242559167736,
        0.19646720156894915,
        -0.08143971201824361,
        0.19232820178564303,
        0.14388938936364937,
        0.09026340929796539,
        0.15424357200270505,
        -0.08098778055337946,
        -0.037060936952380524,
        0.18523863942434798,
        0.17898290846561699,
        0.07502515817040634,
        0.19562472548613746,
        -0.033655844432288695,
        0.08818058150548302,
        0.1616281143010082,
        -0.1697029022223251,
        -0.0898808296647852,
        -0.10971323147175785,
        0.19026627537535934,
        -0.02165709565656143,
        0.1923712030751335,
        0.12107587238982614,
        -0.060585192493646994,
        0.11800378237825071,
        -0.04721747839053178,
        -0.023972286706970658,
        -0.09402007553776248,
        0.18030016790035852,
        -0.15074971402006865,
        -0.1403697801436927,
        0.15935691927423817,
        0.07874646111427719,
        -0.19188634611796176,
        0.06161628210393333,
        -0.04847792076918864,
        0.13020474730503223,
        -0.1494383566923974,
        0.015141233891111716,
        -0.009182827133782656,
        -0.0021765137134205914,
        0.11929795474307192,
        0.1158052815100421,
        -0.06774422655893408,
        -0.05383623623069564,
        -0.19741622251077598,
        0.06514115442861174,
        0.06656117873906903,
        -0.041416798315383974,
        -0.1727451452344269,
        0.10315577752108068,
        0.029166251133106558,
        0.12451947334909258,
        -0.06790670295355691,
        0.15674996865849777,
        -0.04388315238317428,
        -0.18620641958210848,
        -0.1472831454491059,
        0.0832603127169318,
        0.11320632025253657,
        -0.1087804374746356
      ]
    },
    "layer2": {
      "biases": [
        -0.07805612349766888,
        0.008482728614161772,
        0.19754260127600665,
        0.022416081762175466,
        0.16170153862783482,
        0.02376666699199087,
        -0.14456076190816455,
        0.11352700015730666,
        0.08128358906223399,
        0.017742821395386438,
        0.17398768726578967,
        0.153146814233116,
        0.1849090185092659,
        0.19779288190298505,
        -0.12960459449367423,
        -0.1642579667147863,
        -0.08320485130068965,
        0.1579683840001811,
        -0.11181464268629045,
        -0.09407398080765939,
        0.18816258663380525,
        0.06894499685341471,
        -0.18086436191468958,
        0.1967498658057919,
        -0.09187591461849301,
        0.19730377880205446,
        0.060289920683611053,
        -0.06002947775679632,
        -0.09477724398431603,
        -0.11095632755098556,
        0.10970086881562219,
        -0.02739349193035387,
        0.13360680159436739,
        0.11050586579952915,
        0.1385036959070321,
        0.18964373222257963,
        0.004405455280286491,
        -0.19305236723200747,
        0.12801505590654932,
        -0.004332865000951008
      ]
    },
    "layer3": {
      "biases": [
        -0.1492469483691887,
        -0.17215377463652537,
        0.014841907175412589,
        -0.18621196445739874,
        0.050319179498835465,
        0.04603980544156375,
        -0.00991201464479552,
        0.15284230470315924,
        0.13762906926874147,
        -0.07709583934250719
      ]
    }
  },
  "layers_connections": {
    "input_layer1": {
      "weights": [
        -0.05524354411690699,
        0.00003480929245261444,
        0.08289327888511455,
        0.02685324106924064,
        0.1920336072192132,
        -0.12590060389031044,
        -0.14107238155943747,
        -0.19537163757503373,
        -0.004932962057909884,
        0.19750671488577004,
        0.08325646759832633,
        0.08006089021016849,
        -0.07164880755961897,
        0.11727525872906525,
        0.12171299646638983,
        0.1629664542901723,
        0.03386719485062942,
        0.1635430900713965,
        0.14435040560861806,
        -0.11027216522843847,
        0.17221746802398724,
        -0.05830335289446839,
        -0.15305143519524267,
        0.004899406733550438,
        -0.03919796901999412,
        -0.08811425708251384,
        0.18732950973794837,
        0.0682012088546376,
        0.19036184527578642,
        -0.1715651136888147,
        0.03754042504615884,
        0.1448270056048292,
        0.19531923575408155,
        0.025038739958736983,
        -0.0009309233377083059,
        -0.09262799863512355,
        0.12885011662048945,
        0.16369744182145335,
        0.16945596766322396,
        -0.002456080666684679,
        -0.06944662142875654,
        -0.02439449189660875,
        -0.03433355986760933,
        -0.062353412176563705,
        0.1984723416605521,
        -0.08102841594940818,
        -0.13657565163139243,
        0.051939258020687384,
        -0.1710896008423473,
        0.010238889411326058,
        0.05705022684908795,
        0.04724700692694089,
        -0.1519575619847899,
        0.08510163424835648,
        -0.023719015950618122,
        0.18826348604377868,
        0.14217717324397933,
        0.19379617811707867,
        0.1364734189889215,
        -0.028769850676670566,
        0.1800665097226754,
        0.05407098789106762,
        0.06396401084328074,
        -0.1870757466930952,
        -0.16417536064108124,
        -0.007778399165913552,
        0.10065353943487754,
        -0.050734973700056946,
        0.062353052639947004,
        -0.19915550774505128,
        -0.023299763052260142,
        -0.02636772175676172,
        -0.06732856100445286,
        0.1348530564073797,
        -0.02756800171586088,
        -0.19865660933164586,
        -0.12093756753523471,
        -0.0347594612531979,
        0.011644501072392094,
        0.03286507421442203,
        -0.025936689328014906,
        -0.18299312757773248,
        0.179592084515301,
        -0.03269203532238385,
        0.15967988814015888,
        0.05334329171040547,
        -0.0779381461552783,
        0.1972622955277279,
        -0.16849946528670126,
        -0.040362018883996736,
        -0.04770506669525165,
        -0.11732817328062928,
        -0.18288611906190974,
        0.18165729895580085,
        0.10161544556450858,
        0.12285913884271144,
        -0.034424975363360366,
        -0.008750432627730287,
        -0.01154381046226921,
        0.18521598365199748,
        -0.09988136614548178,
        0.1647041418370072,
        -0.09001703747451702,
        -0.17697867017995794,
        0.15710228250323577,
        0.026690262326439784,
        -0.1665385609406787,
        0.03744130635158949,
        0.05747426902316716,
        0.028435517250716025,
        0.180164092304065,
        0.042272068375285604,
        0.1891482575571401,
        0.0922013144084764,
        0.0007831646443236251,
        0.09950854982071616,
        -0.1448630148038666,
        -0.023562030215168006,
        -0.08433571145290669,
        0.19200681501006112,
        -0.09706513393279903,
        0.1816825542877371,
        0.140884973812699,
        -0.07854576760978071,
        -0.15993159971053716,
        -0.06759214688694964,
        -0.05135153615799326,
        -0.14319136101490704,
        0.03349151054749852,
        0.0533650370194349,
        0.0058337799844508376,
        -0.13381816312981076,
        0.19259181261290764,
        -0.11945763236591733,
        -0.014336168802039806,
        -0.04775898580925367,
        0.06240631736016716,
        0.117220263898422,
        -0.021716598143900256,
        -0.0904917793338135,
        -0.15982887432561477,
        -0.02156531198678749,
        0.058307616938340856,
        0.1676249691183862,
        -0.10455450607356279,
        -0.16563283046660518,
        0.18568637666737436,
        -0.17904203317200815,
        -0.18493113811982403,
        -0.1990321324400005,
        -0.006643917162656887,
        -0.15421316562055054,
        -0.17222181341550413,
        -0.1534472930019793,
        0.0023793015629422487,
        -0.09804852400251596,
        -0.14949979621368747,
        0.17802441251889956,
        0.006323002050390297,
        -0.04889100735036908,
        -0.15233960567870244,
        -0.11136764700699811,
        0.14667914483172456,
        -0.04922183063721727,
        0.06547540533428087,
        -0.004894242584538244,
        0.04652075953783186,
        -0.07075168333041301,
        -0.005290898469693273,
        -0.165947506060925,
        -0.14179427553249152,
        -0.04355422367251288,
        -0.11563610466319543,
        -0.10295043395429593,
        -0.0669676913994878,
        -0.14435796864346984,
        -0.11296188850085859,
        0.02941498429678996,
        0.04639228018429603,
        -0.02056118300958723,
        -0.07110765521726767,
        -0.11422524479587315,
        0.1033358331818095,
        0.0976232874344779,
        -0.1662373616363444,
        -0.12106117887775447,
        -0.18288708520984143,
        0.04512157327749983,
        0.08135990939701493,
        0.174442960977151,
        0.13914745018466662,
        0.012082395063608198,
        0.03820739164309389,
        0.09035703532379813,
        -0.08006915905307994,
        -0.05026567447001251,
        0.07325181735006875,
        0.0399779260440698,
        -0.13188557993959693,
        -0.13133268264314985,
        0.07643149960083928,
        0.11483626261277069,
        -0.05806797872398248,
        0.052196905759050505,
        0.07903498779340279,
        -0.026463603609179348,
        -0.023834966409216785,
        -0.008618402385661472,
        0.00012781751324539292,
        -0.089694329819319,
        0.021143907953905472,
        -0.18642634919040588,
        -0.11529159537894147,
        -0.1354872716271761,
        -0.017260101620030083,
        0.05468917160733533,
        -0.07462830507250692,
        0.09657502204715807,
        -0.07493098825945346,
        0.042496091677573844,
        0.036262299348977484,
        0.08956300253286786,
        -0.0029556223202016896,
        -0.1277641501458322,
        0.16325875445902172,
        -0.0852366342901274,
        0.14093127924961957,
        -0.008268034140103853,
        -0.028939567654824222,
        -0.11155713605166251,
        0.0022598249514586277,
        -0.057805793588814464,
        -0.08180850125220958,
        0.06647395140401885,
        -0.11349095524880753,
        0.10845918275239713,
        -0.15520976972720568,
        -0.11068591229531571,
        -0.13493336883023355,
        -0.06791597557904336,
        0.053992269683773464,
        -0.18380592736497042,
        -0.07446396929320229,
        -0.16507533050365364,
        -0.14140251150722533,
        0.07389838463084464,
        -0.013546554935688931,
        0.17793882805056832,
        -0.08156174312372806,
        0.1989139576644447,
        -0.05288410134522806,
        0.13351076920920218,
        -0.125486832382027,
        -0.16015650214902455,
        0.1673479781947091,
        -0.11930239999801234,
        -0.12035603548755797,
        0.03892765915342525,
        -0.1588906846940466,
        -0.03481526337299995,
        -0.14433001811335236,
        0.11301523860108248,
        0.11090649731200247,
        -0.08814211831815832,
        0.18372534314310246,
        0.17049639250664617,
        -0.130137528963786,
        0.1402104426749337,
        0.0781971537967967,
        -0.1697279244217175,
        -0.1908160575198199,
        -0.13505926952700845,
        -0.07360699514755048,
        -0.13804938764621166,
        -0.04247028231769448,
        0.14875345062311007,
        -0.06613651652324326,
        0.16756835301366352,
        0.09875023460212401,
        -0.17257903813399308,
        0.08542906954262586,
        0.12065309904712379,
        -0.13455438864692343,
        0.024816062905763603,
        -0.12775265637382294,
        0.11912413942589478,
        -0.04068487825333453,
        0.19154049197701306,
        -0.06499236799958102,
        -0.1490478127237457,
        0.13885679501364218,
        -0.16739772765682526,
        0.11281788895206046,
        -0.027367326771932987,
        0.13553857203670494,
        0.0849958580064562,
        -0.04559501262855345,
        -0.07324614154576037,
        0.026706520803519235,
        -0.06824048581816919,
        0.17481987666877924,
        0.05706057260972558,
        0.07620350511580443,
        0.14731410638462938,
        -0.07031938676141297,
        0.06414956762726792,
        -0.023950051023848395,
        0.16491472002881213,
        -0.0751602371490229,
        0.08800129891761793,
        0.17912026507365975,
        -0.00904319121512659,
        -0.19368873177756118,
        0.09030276704514578,
        0.13136116164851042,
        0.046565245334868555,
        0.19360600058173416,
        -0.11205961246905193,
        0.029460289011458307,
        -0.15237073369016177,
        -0.01987620041073329,
        0.1370060469062772,
        0.1274686102713708,
        -0.047251846704802786,
        0.16073296767834477,
        -0.1623194537322924,
        0.12852129117714467,
        -0.09152896649326553,
        -0.013331022936910186,
        -0.16573689973220773,
        -0.11175996273211691,
        0.1268700265716513,
        0.1539284384607592,
        -0.0014192974642403267,
        -0.1348937658652744,
        0.07229916488129601,
        -0.030820550390595308,
        0.1541240959012561,
        0.14105033410780682,
        0.024960827800016266,
        -0.18654347693543732,
        0.1465097809961069,
        0.08288184682962813,
        0.08334001853748185,
        0.06799979944884715,
        0.039855956717064794,
        0.03823900276487632,
        -0.17906616506892764,
        -0.08786234206505489,
        0.08263358571248358,
        -0.06837587998213951,
        -0.11392105867402874,
        0.17018578388274452,
        -0.11776761192878414,
        -0.12957262034203176,
        -0.1039638431652124,
        0.031152265513109706,
        -0.00012169862437824697,
        0.06911157407660828,
        -0.0644986782767468,
        -0.19714719816633128,
        -0.12060749413406824,
        -0.14293728572182354,
        -0.007887725790645284,
        0.016018467028202726,
        0.17341935456024415,
        -0.17570848072008946,
        0.001047915952448214,
        0.10816186636999009,
        0.09689382815105485,
        -0.02476468266127263,
        -0.09907203801175478,
        0.19544517023570923,
        0.13949995002099735,
        -0.01894112314024743,
        0.08243464693705654,
        -0.013398256609870873,
        0.17981138003457353,
        -0.10023222738244848,
        0.1419413012969794,
        -0.03616375971886496,
        0.08767468893849978,
        -0.1041775540082806,
        -0.05343066486614423,
        -0.1739136216485262,
        0.14004362473610854,
        0.1808120025246201,
        0.15327265844248533,
        0.1819852541342597,
        0.08768036644987087,
        -0.1728109565068833,
        -0.062274606079018247,
        -0.1529793597864178,
        0.08121483566790111,
        -0.1857725472569051,
        -0.013892378983911602,
        -0.15998846949088674,
        -0.16058842913169202,
        0.1694837646699252,
        0.032984164350243594,
        0.004833080279004198,
        -0.0033071793662085847,
        -0.16062034766664063,
        0.192846225054279,
        -0.14693520281229364,
        0.1529756484495428,
        -0.1310718485558876,
        -0.016199718806308494,
        0.10169355714933331,
        -0.05552124881059198,
        -0.1296197865992526,
        0.0684192458600722,
        -0.10665138077611568,
        0.12642568793232195,
        -0.172353469594682,
        0.07257527826403637,
        -0.07768754746220036,
        -0.03179578625758847,
        -0.026170655250865316,
        -0.019893808988574513,
        0.01825852482880927,
        -0.005490209180961658,
        -0.09876609121355613,
        0.11800567414461888,
        0.02487316595414124,
        0.14918701954527547,
        0.08325808141469226,
        -0.149834685637513,
        0.11262656760706546,
        -0.05164486753931574,
        0.02233430958360566,
        -0.15121026656456565,
        0.01956853881166265,
        -0.16962848454210944,
        -0.19457226141066705,
        0.12797168094914818,
        0.08705841756988825,
        -0.1281082446554026,
        -0.10817672866212313,
        -0.07930199316345231,
        0.11421878463454616,
        -0.033997561701229306,
        0.19907267240870696,
        -0.013835852901908335,
        -0.09729514541051763,
        0.02733323554735026,
        -0.16034482576137243,
        0.016836780550050806,
        0.13508110118518957,
        -0.19951728609353384,
        -0.15379156364842755,
        0.03688180468230989,
        0.07547197533622613,
        0.18027867708902878,
        -0.148684505268592,
        -0.08880875427271975,
        -0.05701399996072362,
        -0.13944895978377253,
        -0.16940170046298786,
        0.12738307438995744,
        -0.12000229924347826,
        0.12013818042788166,
        -0.03029233847035878,
        -0.19490314163735978,
        -0.03916325720998884,
        -0.06333331638515399,
        0.07878131765728952,
        0.02419321095478036,
        -0.12394978279458196,
        -0.0402332646811637,
        -0.07705176414485351,
        -0.012101453419089886,
        -0.0709441907853175,
        0.06487741217042953,
        -0.04618190202258479,
        -0.03272142989131091,
        -0.05995963664933851,
        -0.1214244842089713,
        0.13581531362551658,
        -0.04671806529748687,
        0.18385187793410407,
        -0.14541861095331501,
        -0.1885644157523764,
        0.12363991134576108,
        0.14715076664028176,
        -0.11681136048300528,
        0.09423071679385575,
        0.045238995969161394,
        -0.18827746383703317,
        0.12882128806347615,
        0.02865680103574761,
        0.19893390792797516,
        0.10310546442547869,
        0.045994499101724984,
        0.037217797619748166,
        0.06265457402047919,
        -0.17237137049898554,
        0.16203362180833397,
        -0.12373599613199225,
        0.19866196233037942,
        0.169447182502438,
        -0.1632544175615392,
        -0.18250148524340287,
        0.010164889041747893,
        -0.1152214809456321,
        -0.08187610067978689,
        0.14149944351913224,
        -0.10529045402605308,
        0.10742270536777204,
        -0.08111650666069439,
        0.02916917211947817,
        -0.12669432941240316,
        0.06886087354778814,
        0.18855912034611455,
        -0.0017418573568737938,
        -0.0997767482567769,
        0.19473217538261695,
        0.058697626068631936,
        0.04653574088862222,
        0.13870434310684338,
        -0.04333840821962184,
        -0.10824772565609338,
        -0.003113317381374825,
        -0.11229727069477172,
        -0.08007550627940363,
        -0.12494961184382265,
        -0.09307268529914033,
        -0.15210161899412458,
        0.1418427556596331,
        0.08848035022052408,
        0.021022343409939193,
        0.15617360463077545,
        -0.1564154935624695,
        0.14990523858325805,
        0.16632415485193497,
        0.09362923877473456,
        -0.13326366257476263,
        0.08291700201713403,
        -0.12169564820523858,
        0.15396264705229862,
        0.11647584617184115,
        0.15309615340602617,
        -0.12276726888039283,
        -0.03932165313044528,
        0.14774807914199362,
        -0.17810914071788933,
        0.09463225511032863,
        0.028503979397584228,
        0.0940328611110185,
        -0.10166907062943507,
        -0.09988627193777365,
        0.12966409325793632,
        -0.16105914051044704,
        0.14218193052051487,
        0.07923459651151393,
        0.16415579589873447,
        0.19080409098329154,
        -0.1341499953021969,
        -0.07187643464367036,
        0.04769887147923829,
        0.16846137454209398,
        0.1979255783429658,
        0.08873748501026657,
        0.1927887352833949,
        -0.1698539237446097,
        0.1886065058063328,
        0.16977780178862262,
        0.029338591898446176,
        0.13825769741727684,
        -0.09162269996610789,
        -0.07442276743678308,
        -0.1412387931893474,
        -0.07314819633057157,
        -0.13324874398205516,
        0.15652042708968017,
        -0.11941934011084206,
        0.12171283273048356,
        0.0647994961010746,
        0.013431889486065274,
        -0.06208418032501348,
        0.05533814091064926,
        0.025659554025082937,
        0.011433723670264573,
        0.06617930525561605,
        -0.025866232151142393,
        0.025404570672794835,
        0.0003095720948834979,
        -0.14378580092149404,
        0.19757921343600066,
        -0.0344134330042801,
        -0.021835497712405838,
        0.17579299490146888,
        0.10067003358992932,
        0.18644437460358781,
        0.09931569389493311,
        -0.1819758790621238,
        -0.11142859870556783,
        -0.003418113660313804,
        0.05072232395126297,
        0.17073462205437206,
        -0.10132653033027937,
        -0.07368260420910042,
        0.15970276257121047,
        0.06193144216015389,
        -0.13541754236768205,
        -0.0090957693378384,
        0.08322691491861134,
        0.08116673729793433,
        -0.06412072549243725,
        0.18750302656317352,
        -0.17796678704632962,
        0.09207779367516167,
        0.07256281239140472,
        0.19638027595656898,
        -0.008395531409597312,
        -0.1146227146097148,
        0.021747715528626393,
        0.02982679399995178,
        0.03609895651124534,
        0.14258597856489497,
        -0.19133135391939168,
        0.11740700755960937,
        0.06479962042552578,
        -0.14928031102221723,
        -0.16534046220335097,
        -0.049724806416414497,
        0.07499150489156242,
        -0.067400443278506,
        -0.19130801174744838,
        0.0037534192138626854,
        -0.1320327505674465,
        -0.17900001895831116,
        -0.0038900493015491533,
        -0.16129567229141442,
        -0.05919225265489675,
        -0.08940104665362042,
        -0.039037752595119324,
        -0.04881816067494152,
        -0.19457957475143972,
        -0.03300191494937299,
        -0.15510626869839614,
        -0.15659875163671466,
        -0.15363068858168352,
        0.177067241709977,
        0.007287050145801055,
        -0.030335846474699224,
        0.172483577105485,
        -0.15472454948675807,
        -0.12621522881190783,
        -0.01791792994253627,
        -0.0638712918423224,
        -0.08212623925480883,
        0.008454400269848866,
        0.00021771029974129719,
        -0.13349030452678715,
        0.19307306605471325,
        0.18544310463693298,
        0.075498802081859,
        -0.010487934345120659,
        0.020817551751370816,
        0.04697296648472449,
        0.11296851948230552,
        0.1528742340301083,
        0.08224491500370151,
        -0.006454572473070241,
        -0.009294540365560516,
        0.05940618967940775,
        0.08477550936129369,
        0.13492205408049296,
        -0.007803427352013337,
        0.06436672852769465,
        -0.03363704407294882,
        -0.08617080857286702,
        -0.1532295457349917,
        0.15980425376940754,
        -0.14897368329892766,
        -0.14207804501926147,
        -0.17375785585076411,
        0.17113963100742025,
        0.1546345643779855,
        0.08504670307987028,
        0.08316538245462635,
        -0.14924064528901593,
        -0.08209040065348679,
        -0.1742309063082999,
        0.0504771618191619,
        0.15357447954244935,
        0.060291517673824624,
        -0.16676640254014563,
        0.0068688804618247945,
        -0.03259481806696979,
        0.08124791910529955,
        0.10401964031856897,
        0.07985164723720617,
        -0.16385620952971994,
        0.031477613924228404,
        -0.16734443568963486,
        -0.0043241355060318065,
        0.11159196463648807,
        0.06093638443945598,
        0.1840018018858222,
        0.037658222505824124,
        -0.012242448787924187,
        0.07236267252826611,
        -0.07374842155825215,
        -0.06876627866583748,
        0.10191273226458153,
        -0.015220926187169276,
        0.1274268552802112,
        0.12133577046301836,
        0.1419370956362957,
        -0.19858356077087191,
        0.15323377653493336,
        0.05637822700842271,
        -0.11818931916359401,
        -0.11630378741055787,
        0.030845104576057325,
        0.19489165828355215,
        -0.1012017283046899,
        -0.15917052526278863,
        0.08110855003667039,
        -0.07629551807031852,
        -0.19877339681175027,
        -0.15858082097304785,
        0.052862951519518864,
        0.10880929197731609,
        0.18526533467353623,
        0.13625664419698857,
        0.12571164137846497,
        -0.008335894029386892,
        0.0735469650621417,
        0.10091790371692883,
        0.19998074044294295,
        -0.12419541620688093,
        -0.13202399842154655,
        0.09477076231869541,
        0.17096792729217086,
        -0.0850650986418319,
        -0.03133323458015905,
        -0.029322964773472904,
        0.046503491149068266,
        0.019209408333101058,
        -0.1285675849448405,
        -0.030374220661809975,
        0.030826436272701846,
        0.18792292712571856,
        -0.09041832910942911,
        -0.07500833965222947,
        0.08801031746265503,
        0.07577263764522979,
        0.0133652414841679,
        -0.04810131801211687,
        -0.08513395595131855,
        -0.13038540213350952,
        0.023310684505654183,
        -0.12886575702421244,
        -0.1911140755800778,
        -0.006553177142514632,
        0.014441611885281036,
        -0.15445513598963428,
        0.17525957279036647,
        -0.09030207160694351,
        -0.16676847731058514,
        -0.14856729599083127,
        -0.05684301450190832,
        -0.06362268799579876,
        0.12966636677458704,
        -0.07769422265862956,
        0.1260377272543433,
        -0.02004548610478904,
        0.18622057920457008,
        0.13306964474715466,
        0.1730457163399432,
        -0.02808277292229827,
        0.19649292117812966,
        0.0634091895370919,
        0.1504877386161122,
        0.18599020610530725,
        -0.1366548734496812,
        -0.14558294543218198,
        -0.07608157639554328,
        -0.09840707210878939,
        -0.0909759613783066,
        -0.08278675102084443,
        0.12997189575509355,
        -0.013560381619463074,
        0.04709944622561432,
        -0.15449646514713966,
        0.10457057077413334,
        -0.13058457156299175,
        -0.11619045842465923,
        0.06685564019815554,
        -0.03258094439220058,
        0.09409295394632888,
        0.034521437086916074,
        0.15266774415060985,
        -0.1279487496165937,
        0.05279748780223725,
        0.13532071080483893,
        0.13870855009136268,
        0.15484270762902147,
        -0.00017052945715984036,
        0.02802860015744338,
        0.16189879453548656,
        -0.016242079593157432,
        0.11671090357587022,
        0.13351318505344162,
        0.1665255842447141,
        0.11975473345445348,
        -0.08363401315594002,
        -0.017361297012209814,
        -0.030746181394992522,
        0.08931165287905835,
        0.19841010468967285,
        0.026480930518458623,
        0.11125909766496672,
        -0.19874040858193182,
        -0.03160854681261602,
        -0.08340005928074819,
        -0.09680553245763042,
        -0.007080409357165168,
        -0.18056641610894641,
        -0.1030775309125271,
        0.08373096156730048,
        0.17278798794727063,
        0.04438471052323076,
        0.04301589144628415,
        0.09620588738191438,
        0.1862323272520836,
        -0.13350654031339043,
        -0.09499585709489625,
        -0.13930220777212804,
        0.1967536305908179,
        0.12644112675071523,
        -0.054934905482194596,
        0.08807145922376258,
        0.16574292060184675,
        0.027452890807056207,
        0.15534358494321204,
        -0.036316496607547905,
        -0.056020438894414826,
        -0.19749896552718377,
        0.08031525399234352,
        -0.050800779031675763,
        -0.005933172386183683,
        -0.05939305322831964,
        -0.13700889012046485,
        -0.02399354582223792,
        -0.10154265578797905,
        0.1183127085794583,
        0.034050430459803716,
        0.18337934817198137,
        0.19966420024439174,
        -0.07375104388917908,
        0.012082684511709768,
        -0.11331867448246134,
        -0.06007741997936042,
        -0.19478182719848222,
        0.0988548709403102,
        -0.1463484362249146,
        -0.002010863683984565,
        -0.023242525807999875,
        -0.10856156845827676,
        -0.08064512413472472,
        0.15296203376920642,
        0.09028673129491155,
        -0.11673538793797747,
        -0.12074402048157742,
        -0.010957756017282827,
        0.01545951511024471,
        0.19651789146212068,
        -0.14341643652308897,
        -0.15767693592993917,
        0.036697830797884745,
        -0.12540767188490676,
        -0.03489572472426811,
        0.10783667525164953,
        0.06510236238546485,
        -0.1317746907824584,
        -0.08256555402730377,
        -0.015441399347009666,
        -0.16460437466690037,
        -0.17160489721806466,
        0.1629403028861786,
        0.1329814251750447,
        -0.004550637289948145,
        -0.11023348132131727,
        0.09471935524386665,
        -0.03955787289404142,
        0.05405905879895767,
        0.026220828842591276,
        -0.14454171396743254,
        -0.02086889702695713,
        0.1691061914344822,
        -0.025476511296922633,
        -0.11515413978460334,
        0.16551139327905173,
        0.1309281335331362,
        -0.030073795003998427,
        -0.1920171899811045,
        0.05128657052286045,
        -0.04801453655799537,
        0.13619056911485844,
        0.04834218817112973,
        -0.05245887754776643,
        0.04681821257480595,
        0.001500697691328462,
        0.027753145965080217,
        -0.006640462914486861,
        -0.19555339253808804,
        0.12777902819605708,
        -0.18386792427173068,
        0.05539164215814413,
        -0.16164531727333956,
        0.16717774482129838,
        -0.151247090822638,
        0.11703204554544522,
        0.13196275839009136,
        -0.10110768411418536,
        -0.02227446801573124,
        -0.007456002469972189,
        -0.17355465742297482,
        -0.17254422611862072,
        -0.15421559835703277,
        0.025108453898660427,
        0.11780933233589858,
        0.19111831255985345,
        -0.12590039058015984,
        -0.10004581167086851,
        -0.10963657218636294,
        0.09693562869556438,
        -0.049442053465075075,
        -0.10559852904962873,
        0.18245651112205585,
        0.12792732528454687,
        0.18599688164695138,
        -0.10839561034045153,
        0.0362111554985213,
        0.1260495386915227,
        0.1061669227016544,
        0.11220392968388843,
        0.006806228087715194,
        0.0946811966247445,
        0.10166711801242889,
        0.19988559376049658,
        0.11931993668321572,
        0.06172255429992901,
        -0.09289550893688232,
        -0.06534359146139296,
        0.1280651241092881,
        -0.017830468172224473,
        0.11577374436642146,
        -0.16768763328376665,
        0.10290889801261327,
        -0.08803889091232038,
        -0.19601984231987865,
        0.05990163472835308,
        -0.053470027670192016,
        -0.14901058393305655,
        0.038928963483564616,
        0.09053555603117597,
        0.15743365648090468,
        -0.09284580891441606,
        -0.16837158078587344,
        0.06127595393702395,
        -0.15125817031137223,
        0.13956148854073558,
        -0.13168777773525503,
        0.005922804210353322,
        0.09772559785619667,
        -0.040226862112709705,
        0.07735268938850165,
        -0.16071135661524885,
        -0.188882541305756,
        -0.027180409739298195,
        -0.10588348163867707,
        -0.15371014290655569,
        -0.06890539053309791,
        -0.1996339935612849,
        -0.01714590924902143,
        -0.1529493225899838,
        -0.1422415435154302,
        0.12238986098230675,
        -0.182747085292038,
        0.12530495006042902,
        -0.11345356974066619,
        -0.08629591985661876,
        -0.0843556450204006,
        -0.1692244061461739,
        0.06884783639066488,
        -0.034510986131984944,
        0.098496226021347,
        -0.14653285272615757,
        -0.16462015881594938,
        -0.030420520281250252,
        0.02091082338647357,
        -0.0029602473236901017,
        -0.06598586428066175,
        0.19761295997900646,
        -0.031751858123894555,
        -0.04843266287230383,
        -0.18836773022644013,
        0.1424111084313801,
        -0.18320490812150148,
        -0.045191818776182086,
        0.0882151703439803,
        0.03939606879513674,
        0.028839195222080727,
        0.1788843721995767,
        0.14151959863000962,
        0.19117850584766177,
        0.024768373215982964,
        -0.12881495029766837,
        -0.0931086876611257,
        0.19239323579875245,
        -0.07713683743509683,
        -0.07401268927377722,
        0.09132581578108495,
        0.06039386102604044,
        0.17335481592802804,
        -0.07795387136768897,
        -0.12290738255600067,
        0.07574087499516324,
        -0.14948393084034817,
        -0.1052893243075761,
        -0.04420302835506473,
        0.1814059649567677,
        0.050314671268367195,
        0.1803965114877824,
        0.1853753626307703,
        -0.10120683358707355,
        -0.027155000017127534,
        -0.1931999009235227,
        -0.06363458639564512,
        -0.1954441383779436,
        -0.1353095606664777,
        -0.12073904377570584,
        -0.1859211893663607,
        0.172568149627156,
        0.18067253630061547,
        0.07459585648895006,
        0.1928967345250398,
        0.041520219959459925,
        -0.13413617336781064,
        -0.06427726486418717,
        -0.10985129464034822,
        0.1542975663854102,
        0.13139253262145761,
        -0.1195969588587531,
        -0.11453301962266026,
        0.179572564598535,
        -0.08107715607909421,
        0.06044861595398332,
        -0.10253609085404469,
        0.14275421835573748,
        -0.13829333526793516,
        0.04373834866920584,
        0.0033394422178834593,
        -0.18861013819898684,
        -0.011366851290730284,
        0.10256311235676902,
        -0.07395074839340907,
        0.025742295929893355,
        -0.10726802537983088,
        0.0739977394579962,
        -0.12904663902156155,
        0.04417800259800794,
        0.12132606862616407,
        -0.030465377508122782,
        -0.19339378522815087,
        -0.1437665685048693,
        0.0012652552508312098,
        -0.07761461488260722,
        0.009837727058714163,
        -0.18562971238879103,
        -0.1773856723568522,
        -0.15050461556935404,
        -0.1453401464232354,
        0.15999341697639274,
        -0.15841488679893204,
        0.06485098597209726,
        0.1410191919413411,
        0.048264662463367136,
        -0.012030953395240657,
        -0.18853861663882043,
        0.1784190331308278,
        0.12275349154550957,
        -0.09560365606960924,
        0.1631517518130461,
        0.12376093512056913,
        0.07328731399862665,
        -0.023453586217058037,
        -0.09869892239421536,
        -0.054220145059800634,
        0.01803107015600572,
        -0.15783498252269879,
        -0.05145784933610087,
        -0.048738954810482404,
        0.07087277026639932,
        0.1663508513053631,
        0.11133731016567455,
        0.07058636597161683,
        -0.04982369581126317,
        -0.019589456659026894,
        0.17351753394957614,
        -0.05458357343842732,
        -0.004936015599648569,
        -0.02887475405969661,
        -0.14175251882298237,
        -0.13896163300499798,
        -0.11465833468462434,
        -0.11346529430758415,
        -0.1812090594261987,
        -0.1865418211546288,
        -0.08057132155849783,
        -0.09608913731378298,
        0.03844547700242637,
        -0.028915730812388907,
        -0.08946561763386152,
        -0.11355524130842364,
        -0.1813314938641821,
        0.09655192278708502,
        -0.05086413273897081,
        0.0349678251906726,
        0.01957985322390901,
        0.06817495486532055,
        -0.170913014618638,
        -0.15468197754998117,
        0.12222668428377187,
        -0.14865160318472637,
        -0.10356489417938866,
        0.15422872368459256,
        0.17432335370890545,
        0.1740033182489088,
        -0.023976434008200848,
        -0.12234824325539835,
        0.1564864263788699,
        -0.17585036251134734,
        0.19888218904559374,
        0.06043929242758428,
        -0.12996970126951907,
        -0.030166763029767674,
        -0.13746586040949627,
        -0.12399235717962376,
        -0.09078601206819054,
        0.13338115768768571,
        -0.049146383222369444,
        -0.0985079178921065,
        -0.19205153830928434,
        0.19960840257512297,
        -0.028658683055754336,
        0.007783636599026311,
        0.08330253513678199,
        0.11802071940954378,
        0.16372196742228823,
        0.05606217386942952,
        -0.10646544050163143,
        0.1358455602247266,
        -0.11812270089599189,
        -0.010343600920144164,
        0.03602386145216058,
        0.02174783686339632,
        -0.03404286489515168,
        0.071661373733171,
        -0.07490406589343632,
        -0.07546436037153487,
        -0.16863549323763968,
        0.058909021788581206,
        0.1624244492689611,
        -0.16525346451320805,
        0.1547618318008847,
        -0.06853556297315855,
        0.1421368054760483,
        -0.03362798168358444,
        -0.05807216496895015,
        0.12271350364786565,
        -0.09860842478639645,
        0.033279749321776325,
        -0.049862872174254835,
        0.09820632857514078,
        -0.04267865725721828,
        0.005673533263393621,
        -0.11225973685193047,
        -0.19875898559991972,
        -0.06830018510006891,
        -0.01042531275906916,
        -0.025626763621496268,
        0.11329753196436043,
        0.06035362171399017,
        0.03805557755033684,
        -0.01167836803778513,
        -0.19687968322332683,
        0.0023362478351963145,
        0.0009075983953104882,
        0.14094966887743254,
        0.08543721103256363,
        0.10635711857443703,
        0.10165060738244258,
        -0.09970378141288011,
        0.19494260819159298,
        -0.06215865663965664,
        -0.0108681677005813,
        -0.13608710796646883,
        -0.1756845844246413,
        0.09371783588064353,
        0.1054517020636016,
        0.015993215016265078,
        -0.01763523382139684,
        -0.07358359321230551,
        0.045325274662446235,
        -0.1469228104229274,
        -0.187376031450976,
        0.1603463243995668,
        0.15819059050076228,
        -0.17564159222817688,
        0.12617397019312865,
        -0.034397700866257847,
        0.07173307627093228,
        -0.143027273671926,
        0.198264127009374,
        -0.08956632302379562,
        0.1383645446535216,
        -0.015454893854425528,
        0.034729181997663616,
        0.14717999473543664,
        0.18290851206544234,
        0.039200524832518985,
        0.01212920179249885,
        -0.11634231350322595,
        0.12829201613596924,
        -0.13647673808157135,
        -0.16996282826347395,
        0.07823516676204723,
        -0.12513656741168355,
        -0.027324614639991307,
        -0.1907845227607716,
        -0.02320363245467516,
        -0.0998012096938728,
        0.013874266550589626,
        -0.03912613290234651,
        0.08615254748860096,
        0.17840066048980874,
        -0.09587196349057298,
        0.1270103284480376,
        0.082256368532858,
        -0.17445142694046578,
        -0.1664273627278195,
        0.024086997482481276,
        0.15644014530453354,
        -0.14388832477271096,
        0.03399384415548071,
        -0.09255989108559169,
        -0.06661101346696549,
        -0.07815059054374279,
        0.04947951628442823,
        0.039577894420962656,
        -0.0006056579700041698,
        -0.08753412526373593,
        0.07054984904959999,
        -0.1270578327327593,
        -0.10159304352953372,
        -0.11406979468122708,
        0.03449656521635652,
        0.025825901554720504,
        -0.19079188695711627,
        0.0977945933767605,
        0.060131503616435655,
        -0.1281891668170973,
        0.11939048332673091,
        -0.05041036966579848,
        0.10352563257349717,
        0.15700247030542291,
        0.047697229869094,
        0.10700248560568376,
        -0.0888207485517285,
        -0.004047810231651183,
        -0.09154044575166181,
        -0.15723993756828816,
        -0.0323633398449073,
        0.170245146459498,
        -0.19456826235784433,
        -0.1452104507334916,
        -0.07193813319434131,
        -0.0018612165128777947,
        0.062189397862385976,
        0.06558031116915464,
        -0.1671565243710167,
        -0.17802184971491714,
        0.004563230326598194,
        -0.1950159910939111,
        -0.044713836747901914,
        -0.14333280035040313,
        0.027073938840776524,
        -0.19729172434465095,
        0.08700900982496507,
        -0.15228840677905264,
        0.08068878917933497,
        -0.17535760596233635,
        -0.18208812931221985,
        -0.08394788509094547,
        -0.1330084939625157,
        0.019711137585805838,
        -0.11057842121291075,
        0.000026741546746700262,
        -0.19218470005169183,
        -0.19339653464731343,
        0.1875923052448617,
        -0.017703338549099668,
        0.1452821103426074,
        -0.027317761489667858,
        0.18131099410241674,
        0.12327653286868717,
        0.1666817891747076,
        -0.18712768002509855,
        -0.10730542978459995,
        0.16059733373213708,
        -0.008460230542504998,
        0.07750618641479767,
        -0.19379239007246096,
        -0.05838963341647327,
        0.12799030002152667,
        0.12695031406607066,
        -0.18070437013847218,
        -0.06284661624024546,
        -0.16329987265854817,
        -0.05668905113146386,
        0.17736676308589605,
        -0.03903707361742734,
        0.08936572389743003,
        0.06939001930150462,
        -0.00044577938548734375,
        -0.12428431999334047,
        0.127151549426053,
        0.09934830266271744,
        -0.028605238522927345,
        0.0631322498444214,
        0.1882817533988536,
        0.1928973730554962,
        -0.16459986678723607,
        0.005999790789141007,
        -0.060630266641887504,
        -0.15709833003188112,
        0.15488701744940542,
        0.024313772969395908,
        -0.1319809678426787,
        -0.1542194312771743,
        -0.013712217977085217,
        -0.04737995249493848,
        -0.17850119980405088,
        0.17752276726117316,
        0.13469986123379252,
        0.02421750088405633,
        -0.024062616379634777,
        0.10997465130243861,
        -0.0636935377178002,
        0.09421450925586783,
        -0.06710255981497401,
        -0.1460870834794045,
        -0.16724800566407497,
        -0.080940839585955,
        0.0901720359537076,
        0.0403639349524815,
        -0.03167371928742885,
        -0.16133767449721126,
        0.05040213965452367,
        0.036950757430451675,
        0.044928299410219225,
        0.016195838806016466,
        -0.18374313740301998,
        0.007156970207803537,
        0.14018755755191936,
        0.06533311317543611,
        -0.11498667732818434,
        0.08833805572481696,
        0.14074689709517946,
        0.13041449422446394,
        -0.1218847934357533,
        -0.10994216997810008,
        0.056129993452963045,
        0.12992041230066165,
        -0.006105578802932193,
        -0.06674899029253223,
        0.1714301387901167,
        -0.13244201631332725,
        0.14628531298338232,
        0.09638362949424456,
        0.17561933645231392,
        0.16190660033418303,
        -0.1651581055297552,
        0.18377573456334984,
        -0.016770894052165225,
        0.1529065334306609,
        0.09513987126983137,
        -0.043230661680485755,
        0.1444937421194003,
        -0.1120918621415079,
        -0.1954541165947113,
        0.01623565745941491,
        -0.1673809484513875,
        0.06573270796636926,
        0.04476310803580544,
        -0.1016088288396547,
        0.04438709795452808,
        -0.10339969752765668,
        0.1347556048214964,
        -0.13187509519465604,
        0.12485855373339722,
        -0.19479187341159265,
        0.1148260429225067,
        -0.053014475521821286,
        -0.07745855063986427,
        -0.14271700548182442,
        -0.15763864618461684,
        0.05725744301199731,
        0.18917674928008393,
        0.022469511716566914,
        0.09398225081670841,
        0.07889485729489981,
        -0.12498872101607779,
        -0.17914588887624114,
        -0.16529738310209852,
        0.12604192992065516,
        0.09314454280363832,
        0.08179441931275727,
        0.11951790216326724,
        0.04879714116311021,
        -0.16156945690815344,
        -0.12588828605328578,
        -0.10244864188869732,
        -0.10774922853164207,
        0.12726378445481645,
        -0.0620640347916592,
        -0.14458998505403595,
        -0.061637659212039314,
        -0.08281223932426657,
        -0.08996899356231808,
        -0.12138891579926137,
        -0.007946202722937612,
        -0.184912316712062,
        0.12008651379889207,
        -0.000994156811778918,
        -0.14986587208311805,
        0.10252613565722485,
        0.03342119142402061,
        0.1217735892503326,
        0.19802654669484665,
        -0.04954176238547775,
        0.15540907789706604,
        -0.102109696551952,
        0.19343928685611245,
        0.016682934310755293,
        -0.0591869655940096,
        -0.12210216978096372,
        0.030207160629226404,
        0.040545484898592804,
        -0.059774605794893215,
        0.1749632404985969,
        -0.03199167619275159,
        0.1849130024751679,
        0.12909827664549506,
        -0.06244382068857934,
        0.029935973155938322,
        -0.005756987679557124,
        -0.14479119674296823,
        0.0949755008596635,
        -0.0908831213108555,
        -0.0059979008326288,
        -0.05412544739284969,
        0.013954437345044507,
        -0.13565779389310884,
        -0.033042966439947696,
        0.1636340506083988,
        0.08419370345370558,
        -0.13700131411082012,
        0.17522438844740185,
        0.05660423775132328,
        -0.11344419276103364,
        0.10892352172866093,
        0.11234790476406314,
        0.1544090620792391,
        -0.060152068865669595,
        -0.15293365330149597,
        0.07158303591214144,
        -0.0386832267030493,
        0.11557420880122166,
        -0.19182201280713654,
        -0.004480903901520172,
        0.019418433922964967,
        0.03643018301515161,
        -0.09721534205212219,
        -0.11285910847212022,
        0.12394431697620883,
        -0.10278864793136325,
        0.12192655076628628,
        0.007338697966159907,
        0.11991535128437081,
        0.18966216532422014,
        -0.1928814316014154,
        -0.03558516457116431,
        -0.1132497135105012,
        0.06488240852340216,
        -0.16643003175792925,
        -0.17739379847281975,
        -0.017784391291789298,
        0.18609401940848463,
        -0.03216279710257358,
        0.00221899830750244,
        -0.19565812989108508,
        0.17177569735288917,
        -0.029330993232850183,
        0.15687779229460047,
        -0.18067615079718063,
        0.13654893325008394,
        0.13759163060544533,
        0.06110181334227616,
        0.09389410806180026,
        0.1997318988967115,
        0.0038026382158817817,
        0.16003539054124138,
        -0.0093057950755627,
        0.1373189103025249,
        0.06517913960406913,
        -0.051062449119750275,
        -0.02106700518686394,
        -0.19359699762831806,
        -0.07783488494237917,
        0.0947263413617413,
        -0.0590689266198372,
        -0.1940161295876599,
        -0.07998723647843797,
        0.13231433943713022,
        0.11081166926953129,
        0.09912905622788554,
        0.009755280139253919,
        -0.07956155611881158,
        -0.16557430695067,
        -0.1841964837131992,
        0.11528865726657428,
        0.18562482464001562,
        0.06468749131615997,
        -0.12101007059587579,
        0.01541538238895454,
        -0.172675412801919,
        0.17056027070062968,
        -0.01056727184831402,
        -0.010033876683412657,
        0.09147217570324384,
        -0.015921982024714343,
        0.13281168946909733,
        -0.1488849852549787,
        -0.08059864833413717,
        -0.10020330105960458,
        0.029276289100225616,
        0.06220792677872078,
        0.07846601862344404,
        0.04508469444021107,
        0.09570913317660967,
        -0.16407083798696026,
        0.04523511098846561,
        0.18152278180818232,
        -0.1983332421701335,
        0.14499360908771447,
        0.1138670719969122,
        0.13198228232620596,
        0.1945597112169688,
        0.12017402286505052,
        -0.18204428418278057,
        0.08882876846993581,
        0.12964160113391604,
        -0.10066618969750821,
        -0.17080424998131127,
        0.042473629949662944,
        -0.09497647067659383,
        0.16573378452275883,
        0.13204499227196947,
        0.07013293284289784,
        -0.038171319300619094,
        -0.035907628061587704,
        0.07359176321629712,
        -0.01651646986645497,
        0.08346962725925461,
        -0.015272169968468002,
        -0.04409905897382535,
        -0.16178914757321206,
        -0.06518953815302028,
        -0.14662100928967622,
        -0.1422456336193414,
        0.07503309799679736,
        0.007976699219249234,
        -0.1529330007451169,
        -0.14406625263573783,
        -0.06530715462965361,
        0.15575374724215557,
        0.10881213413959567,
        -0.00625031658272257,
        -0.019748494789301047,
        0.12965960555365802,
        0.1858981275667138,
        -0.11556595828651353,
        -0.02838683181381496,
        0.031534755644590184,
        0.018889369877793938,
        0.19291295169011063,
        0.13216108356580714,
        0.18001631608554303,
        -0.08678657658333871,
        -0.16627695925881658,
        0.16119947931969647,
        0.00799644946024633,
        -0.07051993697180303,
        -0.1476942979778312,
        -0.15612272150454432,
        -0.0038273993930722783,
        0.18518033123760297,
        -0.1473418270341454,
        -0.04838074790026242,
        0.13327584141082444,
        0.14444509506762182,
        -0.18633853196189887,
        -0.11705222052978566,
        -0.005372517434236362,
        0.12411902859202112,
        0.012679635122410021,
        0.10983532075760355,
        0.11178722272090458,
        0.07845067083281965,
        0.12760655333698995,
        -0.0026468845315221756,
        0.18456969499107317,
        0.048519394813885786,
        0.054563189260146805,
        -0.008160455499363228,
        -0.1504602941822103,
        0.07231845701548256,
        -0.03483074789738891,
        -0.006996658250248811,
        -0.10948690530536963,
        0.12028121439572936,
        -0.10403791670838376,
        0.0607731053566708,
        0.004057975517809398,
        -0.07448158835772062,
        -0.020564664442557362,
        0.11162562080995658,
        -0.07118932557317384,
        0.16147562849315344,
        -0.11208953979157998,
        0.19184860454199132,
        -0.06810192947824464,
        0.15160700608286026,
        0.07999216947927235,
        -0.03643488812288592,
        -0.004702986699685108,
        -0.06661513807747929,
        0.0047230780393194005,
        0.15446087157709742,
        -0.10535419745118349,
        0.0307314386054319,
        0.1453725592668429,
        0.16680576460190127,
        -0.06644921131363965,
        0.079378508456735,
        -0.1561196516445562,
        0.09364654626028501,
        0.14615211135844314,
        0.05493376159094787,
        0.05310116721892477,
        -0.11953473395143442,
        -0.18926366760159433,
        -0.1680422300301624,
        0.16252601852587728,
        -0.03210790066881736,
        -0.18024071680660128,
        0.14008134406324352,
        0.10768171384888608,
        -0.17650164633719442,
        -0.08538588137388392,
        0.16844996017298325,
        -0.191824829012859,
        -0.057704128756597556,
        0.06505638089070198,
        0.19628213055516447,
        0.1759887399205488,
        -0.09547727080132878,
        -0.031079899905038483,
        0.03473118330573205,
        0.12664439316590276,
        -0.058362514111874264,
        -0.0544504399874354,
        0.19098192343437065,
        -0.1764621338848219,
        0.10406217331435791,
        -0.07672392593812934,
        0.06471430632673386,
        0.10045328444595292,
        0.1825258674259318,
        -0.13609780535596078,
        0.15367439321686177,
        0.03905937530903242,
        -0.08049606221248884,
        -0.1334740767792208,
        -0.033776505339922686,
        0.07219236455490374,
        0.1981375281685322,
        0.15927371373695792,
        -0.13130797234161568,
        -0.09658921908531544,
        -0.18768492919750576,
        -0.06930224566428875,
        -0.1762160428130812,
        0.02614082785609448,
        -0.18771195807394767,
        -0.005113241620398418,
        0.10818274433335184,
        0.12906808409750592,
        0.13746336085643218,
        -0.020728113435785733,
        -0.044188182773238216,
        -0.12474292284408005,
        0.07235176253491793,
        0.01904005689834659,
        -0.05590563925051076,
        0.06755777132185437,
        -0.18009664747252507,
        0.025906573312266812,
        -0.0040333549927097645,
        0.12946050916370605,
        0.07661058216418165,
        0.04646980083374283,
        0.19203423366432743,
        -0.17777770383733038,
        0.13399248493472798,
        0.19851376917592045,
        -0.05067000552400672,
        -0.15997457038941287,
        -0.05654607429082312,
        -0.14784404008923718,
        0.16194631190477016,
        0.09344844985062972,
        0.15378598095391038,
        -0.036665092286989914,
        0.1597419232872403,
        -0.037307225331639826,
        -0.07920789233546532,
        -0.10260641610573172,
        0.18721571632430822,
        -0.1676866105813801,
        -0.15220613261333568,
        0.12074538477914776,
        -0.15808330547883417,
        0.12507135775796668,
        -0.006729722883753592,
        -0.15344497032538015,
        0.15404596185840064,
        0.08685017625556224,
        -0.12208407196745164,
        -0.07299597363518395,
        0.12661718129754784,
        0.012109699465153362,
        -0.00971733812202108,
        0.1136742953309573,
        0.052058040016769724,
        -0.15452156302015127,
        -0.10077591519539744,
        0.18621616277845332,
        0.19641305145308258,
        0.027323560049163198,
        -0.07105831894421827,
        -0.18111780443781847,
        0.12570433172031076,
        0.19515176260544342,
        -0.004698156352748534,
        0.08825854503388719,
        0.02745681078069731,
        -0.030780690152350326,
        -0.1058949142144574,
        -0.1741133823112148,
        0.1856566660126806,
        0.19338824548582495,
        0.13631568106342545,
        -0.014914762616329458,
        -0.07841075303602946,
        -0.0292913674233716,
        0.15922299716691635,
        -0.12407894604298804,
        0.16998187982650542,
        0.15849804989542732,
        -0.15327489369358674,
        -0.19423129790216725,
        0.09052517832902363,
        -0.1356588395234245,
        0.06467497768645097,
        0.057948593529821346,
        -0.03680947561116135,
        0.08115214097719459,
        0.004593699361884251,
        0.1618284286727431,
        -0.12541305185692275,
        0.022554153422684076,
        -0.013640569431682403,
        -0.13602163829493613,
        0.008481393776661988,
        -0.13081652316617726,
        -0.040384887741995,
        -0.12137345214357081,
        -0.1262924076176461,
        -0.14327251322336504,
        0.08129651989978692,
        0.007398187611408563,
        0.09392413488027007,
        -0.17189225277930645,
        -0.04997343223487602,
        0.18583662984436095,
        0.14569200966135543,
        0.030060920482354453,
        0.08384172756351954,
        0.1731548151648924,
        -0.1660762284941369,
        -0.15593748412634179,
        -0.16491232271571,
        -0.08172817553287666,
        0.04331841573515546,
        0.07097404098112442,
        -0.025792175117408223,
        -0.16826826823227825,
        0.03599320312353571,
        -0.15060457226834487,
        0.0757756671120916,
        -0.10136623418130127,
        -0.0499248457526551,
        -0.14521558109317959,
        0.03750358972986553,
        0.16658428914757561,
        0.15180194492535143,
        -0.1622677560324647,
        -0.0086635143782548,
        -0.01731943958494231,
        -0.10103832994250693,
        0.07325332109690808,
        -0.09278547722126312,
        0.13284551970779862,
        -0.1541827325957894,
        -0.12983489467350606,
        0.0985985990706667,
        -0.0259321974513588,
        0.09896476794241604,
        0.1026382268665087,
        0.17221387371788083,
        -0.06920792163536468,
        -0.1878628340668009,
        -0.0814341966677688,
        -0.01294928388720279,
        -0.0363841009057973,
        -0.18644597541032593,
        0.1532360308861378,
        -0.12241856065349982,
        -0.13487776209050212,
        0.02007251165346205,
        0.18526095024680517,
        -0.13715713215541558,
        -0.011145977370090876,
        -0.1754823649378571,
        -0.180916150293195,
        -0.15496568182371223,
        0.04741354379609736,
        -0.03957937949442347,
        -0.023144549129462483,
        -0.006033738087077911,
        0.182836050312134,
        0.09264261978354155,
        0.1629751753616127,
        0.12620432407839272,
        0.18640203546272838,
        0.11426748217724114,
        -0.13167419679610518,
        0.04973995971852227,
        0.024996353618332773,
        -0.015777971421452985,
        -0.1949620782590699,
        0.17450803904483891,
        -0.014923581110860257,
        -0.0011276843766149514,
        -0.14129541292987066,
        0.18839159553577972,
        -0.1816750195411633,
        0.16379525393090977,
        0.1336858740468742,
        0.07763605962138576,
        -0.17672948003642353,
        -0.019002875496970217,
        -0.09736945273163103,
        0.1739715600167206,
        -0.056367655587558074,
        -0.03323935141670367,
        0.14219078637456833,
        0.077143627727562,
        0.16389991530717063,
        -0.050028979619491265,
        0.09179968905544972,
        -0.1350120116752626,
        0.1419541790922656,
        0.14496717217016664,
        -0.1955609183657445,
        -0.10035542157792521,
        0.19037279042129462,
        0.09029364586221622,
        -0.17554945966256452,
        -0.07452151461192469,
        0.025891525847780594,
        -0.14254326216094615,
        -0.06973106380561431,
        -0.10028053391067321,
        -0.07317746477260517,
        -0.09462362671254297,
        -0.08599875952529042,
        0.054911926402702815,
        0.11346641322777323,
        0.15740039083945312,
        0.04420842090443272,
        -0.01373845865213022,
        -0.07417685553651127,
        -0.09876369582625011,
        -0.10006949632552647,
        -0.1651132106421178,
        0.07594233976966874,
        0.18440215906182422,
        0.04543864055530261,
        -0.11155136815050488,
        -0.03709814976658343,
        0.0797909838947114,
        -0.11624893252129859,
        0.1194398749833091,
        0.19222391075542483,
        0.17753602492973486,
        -0.032003919204215636,
        0.017787388564683593,
        -0.04088533814140821,
        -0.19444481935611924,
        -0.025473805832432195,
        -0.06628982879874373,
        0.07845904465747067,
        -0.10035114555167374,
        0.12790850563270756,
        0.10800987557762332,
        0.0636079213865336,
        -0.022674975394595315,
        -0.08062111041670339,
        0.07679994382774485,
        0.11940320354759454,
        -0.14752878350822984,
        -0.17333635144730009,
        -0.011195039809428847,
        0.03563460101392332,
        0.050496271951142924,
        0.048421425533990536,
        -0.14010948304091483,
        -0.029459296988340405,
        -0.09556902586033145,
        0.10884043573542496,
        -0.14167471828333658,
        -0.010112328864661485,
        0.18033933755947068,
        -0.09023598035623706,
        0.015839561117448664,
        -0.10832947283382427,
        -0.19844367297832008,
        0.1404959436715727,
        -0.054435658783773155,
        -0.1332390734626273,
        -0.06312765210781479,
        0.058600422224300286,
        0.1597489443959736,
        0.04317710968999727,
        -0.011088681207758494,
        0.03189091733182678,
        0.13634993319473526,
        0.18607761703205233,
        -0.07158245608897906,
        -0.19188575396187343,
        -0.08624044116454717,
        0.1914111916368117,
        -0.14794293353631655,
        -0.0083012607733281,
        0.17278424150594102,
        -0.19362765740806417,
        0.06676873567709896,
        0.08369415626566401,
        0.06991184197971212,
        0.12078155165106014,
        -0.18145797807248482,
        -0.015177240216387722,
        0.07769649250587418,
        0.07278259568810219,
        0.139839060198436,
        0.03711542323171732,
        0.08518495026385275,
        -0.03124609604235551,
        0.19595213668252326,
        -0.05395792283771628,
        -0.029411912994694644,
        0.10753806967155322,
        -0.16832190478709508,
        -0.1294357808180669,
        0.12758773030394505,
        -0.021327072459856655,
        0.0807152958943973,
        -0.12542766934133223,
        -0.15952961194831958,
        0.060464454962722125,
        -0.13791866459636443,
        0.11993499064764374,
        -0.19481273593583026,
        -0.022650487906673483,
        -0.006760652957862406,
        0.07091616176900978,
        -0.16599395951981719,
        -0.1845894952746411,
        0.06487032901569095,
        -0.13629971659957574,
        -0.16864029218371931,
        0.0251479920862884,
        -0.10772066197635088,
        0.14391414670894614,
        -0.1925950495030111,
        0.11266046199695418,
        -0.1801761452951275,
        0.14090669551988444,
        -0.1392786166990089,
        0.061016714984756026,
        0.0004557106713604653,
        -0.04706087238944598,
        0.17914411472797626,
        0.19576948043838488,
        -0.17493890890787278,
        0.07602348585274088,
        -0.18759627541802365,
        -0.0020994332591281195,
        0.012745668697748458,
        0.14233419445633316,
        -0.1653330071604139,
        0.04716011061208106,
        0.04399875410816306,
        0.007414946445472748,
        -0.021947970774765985,
        -0.19673275810835789,
        -0.071734273659155,
        0.10712305994601284,
        0.1171776863306383,
        0.009228650203844058,
        0.15001263171891738,
        -0.0993783161748985,
        -0.1937878998144841,
        -0.11175008163292932,
        0.10294939375417556,
        0.005637632560804129,
        -0.09838000351502765,
        0.005247014365607289,
        0.1909750964231734,
        -0.1751491930801562,
        -0.03865358844799954,
        0.1720660910351527,
        -0.18492418320671675,
        0.02637978081237141,
        0.011940645312867565,
        -0.0858719646644433,
        -0.10227305602935287,
        -0.039779696924294144,
        0.1462403264221887,
        0.1331510284951059,
        0.09715923987966624,
        -0.07327719109889738,
        -0.04226507056931009,
        0.1221318237678437,
        0.13434465368522647,
        -0.193933157085141,
        0.09633641047548058,
        -0.06627101879041791,
        -0.07340989833306732,
        0.11450884938226047,
        0.12516141585556917,
        -0.12545856835356517,
        -0.1872139056011385,
        0.046669312588649425,
        -0.10719853815794722,
        0.14307004562853431,
        -0.1498310363411501,
        0.14915008591284146,
        -0.16661737164995533,
        -0.13652145540227503,
        -0.08478459715853424,
        0.0715557117727133,
        0.12106123026726756,
        0.06190487109489251,
        -0.19907651772275659,
        -0.13948550363643283,
        -0.10809619192095421,
        0.11869522465387417,
        0.0712232659803001,
        0.06578351319626974,
        0.12489097497100715,
        -0.1527238092853577,
        -0.1244217767512831,
        0.08647248904179167,
        -0.14740735339950276,
        0.07102291302996355,
        0.03185704425146735,
        0.1857600502541959,
        0.08288999273908793,
        -0.002989617450139953,
        -0.02784602744747705,
        -0.10074016759963006,
        0.1920834422661561,
        0.12151190861988675,
        0.10466955583904453,
        0.00143796626049561,
        0.11506957746905072,
        0.10836617789450798,
        -0.09391978856304287,
        -0.06607559417304451,
        -0.010615721025952402,
        0.021784121820772162,
        -0.12853393612502764,
        -0.07990492342170463,
        -0.13825841652438844,
        0.04632739351564777,
        0.0425432717452586,
        0.002344907974560495,
        0.15431332008882032,
        -0.07714067250812327,
        -0.19827806611233678,
        -0.04786449859380015,
        -0.14328615479716533,
        -0.0511989432333739,
        0.1654683164363316,
        0.12135555855602176,
        -0.07387800830235297,
        0.007846376056845322,
        -0.10817160952002106,
        0.1520361307331518,
        -0.0724705722288328,
        -0.13967292238322404,
        0.1164365538287136,
        0.06106624818941142,
        -0.008529440633492813,
        0.06538017797664758,
        0.05295901432034289,
        -0.11885453289090538,
        -0.03642220405854818,
        -0.17971313054992316,
        -0.07919854668476295,
        -0.12271998174304605,
        -0.12557957005874026,
        -0.05127250500158184,
        -0.08405211174603405,
        0.019832708789263492,
        -0.12079541291305113,
        -0.012836535663900556,
        0.17761923489923437,
        -0.0927117168511915,
        0.09071604610343342,
        0.06238330572099349,
        0.036560949453179864,
        -0.03573745073176582,
        0.1520772974259832,
        -0.06900582837492975,
        0.1512499787742631,
        0.111647626918291,
        0.1665190160581032,
        0.19105500518728974,
        0.1785932677186282,
        -0.07614606435616125,
        0.08149813737595801,
        -0.11232295167416062,
        0.010514148423414887,
        0.17206224660398595,
        0.060946557465122175,
        0.11657963061200322,
        -0.1735186363605438,
        -0.04182274544611836,
        0.12166095727335818,
        -0.011542257861774458,
        -0.19494445417479436,
        -0.19499743988404902,
        -0.09559970828798728,
        -0.02964941341152222,
        -0.06783162494068745,
        0.08910134988301183,
        -0.1042543675642229,
        0.13030351415864522,
        -0.17268135656839934,
        -0.04131979189901189,
        -0.12599058059731227,
        -0.13317213923172172,
        -0.1343926620661285,
        0.1868520879347993,
        -0.157631218423249,
        0.07867473661107294,
        -0.07674891237963433,
        0.12537966370511616,
        0.10549680329694244,
        0.006319098335901968,
        -0.019243541354475868,
        -0.07803855232636976,
        -0.05696426938536964,
        -0.06398283088162177,
        -0.16257944791566006,
        -0.10314871970359185,
        0.07173129135287581,
        0.05382397595103394,
        0.15660464647338695,
        -0.002292340058721948,
        -0.18050853213155105,
        -0.049844279883099,
        -0.03533268487255564,
        0.06030135524293889,
        0.09566535130126563,
        0.09741886894442431,
        -0.15941618179654432,
        0.1840304840823574,
        -0.1756444575278791,
        -0.014287504590262706,
        0.051227524492520105,
        0.19576503947110108,
        -0.05017185069514102,
        0.07068563898666819,
        0.13839560254021127,
        0.11745923941022751,
        0.05858702591685655,
        -0.08415694470069496,
        -0.14224648193648337,
        -0.09872676121679383,
        -0.08096649763641298,
        0.1635148670036617,
        -0.1335558876128824,
        0.13078238072091602,
        0.05392444045576911,
        -0.006618333689659972,
        -0.17584361383019462,
        -0.13386475134148462,
        0.010244302329628752,
        0.09256931995409218,
        0.1630793514639306,
        -0.04512173732132321,
        -0.058949264463216855,
        -0.14363280203923048,
        0.05143433698962174,
        0.0485469680458864,
        -0.09664262239574112,
        0.12061812533494237,
        0.12183067781848683,
        0.1515012437264311,
        0.014129264604532399,
        0.001383680351624783,
        -0.036488930826432814,
        0.05289375477063929,
        -0.07042408189577448,
        0.171002235486922,
        0.0568597315147189,
        -0.10043177521935305,
        -0.17604755781229486,
        -0.1850452825934958,
        0.07204158530469407,
        -0.08239242366929794,
        -0.0020139759374953603,
        -0.022837637916721082,
        -0.009284243892383193,
        -0.1406184843349556,
        0.14876989233957033,
        -0.10958546607500207,
        0.03902757558786024,
        -0.03395068155245168,
        -0.06280790569585393,
        0.07927859376343682,
        0.1688854485001326,
        -0.10838842979567148,
        0.04104365128128423,
        -0.12752674203772013,
        -0.19045191129742278,
        0.16582151740707013,
        -0.10821541070966544,
        0.10406563129778168,
        -0.14218549511533463,
        0.14676757821096198,
        -0.08281754334486342,
        0.0949347566906299,
        -0.16175497604645825,
        -0.16317981331630366,
        -0.002824237976397137,
        0.15024323705735793,
        0.011058658697145285,
        0.13641350773886213,
        0.10553011058561917,
        0.168853384816136,
        0.09938661357192236,
        -0.05230916293078397,
        -0.19392837888345743,
        -0.0658925305172533,
        0.0012666738184888282,
        -0.16074243714948167,
        0.027126002412631856,
        -0.19139453992660982,
        -0.13617817946896818,
        0.16265758408018333,
        -0.059080083004107886,
        -0.09441615532986902,
        -0.19357182072910772,
        0.036714593870045664,
        0.12242547240384627,
        -0.0020265315917488425,
        0.09445979984319458,
        -0.1134513030920374,
        0.12267164431636635,
        -0.047032907824206355,
        -0.04005637537308099,
        0.07842595798281249,
        0.008795592870197266,
        -0.1840604399978647,
        0.021324572586582047,
        -0.17427010723280817,
        0.12005197730390527,
        -0.09846965557240371,
        -0.18095843907119882,
        0.09703450057648011,
        0.10185415465900971,
        -0.010328348493007983,
        0.12408666095620874,
        0.1198170080717777,
        -0.026203108961120714,
        0.05905888247345803,
        -0.19534031434766552,
        0.0357406592844475,
        -0.15077395980875996,
        0.037648376622648916,
        0.1459360295548346,
        -0.10134994056622887,
        -0.14706995243288948,
        -0.06129313285340801,
        0.18292264101992411,
        -0.09621025479141508,
        -0.14811327138511882,
        0.0020035600956933575,
        -0.07287699872324824,
        -0.07959600913740875,
        0.15778172884064534,
        0.04983191634210332,
        -0.025810261949011037,
        -0.039670628544840214,
        -0.001775082975456671,
        -0.09692138592726832,
        -0.04078910754232004,
        -0.08541816501454105,
        0.11728443472084965,
        0.08021451664936197,
        -0.12134598968135553,
        0.1647667375645991,
        0.18023217703071764,
        -0.08692199800429896,
        -0.16514416767749884,
        0.13495848602885607,
        0.039464389898031305,
        0.09857301135694241,
        -0.14291086391843955,
        -0.04283055083925444,
        -0.1964585821689079,
        -0.11328087275559567,
        -0.12902189943045383,
        0.1910895818515101,
        -0.17031352755953352,
        -0.0916217153823392,
        -0.09549464685961917,
        0.14446355547415235,
        -0.054203445252296145,
        0.14276997830481591,
        -0.14999067907609082,
        0.1976598468588897,
        0.1826154944269574,
        0.09964386962609595,
        -0.1987496257266007,
        0.12681667827247362,
        0.16488626594099015,
        0.010229631624060154,
        0.08977314058360475,
        -0.17340750939245286,
        -0.039538005667505954,
        -0.19191431028989722,
        0.1984052420715765,
        -0.10913308273143936,
        -0.08075618816613571,
        -0.09272748820174717,
        0.04894974441114891,
        0.13628499005696892,
        0.12824789620543908,
        0.04759900164426917,
        -0.026042066166691857,
        -0.1049486248189318,
        -0.18079548829675654,
        -0.06730145610921245,
        0.13069064778439204,
        0.025488311921815943,
        0.18521975976935712,
        -0.18082563226954937,
        0.09504066478857126,
        0.06061854854406157,
        -0.028167433265561537,
        0.18346726633197846,
        -0.1533754356518042,
        -0.05786239589957748,
        -0.17289591162118234,
        -0.13866838485258423,
        0.01439677462627173,
        0.13024489616253826,
        0.06200013816338418,
        0.040637164307888746,
        0.10676027551022726,
        0.04283724961974228,
        -0.0586130608569663,
        -0.030325549819751052,
        0.11307285844366155,
        -0.12686100854373444,
        0.05707090975057,
        -0.09328849845877976,
        -0.07557950146033857,
        0.04671492343178807,
        0.11080086475484213,
        -0.04699210652155408,
        0.12497973048883854,
        0.0944490824447996,
        -0.02039130792145269,
        0.0801689611603914,
        -0.04882960834624783,
        0.19453067261395435,
        -0.15422517126351554,
        -0.1565614821116796,
        0.18719144396375542,
        0.19723681273838928,
        0.0514437814330867,
        -0.19863814616023046,
        0.06607271486955868,
        -0.08296516947478381,
        -0.08975199800851255,
        0.15221190790149758,
        -0.07884342259376825,
        -0.16250062903150533,
        0.1692017742027827,
        0.1528941175246205,
        0.02136515297888511,
        -0.02551693335440386,
        -0.11765562619118604,
        0.04097889170680763,
        -0.017763772653695303,
        -0.08211654851088884,
        -0.036667277511782004,
        0.12351172786468573,
        -0.1514840683098067,
        -0.15390157649213565,
        -0.014536810023427105,
        -0.14504793499417096,
        0.16819552120037684,
        -0.0023084876922427056,
        -0.17615110565122227,
        0.12140992513908871,
        0.012668269703753177,
        0.10999068392822547,
        -0.09442791020665449,
        -0.13239308801109542,
        -0.09104300327800724,
        -0.01977409674664088,
        -0.07909525890789806,
        -0.13597200603085283,
        -0.14365880789844493,
        -0.16301544948172988,
        0.16588903996405513,
        0.12250736180969041,
        0.14765006194908764,
        -0.057279205654945126,
        0.17758274219136677,
        0.12988082854327393,
        0.0886664637229449,
        0.140532410300429,
        0.07967547899871341,
        0.02891795210875739,
        0.10080090649618717,
        0.14784436098871545,
        -0.1005547490002944,
        -0.15793193908625086,
        0.16870849037680297,
        0.10321469119532839,
        0.19951152201430483,
        0.06684003820561979,
        0.005036159427105474,
        -0.12129793896656121,
        -0.06720876228148262,
        -0.026367169062524287,
        -0.004265517198862978,
        -0.014719317707777485,
        0.14688758504477128,
        0.0329764799951108,
        -0.03383186296094545,
        0.060502440922905465,
        -0.14680639450743357,
        0.0380753012476,
        -0.1704275522491143,
        0.13135123576231428,
        0.12868311191029397,
        -0.12136020151653054,
        0.11434820688481112,
        0.0746535994030415,
        -0.1840015808341204,
        -0.07107132793575618,
        -0.15305982494084583,
        -0.004180034638680802,
        0.04886302288208441,
        0.08054178941954698,
        0.06234669547888855,
        -0.05654863830343518,
        0.06667218269528097,
        -0.16756129730198743,
        -0.1304668419639189,
        -0.18120103171797958,
        -0.026283971457966876,
        -0.184845209764946,
        0.17990711184797792,
        0.14375682247240185,
        -0.01782600715644081,
        -0.02418056596916912,
        0.1298450862262483,
        -0.13724114014702699,
        0.009387868544447786,
        0.12497992437051608,
        0.015034882254113924,
        0.19721650049977885,
        0.04277971831001745,
        -0.02450457594803432,
        0.16837341096606734,
        -0.046964495808490936,
        0.09946121891898446,
        -0.1794787207029622,
        -0.09752031776081456,
        0.06893762254601526,
        -0.013473414057276228,
        0.016431698410019985,
        0.13735982092256155,
        0.14278023364960668,
        -0.07815459803608152,
        0.06780063351624999,
        -0.18265398364857088,
        -0.1781644707675863,
        0.0508979902062795,
        0.121505815700307,
        0.1134512212448584,
        0.08218981280296667,
        0.18089369622458168,
        0.17970750170410316,
        0.04519634924283347,
        0.0951058320740909,
        -0.1253457734900814,
        0.0020254712427873467,
        0.09542520032014512,
        -0.104795814607649,
        -0.15487842064693202,
        0.15317779213944277,
        0.07721842342994728,
        -0.04255529848115516,
        -0.07017807634049583,
        0.19041790567345473,
        -0.16920562984951337,
        0.11136423583507682,
        0.09042651161084636,
        0.16322145281290595,
        -0.14271578479897587,
        0.17134852046408583,
        0.08282265829878932,
        -0.044101886633585025,
        0.17928911609478843,
        0.05489517537507077,
        -0.07815559939172725,
        -0.04059749233659887,
        0.10907353904411354,
        -0.1618992232705433,
        0.1557147767203988,
        -0.0032496773175813287,
        0.09999113722907521,
        -0.13538113323757545,
        -0.06842345473675199,
        0.0364030667115193,
        -0.0692282923718143,
        -0.05418564584810456,
        0.03999605659194541,
        -0.03874248742965172,
        -0.14165170573294736,
        -0.0428359035010987,
        -0.11242228126935722,
        -0.1289785329003107,
        0.13459533905750143,
        0.07387363872847852,
        0.18240834210198825,
        0.122445445664287,
        0.1284298992578911,
        0.07193623659004539,
        0.08734848627748965,
        0.17190743612602005,
        -0.06836870978488108,
        -0.01287125311411108,
        -0.15803531344855043,
        -0.1680059623614465,
        0.052029485214008075,
        0.09453073603011836,
        -0.13507573364070102,
        -0.19611717751312843,
        0.12279381118040206,
        -0.08041511487575757,
        0.006156826674784371,
        0.034339999680215755,
        0.04953573042043527,
        0.018125702370085373,
        -0.06490778221735935,
        0.05242482970941159,
        -0.01829292110726577,
        0.048117800808065964,
        0.0006142266087747483,
        -0.18269211263780005,
        0.09524663444028536,
        -0.07309229837790926,
        -0.1613310713072621,
        0.09850308908748046,
        -0.0022170037224018557,
        -0.06249836709700665,
        -0.044516380295548,
        0.026881241137299255,
        -0.11893494188325585,
        0.06525222239408696,
        0.17760005177996946,
        -0.012727095280981315,
        0.12824718764164839,
        -0.1059114518947907,
        0.15660919603528523,
        0.0834937794599831,
        -0.09349540705894897,
        -0.1992643186144615,
        -0.1114271197060488,
        -0.11835830621728789,
        -0.03279886227181708,
        0.07451264041139238,
        0.028581957353888188,
        -0.006733792348885215,
        0.17233200424639922,
        -0.18419930025542955,
        0.16234872368009384,
        0.0430766393222434,
        0.15723722005743535,
        -0.13743859025194904,
        0.12133644234681623,
        0.19497288392194195,
        0.055437696740328835,
        0.10441324798088092,
        0.031474585308587516,
        0.09794567121284281,
        0.025919161334521545,
        -0.18398044359189322,
        -0.012006875446037096,
        -0.05370793807919691,
        0.12600351407388083,
        -0.05451758804052137,
        -0.04314897581648944,
        0.12536105456073898,
        -0.08385931789707857,
        -0.19816441397809342,
        0.18979456300838554,
        -0.033960382881499024,
        -0.043276407796804195,
        -0.12124942946888853,
        -0.16949373166211845,
        0.14364369156127238,
        -0.034266299453141025,
        0.16070897326321737,
        0.015263782101508916,
        -0.09774796115732531,
        0.05139149787288033,
        -0.11472441152276316,
        -0.08607909894092268,
        0.17884949072826112,
        -0.10152601340761841,
        0.15359530110192066,
        -0.13924650943060507,
        0.009943978921802155,
        -0.017500130843324385,
        0.05739875444255366,
        -0.16684783817773094,
        -0.12398265218182952,
        -0.06012674283989497,
        0.1137227777352196,
        0.1852285593278465,
        -0.009448292677889325,
        -0.03960764801294503,
        -0.07525581538567679,
        -0.0452344009914766,
        0.030315210420907374,
        -0.10953621168447776,
        -0.15389394189096142,
        -0.040925366795295265,
        -0.04935097755693291,
        -0.08967419831102541,
        0.1154036062394786,
        0.10957408480793401,
        0.02937037553636629,
        0.10639590325903647,
        0.0005518068824540145,
        0.1830097758511538,
        -0.19071525638396017,
        -0.19665488991073446,
        0.19726174045592498,
        -0.07291922285629832,
        -0.1262205861757416,
        -0.040307545218778384,
        -0.1954913638918046,
        -0.041489730485295084,
        0.0151931590968985,
        0.10174550902538176,
        0.10726891246958348,
        0.024986836550828284,
        0.16733995350098219,
        -0.0119388809513446,
        -0.08369710120805239,
        0.05583153928351836,
        -0.07552610159260116,
        0.17035464146310042,
        0.09751630737105638,
        -0.1920362142972883,
        0.18469313100996793,
        0.10819904769932054,
        0.1970137047128538,
        -0.008257575731821898,
        0.0317413723206757,
        -0.014306704116127167,
        0.16895657114968532,
        0.15240107587107715,
        -0.10320395883015335,
        0.15803101335852798,
        -0.11055213534828763,
        -0.01705563677018923,
        0.10855762681676223,
        0.052049116762933445,
        0.15842092642013467,
        0.029436374621541223,
        0.12195361496848423,
        -0.040866801239065664,
        0.12314919089165838,
        -0.047186578079370184,
        0.18218635635392116,
        -0.14892704729145861,
        0.16949681592577825,
        0.0940344071970024,
        0.08386404338222364,
        0.11027023095515742,
        0.06622293660889511,
        0.13490579854058116,
        -0.010541275899815433,
        0.006372202776830704,
        -0.12933209506231824,
        -0.012236996092212793,
        0.1311343189288801,
        0.042094241323923226,
        0.05482931814181141,
        0.19221293391678135,
        -0.08560987129046987,
        0.03988949519475829,
        -0.09627585465984644,
        -0.13347770309561452,
        0.009122097042644273,
        0.08323437269238126,
        -0.018374789775477213,
        -0.1779266131840596,
        -0.08411443544350457,
        0.01431729502849971,
        0.04022749116545357,
        -0.14261684410781142,
        -0.03902391251985318,
        -0.04903007259484715,
        -0.07419492384497506,
        0.06890590729658153,
        -0.19463000120206947,
        0.11916408101125386,
        0.09270476743929074,
        -0.10304645045005044,
        -0.19086013047915254,
        -0.1784730145080222,
        0.1758953978021522,
        0.17231514401185521,
        -0.14885325149107576,
        0.06372486336580835,
        0.13286603380349615,
        -0.08065662900732753,
        -0.007871660452523466,
        0.10971801845461465,
        0.06174733429305368,
        -0.09593221002866269,
        -0.12413618303442729,
        -0.08917956429700964,
        0.18984225742273314,
        0.1788860829034563,
        0.012380294123660457,
        -0.029991281759492894,
        -0.13457889263157663,
        -0.039113441475631505,
        0.0327877096518458,
        -0.17506550520633804,
        -0.10978431547067978,
        -0.14135526941389442,
        -0.1409727286798481,
        -0.17246856850238734,
        -0.036811895085039126,
        -0.03035581481567967,
        0.03457456252049296,
        -0.1061205638827488,
        -0.0776204987503658,
        -0.1582439315218348,
        0.042531895690200994,
        -0.14185295422894437,
        -0.18999011432031152,
        0.1832120098342193,
        -0.02222347143993636,
        -0.180428170784607,
        0.104941633928745,
        0.02318799473354774,
        -0.06637242311899333,
        0.13791748155522432,
        0.11181239661088721,
        0.05422266590996505,
        -0.11365133536850612,
        -0.16604489739375344,
        -0.12507701179697608,
        0.17067480791879613,
        0.09750527273881693,
        -0.15001421637435924,
        -0.11628075520742015,
        -0.05372306953450315,
        0.013592818383414279,
        0.10940986782164325,
        -0.19923536692033578,
        -0.18763845467474446,
        0.07511115678839086,
        0.11660597890438007,
        0.0033877965252925024,
        -0.030804791849407653,
        -0.012260992299716639,
        0.12039820132014667,
        -0.15651579607136878,
        0.19110193103051237,
        -0.08267753425048469,
        0.04142076147066112,
        -0.15381638786510635,
        -0.17669684031638597,
        -0.04859358526463073,
        -0.17946689401921292,
        0.044130723917813475,
        -0.013266394220939837,
        -0.1949940764640099,
        0.03079533575818924,
        0.19807509057245892,
        0.002312272181245939,
        -0.18564250099747548,
        0.0936554462328717,
        -0.08547486920471728,
        -0.032552844875947506,
        -0.016039156302616236,
        0.03525343771840336,
        -0.028766513592713927,
        0.1898924812361546,
        -0.10685930882054478,
        -0.009399988246996088,
        -0.04068552149756366,
        -0.09082106771745364,
        -0.13288802800895178,
        -0.04461762606623801,
        0.03643008424138769,
        0.08775183032017686,
        -0.16873163137713837,
        -0.01808899399878222,
        0.0022694494300833645,
        -0.10822564930372525,
        0.03954348329253471,
        0.016087283650708384,
        -0.016441843175263315,
        -0.031332457887648324,
        0.009743243089239073,
        0.047471476707954874,
        0.16912621611646633,
        -0.010784814810307075,
        0.18565838816906294,
        0.1563771454420005,
        0.17276036578700465,
        -0.16849655283507692,
        0.155377542209998,
        0.19974329796055973,
        0.04344434793436952,
        -0.04851683751942609,
        -0.03850197284153317,
        0.12738103786024263,
        -0.13171102296968024,
        0.06975509788609713,
        -0.1451482738596031,
        -0.1148744051074508,
        0.1948968000928365,
        -0.06790765210380109,
        -0.10717206534461372,
        0.09425859282519305,
        -0.15798107666502303,
        0.08814266209901372,
        -0.04254108275349194,
        0.038073368519453865,
        0.12227021003490612,
        0.0822171560705246,
        -0.022340796814348807,
        -0.07723830422447096,
        0.018345453868213457,
        -0.0009026553456966957,
        0.14531200018428841,
        -0.08234666572590502,
        0.03700101977585138,
        0.024495506341874418,
        -0.19278989348262454,
        0.08378512396668902,
        0.03597290692076677,
        -0.14813498705140657,
        -0.055370639047541914,
        -0.0828310613065093,
        -0.13664334327815786,
        -0.09397999726832676,
        0.03854831023164054,
        0.03189451805035856,
        -0.1249727297607179,
        -0.1252456109276209,
        0.15877695210592174,
        0.16537851387022734,
        -0.17834834458232734,
        -0.0018100712226628013,
        0.018270602550298637,
        0.15886314444047955,
        -0.009735682079880459,
        0.06422024678235438,
        0.0930912113895826,
        0.1280410664047016,
        -0.1152762779060212,
        0.05262999065701057,
        -0.13129539907868726,
        -0.1867646643706011,
        0.161022886079615,
        -0.06467091626657182,
        0.13601325234283396,
        0.15045125905351542,
        -0.09412780557343768,
        0.19564159883946103,
        0.000549654403704608,
        0.045409973349764904,
        -0.17831507313442418,
        -0.038395328190567124,
        -0.17279611979671305,
        -0.04560654517936888,
        -0.1579762580975862,
        0.15154047857976038,
        0.00478482341774894,
        -0.09895606306461345,
        0.13580662244161812,
        0.010652091016315701,
        -0.14854117571822947,
        -0.050663705017044425,
        0.11936699905294551,
        0.07108897193111496,
        0.06563214924163485,
        -0.05890465845692927,
        0.06682254936273024,
        0.06741174067853267,
        -0.04809480219458226,
        -0.09788446888064711,
        0.1187587594989511,
        -0.1325465149965973,
        0.14046139901720195,
        0.10671429524506543,
        0.1262641016420335,
        -0.08022592092824712,
        0.10739625824333271,
        0.05135528690173463,
        0.17535387728786278,
        -0.14454610968356507,
        0.029956257241339046,
        0.027009511695742117,
        -0.10821966311216397,
        0.1587910588593588,
        -0.08722258975994057,
        -0.01647817738289889,
        0.10275021133869633,
        -0.020837886959623353,
        0.190733053152577,
        -0.034846505869191885,
        0.16085584443338602,
        0.05871398155925195,
        0.03655030112793778,
        0.017833402009012594,
        0.11639595368686995,
        0.08379516975421086,
        -0.013789889552897977,
        -0.1263853039911501,
        -0.13819699784972617,
        -0.1363930393611814,
        0.10121030195025171,
        0.07930172064036045,
        -0.019144178739151668,
        -0.10907163716211601,
        0.034089220033673706,
        -0.03258055344279992,
        0.15073178509820861,
        -0.0324672975896966,
        -0.08898850595637527,
        -0.19858446171004981,
        0.07143478576391649,
        0.1460553312496396,
        -0.05809967715357853,
        0.009336382312128716,
        -0.19888399514198857,
        -0.16495220091818996,
        0.09704462270025271,
        0.15950321713539994,
        -0.11534430545211088,
        -0.05286798559014355,
        -0.1696158800333572,
        -0.18146477967867228,
        0.18507563870214078,
        0.026348475465017257,
        0.08965281304435097,
        -0.1074619328031564,
        -0.10332104891972259,
        -0.0659870787008415,
        -0.04736761194371358,
        -0.046638539538538165,
        0.1085622662026064,
        -0.05605513233184026,
        -0.12633509263294357,
        0.059876873758128335,
        0.19448412127306158,
        0.15930435267287701,
        0.13979778353652556,
        0.19973969384196838,
        0.05814865823100124,
        -0.10355758503918554,
        0.19947341590288037,
        -0.11396567870771049,
        0.16617223254969338,
        0.09026686020188412,
        0.07930254671771408,
        -0.16594689048139394,
        -0.05987765790434127,
        0.13144386246980505,
        0.12104165368234293,
        0.10713041815015545,
        0.14142845274806787,
        -0.1568897837987193,
        -0.18634809066512795,
        -0.09549834406644148,
        0.0011088628406055734,
        -0.1441415560532688,
        -0.13476748832477647,
        -0.06381681355185642,
        0.001187258298194216,
        0.12445356319449413,
        0.06342985249841976,
        -0.19702391825714616,
        0.08893897910047688,
        0.1488698455091405,
        0.09689573013228692,
        0.19836583108594752,
        -0.19339213858544016,
        0.13565540367087942,
        -0.1829623858620623,
        0.1477618781995937,
        0.156547722541387,
        -0.11803998265252953,
        -0.01240105543214795,
        0.09729469180417571,
        -0.17012506380748307,
        0.050067124369898686,
        -0.04212804420728583,
        -0.1489948251162698,
        -0.021383502026489642,
        0.026357004639211562,
        -0.14453219396457206,
        -0.1354938691086217,
        0.10172810774542773,
        -0.1749674726657136,
        0.12055680269013219,
        -0.04766742185121625,
        -0.09804259631763551,
        0.185059127916326,
        -0.04228050176972439,
        0.007544519381222192,
        0.12570583276807573,
        0.024711975814842496,
        -0.08621838070347061,
        0.19666235457223652,
        0.016666080562907304,
        0.15390513127212863,
        -0.18384785137891366,
        0.056635862455331254,
        -0.01271054553090542,
        -0.027104011353706797,
        0.073617434703598,
        0.16713374653568852,
        -0.19282533568596297,
        0.10532856955211733,
        0.027416380843651528,
        0.14477178687437398,
        0.1683730944668565,
        0.156566091195821,
        0.18486587718833192,
        -0.16513099992299943,
        0.018638654529249704,
        -0.1925556335912312,
        0.09973620518695159,
        -0.1636306189054736,
        0.11397701788253467,
        -0.17879510241732177,
        0.19021933313635747,
        0.11477813784542884,
        -0.14315417675877162,
        0.037601968339090325,
        0.1982045847025436,
        -0.17069056379299494,
        0.005258067507943609,
        -0.07855101821929136,
        -0.1554890946122066,
        -0.1407406041028607,
        -0.052828672537923976,
        -0.19123205795609166,
        -0.06788541283829899,
        0.016663756749883685,
        0.10805942559581433,
        0.0852997975566202,
        -0.0625651499080859,
        -0.12842129300352814,
