{"layers":{"input":{"biases":[-0.4450008560110746,0.47242873444557515,0.3769821625449796,0.7579831396789976,-0.6739918445440237,-0.44095723021569405,-0.16935181089381515,-0.23417200727240822,0.012019741087416762,0.40572219717309405,0.061874690473066846,0.041729249592749984,-0.9428035650409277,-0.20576437525521094,0.039485381090167235,-0.8185888845605723,0.4467682460651021,-0.16742830127078953,-0.32646807389260235,-0.13853106365241397,-0.1556045527744186,0.2512647920525321,-0.1455336975842539,-0.19070710738262442,-0.09081206642276125,-0.5400585835257586,0.27786917990943233,0.2776517372921276,-0.45685088953376984,0.4762351264289415,-0.7316661876623017,0.22461124366168034]},"layer1":{"biases":[0.598752556817735,0.44433966703024386,-0.38908287865334856,0.283521395265806,-0.5193419217722678,0.1636092353245877,-0.2689723702527225,0.3374211079048552,-0.3515078194854282,-0.3207800610796844,-0.8094370131326665,0.31694051418585234,-0.012365060063009373,-0.20085425548901575,-0.6610627615560204,0.33608418995517136,-0.6625233092847396,0.5624602319095766,-0.2547457572546988,-0.8460936167576723,0.49654835711381734,-0.9293404032927948,-0.2627722070897564,-0.11638839100150178,-0.23095122675245766,-0.30218647431081874,-0.5165288612140694,0.4106348683034398,-0.5661477084022201,-0.3936220257577491,-0.173619888061821,0.2953076585923291,-0.7938125337431119,-0.20870963508603468,0.4822020163496418,-0.7153036075067127,-0.32605381861521304,0.30449129864291197,-0.00831346923656922,0.09284722489405761,0.5344935929772189,-0.1743791802753498,-0.10118786946985182,-0.7772606435249597,0.30577888302673584,0.02980926081445293,-0.053047829779843174,-0.23090394483228488,-0.05718636797704775,-0.14212148667551963,0.237998544336193,-0.08703157475358436,-0.27016481963466055,0.4342139226835957,0.006047969390467228,-0.4017194193099756,-0.2678872274915938,-0.7492521221947054,0.049868028228805976,0.13760413474888747,-0.7558097472648634,0.05071457277357528,-0.029302923948390763,-0.15657151552046122,-0.07452169370882397,0.1528078241017338,0.8678847863413716,-0.1480648425561719,0.06006559577548662,0.3079212750085025,0.4483301755477192,-0.3033811287180413,0.32599158615878504,0.12256352781852076,-0.6468285338378855,0.1297462657885852,-0.5059893408785793,0.1432464085832728,-0.10492561082298563,0.27901595430944987,-0.4024180817520757,0.2244171601669668,0.6531700216362745,0.4942659401155223,0.13319683588751952,0.10449223043151412,-0.6663645260185076,0.16971533551944906,0.07747644275628011,-0.43380652826822097,0.20537586909132932,0.003216791082074566,0.25324329105449317,0.34117366664911125,-0.00541172760571499,0.017114959136913334,0.5308566334076324,-0.7134061928909725,0.17542385153745055,0.3101897820554789,0.6429107469670445,-0.5035479324114631,1.120433713507437,0.0568447026309403,0.8024799707231793,-0.017608187300538324,-0.19790742562753527,0.19200813575159972,0.20221069753682008,0.31411072612258545,0.0692510900416288,0.4234339674901549,0.31481380932452163,-0.018767980943225265,-0.6867623284111126,-0.096731031623947,-0.22737631511369852,0.3991360266295425,-0.003860615833845813,-0.14917164561570215,0.662172058362529,-0.35884552781467244,0.14329276166708318,-0.34832368272356196,0.36270130216569985,0.5202331986963913,-0.19099051539803535,0.46047250080063207,0.252419285950323,0.2870416668803663,0.08643738882856032,0.44198324931175037,0.259583867357778,-0.16355398472704927,-0.06124222603700731,0.15431797195138766,0.3077569809883003,0.1331720606422765,0.1955669187194149,0.16092672901382796,-0.5773508692599454,0.1539104593373288,0.07681165676306771,0.1197259715369303,0.14141380767826767,0.1773288346107286,0.6157566839551867,0.07321951958704599,-0.2291147004202056,0.07288124608443382,0.21427191591326603,-0.5455005434196406,-0.9639956041703742,0.29726411949292453,-0.4678583142404343,-0.5905219640923153,0.0044562936939737535,0.5445470695208864,-0.4652004967847797,0.457492903822702]},"layer2":{"biases":[-0.0687262436341931,0.7866896722622752,0.2916823657490463,-0.61084511952184,0.4801770621806062,0.028768705370500976,-0.0678798341562692,0.3804025891060665,-0.5583172342838412,-0.7592793130037385,-0.042475619709345075,-0.12228970259884625,0.08034334152119268,0.9274340244098791,0.20841615358654386,-0.4200709490022221,0.20364897525730333,0.04720728610849058,-0.1736533894931665,-0.5236152080425102,-0.04265217713568448,-0.32560403963048695,-0.24942106057933314,0.37000007907553795,0.18386043542393565,-0.1496272930242585,0.07595459761969342,0.15272792439278793,0.11247681574448996,0.39629388629481216,0.23106440492789193,0.04839292636742949,-0.05486412046158629,-0.10271724964627583,0.2154349782830467,-0.06541340790971456,-0.626238150974908,0.13374586166718835,-0.6765980719053226,0.18459168462812625]},"layer3":{"biases":[0.16302834717272438,0.13064244171215592,-0.24695850450995094,0.1546791479818902,-0.45662761127646306,0.15645628904623796,-0.1696389400673606,0.4006275404766979,-0.06658787861823495,-0.6769916220627163]}},"layers_connections":{"input_layer1":{"weights":[-0.6432043778442689,0.28021735381024504,-0.048337841914772674,0.3438143195099651,0.5303926822961529,-0.3037216807740705,-0.3055901089523386,-0.006909738689012641,-0.18277680314363812,-0.8442412370825205,-0.7825464515016481,0.009001388593570454,0.637004057899134,-0.08985283078628092,0.44949057193572195,0.018977528123780642,0.5096473861519439,-0.2940029110562026,0.3162195174920495,-0.0721452870798204,0.43620666145761156,-0.33694312875251453,0.16682389535101066,-0.020396375897543853,0.48106543351147496,-0.009927823578301982,-0.2321542823369587,0.7003575273973037,-0.28217568116259534,-1.0292223525660622,-0.03861013945763027,-0.27773032886285803,1.0148710718335643,-0.04878442368638939,0.20241193749737113,0.18180977589953706,-0.036105635588622495,0.7305702928884202,0.2645915953597051,0.45131468197826125,-0.4016472108295693,0.3725830642701577,0.09629333602735889,-0.6106354979560455,0.48571171154594944,-0.46469295875308786,-0.02358521183779129,-0.2741395729382905,0.5874611449891624,0.12783068402514833,-0.34055840433045126,0.3274509590044752,-0.3303607419948713,0.3343402873328625,-0.3135647177091355,-0.694899178622106,0.06634950719103391,0.6180296647488637,0.6201986023996178,-0.1061558036648686,-0.18963347406605352,-0.6867227965100443,-0.19760697635103408,-0.4493185701987513,-0.00908279555219786,0.041218905936076126,0.4058746177398106,0.10812897769745353,0.11944318592461492,-0.21529763516871972,0.27821987107959906,-0.13591703318662063,0.2812246463887011,0.25302511058396326,0.5201489563835648,-0.45751857481434927,-0.22913198718293187,-0.313380272736882,0.2682524709380369,-0.17274169749912238,0.02104892557617746,0.030771502922976812,0.14418649392312438,-0.3416879175836162,-0.25736178793454234,0.02593529165580849,-0.7292575630205677,0.2110480069592778,-0.5845115312255208,-0.46351790150766936,0.3985199041319007,-0.18200593518243297,0.10417425131697934,0.3895979285291771,-0.4213283408177899,-0.38779551363355763,-0.3916498110262888,0.3436598045543905,-0.3120480752018407,0.10670150515486126,0.5570105530194482,1.3538298050300024,0.49999266523691877,-0.4640726602172255,-0.14645307150484652,-0.11062859942163761,-0.7064645878027552,0.44427772798526644,0.13233531821782,-0.534604386050149,0.3286537290114049,0.6068898713916812,-0.05663993923605158,0.4581664638791444,-0.4190476374215224,-1.0094963147462352,-0.8934808531019192,0.0423950068885675,-0.402448526214617,0.575719225958751,-0.9907129087416309,0.29774639166333516,0.8239082588911107,0.2514610117152626,0.04161196709898906,-0.5056028857719237,0.8355494313065337,0.24599252858548204,0.2782314594696696,-0.02738528479879769,-0.4479814579251119,-0.010187980168415604,0.1299213972143907,-0.5136169328238201,-0.23742974905845854,0.0922333389091842,0.34432429063569775,0.3629161556478733,0.28632995564851393,0.07244748483402932,0.12459735492860304,0.6575513937199943,-0.8228177905554148,-0.24457871705203924,-0.20370545827705927,-0.06368550136534916,-0.21887282134638048,0.13660123984701847,-0.887821419824313,0.5256322026553555,-0.6419642364158159,0.18873928734899006,-1.261302602729604,-0.6577833795572356,0.5104809239687267,0.3038726736563248,-0.2892453406258981,-0.16231044875327144,0.9697884786301764,-0.47710423468210467,-0.45498859005603465,-0.1492164852528024,0.04391444513312215,-0.03413725619921818,0.2073518295463481,-0.11776392396455376,-0.1345704332730043,0.2320635310854133,-0.28541734856380335,-0.2589223802306568,-0.605679892921913,0.2839675374062608,-0.6531113630359688,-0.25907312348806655,-0.48728298015361887,-0.3783945366077287,-0.5359897805071789,-0.36321580585850644,-0.2223543170509958,0.02600577244160677,-0.46072149821830627,0.46376257350304284,-0.1739015570723339,0.5039460174835372,-0.8943549384359268,0.10593949494181296,0.12451560869663716,0.07280237356743195,-0.17116353374158386,0.23931011195093038,-0.12683290449738308,0.33240150869276397,-0.8437571049879264,-0.6082685270414654,-0.5022697831807348,0.45777341670470095,-0.47161393387564815,-0.10817719737042257,0.041706844009952324,-0.2742009967085776,0.8392041546399658,-0.15450928265765349,-0.03425313340162032,-0.06898910030195468,0.20465997351252443,0.2675169896692615,0.02801847362032392,-0.3029718428099226,-0.3841044031753535,-0.6956007912623231,0.5352247852226086,0.03853692184145846,-0.5816391365520683,0.10047807161922771,0.8786494102188439,-0.1548954103194831,0.4824607022109482,0.18830612304175742,0.40409181928852755,0.246515528614358,-0.8351482984017057,0.43827188488450924,0.26097637554568476,0.18009697382203874,0.3288694511832991,0.19264890468745416,0.6086721776152428,0.6439378125201152,-0.5730511703337858,-0.5256125591674272,-0.5389837037195254,0.048261049364238306,0.24896823902228926,-0.12311024118222577,-0.35164014849723135,-0.2372184138633273,-0.6214140988518275,0.3017968265005536,0.13490363092679838,-0.4276987229952802,0.366788718804553,-0.25342193117179573,-0.8212408440221557,-0.3890042626499759,0.04109438593142536,0.29738521328316014,-0.8167636476783408,0.10840716379177201,0.09186255599822414,0.8026319969089137,-0.8018944767913699,0.12931830818765933,-0.2187219255580414,-0.789764457453108,1.4092132567282736,0.7017420434326511,0.057755296418129445,-0.018663845390775514,0.5581685186327121,0.27422857031054065,-0.02266605975026184,-0.44420199660933757,-0.34999209234259837,0.06850961184638045,-0.9476017414531985,0.24059173351062754,-0.83366689928849,0.5637351130225758,0.17280199233578225,-0.2184952803814892,0.0495033054450814,-0.5123391942076941,0.2184703778355226,0.2120663285514806,0.08986765093428888,0.2838528575643821,-0.22614414383080442,0.313973686736144,0.48391491892932953,-0.8061088660980338,0.49883784769860773,-0.2404815245249666,0.147796396911693,-0.32708404971639055,-0.7321614250878805,0.1730689180423014,0.1263616844809438,0.23661943928440982,-0.052369899111452047,-0.1984040138759378,0.3926516184824225,0.06968545685949736,-0.35377658071030543,-0.1609688934891511,-0.3916199971484918,-0.5253688749499624,-0.5477942205341088,0.2829319364205404,-0.7075857097507615,0.554395689276746,-0.3980508087984381,-0.38619267880909636,0.7856412120712684,0.032834757202268076,-0.4337283917911482,-0.5852988796696111,0.3383984142039884,-0.40074092315991194,-0.09455949863173356,0.15013419225356306,0.3231346971157056,0.15564175746928224,0.07985462632376004,0.3194656927788325,0.3766706937215086,0.2240456702182729,0.6217427815909707,-0.36823813864952964,-0.36202717007098195,-0.21526643687606375,-0.20988608243166135,0.1342147283858445,0.017929861022069345,0.0422371242069675,0.6508139460569947,-0.3712621054101712,-0.4604727985586722,-0.5062443725754219,0.21879761552587948,0.18891418566190882,0.3807122045245358,-0.13652352125182293,-0.08693968857515359,0.22621954560914068,0.05682141848813549,-0.6096852512968995,-0.22280235014997313,0.7585775293704038,0.8646522127452656,0.14802433444211788,-0.05168774353492073,0.009198827608477796,-0.30049905000214294,0.03816116456810345,-0.3684249565879982,-0.7616069267232545,-0.1476076632547921,-0.5450946444413829,0.6076045346973452,-0.36810455733759584,0.2667546014416886,-0.12466413411702465,0.41064276272895767,-0.2841850004747898,-0.022285103717556494,-0.7168607849946922,0.5965993965175322,-0.20183421075039826,0.24587385451209265,0.9083683165414314,-0.5871356521315065,0.21395355924294054,-0.23955450623496513,0.30721615757314547,0.6652859644408896,-0.1952313348083525,-1.1655752262905619,-0.7738771140573704,0.08890914388170533,-0.45052127399383746,0.07320775169680581,-0.563432665943617,0.8410794609413547,0.5390493462155405,0.05564218452704711,0.40357497823358546,0.22496620665314274,0.4569108542409048,-0.17040917806123138,0.11840021419909072,-0.35020779469411245,-0.26276807916302536,-0.6245358967102861,-0.12842390553488509,0.004381879789380002,-0.42934816058958636,0.46023952727456674,-0.1704204762623844,0.0003687516332535404,0.08695835693715745,-0.3236461817032507,0.4371825755491248,0.04873971692912647,0.02547221967836323,-0.18561326356827282,0.15567766865369853,0.06642314455519731,0.5298191884767594,-0.3693889335617313,0.2999288837640013,0.08531281000844455,-0.6718181279001624,-0.24309788351266692,0.06730902151800557,-0.4557063728111665,-0.006715102033655168,-0.4191712575863058,0.2775849104283788,0.3699071090476454,0.49213074059874756,-0.3931981776781109,-0.4839593157964243,0.2545000000867384,-0.013944850736586856,-0.6580072486373103,0.13138942425732242,-0.34687704208254366,0.5945896485102303,-0.0865203845455331,-0.7171573914144679,0.02080889284881596,0.5465104386502615,-0.7037462768766178,-0.04740314500216081,-0.48358745828546135,0.8439690440313199,0.028746474304982964,0.7672626913944608,0.2992059065123709,0.25256113667849306,-0.20559160250684272,-0.2286814477435869,-0.6011320873477255,-0.9551200613770129,0.11295411345739416,-0.7889267875422026,0.005623604431931571,-0.9919060817080498,-0.43295669209800747,0.5866736191159695,-0.03154101876459792,-0.14722293937392525,0.6899569557248822,-0.9541384063370886,0.38926394654395646,0.13559305381827827,0.5000704644982245,0.34055062586556245,0.21676229599459182,0.23154490357904636,0.18432315738416083,0.022751772033290416,0.2740196853930861,0.4148724794451286,0.008188161100679103,-0.7628577480865885,-0.7603421980507946,-0.01430131168427462,-0.22896425919977942,0.4604353336486646,-0.7998335249664806,0.2174092858910165,0.31654813331905324,-0.12051387820115154,0.21878624501467558,-0.47283661541617683,0.08315179991857818,-0.32320613116603586,-0.669260412872122,-0.3467954176051161,-0.7009304409065706,-0.18548140725237958,0.2978500891581022,0.17657371902250832,-0.22533693801160676,-0.5455505639344518,0.20168398565953385,-0.7834269046514076,0.42860816545300123,-0.10982409439350588,1.0703886967398875,0.038955189058607634,-0.6497670912000854,0.5997619758541735,-0.41456566409401463,0.5001079596770764,0.561181866722065,0.4572421681394367,-0.4307251203192609,-0.037525085071731384,0.4978206874944383,0.24556619078539837,0.4222469926975236,-0.280979644503923,0.8236112421541749,0.6793201503665194,-0.006760673606849907,-0.005894077911354212,-0.3154921902208889,-0.24849776937075457,-0.1090131972235257,0.0905819227626612,-0.6182965265095818,-0.07910896298775277,-0.4025370257627207,0.18900531534727388,-0.07692452270983308,-0.25462942058961324,-0.2908457221266342,-0.5569159152204701,0.2690100621649882,-0.16415915117786595,-0.14195994258682343,0.6961854945355342,0.1796994918355142,0.2798417050940834,0.7820975505386873,-0.6399962023028455,0.3487929616905427,-0.09088450469919035,-0.059808589442023885,0.3635427264331052,-0.6015490149282561,-0.4309983708772434,0.6120814336208118,-0.511818358083871,0.20708680803671778,0.5862415148135415,0.4517790880905489,0.1955354757771724,0.6048754535971467,-0.09910871228270064,0.2629104691960315,1.135639330159091,-0.42028624338546017,0.011060760287836945,0.48112136039698056,0.43507353167584717,0.09947641759867736,0.028911596166248076,-0.3716747190495169,0.8174666914517547,-0.2654839823603605,-0.08433853041263052,0.9603787291804465,-0.19416978446909833,0.45865585233870665,-0.10877272779593165,-0.07499656159272451,-0.08763922554315619,0.371102093572281,-0.5009158567078197,-0.8272311802971903,0.8441925432271998,0.2185343834331627,1.1418889884371266,0.4463028220176916,-0.45171574171552303,-1.0160718367050576,0.46436687462940907,0.08120094387785855,-0.1906582849635408,-0.10556261755612434,-0.05382699639547205,-0.2998064330527727,-0.07393509617946123,0.6095125820661285,-0.2577799030316241,-0.19836743511392532,0.2968478138098963,-0.5633308989668762,0.2226218460939835,-0.183824361356966,-0.05897959816700869,0.05726174758896238,-0.06479544911280029,0.1703825585341506,-0.4874195189810334,0.3519781770562146,-0.4545986578492317,0.37843997673113433,-0.23988588180813292,0.47751161305578554,-0.18896707231053902,0.3262544879316701,0.5700448005341203,0.00801162755830119,0.5466224148432319,-0.009403256711754224,1.0132586935761756,0.055121146118099235,0.4183494644150001,-0.16111489400416323,-0.10379453204077276,-0.5190207604241845,-0.16363285443625247,0.07485435532638608,0.3013276767928175,-0.32926546834337755,-0.7291758731400876,-0.42143059810893874,-0.49243463531518894,-0.4993606167357332,-0.09254025998075488,-0.15052800154702015,0.596063637316519,0.28208406328312496,0.19150754109753867,-0.031225614088175892,1.0435117878695621,0.9882524868287876,0.9878515715596109,0.347618525609653,0.4711355022738327,-0.49004742145943353,0.6093799022128323,0.5373209578528721,-0.7306657192092442,0.3583829871186851,0.1535787450540121,-0.5645524602663908,0.0729053379426418,0.3321064509398002,-0.3308139578285019,0.5481968417932593,-0.17230378835946983,0.1032783242282296,0.7660967247833299,-0.31104540592305463,-0.4968041470001173,-0.08966405478440859,-0.5595831703464693,-0.5022761960460551,-0.4415703374075217,0.06720788857826894,0.13355247554150998,0.47165410485228676,0.421355833768573,-0.16882416349504129,-0.5108641466884684,-0.28622793678029856,-0.6475303207007869,-0.043888160344763456,-0.14423564159325325,0.2373445042204488,0.0863793925187224,-0.11487482471319246,-0.025168820537519874,0.255281658141005,-0.5467539310777969,0.6768919256764452,0.5787757172334898,-0.9346321311729152,0.059860046439329934,-0.11048242904345429,0.30626440232901064,-0.48440373262378145,0.5434069164371904,-0.3118848158634414,-0.26445606783280406,0.22882342869621794,0.3706055885281747,0.46543177354277077,0.17709366810565902,-0.28561167944464566,-0.0712744712566536,0.017855889903181935,0.4007008170394561,-1.2085880441480228,-0.25549726749527113,0.5419867708874847,-0.003495782888866153,0.4089019872450497,-0.6888733304724187,-0.3762788539409255,-0.35271181520180955,0.05866386641375793,-0.3019010961692539,0.1340022555638623,0.45039812137610974,-0.0844176190111034,-0.7066527719284784,0.3232304365057691,-0.23946898044362697,-0.092817765910547,0.27170089231232225,-0.6071863852110705,0.22666136599089515,-0.07624346127587926,0.010555202076121234,-0.31288028386437683,0.1955098915541858,0.7606920113456496,0.018196297533387834,-0.3722953786821616,0.5180829291436121,-0.2329280207277037,-0.03741566581299441,0.4936088629426273,-0.21512471038576783,0.4701419138852181,-0.7176156172863097,0.426076804513977,-0.5154710704354408,0.33158977382483495,-0.15581871536932193,0.9950005863124249,-0.22212339482327206,0.5030002121311967,-0.2720880906859924,0.5760015710425214,-0.1997365766799373,0.6545886698983682,-0.28633682651560416,0.35037443482050856,0.5510278928976479,-0.07425788160977739,-0.16607989748481175,-0.5988380704258027,-0.3152590894993234,0.35267327448443486,0.1319934432325038,-0.46566641337933445,-0.23808922822659295,0.7727061877086091,-0.7158796648880988,0.3195670028021662,0.3866815084581563,0.5429123455955397,0.44586541486402226,0.1619227516618958,-0.2758265074677576,0.00577413479433702,-0.4257157598795298,0.1668790302199354,-0.005388825062045957,0.20425894432118527,0.14494456685850698,-0.16991987019852037,-0.6427686712571417,-0.44519116804034137,-0.16337197574053194,-0.19817271599116504,0.42282052874996867,0.5989638840086514,-0.03895049350105524,-0.1064742959256802,0.22944963498499693,-0.009557312331556718,-0.1135658914656634,-0.1770671987320419,-0.7749933079455351,0.4043278911465166,-0.004651260740712423,-0.35685460095445165,-0.3011355442647536,-0.262795089936957,-0.36359403759552,-0.22204009733160995,0.17467208856978853,0.16372792820006127,-1.2482592235967704,0.9677310096303198,0.3085430320257002,0.06992736497771936,0.037104832071457095,0.03441870970662182,-1.0423279161100145,-0.08683547980212715,0.015135654922922043,0.01514808874928869,-0.8801285246234303,0.2731765669947804,0.08521984368139937,1.1563200162366016,0.1576880182461979,0.78329316066336,1.2107968937618658,-0.3773385700863745,0.09976001565194494,0.14108088386026127,-0.5152747380701362,0.2038093289299806,0.12101277782763617,-0.4606800257903095,-0.003504933380378536,-0.035018151795368845,-0.3324265135373726,-0.17939595927028404,0.05202565812060955,-0.2527869017008403,0.0171368735238238,-0.38225195482240926,-0.21766915536709358,-0.13841299260760792,0.815249810952665,-0.1378541319861807,-0.6964994579549171,-0.05786927630011862,-0.30126846426336595,0.09624045498900241,-0.19933132933038128,-1.0344446552374558,0.83071589524537,0.03122832599183383,-0.0025275825991576406,0.058221018019812866,-0.5306665797238221,0.15368903117584856,0.2513478637897585,-0.6231487449953559,-0.3749796434095892,-0.1021033701036692,-0.37270685951370913,-0.3007991924395167,0.902318420151982,-0.49547201403802626,-0.13528635936524303,0.2703115781276178,-0.13038762700088344,0.783323903742433,-0.9264051857861435,-0.10511843752217825,0.14526492186836612,0.1023900164649046,-1.755337252944781,0.17097352726998602,-0.3433772082923844,-0.9928537192273937,-0.01897006842465644,0.6217526316932646,-0.1675910933249954,0.3799654245607233,0.513977801237999,0.062433595789961126,0.9250094876668639,0.6929510626231995,0.3284262390397997,0.8143962101249954,0.03493913799911862,0.16321632303423922,-0.8705849617815918,-0.056105238233581364,0.17564750485315475,0.4288998307105285,0.3218700806672054,-0.5425961630266029,0.789323496339353,0.1976658186617443,0.04923482040584745,0.3505737530424144,-0.30620175490768614,-0.029075982179311757,0.11427342154962608,0.3781166697328575,-0.5251471373833175,0.18863346057944272,-0.2838577638265052,0.29983827534550045,-0.2835325418663223,0.28103115640806176,0.03534237168988655,-0.17421980260809186,-0.333498862524733,0.5779141437542543,0.21035161031557434,0.14232358857795652,-0.6218238492723929,-0.4887300565067076,0.07552592798734761,-0.1270212826637534,-1.0283875962239226,0.18613907875385036,-0.10091224113278599,0.558095100441809,0.3894350870043545,-0.23993373625414086,0.15941203701583326,-0.09659601825029006,-0.36809098786039735,-0.4660765548501311,-0.24031166592739464,1.0863704964243803,0.3630108771295641,-0.41901826978093565,-0.5688483897572734,-0.11369920630518372,0.2880447556517047,-0.204522252792237,-0.9044760258749288,-0.5580107351222756,0.25263147181416074,0.16533391395618743,0.3977837947242156,-0.1831049197886109,0.38594224234178,-0.18657544102530776,0.37372267044427376,0.6471906907699942,0.20313402927558571,-0.13975244989126628,0.25466442597029376,0.7389278205032905,0.43207051943687663,0.24908413479166527,-0.06055857211752111,0.9840928320065945,0.1683192455235786,0.4693552681872814,0.2984920392507881,-0.47701763448556567,-0.0006962534070893717,-0.3948419029497893,-0.4155768368416345,0.2051568621394531,0.06389783673466791,-0.444307923213668,-0.10522420245518577,0.1601074021070219,-0.2876248705933129,-0.28547462626118136,-0.7435721792138591,0.296182459877444,-0.7431240201496698,-0.1342988568720213,0.062101873983459316,-0.21489048304712138,-0.06015019727410171,0.3177342552114757,-0.0949279717046094,0.9556442916146823,0.05028836222256653,-0.15429440914147097,0.2731335696992785,0.4876850094980684,-0.40078286234330934,0.2162639596138898,0.14179084195112132,0.6536573753872251,0.20149475109438333,0.03713218187699709,0.2258154717098823,0.3156340430671753,0.05292315567997435,-0.39359325057549527,-0.18288181126457687,0.4082679321630889,0.3418006784355734,-0.2515189397486971,-0.415041318320452,0.10599818873450075,0.3064718184238053,-0.568894697519449,-0.20098169115532932,-0.15932575269996815,-0.2670672424050657,0.019209941488905875,0.08821505753290355,0.509456271087468,-0.6404466974915661,-0.6791966670874808,0.43822561214820827,-0.043074278496238065,-0.4895789898219879,-0.34511540106113164,0.3969192110804952,0.5130975665983846,-0.06613438598196972,0.18276207602218894,-0.11639381962311279,-0.592403113330633,-0.03146249914561754,-0.054315100467020275,-0.8484683007716844,0.052104678123749984,-0.13076216012307473,-0.33100424369603904,-0.17210723159040864,-0.3338320502651526,-0.4638267849228517,-0.09060305074179287,-0.5124028431528916,0.37818196857232106,-0.1481936578855694,0.19717837551539222,-0.18798183867533205,-0.15967308790624346,0.8319657790882926,-0.127949702954607,-0.3116282543718785,0.7004180833385327,0.4143538490232983,0.1778069699224648,0.24720628387837879,0.17283059156695074,0.44992437770874905,0.28016917608589753,-0.42837361603211555,0.7568374961373645,-0.21656162721762573,-0.16423521126854576,-0.06061423040618099,0.6074105159087623,-0.5431950291926421,-0.07232173396597562,0.6100668194838276,0.1899597013716844,-0.25372764420248617,0.7648110885685288,0.10316965396234198,0.21735587062409234,0.7304236314339506,-0.4364321564893544,0.245693355594395,-0.21180081686242372,0.834859607432511,0.24243351192441165,0.3370129704796485,0.02314291529037047,-0.7394734470672369,-0.13372789478088412,-0.18622466963902687,-0.24308763299076905,-0.35928119725251056,0.09794055115398732,-0.12838902199819474,0.4368970821259141,-0.3076602422841688,1.094052767098622,-0.5488489678793269,-0.1698703251760736,0.048276335488814534,-0.5052941372212227,0.5282886114576077,-0.12018401316894224,0.8366454910094584,0.5173532826806707,-0.1832724451169637,-0.3491872165603295,0.3808664538123771,0.28643197117981656,0.13182661856659617,-0.611818437716381,-0.2334857878056417,-0.03797927954557967,0.10847858002122272,1.055361734006338,-0.10325591865495301,-0.1608337741808703,-0.3680887828658787,-0.08091641895236612,-0.46463826454153084,0.28520667545249656,-1.2845873728900408,0.31360008914278387,0.07931534307365772,0.6236475954755953,0.23307560287197876,-0.15663146898014574,-0.6968820906001921,0.7026778269081935,-0.135518180696492,1.017160585303675,-0.302354922308843,0.11412617454361004,0.04765948171039916,0.45917641745088367,-0.08551760658182771,0.06278663890553265,-0.6532910548892851,-0.1333909679851955,0.09420488903956503,-0.733437815082651,-0.17039966062548828,0.30936313373265606,-0.30183434773565543,0.21352436052252544,-0.45311282872720493,-0.0553695850828306,0.031765539423688885,0.21079116295264477,0.5812872472870598,0.5997095369796079,-0.13366746329164014,-0.15979975958905587,-0.3787019567375718,0.17281346914845186,0.000947792591926698,0.28663129312032193,0.6091416933608436,0.3829493079648644,-0.18090566337974184,-0.4287481095719831,0.5622625173243172,-0.28532800130637986,0.15298694558733425,-0.5674991093090782,-0.7516978986479487,0.15623806147579306,0.40239173030539677,0.8884565274929047,0.8586971387971196,-0.4838403420350343,0.06783481720422893,-0.16446501635027821,-0.2484352671473055,-0.3208269942972668,0.06804964966683755,0.13310495945272724,-0.04630773222795738,-0.08571061201532916,0.5165010065536401,-0.3896543350202585,0.42689597747748326,-0.6855199729118586,0.32391620857365155,-0.5426378346820929,-0.5170154801831214,0.451745331983917,-0.107975414248783,-0.034168461110302695,-0.43358133097382745,-0.1688393500047642,-0.6544861800480489,0.021539079430375203,0.07766094242516358,-0.8420524895752077,-0.6642145870945306,0.031889233059699464,-0.22487356797173302,-0.5035481580200585,0.45343575745222836,-0.6864047470333045,-0.03850056382627279,0.3772904108062304,0.15029871535105357,-0.7066193140483082,-0.23907657555037776,0.25704969466309086,-0.428744592088423,-0.5813521508694394,0.012196255146288523,-0.42527888226228394,-0.8539280608567629,0.1727455460605024,0.423687198859729,0.5352834171666416,-0.2826669146865849,0.4093574875551008,0.5953001256339985,-0.41054849765814483,-0.32927664601061096,-0.9293091729875484,0.35825000512800864,-0.011448068530561779,0.496886033848438,0.03922036660106273,0.15032659516625135,-0.3569662755961357,-0.2431880119458653,-0.685555754216185,0.9037673375726315,-0.08752836050203358,0.1668884939780881,-0.028052860934794904,0.6251976169043951,0.6664882328230055,-0.5379065957971791,0.2875102757405064,0.014911469138548662,-0.25327521536119135,-0.5542131433258582,0.3110849527685829,0.12880814954048608,0.12040685469550544,0.7140854360670444,0.5631590987539158,0.3103297952729597,0.05845050696042594,0.48354629560793255,0.16314491656346033,0.35776945698216894,-0.07218747473867826,-0.9430971556268296,0.1878466962282891,0.15808169221992557,-0.026853124673665622,0.3989151838687297,0.05266708691517488,-0.23661656771209408,-0.02360740399955202,-0.6799022402215159,-0.05372761518495702,0.14564459237166413,-0.4764620300010933,0.04397812506828375,0.9560178533604542,-0.7647802323677529,-0.30120781595007107,-0.16774730034908283,0.5044272548335736,0.0734712929190984,-0.23520697573113247,-0.3978900881230071,-0.10717254858339384,0.48388399876276894,0.12680756638448842,-0.3275672133956724,-0.24935910094934607,0.3120848758775572,-0.42482069199869515,-0.6939311684917091,0.3243518509112931,-0.03522623517006992,-0.643473378345367,0.2957042211827813,0.14443316095760095,0.8313327809998199,0.4442410428544216,1.211646605076548,0.22049370259803278,-0.09570749718653941,-0.5890637313100163,0.07609176803094855,-0.4438573743590896,0.4103747349449104,0.5806317524753675,0.24099893566780495,0.04119213348313735,0.8859271566015722,-0.33754465448548643,-0.06353516837186755,-0.5029722789991349,-0.07704620644124033,0.3558178450105852,-1.0960504354330378,0.9586500013066301,-0.37256013330138577,0.3201256075764938,-0.0825843451522851,0.012642548967974038,-0.2208653260760581,-0.449276561154017,0.08896380580584162,-0.0012267269671657095,-0.06727308078777572,-0.4503709567459651,-0.507374195500286,-0.2599530705521594,-0.04391627063356843,0.5175483782020117,-0.21960825199694212,0.061532651244575104,-0.303826991356259,-0.4230362480601656,-0.5544429649595402,0.03462634305306021,-0.3551552717352323,-0.5261105441044602,0.5390415854262962,-0.45258024843692013,0.6366749761290659,-0.1318565178073866,0.333356662821463,-0.33365614282789097,0.04551221328920455,0.5188447673649128,-0.11957653249118985,0.22400414122885343,0.48732495740323095,0.0184905533193977,0.09904215822337706,0.06255698411934013,0.07528718050414344,-0.06309743178157834,0.7636535590363539,0.6115431100509796,-0.1536329146161977,-0.2217001633669127,-0.040297008548763315,-0.034664677713208324,-0.7057329956157417,0.1992578128617149,0.2295364623935972,0.3292060038028403,0.10762338174208189,-0.11744631371755879,-0.051535594059824295,-0.1840653537180044,0.1531260266656482,-0.2239919798989337,-0.21611062645497084,-0.2880883115580117,-0.3889976891812092,0.24133159096304244,-0.29463864808840634,0.8326171512736333,-0.4941482310800256,0.0643494714059761,-0.3660149771330251,0.049267257995864594,-0.21167270371630473,-0.6759143868323051,0.3305268188407272,0.2729066651096944,-0.5965686158566317,0.8871848012814405,0.7716252945219566,0.7567359354253174,0.08131380786344702,0.635053459274868,-1.1003629400844475,0.5138401110014809,-0.6378348487583081,-0.31214550131527374,0.2609498901258416,0.23085836438158377,-0.037148417826894646,-0.23452249435105552,-0.5596923557581989,-0.08264397277249197,-0.022517382179451262,-0.3359662143995797,-0.3314861979464032,-0.48490051148047736,0.5285571285102177,0.22110020691723387,-0.05417054210545531,-0.3945661211392757,0.3542361713482662,-0.034926687572374986,-0.22962813555996045,0.13580046916094946,0.11610186450700782,-0.32645385356571816,0.2509875111289163,-0.11800597082174584,0.30002101743811865,-0.23942226768906513,0.323970206925522,-0.23717928635683277,-0.1504858901143496,0.5084531960123895,-0.760943964991794,-0.11818331847247063,0.20831594736111597,-0.6366573185554084,-0.05981453373195203,-0.035202207821839,0.2133726036601325,0.23505452711583338,-0.2185961282127674,-0.02142407441307522,0.3292085087219364,-0.2356816914567088,0.36776994563096793,-0.13830467745023234,-0.00040124440318789825,-0.09345707162612628,-0.06940333456237716,0.4588728791084265,-0.23327147145122767,0.1291662795310832,0.693026775370677,0.08823087536410104,0.7733718953768642,-0.37407005908711244,-0.012527644889235585,-0.15447759585614368,0.2927811504167136,0.18760537117784123,-0.6312951930462377,-0.10671993465064397,0.44409721322635426,0.7513616176189916,0.5411155012476211,0.4653775743167104,-0.11407722569547324,-0.1418406987917684,0.07457992599765148,0.08515087849304526,0.33434313185830966,0.5172970941512169,-0.19855781015665358,0.38299865314011017,0.3272620171918428,0.4220248299302898,0.35691720209115735,-0.26208821793633064,0.037041938723315924,-0.9383222559328449,-0.10046016308869724,-0.08715377100309865,-0.12500237258285216,-0.9055357135672869,-0.3781847967758868,-0.4438577851111072,0.39090566515425584,-0.8065233371800792,-0.23685991907779622,-0.09614943478526222,-0.3303888436324073,-0.2592089143296341,0.22768412636083002,0.6510616150442043,0.8632713040145562,0.3661341161250826,-0.8872516315683122,-0.07199203695911746,0.35981004711215936,0.1901241220337881,-0.08540968490545602,-0.42874137489696784,-0.03905872653026379,0.2430520934535308,0.821494135227226,0.7227297562251643,0.39013604817057657,-0.9330524945942531,-0.2861418313274819,-0.3543483722651417,-0.752779267199586,0.6131569942961401,0.6023196231294043,0.10003777230194155,0.025753152259880546,-0.1292921439088707,-0.21032482873897174,-0.43174272088554305,-0.37043259032438425,-0.20110681058149713,0.18285668559092622,0.030581993035205746,0.19135340967196685,0.33638051985654255,-0.5155994175979205,-0.1273869088659533,0.16469009721256306,-0.20573273697821032,0.3348419649608193,0.0751306269044019,-0.5610065268339747,0.9446050562008115,-0.31522966801970764,0.3974730284473728,0.46384127242739753,-0.035426014043096206,-0.07421715913167264,-0.06760183855733058,0.23408006264287057,-0.631395606713194,-0.32957052890297384,-0.6529419286289404,0.041870731446099624,-0.2022837800558906,-0.11377669628539638,0.9765599453505859,-0.4681492042722151,0.9045652185354308,0.06355831248678337,-0.3257831039985036,0.26784924278192307,0.03931841781598612,-0.062444292441904026,0.18455004653263118,0.438612557494015,-0.31347278806046286,-0.1013177906098888,0.8242578088556182,0.0012129020002603162,0.07102746534763868,0.9984302644134123,-0.8445554191726748,0.18331108825856154,-0.32432563413598126,-0.42389197390409794,0.1067198304749465,-0.39790063762987943,-0.5451203667640511,0.43319558353278,0.7812526255941191,-1.0214305281024452,-0.04644525879791606,-0.5172232430668915,0.18126318869828642,-0.9334614208116233,0.06372894685550701,-0.05667695060233967,0.25521619152525393,0.4518050806174068,-0.0405019028607063,0.13356268408561375,0.07445076879884427,0.1178760735342872,0.5782036469628609,-0.6658466523952639,-0.42100773471651065,0.4797657180455565,0.1428185575694227,0.26744464707215565,-0.16505449726321814,-0.12440263764145498,-0.35132351774668386,0.39413736650452486,0.042293056327465564,-0.23983513566604325,-0.3968563428928199,-0.6141783091477254,-0.012081438238626402,0.05926022180720707,-0.32772632936557783,0.9572880646052147,-0.33259579164925757,-0.2976015385262478,0.6941167050051422,0.6384397600656682,0.8372235376245849,-0.6273915958477039,0.4852381652271377,-0.302508122203585,0.0031575787517517384,-0.2771002115425032,0.6422323181424789,0.2960853428581932,0.4701401974200452,-0.8961591830198128,0.06629372327347346,0.07711141792263579,0.19057240320151386,0.21393801205223292,1.7246082334087955,-0.44170072945304073,0.8784675374626829,0.07559188870007381,0.6532021553657007,-0.6235066097984198,0.7231734754199975,0.5303438713469874,-0.9910761056467634,-0.10745726966719776,-0.34198165034424427,0.31889138110982385,-0.05520362877836692,-0.5160327057350841,0.1202776963869058,-0.6975274374630228,0.06836338786266222,0.4348162633604105,0.6677589412578038,-0.32414568185097115,-0.1957335129956601,0.3404096559761428,-0.3903506065322311,0.7762620993303555,-0.1978158679800095,-0.31181498787582135,-0.054931302155141595,-0.2920673127293982,0.974037177233358,0.6184150057531964,-0.9091323141278764,1.1195694592207721,-0.3721120788049879,-0.11083551469938277,-0.3960449909379502,0.24619488001322104,0.4460240350574481,0.13971644357432284,-0.36633529310062096,-0.1957056702888373,0.3353703924928362,-0.4765334685607876,0.10986360081453542,-0.25056629190940377,-0.5145925043913709,-0.08382889370217125,0.19710913419860437,0.13362517614150482,0.2552123196990357,0.2545037964747145,-0.6402429234776345,-0.29959817122058513,0.29968606807338877,-0.4532837742407851,-0.43871668940716696,-0.03514610434104641,-0.5062596452085696,-0.3176646670090739,-0.2969386750406351,0.616799232794329,-0.39883609366973005,-0.33755220955474935,0.14162750617222672,-0.10356433392425124,0.5832962874587285,-0.26969146994084403,0.2863837045091255,0.35956990535944006,-0.16832866342889402,-0.1256364365223408,-0.0024212388338076584,0.33248839075412506,0.46142733950219794,0.5657536893090482,-0.03353746014449418,0.5507372826766185,-0.6383481443787452,-0.3000844918789556,-0.13895903424113704,-0.3300171280327245,-0.060324680890886995,-0.30985677502091846,0.4702162596122251,0.13976040903392392,-0.10938129939366542,-0.11226753189609337,0.6055379206482434,0.3680679741284677,-0.5509252827259346,-0.674341535426996,0.5464877855858308,-0.8779326924218593,-0.2191218096986599,0.048621365561071626,0.9561897403614208,-0.06493408110533748,0.25324229315735813,0.009795058318576688,0.5038006868253957,0.5368531471239878,-0.39530123122119754,-1.005930417329738,-0.4009906835643613,0.12015973766392891,-0.31830760462228824,0.21855842560034108,0.11722765729220508,-0.18229350063813068,-0.31469260453174125,0.31687887556064154,-0.12443305094683776,-0.024247098304843902,-0.6096836623537044,0.557562817386302,0.9521812529408996,0.3522114822996555,-1.2536542136003577,0.7020880435342507,0.24558721737084005,-0.6297360216695277,-0.10562036703297571,-0.031103518019058578,-0.800181023213802,0.015009506270545963,-0.13118787511736812,0.13404944544388175,0.24834408350738382,1.0194959980353613,0.2575166161502245,0.6941562025780408,0.018010732460374473,-0.5094465116728857,-0.1384194868418675,-0.04777576834758607,0.4238651133945536,0.48353524510365387,0.3571467269911594,-0.24673756951001363,-0.0686843125362348,-0.17669555783864058,-0.057496319512201605,0.2251816780097118,0.3519710920127136,0.2409134323156937,0.6268256432847924,0.15937384010404712,0.6970803097930932,-0.46433195455993514,0.36612340694283174,0.5747190260492456,0.4816835554347855,1.1066177634855432,0.16825052155696923,0.009434012918085287,-0.3930884894791176,0.46701184802506857,0.47505987124638543,0.4851504416470547,0.052800953310538856,0.5901375686835242,-0.07240675921775497,0.01622173752695923,0.1312532759338712,-0.3316109334453237,0.6948533650895399,0.23869059435103965,-1.0406900943176665,-0.03316140658909862,0.6860729223669262,-0.07002211103367012,-0.4020508444061768,-0.0666319574308092,-0.4834995365744983,0.4878115179507189,-1.1121776461544355,0.011428176378771642,-0.6614298503820663,-0.5211013074617237,-0.2678136766559019,-0.447427291788687,-0.6922094556026772,-0.5755322076997541,-0.06292505945295321,-0.4740328980880808,-0.15855112662335724,-0.0624440663500577,0.18714831310908805,-0.19970568774339353,0.3803215531589226,-0.39281168232020086,0.3306173267029079,-0.11188658009386396,-0.160718250952685,-1.2566868354037584,0.1069654156113983,-0.048292187408593486,0.6471606613332213,-0.07169613643686645,0.043048940002376114,-0.07407586225316787,0.36163126841437676,0.1541522698595821,-0.4248216696059732,-0.17309207108407448,0.0005868928810083699,0.5928320717811456,0.46318392331875274,-0.11731413164156684,-0.5409695724892142,0.5416458480106524,0.5134856795749259,-0.11056304836723799,0.7748856404775809,-0.4878244553173938,0.21623244254003846,1.135720776002499,-0.47911811256940856,0.2742735349238308,-0.7792566067993154,-0.47609192000031325,0.11248391032053234,-0.6928433372629064,-0.36579753781760405,0.39280779449249664,-0.0640159741480571,0.1197194643141593,-0.43701069905789025,0.9322685444947829,-0.4818910302722808,0.3669454351824514,-0.0966321726714035,0.23142889006521747,-0.11725187396321651,-0.6001039757151535,-0.267742200880657,-0.16996828696785293,-0.953134583793447,0.033022808539250964,-0.9288468659684587,-0.4410714687152062,-0.12160665640527077,-0.04750728786094604,0.6360495334424625,0.08751214300938287,0.08820113914574715,0.7610150482861238,-0.09978303531220642,0.3770846433440974,0.10442537666477143,0.4986512105866335,0.15430326425144966,-0.024314579527515874,0.4923051309371331,-0.10047450221119361,0.17240308584213174,-0.21955074306791755,-0.47130263935823596,0.0679357150920999,0.4372184282445339,-0.4467910021218736,1.0393461870617111,0.49818269262581516,0.45789047055052734,-0.15997521577420035,0.06447991866087271,-0.21144634231987075,0.8393937125971255,-0.18337224497136037,-0.12120896164315526,-0.5920069965508691,-0.000566712487537431,-0.05112128755044861,-0.0411863095138803,0.15286283639901324,-0.1387977326440359,0.4393301040851802,-0.21955985600018382,0.22903379139668373,0.04282668514678616,0.39296933529638084,-0.5110164268461632,0.16796293234998436,-0.40137702060907005,0.11125738925256373,-0.22415801981437744,-0.06965860407449781,-0.48313716192694073,-0.5965900032198476,0.09513549685173052,0.195382159218431,0.353202996372499,0.04452241577620018,-0.223440546092976,0.2865782385641115,-0.1698543935340801,0.47463608677899444,0.34794082178231567,0.15511035683119354,0.022499256905662658,0.5333992334641626,-0.3661535366232826,0.5337818079974271,-0.39848205972504563,0.3637754506711177,-0.1864069308390467,0.17271794165513307,0.19899251460094491,-0.5964623131593437,-0.0881428489895551,0.2678332424761622,-0.1616877551630208,-0.15218892682964288,-0.12090482697298358,0.1728327988573559,-0.13521032966921034,-0.4506670915707396,-0.5651134688457239,0.440924420314074,0.34331777273583186,-0.4484061841659497,0.020774374576193806,-0.272814531918697,0.469431801541685,-0.8812189189761771,0.696787031842696,0.01076553745190556,-0.000354212603663355,0.1381394390808949,0.2408048878449272,-0.28908310232189255,-1.0081194929224997,-0.42126842176606216,-0.22477526046230786,0.41148280749350474,0.12374551884273702,0.40825320786144265,0.7321680968685087,-0.3525261736068731,0.2794971576793642,-0.48568877633538965,0.6994169225587484,-0.22385071249405333,0.3651975593759791,-0.15245613988041973,0.31910347091087254,-1.2093200896647252,0.4299564808672692,-0.5256764759741772,-0.4260819341996122,-0.07254187595269182,-0.12695334563023786,0.3843909283423298,0.469979464831448,0.20905551548515172,-0.44920688946461174,-0.15907661500872378,0.5603651834681692,0.5217918484864221,-0.12507450868075873,-0.011994991484589344,0.3036665048671943,-0.9607627465993032,-0.19878471192496536,-0.3148476356070272,0.24372536685917964,0.05121690808558585,0.5090191466941034,0.5707591131141415,-0.7270612283581721,0.24131670818234305,-0.09727260501857471,-0.6620215880278914,0.3372029154171986,0.36602080246949853,-0.36949254484559535,-0.12976548705816393,-0.6373582456140319,-0.641416346185961,0.15968233053269515,0.2572105699000645,-0.435576150993657,0.4004812824073416,0.6152198315714675,0.22513694134324372,-0.1311921890946935,-0.6006430867417202,0.1715726366106785,1.3181432019365136,-0.05958249414372571,0.42814397896416884,-0.13407009027366243,-0.5222019106637111,-0.11109861159788528,0.652142717180961,0.06305388111968069,0.6698266655420142,0.40780634772305757,0.36693577726442467,0.05887909861580186,-0.48623077706634776,-0.21850970321106977,-0.08822151461940744,0.1281490748711762,0.15201063067894158,-0.2644450885417341,-0.3631474996645605,-0.05208062682627935,-1.463992759220075,0.05503260579862289,-0.24472597847671437,0.48008437823923134,0.09999110582301408,0.4749378648277197,0.1879580028653326,0.24746500719190248,0.1301374870818504,0.0428646719910935,-0.11382255324356136,-0.2731140586620907,0.5369049635291994,-0.011184665696950946,-0.24400788824951772,0.5964943437545545,0.4786712233279583,-0.8735871124327252,-0.573314351311559,-0.13910292607719194,-0.127022459706978,0.5271684838463278,-0.5481061060604454,0.9543774697897393,0.4219507641439364,0.17055081029878263,0.4959086123036949,0.5109959320240773,-0.052985460451356665,-0.17338709371326533,0.14729776602373515,0.20993494057256754,0.1228857309269251,-0.193438826765164,0.5707484353546048,-0.43979711025129625,0.17871565380152477,-0.31554777521960053,-0.46440407432822606,0.36280496813491026,0.7246858576751787,-0.27390744811969575,-0.3501826581385264,-0.2215280033831683,-0.46753261920526334,-0.17409432911284073,0.16645590912178532,-0.008242374403660768,-0.3264815034185238,1.0669513887272297,-0.6003066065499223,0.2795826569909482,0.09954930853713076,0.14220018662440373,-0.12964222317611865,0.6109797860913306,0.5747464723687626,0.13153793350954848,0.27303791543353184,0.38986518610525245,0.05461936554298245,-0.47028312823835156,-0.12673257630288318,0.34113146213646617,-0.5043522060784884,-0.938400668035516,0.46996544623013814,0.3128335017005184,-0.2660680817614952,-0.6582317610720748,-0.03766540076711026,0.020827375024885332,-0.7398305658422794,-0.11024289899535411,-0.4090221862698809,-0.33087362519175256,0.3239146903834682,0.2529028165299826,-0.5293544901632621,-0.49278848544493825,0.38181448125487627,0.19127082638550305,-0.8452171578440849,0.3996663791058022,0.1790939524564388,0.7371698112391183,-0.21615797709862347,0.5701337095268408,0.5450823958168838,0.6459059162043905,-0.631967081890842,0.9947379565476361,-0.1382551667873988,-0.038064636662541666,0.43765013211988185,-0.10263142078767123,-0.07118586129428044,-0.0995191019410336,-0.978257222197946,0.37505784852439966,0.24600123035754462,0.5093822879770022,-0.7308659829441716,0.46453464323272586,-0.5372272980044542,-0.10526435057145003,0.22276082495123484,-0.49266381188635844,0.03954202517969038,0.0977275374104774,-0.17673046214911087,-0.00882436489461147,0.004874229675509552,-1.1426320922012962,-0.29057071879917357,0.11463420640712661,-0.10628702056408472,0.6368880922646963,0.08319082863191342,-0.6426951472149993,0.3732076194120248,-0.25048310701699417,0.31034572875174604,0.12159741047038751,-0.2596161363296488,0.5721330561798585,0.04569634648076111,0.42123487116254427,0.4489706872275549,-0.5194368651794697,-0.23616358994608078,0.09165241242662402,0.996281004475309,0.24180850207575635,0.3498404835990882,0.07305060178425232,-0.05591173932612453,-0.05997829889073465,-0.2903850772299539,-0.7184152200130729,-0.09931217924385968,0.2707787250052743,0.4276624522582106,-0.276549460707307,-0.13684906669507133,0.2612476348822062,0.16310988582426375,-0.05063465582636331,-0.3461894731846334,0.39158803049112645,-0.758662318637847,-0.27156674094323235,0.4342865823337026,0.6160355839002126,0.3664096356945631,0.08023690113935475,-0.08599751540230349,-0.21359220164612652,-0.10921606108583057,0.3288888269516103,0.21932250311175328,-0.23228001567313653,0.12363669584734886,0.2217381990041798,-0.5961485519451047,-0.33572965494270784,0.2589344533296176,-0.24578293445244193,-0.07770290795555657,-0.0020544894428603314,0.23887284949151652,-0.1285993111096774,-0.11505072642406095,-0.18193569164171136,0.6330631091185187,-0.43741982360452536,-0.37605935033037685,0.23858004372808103,0.5947368996211224,-0.18258832916744022,-0.24858785313648415,-0.18275222354449,-0.08604895172684908,-0.08182956216689076,0.1351973741246742,-0.28442262923642925,-0.4338851446407773,0.003101269479561814,0.21039069251338866,0.05619074865529708,-0.18629249647234786,0.9511231652840381,-0.04072149461344381,-0.8570256553423838,0.4326221259044385,0.7523643802427461,0.6684054181018959,0.04843185469766217,-0.2537347002551731,-0.0477880015173493,-0.30354088625733294,0.014414272205493054,0.07011089558852573,0.038058960391230495,0.15659104351306746,-0.23921572019293644,0.3259020199345233,0.27310389634116883,-0.38202358963794275,-0.2600232387057559,0.10714348509866164,-0.8824174957416165,-0.1685005778257579,0.34244188517988045,0.5426357783636083,0.18176241383506786,-0.12952025639728393,0.38819830293285146,-0.13641205644462162,-0.1696567874910142,-0.055395710166731144,0.12127967637451612,1.1489775741161994,0.3040248895177798,0.5479223973768192,0.009816003783637842,0.6716561395556344,0.04080458247414448,0.18027971610207078,-0.9477320480694937,-0.012589174282737464,0.87300955056506,-0.04463720397182053,-0.04582112739482177,0.614538926675106,0.36728456724133873,0.4882132768762026,0.2972569131260087,1.3150240072834936,-0.27375488306979184,-0.10000093414221603,-0.8705934168740415,0.4363082997399104,0.4681270794522805,-0.2865845248481441,-0.13110641126055836,-0.736577824419888,0.4640587950406925,-0.3305698477160124,0.07347675518870539,0.1464204933364644,-0.15769150646064653,-0.35966359123587316,-0.20054963169146045,-0.7478727464877885,0.0855549179935934,1.0232397275247667,0.2419914601460923,-0.522901118975122,-0.20548053448817094,-0.04421856936411498,0.11636097541255963,-0.2414522667131791,-0.21057685960763792,-0.7511335240216255,-0.7280913799090604,-0.439164151940175,0.34612647030580684,-0.12105831285951049,0.6952483647459744,-0.10538101411971873,0.6207801764678176,0.2793456203011416,-0.33524425709148553,-0.07085104713468404,0.2719347470062523,-0.11311708007993938,0.49350151940694925,0.06823020357162496,-0.3800226432505074,0.4647699914820015,0.4318453142941737,-0.07458214179080014,0.5523450938532124,-0.14715883761135715,0.20357247573560822,-0.09052051070237283,-0.28946317282890316,-0.13767393741695289,0.5689387986903585,0.07077489658975614,-0.23154607914768463,-0.5027683599543465,-0.43427083100545605,0.2774183391707085,0.9253809397162448,-0.04822462450565808,0.24203781636633173,-0.1894280075029504,-0.3951053973074813,0.024036590766579356,0.021466106955193423,0.008412609940778179,-0.12454063573068963,-0.46362225105941124,-0.07918970061589667,-0.10533161994329605,-0.28559157034872473,0.08504756426119356,0.20280189323254705,0.040460314227891286,0.9068012558712454,0.24893645253745122,-0.1308786081139248,-0.025019259366462814,-0.6428082521828643,-0.6014537148154442,-0.12075366364891713,0.026245887487564262,0.33450927608817493,-0.3141287364722295,0.5342341327043494,-0.8722162108196633,-0.43151452425636344,-0.18401824126115515,-0.013476546783810307,0.6657576493050692,-0.3577292667301006,-0.9753992034373138,0.3292858391832752,0.18834665257846048,0.056374378548179366,-0.08074680645860297,-0.18563913499812337,-0.497669348422771,0.1446669755110671,0.9585130106292569,0.051191651902085515,-0.5923347924579986,-0.6968574614309855,0.0612825736413785,0.39246664437542805,-0.09138234443591021,0.5425841319591619,-0.3957536437227019,-0.11025663123813002,-0.16120271388173338,-0.4636008881466876,-1.0284002583169989,-1.0573792611570119,-1.1261296045801374,0.18409431766923726,0.11846446431655788,0.20103905787193652,1.2209976697253362,0.023875072037408292,-0.09458173509752504,-0.20792004924054644,-0.10986343421812408,0.2554320401559443,0.25871097321156117,-0.4287191282254113,0.21394901367996005,-0.34421719118083366,0.07825890407952124,0.30338367075772055,0.01420912877562027,-0.5400777390625722,-0.4090497657584976,-0.1523702235849435,-0.024432583989916618,-0.34203426837613893,0.39996155449000026,-0.649405622112923,0.5465055369180877,-0.6801126149156974,0.2408165853766841,-0.35195317488187267,0.5075925072032459,-0.29646623459269444,0.42973783648366987,0.296731542798791,0.3512596291027869,-0.17744819314594898,-0.03095527796889249,0.19736702037386533,-0.5090727293359542,0.513337300386087,0.21944412683701803,0.0600572506143918,-0.2992709276678303,-0.20283870406685947,0.28142223472582634,0.05816313704868365,0.09309521685316098,0.4265004422342687,0.3952754223871458,0.13391634790105916,-0.11566251786750933,-0.8865402192618781,-0.05913801526119158,-0.5850606098305662,-0.942922465095872,0.41523137303718943,-0.5072151855198859,-0.4026416766704765,0.3402811545199641,0.19593712994318685,-0.09046139395761718,-0.11325403062222719,0.29894826226921584,-0.14057788812551703,0.1522747867349103,0.45991824355350575,0.3995426869661844,0.06936360246940677,0.4436972144202117,-0.35746673358241166,0.112345716463675,0.6978654489124729,-0.4266347116721367,0.42730051276164427,0.4234081504465407,-0.8236158750631377,-0.4110872143660115,-0.26447124797437044,-0.5121585082963217,-0.13120093582512715,-0.3254779471536406,0.6378745920018637,-0.16493778146684654,0.12294304620460772,0.017926007769143694,0.5825191576886405,-0.04832879263757687,0.41250715840718505,-0.28691647877488635,-0.5969019572704513,-0.16792011527122916,-0.7852936972564529,-0.41396970184901977,0.694714652139085,0.22951986035841362,-0.4203286886730011,0.16777758403934878,0.022107627141825473,0.28958743526196545,-0.6386630408796297,-0.0060598515783670676,0.16385240404370233,-0.6279478407197181,-0.1913844709013006,-0.16030974733730174,-0.5428346036515848,-0.39784880727334243,-0.1472623015944658,0.11038902151592153,0.46415075656235427,-0.0759885889987777,-0.18319869801463667,0.6032989264432401,0.14452047441623456,-0.210569641832694,-0.4312140893410432,0.06276345413006729,0.20950847640081205,-0.20654464811790382,0.1710681308254919,-0.27886100199088115,0.5805187003380442,0.5350520537337895,-1.2078238901705556,0.08649202964005932,-0.5091367611695543,0.3299056698467709,-0.39977654548642444,0.2627599696526083,0.18751198814254,0.09072693030593454,0.36741017711354684,-0.4864732650862816,-0.48457246155076383,-0.35778624062418496,-0.4477536408242881,0.3769892123195836,-0.36764907195849633,0.1010127061949388,0.4395575012495315,-0.48433730139371806,0.16802924077239956,-0.3378364810079151,-0.4849393155122838,0.5193981782819085,0.27470302886688763,-0.48900129443062595,-0.19878422756037506,0.6448036440790806,0.9090451923987809,-0.10956186378654713,0.8242525769617677,0.4955455647809264,-0.650422857798879,-0.8173231302397458,0.19804072961713892,0.058738603392597434,-0.5363829426132506,0.05997826277152787,-0.041344056585530045,0.4603550418605101,0.35216815525331346,0.04309759274136802,0.0561632783375311,0.5934710211533842,0.5956233039598208,0.4253770830536022,-0.3917764839101108,-0.19685597192241144,0.4786883257710248,0.3162754960408522,0.27856771820953496,-0.5955081228768684,0.3526684795707622,0.3296707304554954,0.6897942130281456,0.03292214393494462,-0.7693653910791343,-0.3903822993240001,0.31880717395320973,-0.5430582458176695,0.06322096311648043,0.017866191264606937,0.49027022615647897,-0.5696782649778332,0.21158266070906667,0.09894875189015384,0.8204128393234668,-0.15564095798759828,-0.15184207759336354,0.10390589697919071,0.4059501868466713,0.5924849615742073,0.01589599052136654,0.013393157192658215,-0.3115377607329427,0.7087022956798987,0.5446085638389127,-0.39687934706051453,-0.1548915210614345,0.11135792229544625,0.04889730549878327,0.39902376437076,0.49304496171979545,0.003912668460654571,0.050981558882592856,0.23152715697485748,0.13252523237689673,-0.48521994916442457,0.6573193259301645,-0.4719036831110359,-0.5508125864384833,-0.6635927702135461,0.28036587486173326,0.2339703611303946,0.027877013071106627,-0.49699770411415367,0.48792327753903963,-0.40057286367381856,-0.6824379733569497,-0.0069720043188113215,0.39673732511985565,0.39273177275760046,0.9137338220298548,0.2613935710737729,0.008358698951500092,0.36154494571964496,0.3771046643833889,0.2529750063184109,-1.0788733839624143,0.3003064394704925,-0.21329613820321736,0.3609083905207304,0.21302407307563537,0.18937226226218318,0.2967305792233722,0.8397458561144366,0.21308028602020745,0.0326740765666306,-0.5991260993230887,0.29105334487904594,0.05653391799415672,0.026120770131799753,0.48578963329720104,0.05126942328166864,-0.18058201169972724,0.12006680037606274,0.10368226976235101,0.7638356127285002,0.45102460413630285,0.12021423389649136,-0.34997009345568714,-1.0531952798780548,0.02844568235466175,-0.38242735041295395,0.42545904823097797,-0.5656862236729749,0.40007503794094723,-0.3244549967906297,0.002616123334768322,0.4803256746909346,-1.3613286834423837,0.613098175937352,0.16356094838947727,-0.6872734751729662,-0.1933506108917769,0.9263592603465791,0.7357791503201275,0.25718642689480975,0.05104351285530773,-0.6517592585124204,0.32398697926297537,-0.17147113219653787,-0.058090734496642836,-0.739744313136235,-0.45439656096820885,0.6394574592591568,-0.5302929389453032,0.3698643732306948,0.9730588832155161,0.16724021403624303,1.0112982219127513,0.35177002263633017,0.9706171025990995,-0.7535486759940784,-0.14175951204995352,-0.43691776485768835,0.7581625033586985,-0.37034328778718406,0.6104499623234673,-0.21742532960508537,-0.6009472983071481,0.00439273276927802,-0.557006557523379,0.6371135566391167,-0.030583397087726567,-0.08256270470145397,-0.5696106290265521,-0.23827955514837704,-0.03537504000702382,-0.41793111121845405,0.5300644090802137,0.864632500861,-0.5310665249999926,-0.5574559169148088,-0.875226303095543,0.037939764733210625,-0.43805393250485114,-0.47109079880590343,-0.583572340487751,0.3403780195213057,-0.11002597954557687,-0.0036278905121244044,0.33309697176539677,-0.1894343080047906,0.35919198906237043,0.37543724198542616,-0.14834282945685243,-1.6080147975515535,-1.0257708660436649,-0.9174941514330215,-0.2985107318767179,0.10988094953269588,0.6021544589199892,0.8340117574083887,-0.2020387999190737,-0.16962587907470605,0.24441186220281266,-0.048724984824048245,-0.022479566805609613,0.2628803531973319,-0.0413976433632474,-0.7720661110246221,0.5527105535745575,0.42683644457388703,-0.5296718835119908,0.04798259150701595,-0.28345119303957833,0.17563854722324015,-0.03121255398302458,-0.3442365621108899,0.1371297349780245,0.47865607770593566,0.17391612328880152,0.47866086680182185,1.0705416487605819,0.06456012948623831,0.20455859873929622,0.4766821718952121,-0.04427565373986753,-0.5197782663418016,-0.5591305951077625,0.05302392955713382,-0.17801614172224967,0.582060808654441,-0.5928366357222794,0.3791596378978039,0.36112200744758177,-0.4988315998817193,-0.2639959859573639,-0.3343013000701238,-0.00372017029474381,0.8458754115201613,-0.3612462740462608,-0.15188724833753564,0.07083070110692564,-0.6788793822820598,0.5032211852710384,-0.7240722026775067,-0.09625306722855845,-0.15457046963658372,0.11121110926492886,-0.4269085046601574,-0.3279898064120577,-0.025188014783981107,-0.3958118146413389,0.10911154015856828,-0.30341778217114296,-0.17063813926112928,0.28315083517342937,0.039471147683890054,-0.2517337856081499,0.24891060817320904,0.33388303055125845,0.4652611476414054,-0.4044189231584046,0.24615164474128678,-0.25083371994974785,0.05038415694643318,0.5433413733378311,-0.375098221708529,-0.6424353691623476,0.031596072406984387,-0.046843283055971525,0.36931189509972195,0.6794130694669878,0.21593085777345172,0.3308509308346012,0.16679859940314776,-0.3271352357994025,-0.2659142239460333,0.4949838344614162,-0.661611699470043,0.267629742515494,-0.11721288609652952,0.05278452027915252,-0.062100092526820604,0.6996368379765225,-0.02742476267165609,-0.3575673464564241,0.21077612163367707,-0.3820053946690117,0.26636364124936524,-0.17278139142146504,0.03470026630234585,-0.13106466440627204,-0.5400612720145165,0.9367788154481654,0.30023359994750853,-0.23786558896554347,0.5081637690069245,-0.0016502920218854564,0.28846634464398985,0.45239522990251346,0.36841788923022245,0.5857143041175408,-0.4528076000356584,-0.24519842333061542,0.3104898744472656,-0.15609356117728945,0.22706300086392975,-0.27123985056611094,-0.28201438621885927,-0.48647359148036956,0.5448153195511638,-0.04258576436068311,-0.6288693845395021,0.5255332066590241,-0.23727666114144363,0.0014191121254480653,0.2176238360826648,-0.1599921228030354,-0.9757965894706404,0.1653631538707047,0.6885929323367248,-0.026398949589645997,-0.10933420589299575,-0.5657094715158832,-0.09725144473605687,-0.054287220853964785,0.49628505856851796,-0.6355395683745383,0.9884678977959829,0.17185366313821865,0.2864087750573301,0.6877965779455885,-0.23854380569384834,0.22256960455865302,0.09731872390884055,-0.5113335498910216,-0.47176517247209093,0.12170452507340669,-0.7969050150614146,0.8252077846999951,-0.7165858049934998,0.40644191300722776,0.08972576769405552,0.8249912443312886,0.9226948778192355,-0.29946647581955255,-0.3407989049611687,-0.20110749977774686,-0.31691624771576177,-0.9598241305808209,0.24351998477851705,-0.006613652057025937,0.10559083366126781,0.165705412426522,0.13286677237371045,-0.12414201856046009,-0.46798311059507847,0.03277064646643817,0.09331036878504824,0.05758573350955857,0.03948523465559522,-0.6610552272979324,-0.36143174462052907,0.0168226699272745,0.4360015394790624,-0.3149956646139301,-1.0758346064901245,0.3799060323526241,-1.0893022340962824,-0.05708320003541942,0.276716959302201,-0.8907892736056429,-0.048978769896330335,0.889515375899045,0.22089328079009113,-0.024274594129280846,0.21208572655645916,-0.18651796613585614,0.04453118781464124,0.23873996048821575,-0.027881149285136575,0.25001199674468344,-0.03799725182499171,0.04109363629735336,-0.3383815851172719,0.0006744217873723389,0.14180797631242034,0.4227710936630215,-0.3818709726089904,0.5377885127076737,-0.7486860968571198,0.03135497368985096,-0.36232098347986796,-0.08461963665765465,0.5960365440688599,-0.027565240190716038,-0.3569635452897489,0.12113935602841744,-0.6592867483317677,0.36219325800856894,-0.37120618679524187,0.07475201388737349,-0.8139330950982777,-0.11755736544736975,-0.7339497120554387,-0.5583498131541866,-0.27426798550578707,0.13931094349488238,0.09684284959160132,-0.5576147503711733,0.4030999697588124,0.2905432021692305,0.1307218730886486,0.39740359422823,0.47387012042690596,0.2117591853148098,0.1168007037571836,0.4552628445940905,0.29840002115084835,-0.40843336478269643,-0.36587634862663493,-0.4674019092555886,0.04159467251354903,0.2301640416156314,1.7005680418638591E-06,-0.10282433777569296,-0.08645793703392436,0.2827204710718215,0.1834592944104005,-0.01216831645091087,-1.3861502783420592,0.7314059107951284,-0.15678903053581447,-0.17744380087603784,-0.305752032181639,0.16059978561028304,0.5574023964411637,-0.14329368886905958,0.40876853386643563,-0.19666644064873384,-0.40007234260597785,-0.14506624788100986,0.2348686881423953,0.7993111093932175,-0.6696683435450932,-0.07853760321476999,-0.047323942818746224,-0.5015719762890058,0.3234643255821053,0.1964584867052335,0.27323945857777143,-0.5958119658683567,0.5907392976874413,-0.024004881344209028,-0.18875579113451038,0.41978272332363026,-0.15780866573957505,-0.026033489764410597,0.0032974476532491408,0.03387604701993599,0.0067854230180781835,0.26727560475827394,-0.5948554057865176,-0.3692958239026666,0.14970356733335874,-0.19002888278139862,-0.5884231599573935,-0.8827412161852178,-0.7907163113398507,0.26661693981002005,-0.13562239909692167,0.8979373048613288,-0.20983556040051363,0.29767983255961183,-0.14600797732034276,0.0051320538441818955,0.11030755318721172,-0.09477360701475296,0.5233298880438122,-0.06973336496534119,0.07227010132403285,0.10123797083416586,0.125613254800098,0.32357337974488143,-0.13136941352305098,0.05826591429254219,-0.3869157850078789,0.006732078391322713,0.1061260901489042,0.15345354131404781,0.21796700577129274,-0.5273722421924062,-0.627179865595534,0.03252909672082231,-0.7210439256327459,-0.005974270300139174,-0.0954228267323325,-0.5494317264317121,0.016568000532256735,0.08255820900345065,-0.1579994353263139,-0.24380872411122412,0.3704991446149883,-0.036329096353357015,-0.26730357428713675,-0.7175085780642201,0.07650838286184597,0.47544491161105895,0.4618014737990979,-0.8725757541189054,0.059901544453241334,-0.15004623299333522,-0.0018101044333877568,0.21920695430474701,0.0038623314734931337,-0.7588557115968126,0.16710409639886722,-0.23431347050485277,-0.08072846158234752,0.5006993573439983,0.09730592792147202,-0.44480644046008666,0.27142111611735315,0.7811578727412605,0.05309826085998973,0.22880998254082965,0.1017657799893893,-0.17044236328716353,0.6211059128289711,0.4664561570419055,0.2547543638374864,0.5191951712946765,0.8975054101683265,-0.2902777873339519,-0.12259802412105021,0.23226871363536575,0.1508973941942347,-0.12614675341340226,-0.09307075494165823,0.3493111167245503,0.6385286223738151,0.00734576403319729,-0.5763223883195857,-0.1285996591334013,-0.4953952423496495,0.07958773213552245,0.5055515884141706,0.286765951743396,-0.10613428265757845,-0.12097180619891526,-0.39073462919893026,0.1798010389534062,-0.15854424919818566,-0.17413822941576887,-0.061952340830545946,0.26080000647387436,-0.24704713121479963,0.6939359932112625,0.21393598700080924,0.21882430801157637,-0.6068098472471439,-0.18949922520128692,-0.15288020571000235,-0.013381841700897672,-0.4436899817521159,-0.06725204814022946,0.08777780288450839,0.1753329347594722,0.010858281834330442,-0.34594489098650405,-0.015737498720451933,0.41104639166436985,-0.3013076279988534,0.9372311427707585,-0.17396911076368082,-0.6777425118893673,0.11871746975844485,-0.4953366051829829,0.2060699155436211,-0.9327648948356649,0.29832202076894676,-0.02139859545962398,-0.5968599079108191,0.724922170520117,-0.07386298224401172,0.187681176137462,-0.4884156600157446,-0.8009910990541556,-0.34315395152922795,0.8837666488448719,-0.0986988232596202,0.35460358572182404,-0.1528260832091104,-0.49957817242698227,0.5570541361030281,-0.19211186538296773,0.13751458047748144,-0.8688313253999848,0.17075051700026303,0.5075852056311924,-0.26638166524926843,-0.020800146623309125,-0.4094264294001492,-0.2896125250527309,-0.15962344370700993,0.10520327200305818,0.6053638398858092,0.3477396396142566,-0.5768390164721883,0.11525723295235997,-0.963244101641255,-0.6176245817291999,-0.053978122945396265,-0.7147178357238321,-0.4025822815498946,-0.21898025644703625,0.2518767361237249,-0.6130448343622423,-0.05449218231924045,0.0566748928480698,-0.31741775417386164,0.9224925033452768,-0.02357053570966093,-0.04163058212766272,0.37018921703332347,-0.04691468745612536,-1.469560693235639,0.0010904666844592723,0.06301894338291684,-0.2774004239121724,-0.18862213147905463,-0.40120631055230016,-0.11447136119166369,-0.4505677150201671,0.10233898534905773,-0.07070300763487909,-0.05194425255191966,-0.6614873474291812,0.29582459032124503,-0.6632319230940451,-0.796479149273286,0.5470848004446675,0.22821826954120458,-0.14084677187073338,-0.543446369011736,0.7452667708532514,-0.41954667547533675,-0.6169813700190118,-0.2479877790711823,-0.3951082238100299,0.3828640763819972,-0.8312195240578261,-0.149608678927739,0.18385853641237135,0.27970556465985064,-0.38016623393645244,0.6320576799562363,0.2929712370120763,-0.15479402357253283,-0.23304281477540637,-0.11122418748717311,-0.07872327319041403,0.4276936670761375,-0.41013296390372916,-0.38916101890069965,0.4287525191712406,-0.16342888643088446,0.2598013247824243,-0.06941469903027181,-0.21199484947471872,0.5411404721773901,0.07890099858501096,-0.42747192495596686,-1.0261040528721714,-0.36917491753350073,-0.11776112600984681,-0.3389815489754635,-0.421116290358853,-0.2603624755365026,0.39978491417608486,0.10712884967477819,-0.20532027322211302,0.30625660150227374,0.27708087564778167,0.0966681838028595,0.8841086130561845,-0.05129315640393228,-0.4127100172301128,0.5131428880373434,-0.5607821643517092,0.5241909438273005,-0.8547499170962156,-0.34088250838489065,0.048589759485728495,-0.27891288221526667,-0.7075577264235123,0.042422195915008676,0.7082750502885689,-0.17152157732210652,0.45552251548820155,-0.4629546672594394,0.3333102659319574,0.22242035562167498,0.4091693719222107,0.5643367500146288,0.24766787046032035,0.48494339157356026,0.5046832712502175,-0.3170532940119663,0.9169888774625904,-0.3393679610298104,0.037795716907676774,0.7870860246838782,0.6483596211960619,-0.7218602404951782,0.1036117812576798,0.398764937152815,-1.116309596027349,-0.1957016685492052,-0.26473130154552865,-0.2597784743936312,-0.06564128589875756,0.8087252192765397,-0.29570747051213087,0.24343973347337333,-0.4202370166876883,0.2725262718448805,0.16549701520097138,-0.4139707885241875,0.07084183103296483,0.26362656633906584,0.3660780669126178,-0.17845107068648702,0.6505514626040216,-0.14757353165240442,-0.12323958490176834,0.35095174216768327,-0.9335222239086468,0.6427609478039359,0.09097817385753443,0.05309039537870858,0.9414375210581037,-0.30934329282340917,-0.3923666438196215,-0.8939503664867843,-0.583996666469176,-0.13330896155170413,-0.6504531766122381,0.24488809813363555,-0.16782989930512632,0.6788417510479388,-0.5279054455217013,0.2001899152760331,0.2808685618180107,0.29048444941815504,0.35349759780193457,-0.3517922828975318,-0.39699085080360824,-0.1764844948104466,0.11056697815241297,-0.5603889052941368,-0.04278624656059439,-0.11601699049093081,-0.44313818138018846,0.21835686492114834,-0.351124108693317,0.06734783600630087,-0.045619937249087986,0.7175221203435997,0.8408960676149639,0.12588010666774402,1.1559061880635995,0.004392344595864489,-0.023916810765592475,0.5313082455500492,0.248153437030712,-1.1750509638909934,-0.14574485914414584,0.0069497348243652765,-0.01213183022817777,-0.07636525471224564,-0.32879228399269284,0.02560899504565129,-0.07377698257470322,1.122355519648847,-0.04810984939201054,0.5485167766713175,0.10344933890693303,0.14749496589181654,0.25077839026276083,0.5212181915513284,0.6186855197366128,0.7719047153733823,0.23767908272662408,-0.48829023879301636,-0.3310464191867569,0.7493284398348544,-0.671429222840742,-0.639360476102417,0.6170700131428464,0.29929638869373637,-1.1134607044473201,-0.7086536923967439,-0.08441016488546295,-0.49145862258829637,0.4030141452751595,-0.27696881806581114,0.11207710262399743,-0.34698116107933025,0.22065001077586957,0.04296385487328384,-0.42477867021071336,-0.2726045180762502,-1.211309027965367,-0.6021993688380994,0.9623444017188563,-0.2689442542796035,-0.2684680169625929,0.2054874650654892,0.3077353313070912,-0.15104455063089478,-0.42368316784665283,-0.815450686840122,0.24472093595749797,-0.11421957311133649,-0.7789060678251732,0.927479333374173,-0.1614478254091288,-0.09882586967017415,0.26880237835303095,0.01950516634213146,0.2184202951304919,-0.2964567490613189,-0.0381970700058561,-0.24758250520222894,0.10559276285295623,-0.047139675875440656,-0.29149382951293157,-0.1209047255948922,-0.48399401072108195,-0.5360427053787441,-0.6256016291641721,0.3431993193252777,-0.5865033648683493,-0.05042812955392956,0.3563760217161297,-0.8044773099730328,0.0008074159622533557,0.7125818735793167,0.3403493158006921,-0.39459824190148596,0.7271590025278591,0.5252976521480965,0.22763071050103878,-0.2381899361732191,0.46195254815798537,0.1675046528213651,0.44806597971127077,0.035466323750029526,0.5993932629535317,0.48995122391246476,-0.4528364308736215,-0.796737140765536,-0.09710082887737127,0.3111701045482034,0.46675847035304474,-0.11311961457075123,-0.31440343460859443,0.786860817571965,-0.17836869697129168,-1.093393074892235,-0.22922994240322184,0.5875113186730606,-0.43289673265908496,-0.11101042645417061,0.47324335977110377,-0.9100206980588534,-0.8173471958901432,-0.6623424239108813,0.5947675344432345,-0.6045957085994891,0.035033942479269234,0.2705278540771929,0.277193018958261,0.7423586233208109,-0.03232579640736842,0.2804779598271474,-0.42072788912982995,0.1277294758475636,1.1400988752445977,-0.2276031774751934,-0.1321671425273387,-0.13406564303511476,-0.08719384339742915,-0.12539843955812818,-0.10753434519834484,-0.5902368325409985,-0.38938608520028595,-0.451350270123215,0.16733551437244862,0.7195999528006255,-0.44558955920505633,-0.4069208642272185,0.6167264373474961,0.619804006664198,-0.19111060257101065,0.1738894268696184,0.25998258373876615,-0.7835814546320433,-0.10314498140644279,-0.6616365777831912,0.47604331942681255,-0.0990248675200516,1.0866530469306148,-0.45609595053088725,-0.033364019492796,-0.23248448666666713,-0.3285321308868369,0.009245660017346745,-0.12148399075864408,0.08743004106343875,-0.2494200883431526,-0.3227492567784941,-0.04214779840488436,0.330238137231213,0.11990936052906262,-0.05625697577674339,0.07441495912418743,-0.00495405852643712,-0.6084144344612654,-0.3654954828101242,0.10525627335409944,-0.24176513665328964,0.02184428703782413,-0.11769737634321947,-0.29388856403387215,-0.22170776180177,-0.03425880486628895,-0.35148624726755967,-0.14092580479619782,-0.01362132974502659,-0.46046460618205265,-0.2358885802605507,-0.34896206207479585,-0.6004247043213364,0.2521972918558497,-0.020633055050347314,0.17548441433987955,-0.44891927741848503,0.18575468040019594,-0.37750396444809614,-0.35100502781299514,0.4523372915323346,0.1703372132641622,0.7643646087601554,0.3689698161832662,0.7514753207347273,-0.5901514723337862,0.030206906192624148,0.013870990055606457,0.585764454789406,0.15040740892019788,0.2073836923505393,0.09806984003045986,-0.2304174661169966,0.5098426162706469,0.1913517500811784,-0.40448432088846253,-0.04753908363498715,0.05517955193789254,-0.36935005990534847,0.204768852861629,0.26137198645609994,0.1737435647106776,0.7070472819256821,0.45323738529564533,-0.021668004192348003,0.003926651022473821,-0.04016540282573546,0.3163115203132013,-1.070920758641845,0.25507893944005683,0.46284132554604474,-0.10234530549015272,-0.09014325164413539,-0.019056067173138833,-0.44024657519213106,0.3038937839657593,-0.1480998343414203,-0.14729103020912754,-0.8288492394387306,-0.21087816111746785,0.30452847383135645,0.3584773616162276,0.1147193575082008,0.41503143422283867,-0.5040511546211055,-0.539103192753182,-0.17495497636967267,0.11987991771690117,-0.05144440412865185,-0.2598262081059648,0.12305457323774956,0.617411046259585,-0.1637702678209198,-0.6901507786487779,-0.46703211236726433,-0.12937947012648918,0.5263369924090561,0.14936510697649727,-0.1882383092868832,-0.22260050433288692,0.4016897443656411,-0.5282766382716177,0.22577252594075645,-0.22518620799456912,0.16207805359641964,-0.6576731737743561,0.05313915278947842,0.05758646792968,0.14691470162891618,0.33264701357595816,0.13474593895230413,0.06131827327226719,-0.14648829210414419,0.006965928379220186,0.03833952504710934,0.023206408092829266,0.024032149456310395,0.16193695370524042,-0.38557417624880946,-0.17324708204003236,-0.5419769757990416,0.1311033207266176,-0.1085449401643126,0.2931059097833171,-0.20553293547676887,-0.21471289066842908,-0.2148083393137623,0.4278743306784622,0.19317223336315972,0.4826061203608924,0.5453455018185019,-0.12845862764175353,0.14867357413979745,0.40590636582629874,-0.12402047524524068,0.005631278966256419,-0.05089887154240072,-0.009512278598595679,-0.15739995369669701,0.08993470716353016,0.7462324655492913,-0.22861008486156675,-0.0464872575247299,0.6559746499550498,0.16117168699583762,0.7784210330548517,0.502017750468609,-0.5553509354557012,0.1372358279073617,0.5694575658662976,-0.0004949364057073788,0.17698022746674663,0.009242725358611828,-0.474738192573351,0.8005156981474084,0.654146537347618,-0.05801826244672443,-0.38126056282530435,0.056972711996402824,0.2936984567138314,0.1902204967962284,0.297104471995127,0.5233170470170574,0.15084610127958684,0.5017815971467495,0.017228786801048813,0.19542261560918744,0.4733963031226332,0.04369206112738659,-0.16086622026124528,0.3561172528195742,-0.3105626541426878,-0.1693529874597677,0.29106346487283036,-0.21697788767286155,0.01084770741310706,-0.23280007830672603,-0.4832891211279221,-0.6238477524527604,-0.42924454622478575,-0.3571479780727622,-0.03429924875627303,0.6159671449887992,-0.16967348319303233,0.11766893194403374,-0.6517167756587814,-0.4536576785000618,0.2714942602734791,-0.2695707413108033,-0.1814121275525719,0.7709177889060684,-0.356799982444678,0.647909571940685,0.17422665173460655,-0.6840781511350089,0.4411024260496216,0.4691832537389491,0.14437318511816732,0.1407807046121433,-0.3728828934343502,0.6714960287143686,0.04413997885757654,0.5032814080245305,-0.2339955445013454,0.8744448870685237,-0.6211972469840198,-0.282191641327151,0.4336390600045382,0.5163953281656444,-0.909566882923648,-0.3421373614155974,-0.24851530434426952,-0.7780735968734083,-0.6480186781178661,-0.06541811179628274,-0.05099467785690687,-0.24981887506292133,-0.24441273693539636,0.16148595838044277,-0.36127672922998605,0.3445894853419689,-0.07550931852616652,-0.5797527609667529,0.6052914583077296,-0.1619851768390216,0.04160392584106851,0.5928560538865105,0.3906636166756552,-0.12135723050742125,-0.7235690892536925,-0.04929592157093811,0.34465496119838746,0.0618930351494091,-0.029796343967371568,0.21894665485541695,-0.42621401703536665,-0.25886307708652373,0.15927552957549443,0.0008848859269347427,0.3294447712928267,0.03265739860135321,-0.30382936158628043,0.5740547144723213,-0.6931819486612681,-0.24828176652806444,-0.2821585195812109,0.3382384311649745,-0.4961301097685693,0.7734538308794557,0.4736315011104208,0.14485311096037312,0.9836885235442694,0.48971515626982465,0.32621729437839214,0.11212827118168466,0.1036988522516192,-0.007144010917958611,-0.7274118282043326,-0.4147503791279968,0.6635807607973536,0.685043970652484,-0.1310891175316124,-0.25762348712758065,0.1585013771479397,-0.11833632057496436,-0.30763677290658753,-0.20186900491625878,0.796288643431551,0.09447084121312857,-0.898737351487487,0.33258877192182085,0.09340679461215697,0.12389604154274289,0.13314170037474513,-0.6979905830354105,0.5486866626061153,-1.0747845705866967,0.00572923036627012,0.7198201680705599,0.9620822998789419,0.6605646971167851,-0.28359273001358076,0.42190609439627563,0.21492238205948022,0.6396775994763196,0.4132463996544226,-0.623451479414933,-0.3355971991228237,-0.52908971037037,0.5569672354615638,0.0622827719765151,0.22622548874439405,-0.02958747164271336,-0.4373353681356984,0.34559575714353974,-0.33673108554412323,-0.28311086421373194,-0.5007869520414086,0.26402986913196774,0.3294182885827452,0.20063934574473516,-0.08021457389957629,0.07976287484467473,-0.5488340035653655,-0.8001751561990559,0.21923752166765423,-0.5586048816558178,-1.2636185687772872,0.43436615572152165,-0.20481089379354678,-0.47463784811181514,0.27646389646583713,-0.6081595630710948,-0.12235603277558012,0.675573252105092,0.3225850937501341,-0.20466467586949383,0.4223372885948171,0.45047216658201766,0.1271755460043008,0.33917744481398376,0.11097954999158095,-0.0554935572359954,0.06433353905446595,0.6804300483374293,-0.20777801704195836,0.39898446552197125,-0.570428135047657,-0.4849935038950502,0.11681487512078716,-0.6903154585492097,-0.4929800937818539,0.32160108751875016,0.5559391412608263,0.38182761653565866,0.33015269585864443,0.6017973960997374,0.4484531094428992,0.7780462096055992,-0.030350911607651295,-0.15401504244600062,0.8424682664279166,-0.366204746713486,0.5721926250989274,-0.16002566945964347,-0.1983311116100564,-0.06894068143175633,0.012113865415183995,0.22232202636997825,0.05513629565398438,-0.5371502234556503,-0.8049181096744863,0.5121452860337801,-0.20402670612196275,0.09292144447309023,0.2654536405214831,0.7559910188537422,0.02713384048066648,-0.006155370963771424,-0.10032441850099738,0.3031777542826069,0.18704950303216422,-0.12896539155515738,-0.2532576500732837,-0.517076795812346,0.23257411874487663,-0.10527276359791937,-0.3603673653627374,0.07647847394868922,1.0257977751352563,0.11758998272487564,-0.1800921651089522,0.1714758626849724,0.6375594491066802,0.0881056227047943,0.06966601936460431,-0.2180602669759818,-0.1128560085525728,-0.93030734982077,-0.39915518770525044,0.046296000713140856,0.00113756944413506,0.7406779147557693,0.15591324984398755,0.20292000594463913,-0.39965941009392786,-0.10749385704187032,0.059663572046805446,-0.1343419630545882,-0.15487517007292947,-0.3133755131015812,-0.6781981954853433,0.1873859163588189,0.09891934834125174,-0.41487329512066906,-0.1989181986150891,-0.4721886828541594,-0.12576439181496982,-0.4555314616041752,0.26899751269476857,0.3259376392706244,0.8908680658148929,0.2115924974132135,0.06350049390078674,-0.01622132279377199,0.0970398813530538,-0.2642851280459608,-0.03276766366479921,0.21553625119659442,-0.020300886207962537,-0.08913261616280693,0.4774714218311939,0.43972183926378666,0.07174038229888068,-0.14160659750017116,0.22162385379877203,-0.14878342083857182,0.4741327813690419,-0.13841757241174826,0.0032768419323984553,-0.25065737939921856,-0.40160174004362365,0.7967491484739527,0.15192178431191866,0.44409378233117297,0.31199967108882276,-0.254099289710895,0.28394566851091985,-0.08315556310786573,0.2353786055382521,0.08116629217430335,0.7504157525478137,-0.09392765324267109,-0.09698965256886839,0.040408371758366965,-0.46698375852464086,0.29432756888735584,0.20255965884316385,0.5660977307130187,-0.31593604725381086,-0.8291347275844195,0.236921056718635,-0.5691993826705464,-0.40042829213765946,0.36860198201270317,-0.5398125628667326,-0.4543730682925972,0.7496483393176588,-0.12935361612212345,0.16599710746730878,-0.24387976581778162,0.5044935851541505,0.5746991943611591,0.05261989466505881,0.37783275203773264,-0.18422831655684818,-0.18265184116278915,0.052489445959517426,-0.4941668104724572,0.641435840616092,0.1771012337385268,0.348693679741379,-0.28884041983731307,-0.5935574511669043,0.27364559057905746,-0.06742796849070032,0.18365823685533456,-0.43030522317937653,-0.17348507662656662,-0.28233149571281285,-0.6753316195048126,0.55392794263652,0.32684108036434584,-0.36065939798855073,0.16919456392561472,0.8576934501434913,-0.2360694981047189,-0.07783143236561016,-0.40330941066529913,0.9490628356507699,0.3350217920604387,0.12956270870027012,0.3533122057934286,-0.11145864652132706,-0.06853018505935553,-0.42385524719428125,0.0928010934422503,-0.5730253234535159,-0.6645335382183692,-1.1202935332763946,-0.12502227818480105,-0.4441851132823822,0.2251604570598722,0.40808206511758643,-0.5242544785537788,0.3034801919437119,-0.416890640614897,-0.7683274326275225,0.7445428099706706,-0.228232272138341,-0.5151268331035479,-0.057871295437972564,-0.7273106897631096,-0.1841428486420473,-0.1774132681217177,0.2032207076538851,0.15724456212441087,-0.34924233277389105,0.31332541995446084,-0.07019747843303203,-0.6851726575174051,0.10371711595355307,-0.20294660052369617,0.6281674693120646,0.5482721312637248,0.01385725125898303,0.15248226638250792,0.11929021956653145,-0.2879549217988948,0.4363594253551253,0.5911153557702473,0.3137497406188869,-0.024670336435169603,0.3750571126390917,-0.44013924789698383,0.4969028058590402,0.09267324070368661,-0.47492855192125183,-0.3727933617329653,-0.3287671172032067,-0.5955692357411289,0.004978011717006098,-0.40706955427429875,-0.04040612762838964,-0.15913316929194224,0.7412267201925522,0.30083217421118114,-0.04615936419742912,0.2247274635431634,0.4955444124296576,-0.2819978128184216,0.20777173533644389,-0.7136745256029339,0.0009238193449710996,0.17452614978532105,0.4777042269104923,0.16815292928598125,0.12501225170707359,-0.20565707754608747,-0.46817230803338516,-0.06340116687658147,0.39477507060994266,-0.10209324944009915,0.04643581440738362,-0.38860413777252506,0.16750434479544024,0.10630547054477085,-0.29649042224297983,0.30433222233626783,0.323793769626627,0.2499871474458241,0.1996416027629606,0.7853736492516512,-0.7566142594488152,0.20524912135560305,0.7655427037381778,-0.46184441571077767,-0.27068636599336837,-0.3375992995807261,-0.21882848854114745,-0.2433864435576493,-0.31365778212003487,0.2638716889391096,0.21827691152942136,-0.027554435132169465,0.5575475463715005,-0.4204009044884088,-0.48706085831760104,-0.7520055717987417,0.18289525805536913,0.27070632096596636,-0.0435747681451151,1.4471950433427472,-0.062447461288801034,-0.5282154430577704,0.006255357098286146,-0.40753159142196005,0.35067590700288664,-0.04761330270297722,0.05686642216611125,-0.372948335130759,0.03180202989021726,0.6087062863073723,-0.6503309658892199,0.759918446570785,-0.797185882455416,-0.11107561084097511,0.026069726930944618,0.1580498845702778,0.08452417066865528,-0.2313815965789958,-0.016382924292392288,-0.15484550193121188,0.42230440652210915,0.7129093671208322,-0.27333144510342094,-0.6417652789366584,-0.1485667175569573,1.079823007843132,-0.415381696543695,0.052237461698696544,0.1161052562534948,0.08978823319056187,-0.27068839069774947,0.36438329830034466,-0.5233568068201498,-0.5579687173482168,-0.294904726797268,0.46083422973511395,-0.5940039793921894,-0.2824029748326419,0.508576244892153,-0.4221467379612769,-0.10165662488176098,-0.24235523440095708,-0.6181835192285983,0.2882505015296568,0.7071208555120654,0.600051856776777,-0.3436599412287734,0.030525450613321604,1.0427362836769394,-0.14515899178310268,-0.279333269927105,0.2294740249687858,-1.0213482317644802,0.056240919192888025,0.04039489854672702,0.2602568122461943,0.033632777949943696,-0.3178590692736966,0.6411368888584188,-0.2495472532021552,-0.3144718403269902,0.5272732143311315,-0.24217195063610877,-0.5205868516969532,0.4804654766941616,-0.46342420543881907,-0.9680191283529815,0.5601249617579559,-0.2595047261719549,-0.26201362405145817,0.057492978661855404,0.2686838579565672,0.16729848236835612,-0.27143415031149376,-0.2422961755397872,0.6970364942701401,0.15599666652999278,0.1615341873230498,-0.5266364185817155,0.42927217522502914,-0.7359402501291924,0.6113263103233517,-0.13496471126602416,-0.777030874375005,-0.05970910780668999,0.41169432111026427,0.5549406739442044,-0.8362341197274888,-0.7325796290332317,-0.467943666313356,-0.21218862919149917,-0.545833244211583,-0.011558929162236907,0.2591717579886652,0.45950623908114674,-0.06843576922449868,-0.2663823681997527,0.1785364963492365,-0.27067197880060356,-0.2786438590868445,-0.451251280297627,-0.2408974478765461,0.3637243552353447,-0.08062396647360516,-0.2602517232505438,-0.490064156059017,0.3614471417268648,0.5576286328281568,-0.5172077767003516,-0.052274185648314736,-0.7007365948680723,-0.06024073606477929,0.7334110058170262,-0.5221363234844054,0.036284070307645536,0.3912754418628123,-0.2142940906748261,0.31375524910200714,-0.9535157006437096,0.1780966555373726,0.19961039277868087,0.6927356794129488,0.14684419806211607,0.09224546647888204,-0.6163099088650393,-0.3843615362025467,0.28916352705863607,0.29587916046877843,-0.7789458187453054,-0.4197604241297342,0.360828422749185,0.35735005629887295,-0.13923531678750256,0.19169928676930492,0.42690146721260175,1.5553524985663654,0.08331696754086512,-0.12602268005223186,0.33569152965642723,-0.029850553401588112,0.6525564096404182,-0.4517165247688017,0.20235956722572265,0.16286015960071243,-0.6332021406369348,0.022785306789570588,-0.5873330257449751,0.2566009064632455,0.7924669562112729,0.26262812576872646,-0.40746252089273033,0.414433844575729,0.240525764893311,0.09357708458103693,0.36270873724651487,-0.08560574920440171,0.13973109925248275,0.1309200737941446,0.6152992015841557,-0.6999346875035437,0.29189984726153884,-0.1543033120861893,0.5250714024258286,-0.6447381470149828,-0.16598508115379243,-0.19313236459174493,0.20002886256697033,-0.40347604182234054,0.1300356672292549,0.7160581208814828,-0.639094240270961,-0.11238075686582963,0.015592914072522274,-0.4281847946382786,-0.1366016848851903,-1.0506633947976463,0.8236466643911576,0.152987760031767,0.6021768261943281,0.13248159420024805,0.3262957669891981,0.26431156452501936,0.5752728732613327,-0.2923050846491091,0.6161906428616432,0.26762312151363776,-0.09491371917065976,0.11703829686370584,0.48280527202492635,0.8000040948653399,0.42007586042320477,0.24677430510566165,0.20446400294032646,-0.0584910529429742,0.9094964125053409,0.4184797087933284,0.051534800560405575,0.5832035675420243,0.5216775213187901,0.2741412590918441,-0.7091864399869999,-0.9292965513432333,-0.17136298549777,-0.0032402604092545226,-0.18762387025813823,0.21694786848451603,0.05728725757930783,-0.056668016533926516,0.849133548922859,-0.22963192755374714,0.09136649077807121,0.14939799171231083,0.04984816550696795,0.0669484710885686,0.5292692596796809,-0.1471572951358674,-0.9160895001594257,-0.11777600257625165,0.6156086876926141,0.17861546253599006,0.4867907901703947,0.6399701985329307,0.31049978739067174,0.6917425988929915,0.3435533881252273,-0.4245840116280725,-0.10375806459504641,0.07876628671544336,-0.14233944823370331,0.3402436830932674,-0.2983211692678763,0.45149447910049034,-0.1770941665454981,0.6920527362911107,0.09542317371903485,0.15122822830866828,-0.8768893448530611,-0.6971852517738192,-0.8647102195123408,-0.5831774617340749,0.15550976084078041,-0.14379693096363172,0.28339217325772387,0.008154482764927562,0.10764282648548618,-0.4828987732136444,0.022520768357639845,-0.014701809723804624,-0.6258740936970396,-0.42775636315207793,-0.7089421080977496,0.09317346906240338,-0.18618174317036995,-0.40850498096680316,-0.7031137084924518,-0.2562716372316187,-0.1539519619602779,-0.06862995119127854,-0.48653452054441276,1.0297888370846648,-0.5644289941443014,-0.1073466997033443,0.1505078393312702,-0.46216607219311734,0.46046555694694324,-0.39309793950969263,0.37694230390181627,-0.034985310251602744,0.3641899811831857,-0.21362812396859332,-0.0713592908611552,-0.6860797195563612,-0.5102390774140996,0.744483896293841,-0.21815489154296042,0.25725853699705764,0.7991352949356051,-0.17101475989528842,-0.482644729355118,0.8537030610762715,0.20598101135854618,-0.039446835699806684,-0.09545648676139798,0.5962995730743392,-0.32173846619537033,-0.22999802343419432,-0.5690244134821254,-0.1464591756415775,-0.2058929139404843,0.49941555820858646,-0.10282228236839366,0.587985517626578,0.21047633293536253,-0.35594687696261856,-0.15686019525086653,-0.02403437689086451,-0.21480638076652578,0.20635147540394735,0.7658708616097265,-0.4622844858553333,0.8548320573525927,-0.31417732916412927,0.6338654123373071,-0.17709096831085833,-0.1076790937336355,-0.5927126788668221,-0.17152018763299132,-0.552280654111303,-0.14836879900982328,-0.5892419868234904,0.13819962602365332,-0.025181294439693705,0.5041872126582102,-0.5196391953554098,-0.14745584814018187,-0.2992457369986342,-0.07647529874809968,-0.48695511704044436,0.7794781156737935,0.44274012647466293,-0.10983929239264004,-0.018418812948379985,0.769162923053595,-0.06483712835222862,0.33620810344535834,0.4729867610580221,-0.5840434240478699,0.15142725867051202,0.658735444444935,0.4121160989577358,-0.13697249136498185,-0.38903994631788885,0.10462678816265726,0.0310648446161427,-1.3284416211909547,0.07132239370989946,0.47876059908895446,-0.03244469975777785,0.14220885370485023,-0.554014009290365,0.24735194204732502,0.29069636013661315,0.017596607776116564,0.568478408703634,-0.30957657547836975,-0.264059724342268,-0.2186224926099264,-0.24134779739351514,-0.1827361741467532,1.027709298453925,-0.07491546650372585,0.4105155832008348,-0.06152705012966923,-0.5700138211937542,0.616450287676539,-0.1167434405139169,-0.0046583293816212165,0.6915979048821823,0.046890754611118475,-0.09915298180678742,0.13629358463519342,-0.17842493780541593,-0.002909003817726352,-0.46284144244520464,0.6194470982897651,-0.4973943615861467,0.30301184941862935,-0.003542780416106308,0.3868265896789795,-0.22793273307881146,-0.3276816900234969,0.28892018594884794,0.019913441954462385,-0.35006143659782235,0.006115579747887602,-0.3904300461314945,1.17705967615865,0.8111106252945143,-0.8823107261495438,0.6350638518126245,-0.07484510308506757,-0.20787513883374598,0.5628143076877715,-0.5543948724085883,0.07440028440081028,-0.060458318880776574,0.7202753835658857,-0.6494318554446509,0.13101104765287935,-0.6582541613885423,-0.014736656242805263,-0.4246086683039991,0.1570424358396462,0.5665695090289915,-0.03479604209074129,0.5180109862946652,0.3752324277093483,-0.3058221955087145,0.6104292594398654,0.6312740357634511,0.37127317102336144,-0.130087837690771,-0.016540801469523303,0.5509790351542144,-0.3410403018874965,-0.15914223577854414,0.09614807510065691,-0.4807685131632108,-0.5168973037245377,-0.6299876085529453,0.054323592493153966,0.06861105202207612,-0.38787238107311683,0.019761051394893366,0.7193328409363032,0.004490199644479324,0.12793927831966073,-0.5645501735412902,0.010693243981272423,-0.4366433119746929,-0.6439370948369664,-0.3211840107830253,0.9848642998319194,-0.5514905771084013,0.48457516227827013,-0.10658892285197998,-0.21411346261511777,0.3847437400525248,-0.9562879889725917,0.2838028106408846,0.005486310762550545,0.07984560535249688,0.9565676914663286,0.15295344208919204,-0.04497394492370788,0.5751611472326784,0.39210951004059486,-0.6019927486373323,-0.5124578037833386,-0.2426342252568851,-0.10384121266804755,-0.08033722620090128,-0.08831319712657987,-0.6816527045927985,-0.3061363008848219,0.08104605470992962,-0.7531257230655741,0.27199172517880604,-0.39435062152177297,-0.3654954280638978,0.658706670185753,0.1599011794507623,-0.1972277390831807,0.6101407135563327,-0.10824000100679593,-0.16399128528850124,-0.12506942002193416,-0.06620251430140137,0.485228660687142,0.38637771488432815,0.30937531807350516,-0.09057994999227151,-0.3623465691642191,0.1426640208620308,-0.42916442940906047,-0.07615812601810121,-0.8021353927279122,-0.36582581532929065,0.03864239747474622,0.045993855080296644,-0.04180594889332924,-0.014708929141945316,-0.602656989316914,-0.21803398395774584,-0.46284046880959084,0.2607915367976971,-0.29717221666324467,-0.08413447013192711,0.736486739549667,0.3932203452260079,0.3161848778874459,0.11500292737861374,-0.13153915714680192,0.569227130616531,-0.12649026396696814,-0.22543384387080045,-0.4680954044836911,0.19521184195788993,-0.6660450086135525,0.5128886397731335,-0.8053522185219476,-0.8326751328058987,0.4864021456370269,-0.06612152915593231,-0.6974634320737977,0.31137678112517614,-0.2633711672434919,0.9311904902888318,0.23272723787461683,-0.1322893364069212,0.1270843985983913,-0.264768679334437,0.14241222989229924,-0.7048409547015413,0.048378308184492624,-0.28870623314270916,0.5337133623810986,0.4441900119493103,-0.33964612521267845,0.08348758950495622,-0.27274116422898786,0.15136156251752028,-0.4932927805947475,0.41415759950018377,-0.020990512802419,0.6228694606070323,-0.11899932511664557,0.4830632528223933,0.18756141146153815,0.21067353725571183,-0.32069806991694244,0.004590801418694564,-0.0257829229070636,-0.621422634527512,0.3120098052456742,0.011988068314032579,-0.23864016395153032,-0.016509994880281875,0.13028379438609317,-0.0272579721999301,0.9396900886603348,-0.28313144316747124,-0.9491951242494375,0.4795501849638874,0.08665448541308722,-0.3047313297271656,-0.19333075792353424,-0.5955353002852498,0.14150389237395433,0.5141977528420242,-1.1543659632435612,0.3417174556802804,0.009684964053786313,0.06559409723411871,0.28325545883121306,0.244887357032973,0.5880154472614624,-0.31167099196453946,0.12344650528619748,-0.18208273362741734,-0.15264642457367372,0.02588644082635382,0.20869933604951055,0.16516926202337265,-1.03026288205523,0.6958106890142792,-0.3408368664491518,0.22656192015477764,0.7974078981507924,0.39189565404573135,-0.36782597359501296,-0.34814120521299546,0.10756635737373685,-0.9527587423411743,0.5977265094555526,0.1755200247868033,-0.0733175339778407,0.18249433600577045,0.21557061872893635,0.8163749796789854,-0.03284633824456086,0.8620288719890387,-0.43844448146945997,-0.06124061857682665,0.12656745362128266,0.2154607336541697,0.01699684043869381,0.09346197340743222,0.39100665074641383,-0.6209666624463785,0.3742678017932076,-0.1919039088468793,0.4688601183601701,-0.2582088944145967,-0.5199282887561504,-0.7018832054025134,0.32088203746037997,-0.30409480614541157,0.21732251855956133,0.6437716725917776,0.34889252674306975,0.1484080122659174,0.3701532516639629,-0.2651503472653237,-0.7572219786619598,-0.06328188117082034,-0.0050024614659484705,0.79578017770046,0.5955079914892251,0.7933732260863581,0.030215309745823656,0.9287288203123849,0.0537962696925432,-0.6600133992998637,-0.06556994447301345,0.1792316269806028,-0.13385431916790347,-0.5573680516172222,0.15376204319273878,0.33028119677251405,0.41884140118125973,-0.5776450396509124,0.5222336937578247,0.9834073629469048,-0.1163515146683966,0.05254527058021217,-0.28303857640172947,-0.20610109319263684,-0.11439265603131693,-0.1328260072135991,0.11451171217724668,0.009554915774611289,0.17241856102118952,0.35871313651571207,0.3184326607978368,0.4492121795787154,0.3161843796825822,0.31086346833254613,0.10181499715900205,0.35555089821220764,-0.14552551887964307,-0.32689364776431507,0.43886051298083223,0.10976143882139844,0.03391999474034664,0.12162765376040738,-0.07846954736610386,-0.07372763162089505,0.5864304697635747,-1.1320809676841208,0.44746541060205214,-0.02754410809830335,0.2643448511543524,0.2721868856260757,0.10047037144826895,-0.3741921402472708,-0.306536684761596,-0.9668601034731672,0.22579831540555775,-0.38032390749522105,0.06504661351242598,0.3473269016173596,0.05142061589090774,-0.2897856356759717,0.07606595134018113,0.46098703722814116,-0.020440209627298978,-0.44866993794047344,-0.1009805049678239,-0.5464758706876099,-0.06006009294836823,-0.4768711089257412,0.41537488909797593,0.2810332302359786,0.5404177700832554,-0.7662330403655148,-0.46487021471841095,-0.26081965136645163,-0.4573779046377288,0.0391396455650281,-0.4707584969922104,-0.38239251967170274,-0.4268050400749497,0.09960719577539315,-0.7762638976455458,0.22522854513998972,-0.06537578713723549,-0.7139517228028476,-0.0945087522463502,0.013116616777005492,0.2742673839143435,0.22668416586599052,-0.3492348480226482,0.3703028702915372,0.9319290002229831,0.3512643323665958,-0.34045700297646003,0.03527299392461688,-0.2321658399195798,0.7366339362535466,-0.3202051429466107,-0.6110356856176891,-0.07012014743349401,-0.304131135687698,0.782649952562765,-1.2907587604009532,0.4778579753316486,-0.005436398844515564,0.45234513592255365,0.30964456444202215,-0.23462191866607762,0.9441870534560082,0.2593117377458863,-0.3877030494004362,0.8316749395739226,0.24667561306321772,-0.2550076295755941,0.2120241171694825,0.6439235166125732,0.89548312030135,0.29736247073062333,0.20170823513135652,-0.4127430503441192,-0.44360845921000114,-0.5518944824507537,0.05513181823988891,0.39472504198077835,-0.08603845735907267,0.44903427176059174,0.6941420534707143,0.21284113305062488,-0.522341498638982,-0.16309287796939181,-0.37028981546343087,0.16648487485940433,-0.09448050312038819,-0.2945422536479896,-0.9697971359936574,0.1169008854938807,-0.07143341890627102,0.0702173541856274,-0.7581614984938857,0.12505283366013376,0.04432947095917791,-0.4012854093322361,0.4294173253208051,0.5490407099674004,-0.5577015004136441,-0.3802169359031596,-0.2985081188839345,0.23094862034560726,0.48032981339667635,-0.08412634037085107,-0.13695062334883532,0.352539225320325,-0.05898672194557451,0.44923765764309936,-0.06314548128928732,0.44951154355820055,-0.2671174390579537,-0.08238591874516339,0.021286096703053675,-0.5793182064090681,-0.010747355461423032,-0.4794664692588759,-0.4184039124238507,-0.03418659837208822,0.006990201229365903,-0.07728616434903994,-0.49527030356167817,-0.4022908150122921,-0.17413606716641933,-0.030015503121657867,0.3269442025911554,-0.3211365345725461,-0.0260191584756434,0.41972450026226066,0.5044411813942321,-0.3497525885784149,0.4552130598535354,0.4263233596296525,0.16280965163887304,0.7866661757502321,0.5817557537266916,-0.4098572590074051,-0.4936869008292827,-0.13118816159366792,0.5889300909848685,-0.077770550936344,-0.3395227531051436,-0.04380761217736685,-0.37893792320277875,-0.042937025803249096,0.6794555553994663,0.43057207959253885,0.3219939689182305,0.0243731514321327,0.4479530848997681,0.3041586819520012,0.3596687981451699,-0.021828406984446533,-0.6068706802329629,-0.0532990530129156,0.383836148732625,0.3863917510051103,-1.0021758666701015,-0.22158626053548447,0.3617184672677442,-0.12365392809414219,-0.42992344380057423,0.22907826437790707,-0.5801099078678609,-0.22513628136018363,-0.2643047949630413,0.09798987314978218,0.6408450349672736,-0.14569540451032434,0.2208459418679308,-0.7136077585708216,0.7155682262287835,0.5087924946505191,-0.10663478836138386,0.1578908085530076,0.40648421853097044,-0.1284382138476547,0.103073243030087,0.0683086835639129,0.33223944345334944,0.13062682228569172,-0.618533852752656,0.4726358966359011,0.29959166833086015,-0.4864999449891073,-0.19303518351126192,-0.9432877303405949,0.019128583601413847,-0.2363599249762987,0.1764321046123871,-0.4123539097447185,0.13984723053811776,-0.0066440539365994165,-0.028522074676390397,0.13532539512423647,-0.23600944334508697,0.6545983279538846,-0.21549877673812276,0.9858110250672498,-1.2052430196137145,0.2702044362440267,0.861741281668504,0.18218646592706447,0.15244256637048503,-0.6322055894841311,1.0045531062803463,