{"layers":{"input":{"biases":[0.1529676902105789,-0.16342370721835883,0.24257619983855896,-0.5905766355795733,0.16505963378720742,0.10032156447541604,-0.1655787043919612,-0.1910242998211501,0.2506722928414166,0.6650987931772889,-0.009169157061418243,0.4444470491442458,0.308763936692776,-0.471474612402376,-0.8050650879937077,-0.06682243454003915,0.09718210285729272,-0.2007992146764518,0.05196502167029976,0.09333217000241525,0.146764033004166,0.2681112651624389,0.8727134301699406,0.49696191220739655,0.4156863327886241,0.2828645019653705,0.5909806207623601,0.055636046946628166,-0.00039217053668086626,-0.2880803735456624,-0.6792999173612155,-0.2391451888740676]},"layer1":{"biases":[0.4263621482262297,0.4908360701267577,0.4671173086286945,0.2933443580723367,0.4291151974283856,0.2442270531250454,0.023336186326292155,0.035455821228421155,0.2814595618166752,-0.09298817627996703,0.20887467982695274,-0.6047371291690102,-0.48228161163906563,-0.41607679163985917,0.1673505814735408,0.0018870386492766816,-0.30629684748170705,0.2029505041497817,-0.6137367380024367,0.12083329465637904,0.042466569877505994,0.07010810681523155,-0.4097851935239716,-0.2842133251050786,-0.07971368436523664,0.057650215373337046,0.37195143829133354,0.07789922053889711,-0.7230312478361229,-0.37284831608444635,0.4407909718107011,0.2887593868795592,0.01341371830722252,0.3210999655271819,0.09532492307951873,-0.35190396652889616,-0.3749065644470193,0.3837766287349329,-0.13837400588386484,-0.12436091739856421,-0.1305716253879382,-0.21615087819818013,0.13779080451281625,-0.44404871755488184,-0.16587355719200925,0.4637654503415793,-0.4561906570210463,0.014455802200462772,0.0902034406359563,0.04702404858707013,-0.05226864482095318,0.38561173959050354,-0.09977241689665052,-0.20869940257278338,-0.8911286000703297,-0.033149476769160205,-0.42528958601097494,0.49594672641306714,-0.23634453677812908,0.13515380905569505,0.11888350781463487,0.011783861760642507,-0.6314777019465072,-0.49476796759111,-0.19714441194401877,-0.36657032527020833,0.7383736308241009,-0.01697419316222202,-0.17208745589257407,-0.13456429471702044,-0.6334906787125002,-0.1765394210363079,-0.05830300797169406,0.16664403050906884,0.07815919116823435,0.18496297955630644,-0.16573928918628794,-0.4327951657294593,0.3582319549592071,-0.12548589247163916,0.21896991244871714,-0.013356272969100505,0.22275823258228822,-0.06888929663710576,-0.1256816957811075,-0.5188498473472721,0.046639545916570754,-0.04239445435237184,0.1151760244464106,-0.07687891292436273,-0.032923833010506,-0.021710620834392933,0.17032606056388686,0.2974880868941919,-0.21865331971173427,0.08778292802423607,-0.09743668995777,0.04255039217117572,-0.07325272874657934,0.08199274213895474,-0.419189946534958,-0.20533709059659752,-0.18084104803677498,-0.021517337794064728,0.34381386739346875,-0.2430243091531315,0.5152714571740888,0.32436694524358195,0.23638131560393,0.1344644028787699,0.2852502123263032,0.15542394760204034,0.29786007490723165,0.19527659062233468,-0.15557953784929437,0.26198112918337996,-0.48354852077889043,-0.3433172543769168,-0.04327590496534742,0.1921644719702881,-0.22388282058426306,0.2092627771929347,0.37170107204247305,0.2339150491437277,0.14903890222680177,0.14205493162317678,-0.026950504712345075,0.4972538661552224,0.2645268169026024,-0.6992360266525783,0.21479128202371275,-0.056181387380444245,0.19983010115602923,0.13314345534289268,-0.3845914900110883,-0.14363928720510066,-0.32279777877948357,-0.02726016831728759,-0.06865665459448651,-0.23920607920777118,0.32377828271733705,-0.19321347904601818,0.7109723671978481,0.11229581431915361,0.15636848831149086,-0.31010486001112075,0.12358220080928936,0.21821668798114557,-0.0832320917612974,-0.031187657300234456,-0.05525363427978743,-0.00849070856239098,-0.05138991707954779,0.721701420948634,0.29454057114115767,-0.04013439567126708,-0.0031471762357732705,0.04400434129179447,0.04046803464425842,0.11244281665735845]},"layer2":{"biases":[-0.11796521442272777,0.23525576710599466,0.066286691670979,0.05022773945415286,0.3828546108693052,-0.021869431374651527,-0.29374461178168965,0.44552634618064735,0.1430130322833683,0.3118059751226688,-0.06557669695141077,-0.6515964080451473,-0.056995649843363874,0.3803687541503541,-0.12864514494717513,0.3810209173504386,-0.33099468931533177,0.09298396261225496,-0.2558580310375312,0.19838449153664972,0.033771176479814674,0.02195880768437379,0.11902947196529581,0.042154362997679495,-0.1200543913944906,-0.17629920326760284,-0.7541559932239639,-0.23391367633700363,0.32383371931940663,-0.3647207190867186,-0.11928634131861732,-0.21455677850818894,0.1573403865538055,-0.21576486663420605,0.24381946259283307,-0.18830244485102338,-0.08741916227314601,0.3518512613655676,-0.5786082260596694,0.36492886297493426]},"layer3":{"biases":[0.35907552628964834,-0.20689654835425988,-0.38424936208066646,0.40984609236268915,-0.5255810402677958,-0.03806337883703127,0.14058263207592575,0.15533830141158106,0.4407977665920457,-0.30887463301828505]}},"layers_connections":{"input_layer1":{"weights":[-0.21265124057377255,0.15599858837114688,-0.38555728921889715,-0.016712872305574077,0.4264135330783932,-0.2943192347430408,-0.05812824138654578,0.20977909486003243,0.20765665124465849,-0.34247310125666713,0.21254052206943433,0.06404992973573594,0.11532497747075204,0.17844198336867786,-0.503409327609886,0.1988964052059161,0.07315104071095738,0.16149386723392833,0.4606892453604684,-0.4457003606518474,0.34483520935815487,-0.2976087299481737,-0.2836105389271211,-0.351402498925133,-0.08933261095616835,0.06309236438392805,0.49509352926409733,-0.39323235313000665,0.08971347361339609,-0.21853173935864517,-0.06899290101588698,-0.4440484657274339,-0.05960946569457905,-0.05491680759834755,0.4284182977564165,0.028719824194049687,-0.11986222948714179,0.011872716866621842,0.07045510491909991,0.22222415976112075,0.052301832643218193,-0.0392496573402083,-0.008459058993963264,-0.026725910862751834,0.20207902381983864,-0.072880231435523,0.20396033958461732,0.0274303856755004,-0.14426767015016795,-0.35442450485419,-0.19518097136070883,-0.07969286813163015,0.4731012271244596,-0.15298944434583792,0.196991815407889,0.7761004489468467,0.0033809553427753686,-0.22919166953955744,0.2512609613173857,-0.5153379245338786,0.09186897635397422,-0.5961313520539896,-0.09801803357913363,-0.13235693547194077,-0.16512801161154966,-0.46980371386317343,-0.3334481499817874,-0.34214356783373123,0.020570512888935397,-0.1120863348828749,-0.08521929362274173,0.6696230229456074,0.29087685942997854,-0.11815905533238792,-0.09755628090011739,-0.21691185950757233,-0.31290101045444896,-0.2086872007699393,-0.029057672589402152,-0.002802281820873564,-0.010653811364007323,-0.1025120839131119,0.04557534650842338,0.21407109085759543,-0.21415640291004867,-0.10231873602843607,0.2618835581993935,-0.1623601486689117,-0.2951607232270419,0.14051871686379183,-0.1962568445839758,0.027498599331051754,0.03307891272453124,-0.017596034581642155,-0.05037140060903764,-0.6706959243598014,-0.5907620195946286,0.20775901131320845,0.27191158526813947,-0.15734481080651333,0.07473885405192265,0.31780842331483095,-0.2973824441067523,0.02530952803437536,-0.07755104899709835,0.14100967908287854,0.06537993700199085,0.0038150152183665485,-0.16265837320121868,0.5525623033790825,0.09959216464136104,-0.21631427315430637,-0.018503611474595984,0.21646890188141849,-0.14664530150814217,-0.7176006059885106,-0.7000485307587665,0.09063396828333875,-0.30769746263286335,0.5580133082795349,0.2356388137409663,0.19395396425447828,-0.6021666904545886,0.13624936349631717,-0.12204034588092308,0.5999183331889821,-0.00596355594041155,-0.1930316556063369,0.29468536834652187,-0.10775104962436931,-0.6297940436328839,-0.4037985635269436,-0.058571702892230765,-0.17126530859395356,-0.07819919234598122,-0.46366246195888167,-0.07663222771736901,0.1232263662083917,0.09338058254644976,-0.23681398604648826,-0.3524997452822238,-0.5278079768621146,-0.19398945688916258,-0.3524516617640521,0.2149295258909273,-0.3508317606044628,0.2928523476372941,0.3293651658437669,-0.06269207221461787,-0.08788758130977942,-0.30851369166037235,-0.5334171238706762,0.17936051494540634,-0.08809948864889788,-0.026380766516075904,-0.14973311583107113,0.5687201926727127,0.3273938969820785,-0.22113812334681984,0.011325654049121437,0.5769480036545787,0.0036662292519487986,0.0060784782038818125,-0.42194680274038177,0.20031407294922574,-0.18224339959328606,-0.11856615596544737,-0.07740435916706882,-0.05585792986358804,-0.23973956258552265,-0.3013195532958929,-0.5425074466614167,0.15763528372438887,0.1696310702830772,-0.08127141343115435,-0.014620983880402255,0.2902622331540532,-0.24381092929908274,0.2120946717476669,-0.11068667627564073,-0.14642217328889318,0.17617922730860675,0.23463792640171938,-0.7108135163834606,0.013617241546704087,-0.5980174047864553,0.44020326649483077,-0.09991314667048515,0.41952564149740196,0.08791708168078449,0.3569185211169618,0.05238522129116714,-0.13984429421611438,0.49048980239560014,0.29285031947076745,0.09654965394313204,0.15622513280920605,0.16239391087811023,0.49386825914609805,-0.26064723618382035,-0.14746457279614777,-0.39904777958322857,-0.1147996838354688,-0.08790779939740306,-0.0986544195837806,0.26150840001104797,-0.20990003722138473,-0.14730422043344085,-0.41896533608114395,0.2772391397910027,-0.17438184079851127,-0.035225746181522855,-0.37529278699871205,-0.05851881438755259,0.09147927691131155,-0.2426191543250859,0.21336747220797422,-0.26456405413947404,-0.2757955617162701,-0.04923924153427764,0.07697854471309537,0.14190418540698208,0.19397638114675284,-0.017493754067560454,-0.11447258738795614,-0.1538351827188812,0.2093710592189361,0.15580529112977137,-0.22287354264989667,-0.730652519326628,-0.588563264766517,0.38405401253989546,-0.002437294405601492,0.01856747396001085,-0.3471648765909298,-0.47109499283987394,-0.12491618167247195,0.13882263914693985,0.21770670288775376,-0.22120419500347563,0.42206892656879014,-0.21074758931484114,-0.2335328135779701,0.35311586225952374,0.503484638646244,-0.14650960314163866,0.9558863121553335,-0.09527472462505467,-0.22109938289277561,0.3760146563704933,0.01874060972990422,0.18586333812312175,1.0448205571763398,-0.05977183911701413,-0.0011492454256937512,0.36054467899012593,-0.3147966209111667,-0.3181262292638931,-0.2631414990347752,0.05671520477492991,-0.23815666551061435,-0.08113934720903662,-0.17208623378424392,-0.292950610537398,-0.654237344982631,-0.0270145980656457,0.0074236411031305405,0.19059122746101065,-0.077200648319533,0.04382800219729853,-0.0032203308310569945,0.29435491670917724,-0.3405128766289367,-0.4860816851375134,-0.40815677943524287,0.3029208155334865,0.48208590850545857,0.04341774510142022,-0.19617829676378462,0.14094121290614822,-0.3563406819768122,0.08792947012933884,-0.07386638028193701,0.33224339684554316,-0.17350040664831984,0.23571818907357886,0.02114037439389189,-0.3254011489180158,0.3528188121396009,0.07375839705451946,-0.2689318994559511,-0.6123314132423893,-0.27351246874300067,-0.5007200050046293,0.25097645559361736,-0.1230271561058286,0.05602159868766929,0.3045849443708133,0.190502901728077,0.8770956692247669,-0.02998013797720414,0.2969529849131618,0.5117572202929125,0.1788828380002777,0.43120984564467174,0.06232873853282063,-0.42406081595058076,-0.26300505744401764,-0.5223830772921645,-0.5611216102384029,0.34963275047281883,-0.7606528098968194,0.37885479260960575,0.28438318808818963,0.4407519364188937,0.2104562084763595,-0.1072673627307053,0.5447363837732042,0.24355655754567274,-0.5280318812084036,0.08794886060776405,-0.8887589861467761,-0.30004492091634316,0.14576886134967254,0.22134379561343212,0.3228421112813201,0.5907032943596745,0.21061961582706581,0.5311939771636245,-0.05113296862867417,0.4512246031101114,-0.11943548817929825,0.37012055778168684,0.06686751465157413,0.7716363411893372,0.245883638335553,0.11683314342074491,-0.2749256084479331,-0.3053639682768091,0.3276307663787962,0.33998127679219764,-0.16418172710527715,0.3503506864946938,0.21326454336886413,0.07331302033512788,0.13384505096940477,0.07329984189663606,0.147397409498499,0.35093294750697923,-0.12199127997213596,0.5600983420802015,-0.2776822037641821,-0.06869849814838903,0.20885189792452408,0.020098622603748954,0.22609850413314345,-0.5672197167686727,-0.7763370608393795,-0.0031668904734339295,-0.0075009966090944635,0.3908544150723742,0.04950563100416997,-0.560984439850317,0.37520184282551544,0.2407953034923927,0.12556697355913013,0.25737304525362437,-0.5009390668195466,-0.38576590856288234,-0.057453158924701965,-0.046415074438536694,-0.25267230741207286,-0.12661354211025824,0.20618626091168404,0.7076040740597744,0.2186045483479998,0.05197217102467055,-0.04979282475930475,-0.10396584866246536,-0.4209688283239369,0.42937879582755883,0.4939559376268557,0.3223610513674159,0.074299095151816,0.09619153429396116,-0.6638900365476949,-0.425923567547647,0.25398572302549505,-0.17320898708392918,0.2798281033365724,0.16150634695261082,0.8437327539078532,0.31186599255572867,0.19207727686545184,0.3635105077768827,0.44691083146441607,0.10924546011981306,0.19684262459553165,-0.24536345362988893,-0.31076561659020047,0.3865718798788463,0.41787436520771687,0.31436990981555846,0.19788469620094185,0.022758317084273293,0.03347386738022162,0.3060398542857865,0.09001601370276527,0.030162686470219163,-0.23168501305878295,0.48056663744931727,-0.17497295107260064,-0.0006000622756140769,-0.4255393308560558,0.16167657120847032,0.020978099495223872,-0.13496157703593525,-0.013506083715808309,0.20970351348008787,-0.5549982825551267,0.08344286077045597,0.05251205491312462,-0.0960240843183074,-0.3929712982616842,-0.3410629938623589,0.15381343226948466,-0.1707892404777044,-0.13643722982379908,0.7632209152869839,0.13023715281892517,-0.21576767539646585,-0.2946851847968575,-0.0008822995651446494,-0.08749167937159426,-0.21190159773942077,0.3874822308665634,-0.09282746534135768,0.39552765719775274,0.5442709233466301,-0.2763006169505878,-0.057947825508167995,-0.2280469069969295,0.1027011535212696,-0.1415453049072333,0.2220978239474835,-0.20960732104753804,0.10114389346681962,0.15086213444358257,-0.24014358809585112,-0.09439428682632167,0.14097012940795836,-0.6888176117634371,-0.04038474345412163,-0.008929084369034272,0.7975966168202653,0.11454386122858483,0.158292045107407,-0.28026259397153563,-0.460121182503476,0.46910303574056955,-0.08839055186008438,0.015849141861433096,-0.14262766223021936,0.013149804503450255,-0.015376807048272833,0.0909628469638034,0.21753496619264157,0.13782639966021248,0.4642675667633005,0.052119310414883116,-0.16371991900143631,0.36045516230113,-0.18307565324372435,-0.469724824396218,0.35981132374142877,0.2571109951242339,-0.14391633385723174,0.3071607562220977,-0.035851421047601854,-0.31093928671394844,0.11521494914666763,-0.5972278064778498,-0.08798957997049367,-0.13428278120975728,-0.028353176352714254,0.2487974634557979,0.2454188049012177,0.48502932260173975,-0.03975484602479885,-0.286669960925181,-0.13286165576615555,0.2863805775856689,-0.10359379385567137,0.37486633022487564,0.035810374644773296,-0.09838798886776563,-0.33411956066861775,-0.13361649064637496,-0.025781586646724308,0.07517224355039523,0.2168366493457687,-0.15941156216563038,0.24318064652302027,0.004526553019485506,-0.1464536057461359,0.0013835955135471922,0.2479661359401808,0.2748673940209628,-0.12743425302249956,0.3514470649540222,-0.01222693908709818,-0.08660605681342277,0.11350072471212372,0.24092770865306443,0.35129277646263496,0.563632978564316,-0.24136470304553054,-0.3016614835296119,0.2436114561524121,0.012626583633302851,0.15073574129895329,0.061403192198665586,-0.1477298085083692,0.3125519299715973,0.31002667973479564,0.005944239219825766,-0.10833437132335148,0.13302823463706998,0.10886054424654654,0.3958123024231528,0.5267117603826434,-0.03583774677859394,-0.31304565473121804,0.1884823419012246,0.40697839082557963,-0.48836326415548315,-0.28311153650081206,0.4996011086144605,0.3653912947373089,0.38835246159185455,0.07087774973967592,0.3311531954875862,0.060027621542456326,0.2130575805810344,0.18469504909868953,-0.40912543206503477,-0.08133284993507714,-0.3864740926875033,0.416662592642743,0.15195633825719854,0.17764512113787972,0.3505350242788114,-0.4707340470541901,-0.3654595758559976,-0.08021727842525327,0.12406250264592761,-0.20117427463577747,0.25130767275773946,0.4560273604757345,-0.3225651231852012,-0.21390510439458807,0.047875279644567656,0.2725144904875786,-0.6556708518697554,0.3474673102102962,0.32233215694060346,-0.23480950799632283,-0.07448961503089041,-0.4010620414080934,0.2253013311239304,0.08008312706753416,0.5095143052546084,0.24682044572324896,-0.2741458916185041,-0.1122773261871112,0.10269817185242702,-0.1094118897992809,0.2629239225361684,0.10807691570199177,0.0015043854596346329,-0.031510902919508664,0.1894331546585388,0.23986999115444363,-0.0133436704889821,0.15083536130086253,0.166305146873769,0.3750179787337418,0.2975582232725723,0.329821590532592,0.24223423289161838,-0.17235461037633215,0.3998369055299081,-0.011839439039611602,0.2900886411819847,0.06263110604067743,-0.04320887938792869,0.09393774967406268,0.41970636613814627,-0.01089203614259035,-0.2071675431779268,-0.0010537177720105553,-0.070352870971341,-0.49981751957721005,0.42757792563157027,-0.0887888168658234,-0.08423660875872582,-0.09657415813241145,0.03441527106183196,0.22823030583579146,0.4223283307251804,0.2165448574967993,0.3228620794119674,-0.3956820491733708,-0.08075253514844608,0.17967632098479813,-0.2089046764662823,-0.3096870693795886,0.02180323778212236,0.4627840732281288,0.30050493050485394,-0.002001426102207063,-0.039785254564486415,0.18018919125943417,-0.22650040690489898,0.004695588299824294,0.23404252464131828,-0.2835048663449455,-0.2154226493981404,0.047930212136114037,-0.2929135636774939,-0.14226038195655308,-0.1949013340385041,0.06514953559366259,0.023123807708655186,-0.027133892332588255,0.189074528487034,0.27759134964516163,0.24937956855623855,0.2571528920387701,-0.11852561924098554,-0.11550950071305388,0.44369740382655465,-0.05670806969594395,0.20710339255744759,-0.566729827707946,-0.10723893011310381,-0.22871735735609228,-0.06788730666609026,-0.019386616186971097,-0.08348585459247036,0.5301668278915312,-0.2890849809423486,-0.15257034750587034,0.3859440697046764,-0.06500574575872665,0.3099372761374155,-0.8902251066960142,0.8867412449897121,-0.3878123062617205,-0.12963914021453493,0.09843876429331844,0.11926138671866554,0.21318216907096021,-0.41655099860098427,0.016790763616571155,0.2164785854255291,-0.4156253677638278,-0.17362912522958335,-0.4777514151046418,0.581773809783138,0.3344879970083381,0.2055265055819148,0.14176972508765215,0.4380833132502525,0.1740447957732156,0.33553814812941657,0.09081162247431153,0.03436145612360333,0.30764799847942137,-0.059271744538572375,0.5277861750346498,-0.08089496205630323,0.14038544957344926,-0.39686529452929176,-0.18498821608516486,0.24947866351700526,-0.16990231366515218,-0.051442487889995385,-0.04141874538033756,0.24853346589345726,-0.03538595579803422,0.11418424161449775,0.5217090342571226,-0.38847811374027563,0.23531734297796314,0.4209812431787422,0.2664374668187819,0.7574187649526914,0.273916450551639,0.3711447494201849,-0.4206480341103087,0.43382173906483656,0.5103274919915155,0.24041148656975478,0.5489658736940864,-0.4820961385384077,0.273771863515078,-0.2780627548052077,0.08702939474568512,0.05862466712026314,0.24493882494078495,0.3901940514306577,0.4395353135027539,0.15188777303261117,0.436012703424593,-0.2559517217524934,0.5964300267599786,-0.20838104916486222,-0.48612898173573027,0.4546466401928887,-0.011344729763401666,0.4820045506371094,-0.14246963105131905,-0.1408285875881277,0.15607321598832083,-0.49370663717158436,0.09274487728367747,0.06520414712588563,0.013182278484089913,-0.2834341066980192,0.0031507917566164535,-0.026454730173052495,-0.2570574322563699,-0.19341279352733654,-0.3268601847043005,-0.27379837115040245,0.01815912272881612,0.2882228170773566,-0.20441458351986808,0.34159546992805323,0.07271816183522584,0.21414157926111604,-0.22183368471251416,-0.0589754721963319,0.3110575321467326,-0.3417227828343227,-0.2780997978798894,0.06146609558565927,0.18484105325861916,-0.21513470578787583,-0.2236226305764169,0.20935545018527793,0.37351472985830736,-0.39448351544035953,0.0859894948513675,-0.042116698166890926,0.443095565121606,-0.2973144513307616,0.651418133550828,0.23099625324099973,0.02591650723491861,0.20822714298891692,0.012088788997856217,-0.14212407675078773,-0.5299191108770096,0.1385638529271381,0.36985244470081513,0.06687103688757914,-0.037963855889211376,-0.31713558125552915,0.3534436827029393,-0.4430701156484906,0.12527641716334054,0.26456346220840404,0.21844861474110203,-0.11016768377980563,0.31847636663521284,-0.0888794016951303,-0.2196859250827574,0.4830176210447163,0.1187744103178484,-0.3074631207958499,0.17740474110438892,-0.12882770319589376,-0.24069734403153117,-0.33690142390807976,0.07650884166932403,-0.3067273126548937,-0.27231163521641666,-0.01291717309390076,0.4901965204312362,-0.11243884639112543,0.3539133702924703,-0.13439792918149765,0.09743619315246188,0.09594346471087045,0.5065244110653242,0.06613820715950444,0.1482814332722514,0.19626731424744434,0.230107821023982,-0.29265739276339514,-0.5498164382184101,0.22769078594339673,0.0179927181908842,0.06861828138971227,0.38812056463635847,0.059616245270854074,-0.17279165819963488,0.04097984758026335,-0.003806296192997466,-0.046068791480019494,-0.081276002289516,0.38271378952756935,0.07221245456629857,0.3783020476837868,0.2890187384224878,-0.27137521532828063,0.2026965933692817,0.3491741858208275,-0.033298597877927986,-0.12860242750285406,-0.06942126554589138,-0.14417218327105794,-0.10448290258274923,0.257917236926697,0.3591788190904486,0.30721295726818737,-0.37515829568775366,-0.24196599012022288,-0.44050868789991543,-0.10526334839145218,0.013898872513286425,-0.03224796144357135,-0.15666210633907218,0.10750854039374957,0.6358063080011735,-0.3417766077902954,-0.23229582760479794,-0.43388574357306103,0.004649258163825007,0.18447504532966963,-0.2981282927129258,-0.04308962724700537,-0.02072629615147451,-0.21228918019200865,0.034776879646191736,0.3242565639341574,-0.3414983799805916,0.48402163128130526,-0.0500631834988109,-0.3721138749677597,-0.23119467635134966,0.2169733989025357,0.4214632704108778,-0.1910375368631729,-0.49244021888588857,0.06261894198658718,0.056132657525516855,-0.26511468089363116,0.007235518867546087,0.22143526394772156,-0.06806925122675002,-0.1496218999930421,-0.3609805758964914,-0.10229900632443806,-0.030438965160066465,0.6525355117291003,-0.036402857153923204,-0.24709438375717635,-0.6044376556728243,-0.10347247809029272,-0.10852390026465471,-0.23081879825472446,-0.4391832759346825,-0.24405988504778625,-0.26405422227571695,0.4020168850953899,0.4715770662838359,-0.10731606226397483,-0.0048251457836736775,-0.23533861411384036,0.14259769830582508,0.31814020452943437,0.16714070905168776,-0.43876276279310694,-0.09159207392049985,0.11613814694243338,-0.14510380030111056,-0.09108246183671474,0.13437093070934986,-0.061399063594923656,0.4114785915658479,-0.12657833057367388,-0.04271504606878923,-0.06312048064126144,0.17043871238229377,-0.04727143225758046,-0.23640520555355612,0.035803624336640874,0.4811850852146512,-0.01765997240677561,-0.1477947822651759,0.36155764682315944,0.20031821457359192,0.3320898122863102,0.3498021948633776,0.3514219691459799,-0.22326009913654182,-0.3355408683280866,0.10105322628698223,0.11121765354688826,0.32574515613524857,0.09994791690064048,0.14309464045833845,0.2559769729434188,0.22940440578152563,-0.467788693661435,-0.38704943213677306,-0.02596586847729606,0.07905101308218769,-0.281349005278489,0.11564214392907235,0.11751391907249373,0.33820931217776695,-0.14330980368446317,-0.3912400943487447,-0.2683146449053497,0.37608670240443054,-0.3832742514301607,-0.02580358175748365,-0.26958842648739756,-0.3738504737053666,-0.17364751987785243,-0.17499103265656463,0.5128547588034071,0.24354099229791598,-0.5084332549567852,-0.43193227569726167,0.1528738019837467,0.09168628307772814,-0.14058273497368717,0.2959603905442115,0.15812746924367715,-0.13745018074233822,-0.12380390141194139,0.19788990970507236,0.2186860510043407,0.675379876788035,-0.029879932047876097,-0.2580695534517925,-0.06571950855416331,-0.12238587660262495,0.14397918027769432,0.20684208655419964,-0.14417068277391581,-0.5060461046923628,-0.12716709274242619,0.04703443017150163,0.3875777047024382,-0.028704007365396078,0.022265497528154203,-0.15005593193373337,-0.19993608964455883,0.034974722255997286,0.2463241830941535,-0.044774228174373674,-0.16813321771690862,0.10245337489462467,-0.4198381362505328,0.3861134431098595,-0.15891498703738266,0.27223600948936627,-0.36538102766714214,-0.35246774378896745,-0.16803359439345517,-0.07846240024655983,0.0489810771140367,0.4099602042326893,-0.5505443675822244,-0.2921424953001419,0.7928883811428439,0.05055871448620398,0.22683925040011205,0.3053092698281006,0.572744943481655,0.43033563527281427,0.278506282905204,-0.05051717855816971,-1.0467658987790713,-0.4460119570328236,-0.3788747141957045,-0.16712785988704665,-0.25842146341845235,0.2591576094847186,0.2147866887983868,-0.10733628531623386,0.04162982438413278,-0.19056590753703243,0.22249972707490992,0.2147580234859427,-0.5219523849297404,0.41822758724620585,-0.15263250586212254,0.04947389728652449,0.37235295324879875,-0.5474974772630361,-0.06385098058863108,0.34077166654479524,0.08170924376515494,-0.5505808458879128,-0.43271252202804894,-0.22795562954329635,0.11297846635562173,-0.19046278536432268,-0.04143818925451347,-0.28037776460823827,0.26897716471942174,-0.36814886942364616,0.17237384526231037,-0.13018416442773914,-0.9047143962560248,0.38347129735411456,-0.10303958161750085,0.034697028482560316,-0.22305609715038804,-0.16014245417016265,-0.4474918854679188,0.11821622850967647,-0.23850544504590665,-0.2296857521415068,0.019435049272449045,-0.008526955582137973,0.018868286537052404,0.4018737275786104,0.009203649573652106,-0.18066315853363385,0.11230130084334668,0.1924758361821993,-0.22520846785547863,0.19856943637997687,0.0979561912657927,-0.31841618828543417,0.3745311585511528,-0.10768717424000473,0.1419413144456264,0.16040379822319256,-0.014020449473038793,-0.20572473809871145,0.9195735113762733,0.17754922267125187,0.10187425544569223,-0.3483742084885522,0.07357327817688934,-0.22496468719602247,-0.27872773348880064,-0.25951861105797647,-0.023440323917545393,0.7128432905797223,0.3590065465103407,-0.5116138409971012,-0.15699154338680418,0.0030067112757264647,-0.05773005707600189,0.14224540161479055,0.18587232546910357,0.2740720453071641,0.25759008538776096,-0.07041697255887477,-0.012823183588586074,-0.09189957247418007,-0.37438216537879065,-0.14353164224088544,-0.1934420867507677,-0.07714972325775335,0.11654835272806745,0.1969866309059849,-0.4615473125174569,0.08784152729889363,-0.05164666716501895,-0.18896557129133357,0.0943539556007924,0.08197405430551319,0.20296859288207228,0.1556685937940233,-0.2652920367633108,0.06975275123602441,0.1413360600206864,-0.3805124042976114,-0.0455397699031203,-0.05008368986089471,-0.35415050067125053,-0.09114088186994206,-0.1294800843445563,0.007013557991834702,0.02082170457858977,-0.01424485249202078,-0.4097566775257078,-0.3245323396152864,0.3049800917067775,-0.42164266368027703,-0.5304270561802694,-0.20872876525081244,-0.011079553481685264,0.23873378775383622,-0.09855012081599562,0.11671181989529474,0.08624425227904944,-0.32429569172058403,0.3892565885456636,0.06871277891745084,-0.15872433507386843,-0.7137700106524255,0.21005674938877134,0.0605121082190176,-0.4793616272943004,0.15345057665957323,0.2963705458871075,0.1366271124465006,0.12852099433899655,0.1315896873117761,-0.40551886960725264,0.06389820771204757,0.616550683953683,0.00513510953499768,0.00704990367553977,0.37586754786824395,0.3682881899896573,-0.1432716003283296,0.18475867796405335,-0.18678754122611158,0.2420205355682778,-0.04633286282668693,-0.07725404243003833,-0.26575216629676734,-0.2103691029892588,-0.06498084425958148,-0.2706064447011147,-0.41290863363269054,-0.1117157188855983,-0.05614641903424119,-0.5224155081075111,-0.4780579876771439,-0.41242306778558224,-0.29324910442455865,-0.2257218367513658,0.24499130508078706,0.014386124891200506,0.19812842599260144,0.04290447904577059,0.03438554926995041,0.12672216328970956,-0.5493486172909617,-0.07752136507188279,0.15884827669758061,0.06317274380175047,-0.26093072134215156,-0.15194312784827874,0.7322987053614026,0.04517800163169042,-0.10541574837523776,0.3128955150928564,0.09947912949486845,0.2437746978070602,0.17845301406318262,0.15891622615245843,-0.062024108209923545,-0.2910999188169388,-0.020553648413479897,0.41868052423068786,0.4342288044793986,-0.0787907163942056,0.1964515390440036,0.5793554111766669,-0.11257189758642126,-0.09533342396610359,0.053761064074222056,-0.02808014630432102,-0.39058578253148357,-0.4738271439915825,-0.21563676600794887,0.12053324948766547,-0.13988279547220767,0.5509300780021598,-0.02410707435748461,-0.022339223271123088,-0.21726643098894943,-0.09411198354507454,0.7245807469635989,-0.329290610132688,0.10341326886388577,-0.04518210521237477,-0.6285271424929352,-0.34684310296768,-0.1629365526464873,0.5408935514748389,-0.2548985195002432,-0.5973794230383744,0.17851061146468108,0.04448452971733481,0.18303524353107745,-0.06692734973200114,0.24478596451376683,0.016496576874763066,0.10208175308731376,0.44275214101245336,0.4895082381943667,-0.037245358195555606,-0.21796649659504913,-0.5421013342122303,-0.4725080133235616,-0.19087410685208261,0.33930095082207,0.15146974505058877,0.4954670619556036,0.19907709638972496,0.06519825332330868,0.0030268354416876156,-0.25587668771449723,0.039981111784718484,-0.3190790069477895,0.18015721740846657,0.09064541926169477,0.31690364049850106,-0.4211817590974382,0.3925437513382402,-0.3131878551337786,-0.04195014106925002,-0.02040699148227975,0.230966335171867,-0.12432725411745249,-0.3025528100097621,0.11158060395982658,0.3543405553659583,0.014200474924341924,-0.08659285796267113,-0.4136910359297384,-0.039023412265936405,-0.21226293201924187,-0.03287717604356859,-0.1209533091274729,-0.0024271731056825577,-0.3825390508201955,0.11005873637955182,-0.30899829390672606,-0.18431854730275402,0.6520928996192686,-0.15210582218408358,0.10190030529261385,0.6214430450824975,-0.03182107406082678,-0.04039765120088095,0.021903431549696505,-0.293700432068249,-0.05756886509180936,0.1692251847828555,0.04242550570593537,0.14129159338836567,0.5832957311635898,0.38693942548714766,-0.16011352832151296,-0.15847020377402715,-0.21683903185085457,-0.5197057773242562,-0.1473749793722,-0.13105625324767556,0.22713648688953705,0.2515268376380889,0.18029921020542758,-0.24788247231858482,-0.3054503353019111,-0.19643892300563215,0.21843605768221605,-0.04379551016947331,0.24664074320287183,-0.4041620210286058,0.2006910198381387,-0.22032343433538218,-0.25914800324814957,-0.05336269284851301,0.385128404251486,-0.36728350807149934,0.24755475042301125,0.08303199114361814,0.2743183019941209,-0.13507879858175698,-0.06028433157320497,0.14814982559872766,0.035365742857279184,0.2989389366965567,-0.1600751060583192,0.08225423701027845,0.02962956602106199,0.44907702850480324,0.1881292777912236,-0.19659066936870312,-0.24157181974288972,-0.0503812359820976,0.21401268202603477,-0.06711020892353743,-0.08944531771974026,0.15431021274169432,0.5281849684348734,0.80745336618167,0.18473772982156822,0.324367874710087,0.42399067430316595,-0.2404023577355574,0.0544678494316423,0.29966105732492654,0.21234237264113903,-0.077917405165113,-0.4453958306016929,0.143806686658983,-0.14617854440389638,0.21221410739589586,-0.4024755699663973,-0.6127766997190818,-0.37263228806096793,-0.07190691044632239,0.4403571612838018,-0.313826089682773,-0.03624467183771333,-0.062402246922598936,-0.29644765459557876,-0.27045496632860855,0.1181134097722425,-0.15445890895039058,-0.7142223769686558,0.023553841802083995,0.042798433460113125,-0.04458559498763768,-0.39241511974992416,-0.11823389659707946,-0.0972295549679891,0.17410700922086939,0.23725028715347232,-0.3592931571881502,0.5154188200648313,0.36117228276213253,0.13477446029099197,-1.0980928921837663,0.3371467584955003,0.1697569452796359,-0.34114939735226835,0.22451350145461857,0.058791564944863664,0.21245068491497143,-0.04733088049541463,0.15097271705724527,-0.41775169983654603,0.34545438625389113,0.3554699297164778,0.21655111194553084,-0.36975980767032807,-0.03521136827547746,0.04511182910376491,0.2685021949361001,-0.38182019398319056,-0.11949346300592799,0.5005692363013209,0.5787173125736481,-0.9049400117689563,-0.2363685181306096,-0.05107034828506446,-0.2543184349785526,0.09369103242577653,0.36651965520387153,0.24826605928116113,0.05409870371569772,-0.22128584846349825,-0.04876913030446564,0.05758537337365807,0.0627914768659941,-0.16773550154636374,0.23434929073958066,0.0472232812834793,0.3329654087053477,0.1608206088866768,0.15999317578023592,0.20675337578054595,0.12316801272512079,-0.3860616649467981,0.9082680882658049,0.5532374471812551,0.42877612645659396,0.051221453093672244,0.08063038496166955,0.09967895269849567,0.014245653611506912,-0.038317050190745064,-0.18019843791938397,-0.014019607364445179,-0.3610740764847269,-0.031107208190296866,-0.10064419043959624,-0.09962295166477636,-0.13161384473048893,-0.14969882901764858,0.03395354503901599,-0.09272208880160308,0.004706015358613505,0.0065216715226798574,-0.2902969097421188,0.28014893444849853,0.18842710138266364,-0.7443225504092226,-0.5097331902973776,-0.4945210514407652,0.07867875337690419,0.3247514971465855,0.07692169958111494,0.3830246235315086,0.13521858264544587,-0.12637081632690883,-0.08998025023995526,-0.20775530430085443,0.0539220937904718,-0.05560981287189201,-0.09236675362503863,-0.732192134534185,-0.500813420256738,-0.016215521973273042,0.1876251181151588,0.1429946444931052,-0.3105755051687149,-0.2804496633357085,0.023662816821407397,-0.41218117226629297,-0.17741371584531873,-0.3685220798775927,-0.1084434906832826,0.07085879200949025,0.27487499484874806,0.20643775943230938,0.054581983455466145,-0.1430600782685951,-0.027020773631731526,-0.1281681339414783,-0.12767455467025657,0.02209647891028376,-0.7086099379195718,-0.5577723256062616,0.03028231628330235,0.2752565159484033,0.3444816876726067,0.6354615823979775,-0.37937412062456866,0.5239191710377264,-0.1774775354255033,-0.8014711608065345,-0.5606521569922888,0.1978059950852264,0.04708664130120864,0.28365864136432933,0.09403563794877981,-0.12214054694500699,-0.35664698404796247,0.06460149426934825,0.7618648402845081,-0.2955676905498834,-0.493387847993236,-0.5336703397470839,0.23922095802534482,0.45552274385595326,-0.025347319092392313,0.24943749007322297,-0.27632159004637546,-0.25145279964011147,-0.10056933942394147,-0.7015243541225796,0.24354533294394834,0.6574378624450246,-0.11118420622277728,0.14281248026506033,0.12787505513415312,0.22068893150343782,0.03663313573441876,0.1769441026468822,-0.05528603550187766,0.05329459244688544,0.311088141082093,0.10165004413697895,0.09290001663501474,0.10084348041845559,0.9267845116560217,-0.3620780348046472,-0.6002456233783042,0.13568580819500792,0.22280465557291057,0.15709485241968243,0.6165677059549309,-0.05135593724940933,-0.41820673391629026,-0.1587824688785392,0.09520326102615612,-0.31702450831258866,0.1189297369561538,0.10206200311726688,0.010227809824474313,0.4938654911631805,-0.15677626787647472,-0.06519501104015214,-0.07532409654081303,-0.7006192513771133,-0.19354245283080784,-0.2513415035630985,-0.11848013677315353,0.5811919983352518,-0.3025985086303489,0.28490525363254965,0.21216731301726252,-0.04922083998357524,0.19699533063448008,0.22577694107608828,0.001697647057109515,-0.3683082380805125,0.44161282516975536,0.3935160417297834,0.5202153273721076,-0.24588717958405612,0.4421769701406507,-0.22192495628688982,0.2755255371775472,0.11512351330962087,-0.009862442687611592,-0.37657875571977867,-0.03218339361763292,0.015129030022743531,-0.1117089552120733,0.003589193029571093,-0.18529260694354616,-0.39010889280628086,0.2975720906532092,-0.5690548885084401,-0.19885453737892939,0.17957044799323266,-0.2699740042237184,0.37149767339062534,-0.25188653096030067,0.06422147591912228,-0.14161686287805733,0.22006195740996393,0.321517081516866,0.35456601656600545,-0.2704445177932732,-0.16862270623325543,-0.37868347826012194,0.6565996077811653,-0.20963354664343553,-0.43153233842741034,-0.290218321615709,0.048852417065440294,-0.20577396146478769,-0.11010348137130856,0.10497061988089158,-0.071719807696702,0.09490754843026425,-0.3386745319719136,0.2217511292846487,-0.10382718444747663,0.24821589727476734,-0.3413863302798954,-0.16369448534850178,-0.07679917030866597,-0.6631020961485689,0.38998558261153365,0.16244354570087435,0.35968818525450164,-0.1562038631923977,0.25768535350420063,0.0017618494936654447,-0.3189666062062304,-0.008336258214276828,-0.4062616249128659,0.10483251713558024,-0.021690425237056082,0.305679696041976,0.3294888729451942,0.763943336722566,-0.6183255684012698,-0.08756281556381736,-0.0500518214312733,0.36756884757609853,-0.08934970241431309,0.018703595836389794,0.6398599471318043,-0.014148974968033377,-0.16608651503095906,0.2149747419394142,-0.042873026310941115,0.1018215835874531,-0.21365292255298943,-0.04050375925335182,0.5397598834538296,0.001097846129683576,0.32121206903896965,-0.2782107366578921,-0.39364057660289653,0.1633579511001251,-0.29361887322930463,-0.058333878446543704,-0.3022266231038828,-0.4278236569726054,0.15243403761486085,-0.3161077983381745,-0.5557082193161859,0.2732476328046664,0.10385465000591551,0.008475109924683557,0.06242334272705696,0.198777014674452,-0.35232289893077023,-0.43496333226283257,-0.17137659777598488,-0.29403309092577196,-0.2661476590348718,-0.3294101790672601,0.002197325824650759,-0.3984447355005335,0.46935461831824893,0.45155903384089213,-0.02593436222585798,-0.6572684019787282,-0.3600146381639401,-0.05564253869153178,0.00042980179856881573,-0.0920210415066196,-0.4679533838006119,0.042067145128495756,0.21765323936462935,-0.12191896212305955,-0.11484108864082514,0.2101936418924666,-0.771283344053244,-0.31987754900919074,0.0747754693115744,0.2649349153830879,-0.16777079431997247,0.24407742743819108,-0.1790489928153029,0.02304932803354331,-0.208821717923,-0.07041718215569612,-0.34982700707081593,-0.19871262584012878,0.15807950766209422,-0.15205328259731166,0.07336003642644999,0.6592658188134572,0.08019463021169625,0.2767368242151238,-0.1354560475492635,0.30831955635804364,0.1026844080636424,-0.33542994153261163,0.3114845090293581,-0.4570020838844768,-0.13133059250589033,-0.04170181202028423,0.3318124478671411,-0.12250697704836516,0.28362135356435564,-0.19953948138313174,0.004329905117772112,0.07777884642984896,0.07627909359036716,0.4375504302410107,0.26004742028320993,0.13271164923577944,-0.22564667457786675,0.07133882672233996,-0.04123483578562585,-0.03314549068619568,0.01448108056365002,-0.07183069708522508,0.3813239931462808,-0.5361452778683258,0.23592648064672134,-0.31029278581295355,-0.4319168081695727,0.2572247235590807,0.37140935901798483,-0.14309855201948235,0.5914536271746245,0.45999627369927737,-0.28349923021614465,0.3647598876661132,0.5113435566916628,0.028111544764283035,-0.057213270120649716,0.07302239885824385,-0.16224737396530342,0.10881491720471753,-0.11549039471384218,0.40965122365044404,0.31523660086796407,0.09719668225616401,-0.6489297040993027,0.19099030319048071,-0.0461812733488601,0.1312147310038135,-0.595295574596164,0.32238117392905663,-0.08601950781173517,0.371388255717816,-0.351797541037326,-0.3845024720624027,0.31350234423569956,-0.07982530197196978,0.3020395773629114,-0.011729299944344788,0.3615265943258288,0.6462660649201046,0.16982290441856834,-0.09389849622197183,-0.40269278406109044,0.22890339921055192,-0.1224714003701683,-0.015316502159043698,-0.44045820684804976,-0.412388401578416,-0.10256323203870746,0.28316264444183076,-0.08733165865828013,-0.41938010180532037,-0.0695995249207004,-0.3435224543200626,-0.5238796744893723,0.19162890094502816,-0.2529213653373289,0.5869839379119807,-0.2439987336727373,0.40053652594178346,-0.45634819988618286,0.5516467404652228,0.2920559577768611,-0.035327473407621005,-0.2061089760202701,0.04395967557506898,0.14178375933872225,-0.20466877335827904,-0.07097660213823974,-0.5811596234313399,0.2094611756204665,0.08891336777542888,0.14572612944071223,0.22131016039215914,-0.19379880380286182,0.24406712653844376,-0.23046982804497843,-0.12948125650040654,0.21627147503674907,-0.041758388122697734,-0.2516873322019207,0.26743678012993616,-0.30189116037453245,-0.7740500971182454,0.2166078985102407,0.5729655570079748,0.13554011075807926,-0.18985334786715072,0.3450575465214569,-0.08266312286180347,0.27360110765791523,-0.6438475325439236,0.5026714214534391,-0.4082281295380735,-0.10073094658389431,0.15828347732386971,0.543920833200734,0.46481546439721044,-0.24997204663091677,0.15536062021473582,0.80997216698285,0.3508499021465309,-0.7451922311478848,-0.17415417075487077,-0.3382600770606238,-0.32566033183055343,-0.3070578131136379,-0.3336582917603308,0.10008168063555362,-0.49010610764306106,-0.7693021398695779,-0.06353634028281446,-0.22167539082369278,-0.20647453674995328,-0.46894628171154745,0.39254713381672934,-0.29812998302986843,-0.45049880557891303,0.14366151266531105,-0.08662236986116942,-0.17963650101295195,0.27957416595292134,0.17267790822739737,-0.11600655238590243,-0.23536108974201583,-0.17159785018399604,-0.5470769261889181,0.39879742241516664,-0.8109496363558334,-0.7142093250508824,0.1324357589125347,0.35493319098312637,-0.0485855127338497,-0.016668978355670945,0.36586962432527714,-0.29439330078789244,0.19083398739931046,0.209229127250027,-0.1900274847060688,-0.06133659557302409,0.17163553296665657,0.5912157820335825,-0.015353850725927785,-0.15277545036119977,-0.114802938577569,0.30000292169679543,-0.18302564279861627,-0.569517037851911,0.02157323577529511,0.2847921918386213,-0.190824402502338,-0.3249612059294692,-0.23216372808767455,-0.07809375224656123,-0.293944384804792,0.5855378670601656,-0.16939654376977029,0.7118511882934044,0.3382123735693217,0.49893341798911744,-0.27156586777806496,0.23306092525155706,0.041093908988957345,-0.3445709058883761,0.40390104329800786,-0.29807640521941325,-0.14659648717359552,-0.23793906009898574,-0.5607816283544774,-0.019681618161675983,-0.06837431713488326,0.32648322556324405,-0.007638436992478105,0.12869146790725794,-0.1392581035794266,0.25100081504310207,0.36008801169376725,-0.06720509292977365,-0.44157852678715653,0.04291493510339091,-0.5240368601614777,0.08477184918290888,-0.14679766429096777,0.6527853331373952,0.6271608715401589,0.5624850657139698,-0.19037193925166387,0.2621040774336488,-0.060782042796648894,-0.23661685592997378,-0.2113530870446011,-0.28297259341331654,-0.08449613454675703,0.07324234476065297,0.16413730745564065,-0.2388457296830784,-0.33706167892599503,0.1383827501498045,0.026627704352776563,-0.06423976173998266,-0.2634731294444198,0.17960840209351422,-0.1873087213466417,0.022939645591331197,0.020929350971639782,0.304109161944051,-0.26466423567346564,0.44725702268461287,-0.02714753729731266,-0.14211173659913404,-0.003776170588468535,-0.39262221079552473,0.05883633298643484,-0.10322947940037046,0.12941030143635818,0.27834092825067697,0.37996850544061767,-0.0870875417955108,0.2813049020722707,0.08690085554256306,0.019338343338563813,0.41658219893411497,0.3870241376730997,0.20424530292496523,-0.28309239899150174,0.15516226918723247,-0.04555356159165351,-0.4370038467398331,-0.4725525315927434,0.006751005178294793,0.28873063864410436,-0.16375521501777596,-0.40390239574998565,-0.2133977780566736,-0.10191586808755505,-0.07999603031828786,0.3580888194292973,-0.30615393888847775,-0.2864601362605649,0.005615938472318624,-0.4544881223823971,0.2916624742384105,0.1659073754812356,0.4712644820133607,-0.1851047518492634,0.007988756171162709,-0.3267168515140383,0.18946991329702173,-0.0071488064024916725,0.07761168437894603,0.3216035831171659,-0.28065422219754343,0.333063866616311,-0.23424915493631124,0.17482001310406867,-0.1217261004828815,-0.436322606482133,-0.16732026996889582,-0.30373275491316987,0.4437209793312938,-0.15422563419017976,0.2146294873956042,0.38282174085751164,0.09304951039411871,0.09550231911782917,0.23993165843323475,0.30246431779187494,0.5475715030802725,0.5899015493664939,-0.19246194330411284,0.6025127863496401,0.18656721420508923,-0.3646302485871057,0.21615631932038715,-0.011587434957803672,0.03605278923941275,-0.21598465069106723,0.24944334858102363,0.12342403550630827,-0.12103016225967766,-0.08636582614833038,0.4578395703104937,0.5277198131769858,0.0646658582382852,-0.666821742080246,0.3217967719031458,-0.28101717146161026,0.13268380269353536,0.2997038600370593,-0.37851484142297837,0.00044808354694749614,0.024621485291466606,-0.0014479411087014449,-0.0671826747554907,-0.12077680580239812,0.03790309267267402,0.051492391228345785,-0.5747617926057164,0.22466022467498048,-0.03691907113545261,-0.36905699840575484,-0.31582645914048185,0.23724441727399959,-0.22763306487717666,0.4519540080241096,-0.5039144326070295,0.00044727232689230345,-0.3656819662363158,0.4290897318027756,-0.5887662625260661,0.23812211099991815,-0.5274903146256142,-0.2971861076959423,-0.2023645267331719,-0.39366725457226154,0.22972392669082203,0.09270590240202478,0.3855489638763183,-0.33908647932225594,0.3097451097383394,-0.2107025687898548,-0.2388075281418606,0.4584143327206318,-0.1561910423632579,-0.09540999935112598,0.1471227360804049,-0.36691669836509044,0.20986154513989802,-0.09372568173775964,0.0046816442277967454,0.12874744671191127,-0.09792643330448239,-0.12515431135505223,0.07198597971306936,0.07735348637680158,-0.4192777647439653,0.49360144244934556,0.1664172632220911,-0.06290737369873858,0.027307185491734023,0.005064693376390674,-0.36474462993247053,0.13171392643833546,-0.20195805876360218,-0.09811128023084408,0.12580774560976604,0.3835168096358271,-0.3678001786814697,0.07919753479228628,-0.3145842474229883,-0.4109416548624074,0.12190497003471035,-0.3235533948799351,0.480350179561269,0.32950451334998965,0.19781682529640052,-0.018154337756402614,0.5289642432191232,-0.38178844942928036,-0.009578958060588463,0.20604211388941812,-0.43877662017861097,-0.007728007764295386,-0.5542065247097555,0.41360671846491237,0.13953301421485242,-0.2195608437015396,0.23819875963490372,0.16176244395921577,0.09580381942782436,-0.09253902374153473,0.004094539341867811,0.3159602730539086,0.09444190816371552,-0.1490043372529075,-0.22413009790829577,0.029632734853836523,-0.1339063520039501,-0.2892830347775311,-0.29820479615062045,0.2073261107593386,-0.2206972095958013,0.11399467348234259,-0.3356841987934418,0.0934776368624334,-0.43630223196390217,-0.4067930119316341,0.13333552183388528,-0.17411967346425172,-0.09314592544501255,-0.3061470543347673,-0.25500076857831283,0.28698504780404127,-0.030688163907390938,-0.2845177117677821,-0.025825377992517967,0.19723021785824976,-0.2623120045088125,-0.23742077029356487,0.1684844805578362,0.2417670529638628,0.33481109175754753,0.5383334087159176,0.37791640011842426,0.25320891369086723,-0.20028613747364954,-0.3908755948795963,0.239667786955866,-0.4577294432508088,-0.10486296314132576,-0.3975475073592309,-0.2919131507879705,-0.07040216094986027,0.029720065135263145,0.08418235885094258,-0.02646677588105257,-0.6630577084409979,-0.0001304440297344115,0.02509378399491851,0.34502153515623185,0.46364961487433476,0.13821149809209426,0.016176443857555373,-0.0018081847517503816,0.036656939066606914,0.13141550374429967,-0.13797476847247817,0.09178449692656201,0.0778989034708923,0.0030157617037602016,0.3679047314622859,0.1450816347130537,0.11884955537707464,0.27652397913731586,0.6635043954708454,0.1145418490773951,0.2143578588645525,-0.25569814780701533,0.46111097112047084,0.23861091822968158,-0.4736352849220768,-0.01997596845818017,-0.015143847717100908,0.3432595955458033,-0.5144639635989843,0.3873743719359643,0.09710648224715249,0.2471192791838432,0.16295232481810368,-0.5757836215613651,0.19076281254610364,0.5629310846596112,-0.093160424926232,-0.28149418449803404,-0.045712891575658665,-0.2952122183768958,0.24200581458389328,-0.3462037785952868,0.7608859661086141,0.25345842921907125,-0.24797772246695585,0.27987071230430655,-0.09635937221862165,-0.5263272306587325,-0.5307840608955062,-0.021425158514942578,-0.11876390070584751,0.5816224161526067,0.17784641307879148,-0.0058504029281418015,0.09902348133050502,0.4852675265508097,0.22947687255219906,0.01201005483005671,0.31501405759925033,-0.1598734258621778,0.5641862548639005,0.4279068217435129,-0.1051627033363078,0.14362937743536217,-0.5871649506095956,-0.2907359465429341,-0.39532689266563215,-0.22128270125061764,-0.07656066918749632,-0.11571486830355776,0.27227714630380057,0.26248603588010816,-0.024870028348776836,-0.22659527515047515,-0.015261509955280562,0.36292575161619084,0.32929380019742277,0.27744004840975145,-0.09707172877931478,0.1821414785705968,-0.3228262862105178,0.0645537532228338,0.638170097833067,0.43750634613505424,-0.06627711358317523,-0.011333291255538582,0.06687444994672492,-0.5299579931384013,0.10644520706811263,-0.5142882633167176,-0.11148052954481319,-0.15264023807428195,-0.4861876695937556,0.5015773089466984,0.5447868394856112,0.20733858255302595,0.2537686492219964,0.18448937617507744,-0.6717809859415766,0.05975018845071772,0.22097226345618046,0.14499408679130762,-0.015103433599370327,-0.05726909824884402,-0.3941950371511945,0.4061565940732394,0.020085570734242424,-0.15135564336374258,0.43936880825360364,-0.014307805022628857,-0.013858529394478743,0.19536016864113726,-0.035826341587909746,-0.08216931104274641,0.5640575988909535,-0.1515884464142971,0.275662418904546,-0.023804448093973016,0.03939577075834702,-0.48778836863472275,0.4541037048918439,0.04305507825269745,-0.37345652602184864,-0.27587500657392683,0.12113329496147512,0.6731334108155833,-0.25897488507844213,0.092569325108584,0.2767871617216488,0.6320154749947718,0.0767313998300541,-0.057117447621526235,0.17617662560112948,0.41438271774233704,0.05901080414479659,0.053758311448767734,-0.029607384521161267,0.08951749232109286,-0.600845837913612,-0.04903844367606702,0.07841402109880834,-0.8972903825072721,0.05863048923199096,-0.11757371591349378,0.0885756913985228,-0.320639539592661,-0.25245696089547065,0.13185454280415676,0.3249422820822235,0.3030615956911856,-0.08003612370705315,0.2801529504777604,-0.38385914091918544,0.20261264031300474,-0.46264061111275706,-0.3480635860363623,0.21279023657770463,0.09273418575714346,0.41081200619094843,-0.13811365149010457,-0.4418834423694413,-0.14176829062131474,0.25914916005864674,-0.5827538812167872,0.13273591682265293,-0.07426860426811666,-0.26092172248757567,0.36942104208049276,-0.25852033416831227,-0.1995420758793927,-0.00754748720995354,-0.11274532518945031,0.3710949259149079,0.29725325863097274,0.26166864523714245,0.323767472780024,-0.25524490894829954,-0.0561833417456408,-0.08618281290074209,-0.05997912150168346,0.7578671683359403,-0.03273953719735525,-0.15503707722287507,-0.20786021935776716,0.302514554302302,0.5164269791661754,0.12688536578436763,-0.3512111026410758,-0.03143489759725837,0.2593935931992619,0.2324289145969493,-0.3558906152680315,0.04774319515747541,0.01655889906819427,-0.45763605558367604,-0.18053800178656107,-0.533299318216912,-0.03888618966774841,0.43245341030223927,-0.5159310875994637,0.3253552383373819,-1.1044553287659677,-0.08069682448402227,-0.35244342929354383,-0.16587945618528654,0.038021352602967656,0.2527031002211833,0.5810199483818534,0.1473257023424277,0.28251624296142314,-0.48628122479551616,-0.6216597993165647,-0.3947479285979191,-0.4789115626267509,-0.26807797248780324,0.31777675250027404,0.09293811072587477,0.15566948613277298,0.15307547765388435,-0.09874713174985783,0.14481242054022242,-0.01778006732325237,0.0851075903856294,0.07478780464111365,-0.5075170577534983,0.34129427395949674,-0.0672187416055861,-0.30941954485767775,-0.17461741877206466,0.043123707290698095,0.06869452065225512,0.22324711263186023,-0.01908657201539074,0.24065248258752495,0.11628224147566299,0.004261297661217384,0.21052614124867197,0.5429753751105341,-0.13511325703032828,-0.17188064034439446,0.003169991561216362,-0.389292475547079,-0.3125765036380381,-0.013149923960207815,0.13958729893993818,-0.6498782911780308,-0.17430638758380976,0.09186408208575955,-0.3353124651101693,0.033657595896162476,0.07287376764412554,0.549696094381109,-0.48595753268514835,-0.08895035619847937,0.06653312059742669,-0.22764845822881147,-0.2940605700036608,-0.308870000129425,-0.036346214496388196,-0.492607086580738,0.2699879568517392,0.08325501317207587,-0.7096511700730079,0.43117232963243324,0.33801281657692434,0.10157639313392132,0.0025703554379117354,0.03806100051137538,-0.013694635709673272,-0.0530323209100767,0.3512496771112079,0.10085808651397132,-0.062120738903489445,0.21902668761104807,-0.3239305871388291,-0.12474266822851372,-0.240520310350727,-0.005186977695218316,-0.17083599806179514,0.13799343856824697,0.04675521033428501,0.49040329407297123,0.25985090592691473,0.10520068282585229,-0.08459642547270034,-0.08650315102880628,-0.4024095640508705,0.22909512065044435,0.23266602188661228,0.14864159846784453,-0.1383216612706804,0.09009638030376538,0.09962714931551565,0.06222336764074773,0.04970884755704129,0.10861447103227931,-0.09376099713357483,-0.4462310986957537,0.2801705106056525,0.22781961883136695,0.419181854139069,-0.6546600029766341,0.3978130043767456,0.1135721354364494,0.24267536724877797,-0.27716464956695586,-0.41796190233842084,0.04166536579765105,0.6555625476527523,0.0012860844582301273,-0.00960092175190547,-0.18494135054410193,0.2528583466815916,0.43928967884645365,-0.010023646574211474,-0.47799034373307,0.3137817189898042,0.0490901454352355,0.07306097542367009,-0.282790305910507,0.4122220799456931,-0.01656732700448029,0.6789701239124226,0.18187744419683313,-0.3456938282787003,-0.31749333413838265,0.09871064531957391,0.37750141429191864,0.06482001342401723,0.47218977011860663,-0.05365433609305202,-0.23945309176832416,0.3112964590735281,-0.27942073197035916,0.0010220816108153243,-0.06604731437996286,0.08879683835558652,-0.18726390501978502,-0.11948345484592152,-0.13718883740487647,0.32803880326802554,-0.11288276447298393,-0.3937203778778665,0.16289973820146145,0.28273946230485164,0.36217120690570076,0.015676594915095612,0.4967325793659548,-0.27499184031009327,0.09818656997326901,0.13479481806119006,0.3971680010104427,-0.41654168834175115,0.09138751132284119,0.0004899006687141272,0.30173054418696843,-0.5869057530384686,-0.11658182503982085,-0.3012488886248793,0.07995014730410845,-0.13752640034901215,0.23728701601566562,0.6640439617806192,-0.12096600635475796,-0.3594526130850355,0.08458828329700335,-0.08754167769964312,0.20566563791363315,0.15816926528822434,0.26661035709703446,0.10289812248500207,-0.311793621405135,0.5510387727753905,0.46725332718900514,0.14287630923656558,-0.17288970945043033,0.22196457272028164,-0.3829078002692343,0.6917744651675867,0.17367421043390227,0.2717042650671237,-0.21389903138665006,-0.15517123420265969,0.1286549247743692,0.40025350746658106,-0.1377308270941542,0.13838767125447454,-0.04234163397116345,-0.6794025613722714,-0.3358228148720882,-0.029675650886666852,0.1938524309802113,-0.2209052838595674,0.44712975919867887,-0.17605106318169642,0.08348198894688096,-0.16853372832110877,0.4291335240954545,-0.2207710210596317,0.15467233245558593,0.033230627293467235,0.06667952062857338,0.06170058865857592,0.02752676008564549,0.3416818240935134,0.12779614433839948,-0.3117186626561015,0.316051029032701,-0.46756495119549385,0.3372840899746278,0.019084230245589983,0.6129955144690803,0.07999378294226953,-0.23600379688087608,-0.3944839639151946,0.3040355600691374,-0.07511668566677873,0.1823476269531409,0.14026338668862037,0.15542527057933211,0.37466630046060023,-0.18997440139655722,0.4316815835515529,-0.017275673860644686,-0.19152224949416974,0.13302195606730843,-0.38333714041850986,-0.10120753244012003,-0.365102019808303,0.11212698689972607,-0.22888197707421357,-0.37497853633589273,-0.1486116795036376,0.03939517464046119,0.17379261319780015,0.3491293837653618,-0.13619859783827679,-0.22269308775538182,0.24671348362673867,0.2803842391597087,0.022961462298360918,0.16759576363998688,0.35677455804397323,0.24303176806198878,-0.07228467493062192,0.5023039290542619,-0.11220909886182626,0.11303881145906353,-0.04825468977744604,-0.5902405331248177,0.2760556008209827,-0.4528672331276747,0.012659362391964725,-0.06007173676350112,-0.1352811600751878,-0.2678302961992137,-0.17350914339594833,0.35354293024814065,-0.077817368241333,-0.0011725945528047697,-0.22363444595044157,-0.422375190660283,-0.3313140054527921,-0.03116221808450472,0.5235404012710696,0.1615295580801972,-0.15681633206713894,-0.016478902021194626,0.35668046220576555,0.3543593212942591,-0.13029898671355933,-0.14752014704034525,-0.028252901411181516,0.09475858318944622,0.26057326726165675,0.2936320064034508,-0.38325495998587317,-0.11216117121223745,-0.5400528974181477,-0.24053867062686807,0.05976961593914436,-0.6711730754470319,0.41752498323816517,0.18697577968904044,0.7251286064535674,0.2469801254123759,-0.1693798068257972,-0.26891952695727406,-0.5254321844072618,0.012351829954296192,-0.32541642695795053,0.1813428884152462,-0.31443819984318877,0.09683561103749412,0.011895331644012956,-0.3077002482359985,-0.34482318198322615,-0.06735299115375636,-0.06975953483500268,0.3695849432897671,0.22384841520754525,0.29524083544904667,0.19442810278438147,0.41503799121049484,-0.2869579577955339,-0.4265379674641446,0.0975518756939558,0.01803678621724137,0.3418742578813203,0.3075689134186973,-0.30133726121677085,0.5889439482163955,-0.337551402488186,0.09582508117704477,-0.09425246260850569,-0.2003069842856232,0.4088355805406426,-0.10772596530630418,-0.12477811712955289,0.10079627432421115,0.3250673936902065,-0.3750367925798778,-0.07970341832864652,0.01993182782574076,-0.1571863219008033,0.28289317690094834,-0.10262564271410862,0.5036994230896391,0.07584203010723509,0.00014787068405169163,-0.077395177903272,-0.2931883758055153,0.3907012664039118,0.18615070604557954,-0.3703991882077628,0.02137970163136878,-0.4710502111565012,0.052527230961977374,-0.47240021589958026,-0.4370607637179527,-0.02573434873959279,-0.5045939478255747,0.23557839237303588,0.19007689623292612,-0.24881562149703648,0.1441899722229793,-0.047127352090337936,-0.19974516041466303,-0.288063959030609,-0.26521842857035993,0.05512714264883667,0.3608726063085985,-0.6666579755548598,0.44574911400077954,-0.3204014571337096,-0.50527626107553,-0.48995922186664753,0.15602370293650553,0.32465433633118385,0.0031434722649805666,0.4427385918190391,-0.11293692622246036,0.3507711454540126,0.5992278464762049,-0.12884026857208816,0.24895923742781947,-0.2170342471755636,0.6788695709094068,-0.07171437753024294,-0.2952767028316292,-0.48099929769719674,0.25862818328370707,-0.0002446821804170142,-0.24243981513345797,0.05230570238441669,-0.13337805158042862,0.3428621406753277,-0.3481464244447773,0.10630586521521679,0.45776330217796296,-0.2538851834246834,0.003597666171802398,-0.5597943630392733,0.08603511531963765,-0.03184351888414444,0.11792744026137453,-0.1252422490626174,0.5405782530418238,-0.20091150993289003,-0.46661665259025215,-0.05213225794458676,0.19548047201250296,0.13844872690678386,0.1832876362664343,0.09880552490196932,-0.10306484007093751,-0.30036961343663543,0.11815008702098001,0.30290548901606423,-0.3064312999921753,0.4173723791993817,-0.09292112097842051,-0.2645696156542319,0.36992168589135777,-0.201506863065209,0.07353490986063174,0.0925173670166264,0.05718023020218897,0.2550095122578546,0.48191843426073144,0.40123522884339025,-0.24496200441428423,0.11431247079502452,0.005047851891817279,0.25642615133295843,-0.2065920322954858,0.36113674533905804,-0.13420205853567133,0.43115837325116674,0.5025349494504115,0.3807878219330584,0.13544089515238433,0.33252720720436557,0.4873807724336763,0.18963328878776384,0.4476667797730956,0.4091246920550027,0.44986585110206434,0.2687099964565993,0.3807662404597432,-0.01773406034957652,0.13058865506375794,-0.5318333272053428,-0.20171218322296094,0.26940080682881,0.21140575095137723,-0.16263801537333128,-0.12242221232760964,-0.2685048379578484,-0.4584531917845562,0.33327309827670654,-0.5265677936035349,0.0014418015345541296,0.18244470194084486,-0.15124763336877145,0.20912078133963144,0.26029985086213797,-0.47525128995707544,-0.04702983236687376,0.09227293838393857,0.3070464013115127,0.2576399103988326,-0.054375354568288,-0.24144134503270331,-0.04553691318398782,-0.5482625828903704,-0.5167670989328477,0.42699500984078503,0.003535698845267523,0.13290429334970755,0.03344047187364614,-0.3708332574652577,-0.12784909684496132,0.404733435214244,0.204159091446608,-0.3075143524836967,0.3580054443144979,0.11914280266863095,-0.07023030243913604,-0.025354886466935192,-0.36569206814314265,0.3842821601453429,-0.0788365977801452,0.0757737338052817,-0.27984125592479103,0.3250994847896551,0.16453761144626133,0.30496719637903613,0.30925561976570365,-0.10570198677568332,-0.25288757539587237,0.20060070480352035,-0.5960388928751988,0.33142104876881867,0.3192684076488216,-0.11511485656079307,0.3593071241731346,0.01780620806659959,-0.052227946053762346,-0.05941600581501785,0.10657795217942521,-0.459716022128451,0.08227403079270937,0.3551115666545826,-0.09906787624262844,-0.08149005633105537,-0.27089443986961953,0.0342997643841039,0.18178301196296404,-0.14093339212412134,0.4817612524076108,0.25094032412395645,0.3762566936053109,-0.2107911011228481,-0.14314631468251665,0.3104945555935079,-0.3722329239343872,-0.01985768857699722,-0.40477022221205305,-0.19280179104378328,0.40393085294514613,-0.43089354127324797,-0.1316852687177908,-0.2683457498073156,-0.22155297619181666,0.013110101178693129,0.0898245529158864,-0.3331295712616413,-0.24594039005692872,0.3164413765072863,0.49638838656167145,-0.0693202399747936,-0.0634847745730407,0.05187115485915364,-0.2144641374305353,0.2982278855506055,-0.19616511294915517,0.23014694624919407,0.27511874733376485,-0.08867389823608152,-0.34513154875794533,0.41453618695292366,-0.11596734348191573,-0.1497111055411423,0.19657025367769865,-0.05140159190132001,-0.17230232397277795,0.0351469535061011,0.07002035400448045,-0.08006375522019912,-0.1445809762490687,0.09570040156926136,-0.07077221109716379,-0.2119688648048368,-0.01571429061486919,0.1679523250779422,-0.08115871970525915,-0.22705354228715602,0.48273588133344053,-0.5272169770863251,0.608547861154075,0.4088516047389468,0.17402327241646665,0.34933989723492415,-0.4512939988467166,-0.23937777805988153,0.07764660912639591,-0.497581007966467,-0.055828837455740556,0.2193697283259346,-0.19423882092207065,0.26378199758858495,0.7153529285671846,0.4978519477498214,-0.022335932139253438,0.0030626107921682775,-0.37852686181412937,0.12249632647989202,0.04889561939815053,-0.4867710415476679,0.10918744810524625,0.22216952773689694,-0.06138288547625864,-0.2728759819271422,0.3259868914401277,0.13825457042545367,0.3339217161221108,0.06670060837524872,-0.06221198055935506,0.30850502902277016,0.5811085643163609,-0.19079201557193157,-0.16314829200515496,0.08884110539198885,0.3437287030395021,-0.10734567397626783,0.2798866420340711,-0.010334484087825876,0.21668191895311406,0.10837052943587076,-0.11371587987211271,0.5560707123623596,-0.05150629988149996,0.22824248134250105,0.20470288027880315,0.5288984993047774,0.5145623333333564,-0.10845649911495012,0.3921405621666202,-0.02059172254220996,0.19341303310377111,0.26251863333767717,0.4859584565687981,0.13230127676195103,-0.1539883142833908,0.3254922843925984,-0.28228499797684514,0.553917098281265,-0.04233343753799687,0.14335838121245922,0.7104719515833496,0.04820655339018931,0.08720059218790012,-0.33599260431646566,-0.6486634175265555,-0.20546539732504332,0.29693970780205137,-0.5183966580778567,0.027407645219908135,-0.15153081726180506,-0.4375694727723994,-0.561140753960164,0.4439317184701318,-0.049375873136164566,-0.12146658204312505,-0.14379921687382086,0.12348686543827427,0.1451386588756859,-0.30588661248651566,-0.2536267375742307,-0.012533593463303995,-0.2618289755292362,0.5889991157012715,-0.4810803357211805,-0.0772233468304054,0.23473812937253932,0.42309629548235156,-0.45523222683280073,-0.288589039592429,0.3654121728910573,0.3266716836022089,-0.14071031388407773,0.38858432450604447,-0.277637277651357,-0.42409226916299925,0.42172422252659236,0.2311408674804785,-0.13726134498843984,-0.16428095748288724,0.15647389580503995,0.3191061183348715,0.16772719830910804,0.0224583919091315,0.5336722598961136,0.1919407384480153,-0.053643148111834266,0.03717351465620535,0.4147883630653504,0.194753946079851,0.09554820834031301,0.07511233268956422,0.7221876751118341,-0.3083366066930745,0.16465711210587078,-0.07504484920857021,-0.0856429944085273,-0.4673594791057909,0.2566367599756684,-0.3990584051879776,-0.05182569840655327,-0.08361834877359761,-0.549918043820786,-0.006393832440548487,0.13819471557931362,-0.22590256772806605,-0.49191102001699705,-0.4094706545515144,-0.11597827443589984,-0.375075041842832,0.11147823700391617,-0.07285256222039334,0.3329752258050419,-0.19983620683524012,-0.24680620813319698,-0.10979919494189179,-0.08790199798357975,0.1702517756390051,0.45380057529704326,0.1577709024507674,0.21426637614262695,-0.32932638457729463,0.4804645248620499,0.2397399976234579,-0.3944251322248823,0.19517013353967855,-0.28683087180209627,-0.01624289482364571,0.3533676734766998,0.25023456544624734,-0.0983439192790177,0.3636679582094276,0.10256980816857444,-0.05371807056067385,-0.5832709450253782,-0.16290045650037935,0.40710904455510377,0.021534216809748673,0.4439252806591859,-0.11582793920302037,-0.2616582176924716,0.3434961568934233,0.4425982383020122,-0.3046809739634126,0.2974181423519452,0.0649661939089902,-0.11682920691698453,0.01178481090489946,0.3810709858446969,0.24117027632633078,0.4393879511354933,-0.42187769880512416,0.20469218793379707,-0.08085186066349999,-0.09973316812944741,-0.35984325919484383,-0.01272129804367765,-0.19635132721813453,-0.24271964115029823,0.16072286168127914,0.24129709199420052,0.26903884517711457,-0.023725658068986688,0.005638813090250061,-0.40088089879748057,-0.38559176567537673,0.32610151118508957,-0.05060845757380493,-0.19176099401946428,-0.0944877748246774,0.2114091439289496,-0.11677011580995067,0.2882676418298798,-0.3579015742448368,-0.09275679225438663,0.4358383352407054,-0.20472419361747848,0.4016300430982805,0.09026682207538554,0.321755263886874,-0.23005640639193178,-0.20537579986590596,0.06927025847101195,-0.36145980816222195,-0.11574280856338562,-0.7622429654470959,-0.36291367621891346,-0.2657652386756248,0.11649685315848517,0.007567275795817809,-0.2863601395841497,-0.8344403658437993,-0.049184282802390795,0.2270449134826725,0.2211663647623281,-0.19182684434441666,0.028023279884337705,0.050374920595418,0.2064258022113734,0.8688258616024881,-0.29509305783079587,0.05575056439963639,-0.2674442485055902,-0.11846553217357396,0.1852828716865909,0.42613286804003997,0.3584566840871878,-0.1131222636199187,0.08037102183346535,0.11641702648980594,-0.0006805914587354848,-0.014500240413865724,0.0314154734969815,-0.07554879404696703,-0.7021898327940524,-0.078842294708089,0.3126707208858138,-0.26034169538264057,-0.02501216945104262,-0.09698589714856395,-0.16954378709183487,0.6885110360217271,0.27068607929803734,-0.3234007227054482,0.19199363084418128,0.060703789137100714,0.025667512213616957,0.19549746599826717,-0.16487656864484979,-0.10318333070471801,0.007504264564910592,-0.5082579280078288,0.18937663289444356,0.24998216260490497,0.02010094207963966,0.6262524626497065,0.36528872028600445,-0.13257920592544736,0.10523657094752734,-0.26670817525274304,-0.09175323023489089,0.3390148737436931,-0.008888073130548874,0.17270638184379522,0.0381568757102095,0.1150308600212977,-0.07093723418876555,-0.05069414963545153,-0.05031954433418563,-0.32447548354030376,0.06419494269165021,-0.5142322083880195,-0.015540982781800695,0.2217124287186451,-0.08754517065980699,0.1456723354013551,-0.14138319345361894,-0.15123766306088013,-0.4413685077964335,-0.04556174298648583,-0.4277548172364277,-0.07386235485316868,-0.09387015966469092,-0.05209321803262368,0.08564417094964671,0.35735176034248095,-0.34262242393497894,-0.09320113985570377,0.06553079779481652,-0.1845925367410879,0.1690895780093668,-0.07023855106556268,0.4688978201330042,0.3749555727499022,0.19960748118028596,0.2084135198156894,0.12832246017754975,0.4825064447649905,0.21788851878743154,0.26733834468493145,0.28041342288824933,0.1156694715881207,0.01707409752479612,-0.4284934785817871,-0.021104552719194588,-0.15892181264379118,0.1913725017809313,0.09334370672927512,0.3302699261073112,-0.3230388682931768,0.2837579350017725,-0.47044175030784907,0.08300339512130851,-0.8443235211773801,-0.48111663222741236,0.02561205621179552,-0.5540418984434169,0.8023182027437732,-0.12570099905733137,-0.27155429365284917,-0.33669563526244023,0.16634590918988976,-0.1433439377632402,0.008526175607887584,-0.42729958623875913,-0.36770807625793345,-0.4206162055279693,0.07719133935938668,0.18669250302950194,-0.08754641217511058,0.1249664701689281,-0.35216488013913133,-0.39030671664183825,0.036664136648811005,0.1975978199994811,0.020058469850804873,0.1708897865066376,-0.4462246461697887,-0.09275475314920592,0.20635846250928025,0.34654047639483776,0.058881503849177445,0.180128179467627,0.21163608617420246,0.3280126382172712,0.09454080670007718,0.45595551446720683,0.21451325335635593,-0.16782656682946534,-0.09681052866283912,-0.01350726010354663,-0.33894439656518194,-0.26014368195843374,0.04142850177240166,0.2626810582203291,-0.4687077010928687,-0.33875086014164535,-0.17584883878153157,0.023073650177321152,0.13702954027530526,-0.3170553054484344,-0.37508393223052844,-0.38938652455697653,-0.3346228177239189,-0.23745008094406259,0.430139555679945,-0.043546824891219256,-0.12183413893360794,0.34890416465355173,0.10442087226600325,0.23726325968094183,-0.16804020372878825,0.35826441330537995,-0.11083967358392871,1.0323134272803787,-0.48086290646686425,-0.6340581367155637,-0.49009070642849395,-0.31530273110563595,-0.4302660088616302,0.5851024725450422,0.2523672359878699,0.6762661587348078,0.06975388982381739,0.60185552607201,0.32538005670078,0.2347813114289158,0.23409319899968703,0.0828444279026607,0.30092994754673824,-0.04450809647315624,0.39307578515279024,0.2053089233452206,-0.1871144812551562,0.27669510492727983,-0.07310313367397299,-0.19007420488577215,-0.2071506902343842,-0.01357126152482181,0.030012175041628873,-0.6289644392295641,-0.1494323936904575,0.28769515671958634,-0.2176085005483334,-0.15305032903267557,-0.14083154727246255,-0.29630645925673216,0.09662934497912881,-0.5688697426199261,0.3055531053942863,-0.04463136769848683,-0.2109891856844177,0.17620494793029892,0.03533382878265623,0.00407247952037302,-0.1705531376217297,-0.8609709888275514,-0.1462783782117365,-0.32326716285037255,0.410675861616211,-0.0736297858303162,-0.37043534064313766,-0.044520067452985736,0.10985395333413198,0.08611862458863029,0.14699361490711998,-0.41808123204518044,-0.14948306269868353,0.19977580206253348,-0.050988636961623396,0.2893117034672022,0.08683038335426842,0.16772397648873016,0.2855819764359186,-0.1800362579872872,0.06989112585770298,0.3952258405707126,0.41839816285029596,0.1455411391203687,0.009378231911815561,0.07613467856862796,0.11475607547551253,0.41377681956074086,0.33487326747008517,0.5354550906384681,0.01437635532788007,0.06899533434180603,0.2773552247021569,0.13298467922362275,0.3226344165762846,-0.020838350077944,0.020905691261766,0.00856316951887983,0.18354268302890991,0.1546290031588759,-0.12604571313023527,0.2289931138740849,-0.11943443871541577,-0.20508086049186494,0.01610080998329034,-0.6353670455365321,0.11004917173767934,0.30134050069492374,0.5264301153092066,-0.06240181976239702,0.6259754745991492,-0.4722213055758009,0.2034929045298756,0.4588290378198513,-0.3464894088395606,0.531558287537535,-0.17288777759800492,0.15863255047899394,-0.3234130768509268,0.3217508375058262,-0.03056014697357983,-0.12134471460046256,-0.40593315610216296,0.02827852923182952,-0.38196814225315817,-0.056795972552922375,0.1316100501321137,-0.3905693502541744,-0.484544267895443,-0.017026049904118597,-0.3953784749890628,0.14117353722509776,-0.5583228591468137,0.44452019694953654,0.32669594338327357,0.32522790234489224,0.09731562798777645,0.2811315532058453,-0.26200828923454705,0.23905835341298862,-0.2799349237228054,-0.04932694092414558,-0.14520106664804225,0.04208331778914309,-0.05544284277728508,-0.04204027813539664,0.1365828887746171,0.024848847386732445,-0.33699182750044093,0.014454715255416483,-0.09676073845274966,0.1612177211151665,0.27399603536661177,-0.5404454895695008,-0.31807583152834196,-0.14208891402247822,-0.2112381792996649,-0.012539175970769392,-0.2104953891352697,0.17269216230641388,-0.4959211639477618,0.09200214635024552,0.17241591396141637,0.060139733069556084,0.21570444848896456,-0.3186831505267188,-0.06347787830895582,-0.2858260024217817,0.3193185730016206,-0.586113553482636,0.5808333238322092,-0.0004799736093632073,0.3872458961905857,0.1391480416488459,-0.23195172462486321,0.17989848665256003,-0.6585832090162872,-0.029178338811703505,-0.23931066808412124,0.17533080868759124,-0.39977376176461066,0.42541410314248457,0.15776322021446354,0.08058226382742122,-0.17516410211248565,-0.02410333685105353,0.0762533476961972,0.2269702894535417,-0.2925342170118875,-0.3405993884829062,-0.007414189563932246,-0.028958041021545214,0.0526730840339327,0.18523615553136308,0.5670358851917076,-0.09482139886622071,-0.2884837366954663,0.007501229438701493,-0.3869574864406094,-0.06683228599812552,0.06744766085165498,-0.41065751694172176,-0.17180821944020921,-0.34514810721146255,0.03486048489492477,-0.06129250058533906,-0.09373144191009525,0.16527132280293694,-0.13686822673881327,-0.1894523204919087,0.019936537029668314,0.35469040602435076,-0.43484629253981716,-0.14393946538690214,0.20788795891187864,0.28088766216059796,-0.09644012983624566,0.18280780466347518,-0.23187446870388728,0.1819599385120517,-0.28525740906015346,-0.03109987389521824,-0.46707332705970867,0.3727982827862148,0.34947253737567285,-0.4736095050980292,-0.1456407293293786,0.29338385835590464,0.08307334028631104,0.038999400649826974,-0.029141597582608935,0.27939517428091865,-0.2970420575351174,-0.21740185656461003,-0.04706678726251784,0.26388587065994823,0.18149256291352603,-0.3279292699578492,-0.2587880002356674,0.12385157224854625,-0.39983656149482744,0.38119612120393387,-0.3841570842695323,0.31652529175222055,-0.3168787384539086,-0.010863366763611259,0.4816302710770664,-0.06602557729706252,0.17734251672087242,0.45968255908126715,0.052083895501679314,0.320763494279456,-0.009831900497972272,-0.4290889652227058,-0.0737807038060081,0.04364025914894195,-0.4556523081117761,0.03336215499418589,0.11376160890567538,-0.0889561898291809,0.2805122359416258,-0.15076669971633747,-0.012954844295103886,0.3412254581163169,0.1725528750823258,0.20546011530495442,-0.004769054790117203,0.11501691413111823,0.29805580666614984,0.45245097092734177,-0.27007156556154777,-0.436478404064446,-0.18523488562486495,0.3326970606169594,-0.09742288580187008,-0.5112961174652607,-0.049985467993943426,0.006114431004399401,0.02324346879476792,0.424194486165544,-0.34452489273849296,-0.1065466528960301,0.023368143804754687,0.30123100957943993,-0.028954338167138507,-0.09556016412784943,0.10470722593197226,-0.29574371772631425,-0.339000594417576,-0.08301013558164383,-0.446944262364533,-0.5555774582428545,-0.12709258177476368,0.10107428328382886,0.5804250828945164,-0.17174186467552308,0.5594869936070033,0.15294087996908562,0.15237426378397526,-0.023212239708262743,0.29973032368872954,-0.1934512534904874,0.022650026874306912,0.6807050433863826,0.13696809297776844,-0.5015966966442611,-0.10894860421351836,0.4668264544735821,0.41433109132952417,0.39209035790398844,0.23520223047879973,-0.08951933492454316,-0.45280160063098773,-0.4703951842365353,0.22325631509701915,0.07326379752535371,0.474844679783742,-0.06545640315345153,0.14042231355014279,-0.2324170243904915,0.6849892876889694,0.6074004902079128,0.616478919949523,-0.08254549076879318,0.21441432693017148,-0.011292309551788848,-0.09670117318883106,-0.1999036640396465,-0.4301989507470647,0.18816644362191115,-0.08346058364004952,-0.2167142707094049,0.18633730813465066,-0.2916246992404401,0.2176777341451669,-0.1737353029976887,0.14427687635879627,-0.22315059326532183,-0.21631517023735936,0.035713453887636935,0.30509443442692197,-0.05954664500776333,-0.13333789215401048,0.5431151686533565,0.14961628876110122,-0.13225308619579643,0.059538319267923925,0.27592776942887576,0.1324971646446133,-0.41089773146829,-0.11706077878553664,-0.06190164043237957,-0.10566122981809366,0.2804015206135403,0.279792073145836,-0.29408716478275043,-0.04526819749376482,0.0834093244780932,0.5085185699295887,0.033390109753325646,0.055520461028078484,0.09134189578977263,-0.136691605574178,-0.10690257745552592,-0.1906602630914453,0.02591779054143366,0.005085475496126882,0.3087421553316502,0.15592810266007806,0.06091189432884373,0.37613600921260093,-0.01279861625325833,-0.11729188285307077,0.18409396238028028,0.6029942281985562,-0.15334044485126436,-0.28374224796720765,0.4584948363989269,-0.21272616185713897,-0.6133502533684905,-0.08805348234677979,-0.3240442112535499,0.053520334596578095,0.02391675005211086,0.4536020544602112,0.02860869290458981,0.3836856125144243,-0.020047443422841163,-0.06640805035377415,-0.46934299087226194,-0.05983755623408299,-0.07962510408373877,0.08675961771758572,0.6867088597430313,-0.0009428858413509083,-0.0872449879070665,-0.09212848985793859,-0.25769584209628915,0.11776391852820758,-0.62739403372935,0.26037273542962025,-0.036916719235716496,0.5424434809539189,0.2011407531696003,-0.12414753831298858,-0.3760623623787914,-0.8913897860238185,-0.017457467908843352,-0.010733032929798367,-0.20755055544479378,-0.0694759826599165,0.4067483735218931,-0.1726883497366214,-0.2275487981516377,0.06989536000831265,0.13838722916977703,0.13962819028685114,0.2886194416439356,-0.17036132120950087,-0.16542095052903005,-0.02218759803838327,-0.08149743020659332,0.5754025198821755,0.19308667971323665,-0.1203220813277178,-0.4554640373342971,0.2246510464483525,-0.7570330955008309,0.0769844283359209,-0.17478872509166654,0.3019440438467358,-0.0184890554923016,0.010389217436521762,0.45457078695013725,-0.2507366188196564,-0.18764162130091305,0.3403956987329365,-0.30437883710768343,-0.31023855682603546,-0.21643308322378046,-0.37174896274687536,-0.3352132664684641,0.1668314836554718,-0.10666991335274868,-0.08372790932977808,-0.040965996020275036,-0.16982889202928128,-0.5914053632338746,0.36765840879573203,-0.5007886700163067,0.42848048758824187,0.18482658934860038,0.2905606601226734,-0.43600929165609126,0.027471893351699687,-0.23713658261471704,-0.0566528084176227,-0.015331274949922334,0.27825686555816387,-0.2568442092254899,0.22058440173287275,0.5177339756810782,-0.2883344178620532,0.14283175533483658,0.3700641954998733,0.207182153517163,0.11045233192455532,0.32484549163401466,0.08858520670506838,-0.4651404208504444,-0.23747486132115805,0.26442305402930383,0.2391726667185616,0.261052203516117,-0.2715761415495117,-0.12493001084788652,0.1284263503249507,0.28799510206591217,0.2296950956068946,-0.4176600583765889,-0.2505982466061838,0.016187641107351082,-0.41075957106742206,0.3544346447611682,-0.33609099040808965,0.008745235385482714,0.2633636251171961,-0.35444876136809866,0.16564082058020732,-0.4621417809859709,0.19408787019035145,0.30801443467309264,-0.3491332652054148,0.14444863891936408,0.4422835810858384,0.0011416147479481331,0.007272574941453242,0.24280133725070405,-0.23681653887355394,-0.08918806715913727,0.012830360445972078,-0.11136692033361512,0.18306985811011628,0.2557664899990568,0.06983453030900119,-0.04595168404034734,0.274373457030322,-0.19651670365407747,-0.6251866995480758,0.7006288120387881,0.08854339467191387,0.0540384520950109,-0.57671273601841,0.3378944319552269,0.5179243681278694,0.23807222239660647,-0.029614267590984053,0.0727135301501528,0.4514480718714196,-0.1847733144168242,-0.10337191417934725,-0.17313629707301068,-0.06732152825001486,0.14757935167004102,0.15646931162651492,-0.006949164521154398,-0.34735026164204463,0.5100489536550005,0.17388166313888098,-0.3885625883972546,-0.18801739715260601,-0.07464501632923543,-0.360887342097726,0.23029221512035294,0.2844164298311593,-0.1522294719297114,0.20636670828905396,-0.4372518527355652,0.22327623380439326,-0.2985119814541713,-0.3357481601506218,0.3900132097520998,-0.1938447974920725,0.295828371555464,-0.1275027796998337,0.1452554454482033,0.07736067144281435,-0.03309888489110979,0.035859088489953804,0.04495238826619574,-0.07800901452430578,-0.36109669746740386,-0.27783460854577113,0.29281323368760254,-0.24836665767069452,0.6256271528675578,0.13280345517974346,-0.12479844748070608,0.20247475158642358,-0.29398603011237345,-0.5324469679289436,0.35507176043586774,0.08929360799993417,0.025989357911931535,-0.08729513753254653,0.4355622988923316,-0.030410160709496096,-0.007654280906952719,0.16883872695469665,0.09660449211460503,-0.37953458643489857,-0.2048510963602223,-0.5261882394671216,0.48090138666201027,0.1021609050203923,0.17178226064264418,0.5884933563231497,-0.4374784508640869,0.5269156763170096,-0.44902997114525245,-0.024495892768351235,0.26569284398756904,0.25745754008600896,0.09883978084940967,0.06841801992645502,0.4312396785562059,-0.06019596502262334,-0.24077298650919596,0.4053931678522102,0.5417017511492495,0.23877445450885593,-0.5873507342666602,-0.12227880089332,-0.014726183649309516,-0.045537521641954834,-0.19322838430614975,0.1075114733387718,0.26433694148601644,0.2494722154281439,-0.055208240491177014,-0.15782074581830285,-0.0363301432949502,0.02248650988922525,0.006788731776523976,0.5906072007765871,-0.5242653223574709,0.02317798127670634,-0.11099875865846573,0.3007065521824759,0.14343072583448774,-0.13873591493661513,-0.09998820685484613,0.2815770485273453,-0.1432739568083119,-0.3102720566441549,0.23499670361469627,-0.04892644479103894,-0.15564457245035399,0.6836495659553402,-0.09784564701966814,0.13865210292174654,0.2961478052450491,-0.48298984545811735,0.06208340243698939,0.27825807709512507,-0.006033426775599298,0.19641656931273577,-0.05393170503920262,0.03885614921760906,-0.08440900488300325,-0.013053501623198276,-0.7201125058214923,0.40023617150580393,-0.20319310712983346,0.011344796442825694,-0.34765782747604124,0.3537445326732317,-0.38905178676328483,0.2881215027166365,0.1762950528434128,-0.00875618968174039,0.005518810436454061,0.16993642265559883,-0.5941332965563141,0.07930359619812369,0.564957712697089,-0.09154819715801608,0.006123775339654879,-0.398442245637596,-0.03493280793461162,-0.25762466512716947,-0.238113938589101,-0.08078120263062759,0.0026471714341051236,-0.46549774542241,0.18260385133318036,-0.018463179925742285,-0.16801790269061076,0.03619277131103104,0.6474296747973118,0.2756479770773589,-0.044277014023625855,-0.22727190559837426,-0.31650434395249155,-0.7080900559798213,-0.16246495574320152,0.16710693575963403,0.10987855060744245,0.0956096507834146,0.1338752038182611,-0.0603146018940318,0.008282389906951699,0.4322682049309575,-0.008452397010053767,0.6463575321244789,0.18561587646050626,0.10922996948989311,-0.37030455631588743,0.25929292837750045,0.35358898299159347,0.07856637236091814,0.0329712642972999,0.4744630235825618,0.34290676368811496,0.1417961377528312,0.19649658854374416,0.16295955496126135,-0.12527349317848846,0.03417955029686905,0.0850784852345318,-0.16021104532444247,-0.05659281694053944,-0.1644855084126391,-0.3678243202823661,-0.001054471702036354,0.3192756574876391,0.38596480331484745,-0.038058792079117235,-0.5379110554232176,0.07608714179772597,0.14192392802036313,0.18969194589923755,-0.29119654967767145,0.015351326850283247,0.19447972056487298,-0.22011488942878957,0.15340862699022267,0.34452238058467655,-0.23482112976209038,0.4621738351088736,-0.3808282485739549,0.017221676740395642,0.16744177242030592,-0.047833925882747604,0.14236923729712217,-0.5792671918418492,0.38066013502220575,0.2075278277297704,0.4618226158022663,0.04057910307957996,0.11893639780433925,-0.3219051761568919,0.28545498428723654,-0.37189211123619015,0.12744642304346857,0.5755292477034549,-0.30328479286144805,-0.014626822750209899,-0.06831922719399483,-0.38387797502454174,-0.3343490284871852,-0.620449872300015,0.02923714715217381,0.4130832597517138,-0.08712898261991958,0.16225191227601196,0.47392216612613525,0.07310753198383996,-0.15413777481581406,0.4440074124813655,-0.059836597740763955,0.1828994437764888,-0.005012885798351278,0.10585378225196368,-0.016284438528293442,-0.0432134289713418,0.05481082528134067,-0.37933281679652503,-0.2814095016916892,0.07675788719894416,-0.0321188161715847,0.5034894356438513,0.11382033059774055,0.20131086867365816,-0.027039953606873737,-0.6210341754381027,-0.28507264873818783,-0.10530058026986173,0.07234255387278488,0.4336603889799081,-0.20889966300722085,0.18808909000016352,0.07763405382783882,0.6130677309282421,-0.09057750814968944,-0.325781508792655,0.07074493331401539,0.18744276118198505,0.3229881995663525,-0.470275484191315,-0.22678016924754596,0.12633664888165297,0.1727854927975673,0.11835905173153471,-0.05965827772458934,-0.39120053134787297,-0.026674723282757478,0.4360511546225443,-0.05654737131886156,0.1017707573020735,-0.16770882150146862,0.07829772349086417,0.5294981670851233,-0.12468059897847973,-0.12108102799213305,-0.093207890229489,0.5589193881083035,0.2452131548368267,-0.07467913584162734,0.015686277413972487,0.05549488766575859,-0.36034465363437335,0.5763971746049023,-0.4294768026162478,0.3991708809662603,0.0344860627826903,-0.306942537546502,0.07123257542613577,0.034551988529494135,0.2582779337094516,0.4378630378349318,0.1406662255905344,-0.5215517530651479,0.436739752940722,0.23319418919254273,0.1540484249254042,-0.1667001522253711,-0.14588832661111278,0.015009987698444756,-0.11702357630452172,-0.16625999903399777,-0.07308302464833819,-0.44759942938112074,0.17848062731005937,0.2930816370698643,0.021648348102632733,-0.2052223958015191,-0.2723323780485764,0.31095065376512016,0.10077940772750729,0.132976776257115,0.19683200090328376,-0.26111589704910976,0.11343779166933833,0.22236165532198093,0.3370116271171559,-0.49321305327309406,-0.36628358679420486,-0.0036315095018141577,0.09595789591665521,-0.325443056623007,0.07084545021483989,-0.1164471587282964,-0.08413831449949852,0.019861495655448327,-0.07286333302538023,0.7100551849878305,0.18328899428339895,0.02005679919092917,0.3314100398215625,0.36703369882376774,0.22451799558890986,0.4299983029378454,-0.2039567710108855,0.28740525616300705,-0.14697349782436883,0.1433671247620664,-0.31411107619709616,-0.40152786267736373,0.2345948233333658,0.28865071134119086,-0.032290935577483554,0.35721966172481245,-0.2317526977128139,-0.2929898827797638,0.20246711344671875,-0.08980490636880835,-0.05739103131850713,-0.13431760228236736,0.32509891693452764,0.048194036710823326,0.3933459069355048,-0.04690002633769939,0.3099615007470615,0.08260516722270457,0.006938297178147659,-0.40150273272886833,-0.013912896606221359,-0.2012216161197732,-0.2484343837620121,0.04826193658381106,-0.6299186507583774,0.03658822974444072,0.1690126396722803,-0.17351756827177645,-0.17394353499439,-0.16215093867110048,-0.22266905923038854,0.4584988897607248,-0.46545729869789676,0.10146910265189568,0.8581448461828629,-0.14399984825957657,-0.4507221226697551,0.24305304030744093,-0.38762321784839254,0.2076736267775884,0.01805519994581442,1.114747408269367,0.4588767542891545,-0.609901832449359,-0.26770038655604017,-0.28819763982838753,0.21697480060496854,0.11408686977809412,-0.4420203971046291,-0.13670747415509243,0.1858170751281733,0.17989206301105282,-0.17223686995276466,0.3408269857740524,-0.20012327568237148,-0.07116277415166913,0.41364953378694647,-0.03859567381447374,0.11649467409149764,0.06128625089644815,0.49461032990039955,0.6331982784247875,-0.31529570973671295,-0.3403184664762816,-0.012467865249168437,-0.5092231901222746,0.2719145857001744,0.5983057659566168,0.050196496638239094,-0.4418066988336086,-0.39230491679964236,0.15879557783314915,0.07697264846072188,-0.1209095405776954,-0.10589684947004448,-0.1303349759684133,0.023949330136131347,-0.17101312757050813,0.2035249498291566,0.27053306941599603,0.5099321473078063,-0.4134018159996782,0.010776777326772617,0.022273316357070062,0.8076989138027462,0.30033917902667495,0.11897440421399602,0.15049034597822752,0.060530293396775126,0.057208314223766564,-0.8703980211088069,0.017843908470332775,-0.032994518678311206,-0.08043044074298698,0.08522029965586064,0.32895743135829425,0.059717321540579384,0.5042399642889734,0.1501292638715758,0.035232207562275054,-0.27922309382854926,-0.42273025331467684,0.44030834087545,-0.153911410202568,-0.04723924343693657,0.6114859825520982,0.28568250903802517,0.4934003790486237,-0.2032476851569275,-0.23123168283812204,0.020741651861073605,-0.02328681617796275,0.20120708000104512,0.13475885920541852,0.45550115935262836,0.01098306619829039,-0.15551299799927387,0.4477335787174693,-0.4650163034428791,-0.24602636702058456,0.13454362103535955,0.2004389193342455,0.03778482904667421,-0.3978136817338502,-0.3707454448680389,-0.14228383499980465,0.14672220995430382,0.2373801010762127,-0.021061134982003217,0.1452390538214941,0.15902616495395602,0.0063158689382982885,0.13261509212104636,-0.1866508699182326,-0.01937608666212676,-0.29801250037997373,0.2577139804847506,0.17458008595559305,-0.23684455762169948,0.22440490335490113,0.016230895696343253,-0.16655004238247237,-0.01348037962955942,-0.04086367992081646,-0.6345369729100186,-0.055232293407587334,-0.035278917388189696,-0.26618191857203166,-0.3304212386018474,-0.3838679089819783,0.08599741450863746,-0.21365484074621097,-0.20006705248346665,-0.09238017017225954,-0.6539110961462747,0.36376782417498954,0.06934354244861216,0.04700608320305758,-0.14199575521924523,0.00659602773030884,-0.20777849717655775,-0.07865579044014098,-0.016453224173813067,0.5155591848527217,0.11245116216306522,0.2303341876328069,0.008198643072429063,-0.34706832509790797,0.2015868060002251,-0.12162773562780238,0.12411357039104778,-0.43814787693810164,0.5672357011572597,-0.12280616568478298,-0.07221404740230646,0.05923772376988249,-0.27336635730698594,0.42753793029766135,0.5569575871181517,0.5234028179860601,0.23688742776579627,-0.2077672280303537,0.42417300035036404,-0.04418812618178278,-0.39909690817050936,0.4450642616624547,-0.36174894822434406,-0.1329749770813509,0.4950748392217672,-0.05809581124699985,0.2058433092446847,-0.38400201340664863,-0.0020476934675218612,0.36576695208057397,-0.49088645004836007,-0.13791686821163227,-0.055848891700352774,0.21191546108565415,0.22632729776458937,0.21214718930706394,-0.3140771890944642,0.05018623329344133,0.44853395447908556,-0.14403186478439234,0.06320427174461724,-0.11051936463004937,-0.10743599411839692,0.02143900167063869,0.08188408077814976,-0.47548790488099696,0.0803818001197319,-0.1118225819136203,-0.4008475536378419,0.24552196370107626,0.0346866362633752,0.18393707909826462,0.10813920398507182,0.3053457410217526,-0.08782438471068683,0.45563803634080857,0.3103971330156359,-0.21810005979250016,0.1760553769549551,-0.05763108185213181,0.36947599456441965,-0.5458351269393382,-0.1806464724652456,-0.10625837866858527,-0.12797537137199677,-0.08645965809637794,0.0019692191215382737,0.06654909097868322,0.20958572056536068,0.21580873871081177,0.4766885521014331,-0.20809505139214343,-0.23670545418300576,-0.16149896624257865,-0.7196225663564423,-0.2951583087186831,0.28352412047498055,-0.26144300727356146,0.053005015974361094,0.43954378167432484,0.16585144277717673,0.14791391422982714,-0.5364003359149903,0.03698685054792029,0.18714827910640786,-0.29386004179795505,0.12482940512061758,-0.1706179306836644,0.18309166229986917,-0.2822466959911639,-0.161695873988493,-0.09268018765850043,0.18397049128563497,-0.12966397130723248,-0.06578406152534758,-0.10770799749990234,-0.15261571457439732,0.27778170609086533,-0.273267429147095,0.2731448770873346,0.16788141392369663,-0.15789712806504208,-0.09557740962846169,0.037095961715905054,-0.09394657193006604,-0.20339951810933096,0.148799062711652,0.22265770187528094,-0.2032577689899182,-0.4765060187179189,0.1517884106984319,-0.350021771049137,-0.6404514929350561,-0.11874676972378012,0.26300802646187216,0.05473531848599452,0.19534038339722892,0.40465782440443915,-0.44766773949757316,-0.31890988834266065,0.5837897596407932,-0.32129005045170467,0.4970542854977781,-0.23791424077016968,0.0898822384989007,-0.10017177055748408,0.037514139940757724,0.15236213141655167,-0.3401465378906818,0.012605053554821666,-0.0038296472656200523,-0.2420655529481024,0.3076830912719838,0.24538486920164307,0.09377609052191543,0.21983245110187902,0.25911189619627906,0.07121808394619883,-0.14656114889182653,-0.2950861607659894,-0.46088023181819854,0.37165952002923147,-0.08682439381679936,-0.08524408343987645,0.7564271703981618,0.26561113434915573,-0.027413581369907788,0.2867152254959388,-0.1705399747812464,-0.18861284401586853,0.3340961845197742,0.1788564446847116,0.022231864036320236,-0.33181208789611416,0.4283067273791101,0.21279214222837195,0.05553575088605927,0.3854004386267634,-0.5509287959922508,-0.4034493744893694,0.26340835403809976,-0.017515271678982425,-0.14246991342825926,0.23854331048796146,0.6285241052060877,-0.263593629616676,0.02635974211758778,0.1404623371248197,-0.23906841616132268,0.03553953446579214,0.6081866276107305,-0.3760105434813552,-0.15261624990167053,-0.09460377174680777,-0.0942994558320511,-0.3423903385632891,0.13576902337091737,-0.4005756366424488,-0.41755567689867507,0.2548452622452242,-0.25179118177181853,0.06490839967850734,-0.24578318747080086,-0.28052108801699804,0.39577497725019545,0.1586767281321534,-0.06907116337594676,-0.4255258931698357,-0.08172119300614517,-0.010580282374972078,-0.23779807259466182,0.11045529698242078,0.13330114176136318,0.4250740248814184,0.034508184919922816,-0.5572065386833697,-0.13857557433047452,0.35355870379180016,-0.5598123933057674,0.26015508481015576,-0.05120902811455294,0.20302416176830088,0.07206921547026865,-0.673626659575753,0.09509544920592027,0.019029081948200244,0.26972671760152317,0.12470956446302275,-0.0054442914067874895,0.08895888421695557,-0.5318964580805168,0.006974790850053293,0.23548333781192204,0.26471072583518845,-0.2685926574912398,0.7131344197897093,-0.009914210035355314,0.5204204131515526,-0.26513664543748705,0.44760456046928865,0.06278821820979316,0.30716170026472916,-0.08396875181435397,-0.28890159636431695,-0.3253141145551884,-0.3194643466371786,0.23068416204900055,0.30001251386680994,-0.04050454897525463,-0.1218432726877027,0.18964016650504117,-0.08623648084529498,0.15601571397449315,0.16616474368761375,-0.08262172118740484,0.3219437024108342,-0.21995041071679006,-0.056445584326813195,-0.5106124060854279,0.15271652962037527,0.19954919366809923,-0.018265792279322977,0.3029273112106352,0.14091478223012086,-0.42973332818833554,0.22274391745653566,-0.07019120080101982,0.5934835667070312,0.3318294483397907,0.3754324045350072,-0.45686478471183267,-0.41997574164818124,-0.2944185359425511,-0.03380201779338883,0.08952228502625928,0.17676526133410994,0.37458780491821264,-0.045989915772290724,0.07388800556560779,0.07903847685861326,-0.03632117918465458,0.45352583876664326,0.36224625819158235,-0.40090032074178167,0.7750005691382783,-0.4122061955349641,-0.4125520531880056,-0.13564321757139053,-0.03352944444229111,-0.29255314097955837,0.16520853351092277,0.2979154984917567,0.1362727947924604,-0.3884753739371327,0.012448279122906088,-0.14198570894886625,0.26224462013445987,0.12504419540456876,-0.06948644064197937,-0.5274355894889833,0.22234516750488353,0.016498952428186053,-0.22371236745558643,-0.018592769408158377,-0.28081143823619115,0.3094294062798508,0.21771891326186277,-0.34896971577744057,0.6092912813486816,0.08484058235627888,0.31520422925023694,-0.23004889214050678,-0.3866406001347097,0.10985645525329518,0.5804861387541228,0.12803127366057765,-0.05846476454581971,0.48934730991688813,0.3547352531425314,0.4678187728012744,0.06839551755754525,-0.34491017881981884,0.3679979789758493,-0.07957195309682552,0.3387660476183692,-0.012899044062001598,0.08797568847715066,-0.0007240859622025531,0.31204766750321394,0.013279101930081666,0.08583369103013844,0.0602263976196188,-0.2480221535049316,-0.6855746571466312,0.17499841928157156,0.16615484563255192,-0.6274221826939057,0.1980099358778653,0.7237852183043405,0.2810756140519266,-0.12029233985316078,-0.3982757098813407,0.38304047066098446,-0.026134969243992834,-0.1712145296795233,0.02203666676843185,0.2741494740228515,0.21620381985152592,0.3780752721156634,0.2264341413382158,0.12479141745537917,-0.022069206643262756,-0.1743005812154269,-0.13164974195563248,-0.23383681521996888,-0.4511792534100202,-0.13523158922548872,-0.21222322892415563,0.15733854049678558,-0.07741183866345716,0.5346356682095417,-0.09595585162687303,-0.2706984126688716,-0.44203144552459067,0.5996549848608947,0.48345580565834434,0.058430468559236705,-0.4857935686792598,0.4930134930215772,-0.3303402457735223,-0.14162463500724454,-0.04363888474478564,-0.13763061404724894,-0.16690124206246323,0.050004197968047906,0.0816296567503094,0.10820124531727494,0.03481287321993099,0.37698077595901713,-0.4302405885847869,-0.06633373768099517,-0.31152724512524044,-0.7254648477047544,0.1516555112307843,-0.012696571736728402,-0.02840237343797436,-0.012902031285873139,-0.3948140082276391,-0.25324806495240226,-0.07899272990673646,0.14897270383381989,0.1266711170546693,-0.31409667467332936,0.045926157204181146,0.3386973180681943,-0.36521377227208496,0.20531420479582535,0.23974469338394946,-0.23914999978050994,0.17850945406315466,0.08626550680837375,0.28866294076900295,-0.2570159324236358,-0.16824209682206964,0.2160353868828619,0.17198037228746235,0.3238256369578107,0.014548968900047837,-0.048640178695349166,-0.5278444618630265,0.49609974593597067,-0.04323344172162144,0.03168103954135933,0.5608300379474268,0.4912903333087383,0.645812308990399,0.15674741314629262,0.2997783651982543,0.29701739513723985,-0.4735225923332547,-0.3994410950096716,-0.08732394801245953,-0.11942035126114425,-0.11014121321420743,0.17653480695782706,-0.2945113257629016,0.015856139438379033,0.25025734534223676,-0.11831370983581575,0.1870762063833067,-0.21282913136458503,0.1534720010619032,-0.03428727263305524,0.3459821818705466,-0.3791272597672376,0.14900327879534153,-0.30137225185742506,-0.10194866726713932,-0.21870278897711418,0.5008712960220436,0.10660043177328112,-0.17697544071996027,-0.0450922077729826,-0.43373198829347853,-0.035885653675167335,0.04078710910477029,0.11534375654409973,-0.20776109555501363,-0.17618229691056153,0.011417637573210482,0.04586176814450019,0.26741923424235614,-0.13534347256450718,-0.023443974199246195,0.4963893574475816,-0.22201152271102167,0.16681215937922172,-0.33582361195579274,-0.6579505196337001,-0.2566378958140525,-0.33028235612014617,-0.23473117789734108,0.29932669369628323,-0.24181293441166588,-0.527665737989431,-0.48844381083101923,0.5838090354789078,0.2519123379758073,-0.11763108257582698,-0.30627512740722956,-0.12884920107864253,0.4035547295639458,-0.19161660323547697,0.2025790157606192,0.18964698778476968,0.11930709671911256,0.3367780541057166,-0.09662638629850634,-0.09955243909002678,-0.40952989146014485,0.07362234596648509,-0.017462168111753912,0.11122743055045811,0.09596169489341004,0.24387479834831033,0.5360425400058124,0.14904015774415186,0.049319374389307044,0.5852109525675362,-0.2398900825971313,0.1489798745550049,0.2757642551562567,-0.2598242662492845,-0.01118567386781487,0.10323611697590444,0.1570795982029536,0.030456294411955437,-0.28500467779249816,-0.1096518746104106,-0.37330445001629264,0.06057520988951576,0.2926535304766108,-0.0559996244054277,0.2559493937487059,-0.5363703379118584,0.2693494128534584,0.02824665850573383,-0.17731382859752645,-0.5354419826463536,-0.37168156700002447,0.12687190381058586,0.657257202403582,0.08967175025460762,-0.45254024809199883,-0.2813092482016114,-0.1271780983283365,-0.4220165776059395,0.15521470757264472,