{"layers":{"input":{"biases":[0.34859102080019727,-0.055577647193305976,-0.5724326955119314,0.7142107171517447,-0.8011807087576502,0.43437644258769936,-0.845316081207804,-1.873039380172719,1.3289287442757862,-2.037999082351075,-1.1431744691511339,0.09779013918605564,-0.42187022911353744,-0.38167696359586084,-0.8759390364853551,0.28220679853200403,-0.6674657173409385,-0.3517559409150807,0.12138577368929006,-0.008667323726092947,-0.21906612836345268,-0.5198677349319243,0.42180410236952914,0.9911046421448917,1.4691105982079886,0.15397506475941508,-0.299982677110751,-0.05472530061935456,0.2565483192597538,-0.45546009813378363,0.2204459223418179,0.1654597333180786]},"layer1":{"biases":[-1.2177840699192823,-1.013625818201913,0.5823653654303191,0.5018781554433795,1.0256012323725592,0.15490765464659248,1.0178916974690628,-0.1811407469106559,-0.7897031497772916,-0.043242132440094644,0.14190957582770572,0.1545709276394411,-0.36212299244535007,-0.39071544364470756,-0.3648237734280072,0.11543254426296445,-0.5992069536808768,-0.23726492939714708,-1.208780447339571,-0.024367290262422896,-0.12772066227003995,0.6671811992420843,0.29925270059732423,-0.49872204371622697,0.571874220623005,-0.55357285480913,-0.31206321441466384,-1.5992561603271054,-0.6771993764225763,0.23320916745712356,0.987314224678112,-1.6232493625158297,1.3882242808783447,-0.764612469819161,0.6790683983284889,-0.1965178772826635,0.17454544371384936,-0.21335875527829534,0.27380211148547523,-0.4906957785488044,0.28671061708926493,-0.08506196662252119,-0.995253293465149,0.18375348194485047,0.29676459768116575,0.4334144148511714,0.4350471175841497,0.2986496139391002,-0.24251751808424063,1.2894188769927415,0.021426071287195397,0.3241800059473947,0.1795830293895995,0.7908520817995348,0.4601693354142412,0.3494202646834024,0.013930081296640695,0.5175075888916326,-1.3099787298991084,-0.16488777581750746,0.11043833688218832,-0.05536563303595298,-0.3244078354740996,-0.06730933620925184,0.276061330567977,-0.005710967727846064,0.10945744715577291,0.13424262207033735,-0.5241238592779776,-0.27384520577045307,-0.5865065648411805,1.0912321895877601,1.3534648316362907,0.550391052433814,1.0968344327867763,0.5303384708595108,1.2314425771313378,1.4579783660872399,1.1013829734653622,-0.15541357003989495,1.2062865954681596,-0.4951728670541409,-0.011187335021093037,0.3828700630775488,-1.0422534755110093,-0.23958895702347255,-0.843940468599344,0.4888026932102711,-0.19153177732380502,0.08584825855466834,-0.7557596332962102,0.39408391034635587,-0.3091751930908444,-0.6591647532021576,-1.0389199997974379,-0.40794846845353777,0.12335269852196837,1.5113488744292307,1.032988645061071,0.09321431786922563,0.31437660200355977,-0.35195742190002666,0.6010379476109087,-0.1831408724526886,0.03206356718484736,-0.07423570637408367,-0.015732235329093416,0.5602761576244121,-0.44437192969440753,-0.8964015987203231,0.4503704139178951,0.9403777940960255,0.597388708919563,0.32343144321712497,-0.3991416401934388,1.1951112799628725,0.4378345193606339,1.2362599044743159,0.19777578088440012,0.31116642780196047,1.5522637206533876,1.7632670509567152,0.6280791676698152,-1.5447559904111685,0.5377033955811429,0.22313647259874334,0.7959821677574185,-0.4937592079408722,0.1607072706996268,-0.7908889840667662,-1.5954626660567115,-0.06816150274886784,0.7932175371551181,-0.05564924649545358,-1.1720314041484345,-0.5774303302436465,-0.9354848481712645,0.028327182919298192,-0.35214858704998686,0.5054338174024802,-0.22876651560126018,0.5053362986484623,-0.06355712895457755,-0.16611047843947863,0.0014808666790232239,-0.4845055893428894,0.44689560742305573,0.12248208007105282,0.7128550715634925,0.1029460214907872,0.8776029114124748,0.39212698828656556,1.0168279089861079,-0.3273536910575947,0.4271184545444315,0.31685484989271734,-0.8088382579715883,-0.0625594802563181,0.577586471677638,0.7346945430755524]},"layer2":{"biases":[-0.6528000485581031,-0.7546637805776865,-0.02177110748852704,0.0014037656429665354,-0.27638785861784465,0.9523544206168975,0.024842427144333296,0.7075562468542563,-0.8376747160260776,-0.44487271444099985,0.21814794185950853,0.06642044964616838,0.42214305117904144,-0.2826194161565021,-0.42942329995998363,-0.015687663596732744,0.6137635142049112,1.0366212428499764,1.0218810367865272,-0.6618073068841881,-0.5411461682728252,0.020565526725749815,1.1798828064528388,0.11815810484131908,-0.33106174096660224,-0.17882836963090565,-0.4042976572364303,0.17100031197544086,0.3456764208876233,-0.492601432787958,-0.3784145838642268,1.2680260629407247,-0.39244287491477015,-0.3064489209246663,0.5741206861109734,-0.20286888589957733,0.5210737791665743,-0.07208634183030455,1.1462869117997427,0.049280561152388824]},"layer3":{"biases":[0.49225995148998397,-0.8084571927582943,0.12679849198428786,1.3033601702765405,-0.011717146045660327,1.2403283734024297,0.723558287412018,-0.788582116691062,0.7577248040152804,0.480162695622743]}},"layers_connections":{"input_layer1":{"weights":[0.603065232653882,0.32998418016081654,-0.09899064596860216,0.9586650152307037,-0.04841145164224112,-1.1181146006634668,-0.42960054108297463,0.2791208978135558,0.5793287419416726,0.5403812436211592,-0.6066498986756178,-0.38836246052673024,-1.2290029788329204,-0.48747921324314575,-0.8084895298722905,0.46347475081782985,-0.20128634689414188,0.05184145341631417,-0.5288125143245861,-0.2858601609101432,-1.2220182945597875,0.09293147254222092,1.0942839988217938,0.1752468449334778,1.0329980266644214,-0.577410606266703,0.6420958728473201,-0.8101297958373456,-0.15771817965096313,-0.5913121036266074,-0.9534527288826737,0.5536426899811183,0.5625682395739201,-0.15118630602292704,0.6218550287743215,-0.704282824264132,-0.9264617445137457,1.0786931900196421,-1.032444908460781,0.6966900082182398,0.3414398151619583,-0.693403911233685,0.6004419660218273,0.4333621481478233,-0.3415209302477976,0.5886430107554985,0.35332370024236454,-0.23751273524138505,-0.8368046633270767,0.5345373466441113,0.8427197331927118,-0.2656236735348897,-1.1507758648554722,-0.5156664611487121,-0.34014982906864516,-0.34039324885983946,0.3148203819235502,-0.6296521332007201,0.7393066549728555,-0.847461154589085,0.012664712746576767,-0.4680174259516667,0.3386054820153814,-0.5097689182938083,-0.7216181850709694,-0.36761498734775155,-0.9654030261025386,0.1384951111998381,0.3767602330353441,0.9359293541503724,0.33704647055223735,-0.2908380867570157,-0.327981508743066,-1.3571962764316516,0.26630165464626154,0.4766340779581102,-0.34831432201537044,-0.4008084280177174,-0.042401184633516185,-0.06481937784212007,-1.2303813597205229,-0.15521133240008123,1.064768670885493,-0.4009692487959259,0.2594953096176653,-0.25325715109557967,-0.7318681176974725,0.2472228624157218,0.8494075321926944,1.204476230439524,0.8987321550787002,0.5353152240900917,-0.138754825730184,0.6611788406121459,-0.2621851997657034,-0.024387428257358606,-1.332369016899379,-0.45670128907721835,-0.4353829219378549,0.4545210799076181,0.3967174246237114,-0.44434088791393184,0.991372776742887,0.2441690274432176,0.691114859318359,-0.2352728860814964,-0.7213849625918289,-1.0810916810740114,1.2144944875313644,0.6453883127935313,-0.6183262866844148,0.13614264559532396,-0.7405487070452639,0.02895453981644166,-0.16515293942298534,0.5241635639189285,-0.23224805754334954,0.2618209531426442,0.12194394118584244,-1.1938808886883958,0.6470795132374793,0.3425454378675729,-0.6282738642329826,-0.16743521614942647,1.1305168058775596,0.727165436362904,0.9953311645741308,-0.12453961484047206,-0.2639927272754654,-0.4305725402041387,-0.5366320808950774,0.04334150799771955,0.32900775526165427,-1.3981902802132242,0.9457290601670277,-0.7841836361734239,0.1362423951041491,-0.424084987507208,0.26876229503774635,0.41483568800657333,-0.2545406890677735,-0.5765545961790988,-0.12720091587352522,0.22363707269692262,-0.3069979704941531,-0.7198071838168273,0.5898395282048441,-0.5409803637010946,-0.3618634841428672,1.1025723826104068,0.9344064833599475,-0.6385647062430749,0.15587582092374738,0.31895858359711077,-0.00898086055653962,0.013999846640971626,-0.035447164708436354,-0.7250488527772784,-0.5051480803852822,0.07515312640160356,0.3567843686417472,1.0077681395590374,-0.13030561149772937,-0.7997787660551559,0.09592712601289977,-0.5073657826714073,0.15021081450124257,-0.006414334566817635,-0.51015876646477,1.0433890966884893,0.7697706071604286,1.3915195544788277,-1.3243167508939244,-0.09498227984660788,-0.20184647137987638,0.20770507978722205,-0.15746635451021382,-0.05637086376941967,-0.6583978280262275,-0.8217676412889372,1.3482919095215042,0.04983049994568868,0.29706782948590243,-1.6005633982879424,0.09340474076365397,-0.0529214088041933,0.19233085902013233,0.8596497997540036,-0.1438416856799073,-0.6875609696880174,0.32757677101194366,0.5997924084130172,0.637873327709387,-0.2099967346299639,0.20616282930902927,0.007792566316926534,0.062168229265322575,0.6468882819364388,-0.6984327954790982,-0.14048842433162928,1.0562129000074698,0.37284971722102117,-0.580972589401159,-0.9966755085778132,-0.007122285405496177,-1.4164402519430073,0.5381726214485574,0.422135767800217,-0.062162468346049965,0.2958602771000703,-0.06685924044091171,-0.31430295738612507,-0.54533131115109,-0.5726049053680435,-0.048509854579916384,-0.2217881824990416,-0.4809943536015907,0.17420998824033107,-0.7730156714902789,-0.8872090738431868,1.0624236386744657,-0.5079774624230299,-0.24457306660265155,0.019059747491654885,-0.40960429530562026,-1.4223284429472582,-0.6735555209326756,-0.2849175872279301,0.38932586676528164,-0.12717719761842844,0.6297921610455685,0.6568638029630841,-0.7765257547004333,0.26875918714330144,-0.47463448040153816,-0.9206032106398164,-0.6131054410284585,0.9579686879511697,-1.4060699870465878,-0.21992612847734672,1.0287776721802417,0.9607380644155024,0.995250601661013,-1.0895374120304109,0.5822563277407133,-0.21984170125337177,-0.04909678292976905,0.41387383878548134,0.306613118012654,-0.8162998284507522,-0.28907716014818996,0.34020432464440015,0.2486574605472973,1.3647027840956987,0.12262959449734867,-0.07128881676726259,1.1661801648639187,0.5157832783084867,-0.209566300721636,0.22783159864136543,-0.32119722455175487,1.1960328982534483,-0.8400383477520945,-0.34008524803310614,-0.04822499729945018,-1.0741261507727304,-0.25724282958681177,0.3131121709509845,0.2010886542566364,1.295784515770627,0.11095906066790542,0.49891618302344803,0.044076936659295914,0.13234718426110464,0.3132568039743229,-0.27651533993356286,0.29466891784144483,-0.001685942561540487,0.7958413420765961,-0.7662252685384725,-1.2066919369661342,0.3702437214905956,0.8775121465913333,0.2744747242551556,-1.1396175708184408,1.1719875636461614,-0.04572943784740508,0.4815771296275416,-1.0449849668593811,-0.006823357523207466,0.2874837566540268,-0.1935192325161425,-0.10038623510857453,1.0183665957729993,-0.23244260468689415,-0.1202970239800616,0.39138684261690004,-0.12532503341914186,0.15293377122627788,-0.30381484451861684,0.5317786585616773,-0.03121456310871558,-1.5280401792277971,-0.6491381090815841,0.156052889043325,-0.4461073614545123,0.39913886442944196,0.9528623354106032,0.4242877354864933,0.4647218271907755,0.33520044076396477,0.43300695308545006,-1.5527215266211767,0.7713604956876126,-0.2508449013189667,1.026382593223328,0.9928872214041181,-1.149680492972781,0.4655920892120442,-0.4464797528584955,0.8603238611790778,0.5722796442417941,-0.3324962570979314,0.7323162328823963,-0.93867569076544,0.7255257320021643,0.4587555499875495,-0.14115576508943686,1.3379429469885709,1.2490792907734976,-0.46911424899259424,0.374309977322705,-0.23331935024896122,0.5246822778787,0.12669426510177673,-0.17788700662596704,0.4033243240665897,0.2888636226599771,-0.30395674384055466,1.1162097948350593,0.4120757884452861,0.09710745400389859,-0.24222055650522054,-1.7638669955577295,0.09919752027528733,0.6662516932276183,0.9631847443423727,-0.12430405607857088,1.1046258802827928,-1.0289329168221708,-0.0521396897840996,0.16019901997210273,0.17031262213391338,0.035589502213339834,0.46382677698630054,-1.192344797416052,-0.8417846379164861,-0.6040785733750582,-0.3530328831476293,-0.7538775980139322,-0.38234596150643846,-1.1031158890914357,0.5661808401186803,-0.1571942248999552,0.23948751531271362,1.068441575054314,1.234232198499634,-0.28749920292832387,-0.581851639358338,-0.6758769097110857,-0.10734939229999767,-0.22286584574683319,-1.122402137089702,-1.4012552927429032,1.102096011560222,-1.0137120919786409,1.3170473628655686,0.7760353303132367,0.20652330718890036,-0.18526855819045113,0.29571585381906507,-0.2766704926834358,0.5457161878725343,1.1241383355679475,-0.4366004543690334,0.07640557453321462,1.1945480385210498,1.1055036566769347,-0.2816143510066775,0.3353497661334793,0.21580875381106587,0.8269360575854252,0.7418362161281632,-0.8172959289277691,0.03336047504675954,-0.2240321472152717,0.7042885345377177,0.34394058337447847,0.4946865543902108,-0.6571241320865852,-0.9348166116376742,-1.1906531171190837,-0.42401432180399284,-0.7372845105921242,-0.08893172657814014,-0.5159773056374444,1.0457197979040942,-0.048550912637218877,-0.49484528746896606,0.06327946239652504,-0.5038873538418541,-0.3262346551514505,0.20985046904012614,0.33038353673415244,0.0405592068109435,0.28828148449700164,0.43956175215980836,-0.4270946228708012,-0.6505726499255179,1.0617883217829593,-0.8092059968173948,-1.0166946584422492,-0.7181546082329826,0.4081204246652272,0.027642991857511328,-0.3295531276625512,-1.0588627459430666,-0.6958416683821027,-0.34584637246408617,-0.09440531715834918,0.042084720881969614,0.48541109790605946,0.0892059237201944,0.16417407505737033,0.39203939246492137,-0.38304190895655565,0.0037932298108512533,-0.4880145847895088,1.1437476257622197,-0.06654754000746453,0.6453679728050533,0.027224618285707623,0.4309323802842173,0.3244603483437589,0.36788477298449435,0.0917079513439677,0.6076230769327376,-0.2387149398070738,-0.32221048882407344,-0.8104063221095432,-0.404300069283692,-0.7925831938660242,-0.08809002011407338,-0.7100809830063763,0.9633019264777437,-1.5118117995120413,-0.510393037617789,0.20714359847625427,0.08940787201074259,0.6160335852790556,1.0682737258734427,0.5472167478019226,0.12981746620254372,-0.3537466142668144,-0.8197433396523052,-0.803541707554073,-0.16723875138802247,-0.21033007910092535,0.0895597486410977,0.2645286952804215,-0.07945860027894569,-0.5460703737714857,0.7269507942676312,-0.18325066658624373,-0.932677370340027,-1.0881078230000223,-0.8973095090420798,-0.4293721007531382,0.33789045733080497,-0.6828262975774362,0.23523380330160817,-0.7469914578366759,1.1545147958798618,-0.15227994038332315,1.4207420690145924,0.058187837020748916,-1.073411840451651,0.22704382144583937,-0.48759824661485013,0.19880200769272544,0.1274552962249534,0.3991942129382007,0.42027649338283574,-0.4258956014022381,-0.0715749669904272,0.12471948352551968,-0.6301728363795055,0.2029901512275919,0.3226637306235616,-1.2997282082552286,-0.07422451892983775,-0.4034432431650774,-0.6665998318840345,-0.672219485519253,0.5076832840780503,0.05507636746741465,0.1462877502586795,0.15543822556895784,-0.8824240262116644,-0.9138115082623057,0.09682339192692266,-0.12147595538161565,-0.30374551193382693,0.5915638539745692,0.030725792149339085,-0.7086473277601034,-0.29110878472646695,0.47054564858349246,-0.3842094112603151,1.1438283211911833,0.018402912340284374,-0.019539800325271094,0.5726882294363917,0.5274656944796239,0.0857502991208105,-0.21426359611524157,0.4744886239622927,0.16512729540679835,0.4887490605525484,-1.1890957653933452,-0.4755556410089304,1.0175473520252925,-0.24119154185997357,0.7468563521033679,-0.08892175958194193,0.49647542215669216,-0.03205092057395111,0.927138606628389,-1.0689292995186481,-0.47314158833371045,-0.5227280597398353,0.3316290133178317,-0.6477396151299036,-1.428732427355306,0.4847865645173568,-0.2804140447900033,0.46918430639500586,-0.48488166166691216,0.20901468282525892,0.5622828201723541,0.24430166263763362,-0.6210866964759266,0.35341218988099726,-1.230030014519484,-0.24970738743239304,0.46348457760027606,-0.13278074026765296,0.26594260935274094,-0.5896527909093215,0.29293291456805226,-0.3187626230880835,-0.9620035122356223,-0.4692077210386116,-0.10122810544640029,0.5359910253776261,1.3497895282945176,1.107891033874653,0.8112792207502075,0.4496803009233701,-0.27826569273069907,-1.0175862834294778,-0.09238182809284701,-0.548938471122871,-1.2578675464675197,0.6855200726107173,0.3157452389007715,1.007584568965158,-0.34756795772866234,-0.2686517868890328,-0.028818419843069414,-0.03276635560461701,0.5898325516587739,-0.054364065163970646,0.13358965630277825,0.11106562353167918,-0.07806835439786876,0.408330002798608,0.5157914248358199,-0.26495227325318843,-0.6559571749757509,-0.43994894679206886,-0.30446089600096604,0.008849176018413972,-0.6806900724523618,0.6478271583136339,0.2396945619411988,0.5201684884743046,-0.08442474971292929,-0.6055599698949566,-0.030395716339725605,0.033358889225657475,0.006062728515818322,-0.07103138515519308,-1.22414119186991,-0.46361280953325623,-0.7990269531974064,-0.38908869260032125,-0.28423128144294174,0.5449270814381401,0.6027848475488022,-0.3126968525372649,0.02182704821582252,0.16708032389907043,-0.5955129170430254,0.746166133406031,1.5155548196762985,-0.29568520430616824,0.6349328576374326,0.05558294895753967,0.097811421957198,-0.10213993226606433,-0.36335854181310767,-0.08301898004577264,-0.880357490683007,-0.45393970384266635,0.1122761026276006,-0.45527602273362505,-0.9787642413416014,-0.9754812830379519,-0.27821849324919334,0.28615103606646397,0.0446319280563075,-0.15504088341413996,-0.7160263820434536,0.5955389841460276,-0.474038006050018,0.13120670352553793,0.576291491295731,0.5611247621561445,-0.15286859797919944,-0.12434125823521458,0.2653224746116667,-0.7809358719075395,0.1643580275617763,0.5505433328823108,0.2688278022317711,-0.4875194569683965,-0.10264498272677239,-0.9581237955708233,-0.34305965234635216,-0.2463631793832847,-0.5636557762174219,0.20902239268766593,-0.3144081422510675,0.1318441021940603,0.32389552832707025,-0.7791525343732292,-0.8554042533201346,-0.47428849900387837,0.30350089323121426,0.8231660755703306,-0.5834263117588954,0.25674732266552736,0.12329586581740126,0.31790887518150346,0.8693503818622401,0.6132638329331361,0.8782862317377108,-0.6975050713798439,-0.590036257115239,0.4041102914787194,0.1109869860349254,0.43331304791146963,-0.28944270749166645,0.5171078545875973,0.163799185059946,-1.2763310671362051,-0.6580069136868523,0.2558231798066847,0.050990988932345424,-0.5191242138185922,0.4068333838915362,0.8903701596380509,-1.1118150085876737,-0.18269814593863679,0.7240694076752839,-0.7234679315756126,-0.0837163308143743,-0.7659482472546405,-0.8978576277122967,-0.1579438904025436,-0.8242246819311989,0.8988164000203605,-0.40220604143315647,0.7745430436442401,0.9676616088544936,-0.12254823293311151,0.8993700221946918,-0.2569122155898301,-0.2927986699251657,-0.8880832889565562,-0.6532867012394107,0.0668329825807262,-0.91410066437912,-0.6019446512280913,0.30604757873202326,0.9222290336420016,1.0896215324250278,0.008213997305658128,-0.8748999798800079,-0.297653165734303,0.4888202410907723,-0.28965173172716163,0.1968721716216997,0.7931246065010383,1.0630577317181082,0.4378646850835688,-0.893904385662628,-0.3654869463040542,0.8764806257590931,0.8482240466382428,-1.0294407297266166,0.03777812893096114,0.10787162303369922,-1.3836158531600895,1.1585099073118543,0.8052811816802306,-0.771962405608596,0.4798932695009874,0.2899560628844702,0.7519924665926001,0.6415137535197402,0.40214420158641156,-0.2608664288898259,0.6145745095326062,0.008870183380280859,1.0540315344171236,0.8211038875247427,1.3821769616741102,0.058605729132925506,0.9938399057490028,-0.761485459170714,-0.8090288954717672,-0.01491302794774911,0.5049748819268082,-0.2044416318217079,1.0392504889185414,-0.6478005349071804,-0.4084766463792972,-1.527090807440531,0.5875679491476582,-0.8169990915480334,0.26039146175756456,-0.3693101113740736,0.4749056764568059,-0.3753391389066411,0.2733650307519251,-1.4532000610509777,-1.0193589406838317,-0.9895675071748712,-0.28069290435685706,-0.28119672082900393,-0.8344833332342191,-0.25163690076338996,-0.313131965806429,0.06629676672546536,0.4921015989563565,-0.46881663503029325,0.8795698644405433,-0.32475594674867214,0.24645840511620684,0.10469591925641916,0.12478178473792068,-0.23994998963299372,0.005891995554375612,0.36120854343460307,0.6054128550523797,-0.5718156560681772,-0.8166134442628917,-0.4731245104680573,-0.5690885898427497,-0.7731744809637705,-0.1301873233471652,-0.25820118931879427,0.32173525225652755,0.9193439228856569,-0.5233440792531484,-0.28908021463613454,0.05919065094759374,0.6477304328884255,-0.019913757655145685,-0.1975293738979887,-0.2851836427668796,0.47875226977589763,-0.05950281740568232,0.8724104928183938,-0.34607761476363424,1.122479544856135,-0.14739336796726804,0.7506255750618502,-1.2137867932852795,-0.7939277344799266,0.20138466909968653,0.31812427176047536,-0.8988924435748191,0.7518405972241836,0.6640617058720159,-0.16454993884984828,0.041337987245281316,0.7555632843654185,-0.3033176871312899,0.5133406101736795,-0.15282527355124426,-0.5719958407272829,-0.03975160126625092,0.1993143576459039,-0.009680733365003372,-0.7057422741040132,-0.8006962545997205,-0.8824310133860866,0.029114266630220653,0.1357932235621325,0.42253411395493373,0.8908647873274116,-0.48145298379917245,-0.6701009883326805,-0.051055178355361865,0.21733111515146686,-0.12621658549921153,-0.5737679945585489,-0.3515188029271175,0.07867847854154353,0.4324320442055973,-1.0763922817803167,0.5055086634756136,-0.2433486285365602,0.40346111148315594,0.6803168506017078,0.6473633891843085,-0.0010744065992023336,1.2936613490037319,-0.4897267550373791,-0.46600523860592474,-0.29436906780604294,0.1351365508229444,-1.0444496753781247,1.3934324763801742,-0.2824345658294382,-0.31389999670089674,-0.11126647870670447,-0.21096227893549813,0.04359180740533772,0.003766782225787484,0.48353976022924755,-0.07753567491950891,0.5480343958778178,-0.11646209084865469,0.8627960465750575,-0.7028149708578603,0.017846233245608047,0.1807641999386562,-0.25547449010793055,-0.2053979037716525,1.7143850003879362,-1.0947432695960042,0.2076286205130768,1.0176555168826256,-0.1599988543522422,-1.0525187409747507,-0.7783056016531362,0.1660817290490367,-0.8624024197726774,0.25860174864368823,0.49661264902627905,-0.5298533025882498,0.30203867137028484,0.8630025219002622,-0.17015531707409454,0.14685401666153183,-0.9594934880847359,-0.5528625476729386,-0.5339746911112576,-0.24076650827522253,-0.32742109756748433,0.09112736664109478,0.6913534491264912,-0.7147503440183791,0.3644879121045673,0.6169281787010196,1.1196276064326696,-0.9127305815543102,0.9172769646881792,-0.34877014512915994,-0.3013978053509258,0.13002560570939792,0.3633779348337256,0.8903123768908408,-0.1327997547327744,0.4453947769884199,0.8296062863214944,0.7191360810630499,0.9282504609139698,0.15491640604985035,-0.03850870461381743,-0.34569228336801106,-0.8705971829609009,-0.2409423956516775,0.8881967929471554,-0.769441571420536,0.5628841214596656,-0.13950685040517075,0.16568306031263538,1.477675198380714,-0.9268315650931754,0.3606827174806496,1.8454409792832502,0.2632591837692454,0.7727365619582879,-0.012022028632499765,-0.5227460131740128,1.0172646990362648,0.063563888699011,-1.30570743607901,0.39946740292327165,0.08687641920222065,0.025213416636942286,-0.4711650752891801,0.38514141043112726,0.15923210879075486,0.08145348513853791,0.5548113768996493,0.6386311434059089,-0.45209110123356916,-0.31761087300330965,-0.043957849938649506,1.2411828177529702,-1.3190045224119897,0.09328286203579125,-1.5104117076749168,0.7848411214135812,-0.3405174556643693,0.3610299325168655,0.27698886137126744,0.21102268203156208,0.838078948883895,-0.03375887443684317,-1.0960153744785852,0.19781276110521848,-1.0044899424791953,0.20235027054197918,-0.017018242739891012,-0.284943024038274,-0.7509300478272201,-0.6056297546424145,0.5149625448795042,0.40245950077937026,0.24821690188816434,0.02221941013941879,0.2495026271432003,0.5599496264334316,2.10349645667157,0.10388080596050567,-0.06637239626714588,0.17531297011447394,0.7877127554909251,-0.22205653383555327,0.03994046733866907,-0.16840029315028487,0.44652051214563987,0.10901535867377563,0.2783129979566507,-0.5319638358342358,0.27195130827913666,-0.4649497030230777,-0.11226622086855347,0.1128924746224385,-0.38658353857742667,0.19999873239616447,0.27051234379125316,-1.1247080754855228,1.049348024600393,-0.5317460624997592,0.6429493593888747,-0.6690539566380221,0.489153630180192,-0.2881236163952296,-0.6841779113813476,0.4289071699759127,1.049971392448545,0.6067024964180313,-0.5353728748155508,-0.022252722536702824,0.35884950299511753,-0.09058256347623322,0.2777103208897042,-0.44185071319564073,-0.1582691988105761,0.47348543646341534,0.7411726363690706,0.019008580556415744,0.14452878393932303,0.8807831598144594,0.12238458976953462,-0.4464448991173229,0.1306951978430341,0.7098710059352625,-1.003064720401628,-0.1149148226566218,-0.19503203979982983,0.12144259489866652,-0.3749141536236857,-0.7461179497007223,-0.7038467182495198,1.0233830048500052,1.186576496686227,-0.5875143391674389,-0.28624436542867987,0.3072870243652123,-0.030384027951790044,-0.5748263070234059,0.8256886149551869,0.04667163181270033,-0.1416570015798328,0.36127792011887194,-0.6596370938639422,0.403755722110576,0.8906145643991603,-0.06741027380531056,-0.7417746334464934,-0.37338048015134634,0.1619746629921359,0.3536072116821407,0.9042124815779006,-1.0985083677841327,-0.6580630633440794,0.8894423171855963,-0.1814822437173753,1.2361319285338266,0.9727604346812411,1.0654868687289598,-0.21912555644140067,-0.08579800460332884,0.048502840549559514,-0.2132004902660986,0.09282292578979183,-0.06445487743204224,0.8855696716778082,-0.053255946101884416,0.7083297160241921,0.16277881089244273,0.1221582758453498,0.7616276754555177,-0.5709596582939064,-0.24378687001745147,-0.1355845171536342,-0.2042005354451362,-1.1863986277963918,0.6402014594248941,-0.1524796327939772,0.6336587599268874,1.0164816175274862,-0.10776994323049595,0.5159975745996133,-0.47832347027144884,0.48335367612921437,-1.9666510227962282,-0.207678984103536,0.23742382661890155,0.4143994752113811,-0.1987167502100848,-0.309537835858915,0.9409374404835026,-0.13040142914986058,-0.2638146735649808,0.5250865490575461,-0.3235112511899411,0.17044626305279742,-0.4567795377588586,-1.2821943257213955,0.02507228438877967,-0.0692568395792948,0.6646683023715488,1.0628890022602622,-0.4815163787398139,0.3625801604488563,-0.5755751300970369,0.7470980138379819,0.13823659720587175,0.3211746738180623,0.7065908647835859,-0.23003548738805785,0.1399078756042254,0.7207989564281874,0.562262642212141,-0.7023565708792093,-1.3282509137994196,-0.4944372469831595,-0.34170377752923714,-0.20697708603808346,-0.8047870604507158,1.140542465025404,0.1664163638035502,0.19247881239305065,0.8048841694564824,1.2055705704956288,-0.0017942334457369709,-0.3587586703886382,0.02139817057068314,-0.2478315777770972,-0.05813817750077327,-0.3709204738705033,0.6196225196794178,0.14873164432545907,-0.3032739970820549,-0.5383264322540763,-0.33820315891770714,0.2908095020067883,0.10968797246875928,0.1452288487597652,-0.3246279501563757,1.1599702736685573,0.42082478178675553,0.010595115306147894,0.39752573699967914,0.09176098878702538,0.8893635182824194,-1.4825449018288432,1.0698718901277853,0.3296333446168412,0.5291162085191234,-0.3605429261770803,-0.09530446178089017,0.6309138994458056,-0.21151955611311699,0.3961094942972265,-0.3006966839869396,0.7239504260013226,1.16345756900195,-0.18082687202639666,0.8573516574120201,1.1552144375460511,-0.5946920856309543,-1.2203166023936807,0.207021656113954,0.05625132094337712,0.0393425465592188,0.6627628749565024,0.5036532622467685,0.3881263490540935,0.5847912821524888,0.22263299291068578,0.7656757295049497,1.718349207017723,0.04249028357442915,0.38984592994448686,0.48339768975781505,0.16571971110558087,-0.32995859653111054,-0.6849149551546951,-0.25714618035478587,0.2942226982210195,-0.8415376414188431,-0.45946579867682463,-0.1605853641168957,-0.6542761272009885,-1.1228938061395846,0.22396726041747358,-0.2425490502623457,0.07880538442113172,0.2245888081435398,-0.6631800546313397,-0.016964071158394406,-0.12191256886764355,0.15587996389774372,0.2846460182109619,-1.0021047470637046,-0.049942462054041736,-0.024451543318168113,-0.2599115703636926,0.3896104811052135,0.5375284286318145,-0.4393297851622431,-0.4226817714777956,-0.1806165820925898,-0.4020987970606501,0.4691998377639689,0.27407591056632163,0.4714582615347945,-1.828401916991169,0.5069149792825888,-0.6573444812392828,0.1801041067465948,0.3618707329796471,-0.5067774334814115,-0.8282992407517901,-0.15840842633140156,-0.1865664293568397,0.1906144979497468,-0.71665939903581,-0.9987245740204977,-0.05589370845776727,1.8432131662188973,-0.9225476966610339,0.5782735723847607,-1.4169494335009294,-0.2431749273385418,0.11776012194288288,0.6997272129920397,-0.4735717936326049,1.0198746487443917,-0.9157187326486029,-0.057770799908883966,-0.7520195562925599,-0.1536927756226512,0.14915782615520778,0.43052380433057935,0.7556983239758222,-0.39397863595395205,-0.11232923387432324,0.05038196824698267,-0.6437339539410438,-0.6264058781548499,0.4064856443598387,-1.3043379844916092,0.138117887030726,0.016671434913760375,-1.014692874590941,-0.4253055963043543,0.5627011715929141,0.15897580943510967,0.3429916359220189,-0.631865650744882,-0.23440535236640447,-0.04229643424699921,-0.8208356637361659,-0.24951582793487764,0.4196505883759433,-0.021404390645395177,-0.331990497034633,0.7324634825902461,-0.5879980178540679,-0.9447586775025589,-0.7823737435195737,-0.14497327036765825,-0.4123883902121969,0.03972662420593719,0.6519786235133117,-0.41754518407535235,0.04103365822023614,0.36479255006386924,-0.21099524483802656,0.64991040875942,-0.3845219866135094,-0.062025338705308165,-1.090856838357046,0.17096040477032545,0.4885687525327171,0.6974346777154693,1.071214653637151,1.1924339112694702,-0.35444457747958236,0.4669334414777567,-1.010495461310223,0.3130809335360929,-0.2899455106098916,0.29583421172415214,-0.01928260149094913,-0.16334254840103413,0.3496768519285175,-0.6384528725041896,0.03695221758436161,1.0592273404934314,1.2996242377434124,-0.28209201187280314,0.63705053392593,0.7975947658322774,-0.19636816610496818,1.2493951249175004,-0.3050126085677581,-0.1963445484130519,0.5189890579971361,-1.2391318339648976,0.801054151370759,-0.9589335503406081,1.2761682598437054,-0.38106986614947974,-0.4652531792466764,1.3104726239265396,0.6825627565208188,0.24793517536196347,-0.6367125904269391,0.07547521857772106,-0.6048221681888032,0.647554632115268,0.8761670989571141,-0.5604333961282649,1.1538620314811305,-0.05425188034874661,-0.37610921413423315,-0.4903694627957507,0.5031288116267321,0.18913938648734535,-0.23396762121664505,0.5767465022045328,0.6004388122438755,0.6291148509457659,-0.5175514080013456,-0.3762208207066512,0.8259565675320045,1.447238625859012,-0.39875068971004274,0.8865027301428778,-0.2552971351900963,0.3770661412159979,-0.4255954222149192,0.6857493849297677,0.2582707454624225,1.0664035887874834,-0.4615815294912263,-0.061739198430020695,0.061490596154222775,-0.6497157981631502,-0.6927027010801992,0.3318150305403611,0.20939590779197173,-0.625341609799915,0.34924995294462846,-0.2505895255007993,1.7840350004754901,-0.30363903060051745,0.7135175798952442,-0.259685947289479,0.7525145283566617,-0.03599321534184388,-0.3018543405780168,-0.10851277052597122,-0.22637812448768024,0.18800829678702435,0.5075262468194337,0.6799716405572221,-0.8218868748879647,-0.283572652733153,-1.1481677225878895,0.18001502823141172,-0.16883965921476674,0.24706098907970175,-0.7321538852184352,0.5263275171279747,-0.08658363816673742,-0.11602653608380535,1.1098492507534767,-1.4306974025179917,-1.0063089725807983,0.5557953291759817,-0.1047849759793619,-0.7336973977387236,-0.6306162829523243,0.12941562000950588,0.13347712486271784,0.5720895984218931,-0.48049347747359694,0.059444710888506724,0.3015464421601264,-1.1177553270740734,-0.3273185575155407,-0.16682915590465558,0.8650136774407301,0.37928157843822663,-0.07162742294286786,0.9606636678106083,-0.5336853009747817,-0.6994080222967362,-0.6277860231329769,-0.01811909106859274,0.4285284775958821,-0.46900850567771957,-0.1547655528491163,-0.09217959633124187,0.8014830850252003,-0.34374934297346194,-0.35424885081078467,-0.7290377367520446,0.061260317683924606,-0.512815185243949,1.2601809333753766,0.3984784503466454,0.7827899000136861,-0.5551242766619533,-0.4627402235536848,-0.2358669446618919,0.4019244023759665,0.06928474934467038,-0.09694894865317584,-0.7265700630212388,-0.005704591212847977,0.7096953176380666,-0.1782984063802438,-0.1868896488546518,-1.3829874771796287,0.11134667847810235,0.6076741014148895,0.1306500325604062,-1.5199319424678999,-0.3902046083302817,1.0541980552716455,0.7233295510242552,-0.3305137297822308,0.790702112492982,0.18183733603562524,-1.4727655283248402,0.5099674384081619,0.16456591736701304,-0.6458791804234645,-0.727773389031332,0.43079521519657027,0.5688125136928752,-0.6520573483485191,0.7072441046443045,-0.19316534840843805,0.20556612405524757,-0.021739233211151895,-0.204002981892976,0.23846956883823295,0.005878609979623427,-0.20413803646104595,0.34008792562847745,0.7427763880387852,-0.49951009498859533,0.8511606585155393,-0.7662857787886126,-0.6531437982297476,0.03280146144094902,0.1918123011662402,0.26341372143447167,-0.28073536999411847,0.3898304781203717,-0.08625814686440351,-0.028749502944830762,-0.03582470776709909,0.25552157172765433,-1.1309783121446764,-0.3034571024603964,-1.6249289142830077,1.0406790463150288,0.015084289382185843,0.40837492328756414,-0.26482796365964084,0.10178650535409894,0.47551215136689123,-0.8349301246852443,0.7665646189087948,-0.3774264126247036,-0.7260300272665685,0.6002976488194866,-0.06978749431574516,-0.3869324146530819,-0.5036505773216965,-0.12863521694240276,-0.7430635061172844,-0.007844177836223931,-0.8469806591318227,-0.17596015935740011,0.3748857861447915,0.11288953062034476,0.4191412721485319,0.6149351563143869,-0.07870810605722245,-0.3881320658450434,-0.10252302620436457,-1.0551508321165413,-0.42466835267477704,-0.2430089171655822,0.8251651409515115,0.08211942976827927,-0.14725132790326162,0.3716407533431161,0.11762568688333033,0.4322558547628592,0.8412279766690471,0.051960621760963804,-0.5786924713691509,1.0019901517571317,0.03480950676792059,-0.7006276701001746,-0.13319712906573425,0.5694798437707286,-0.41744223229093214,-0.868531208759356,-0.5375136577789623,-0.3627289383055706,0.736543878240511,-0.6218024445464533,0.4466420550880783,-0.5235598969642629,-0.5493663183389774,-1.2517207191229516,0.7280241585278135,-0.17596814652908,-0.9001031429223287,-0.10552084621291168,-1.435849601495683,0.7024134941272863,0.12680534349520917,0.17024484151580407,1.3697953659496913,0.06518771231230336,-0.3912503714256262,0.338997133956947,-0.26224454716597884,0.15857139469300766,-0.9551326041350959,-1.1882986228663353,-0.3341108061598215,-0.21113027995637462,0.3494192560622712,-0.10501565272519478,-1.4920519300848452,0.4213606161356192,-0.5236422925069605,-0.02003051372955464,1.1756233423786948,0.09265144387256519,-0.9057951917539174,0.3425999430990221,-0.03699639006689754,-0.674921498250371,0.2777890858563341,0.11280173368430378,-0.8062534111223073,-0.07233317939037667,0.8138755864053829,0.6133944581118979,-0.028320888962664627,-0.2550326906184218,0.06817962251354485,0.04182347135807179,-0.659376754047456,-1.0099986162622672,-1.3470956216139531,-1.8568747693359664,0.7646859275906799,-1.1246295763928025,1.0220751201703786,-0.16604651439269355,-0.7765440392848456,0.26815838988044316,0.7536658678163464,-0.2672181868169947,0.3088016655213748,-0.6672221707719771,-0.2194785276001223,-0.8864804044051926,-0.06554722488009901,-0.362018593468035,0.4370514247950933,-0.7739181555363026,-0.09607742696115967,0.2780107680063402,-1.0115074072144916,-0.7190893428203533,0.17495872395906123,-0.5299234899137616,0.35576401835484733,-0.5640967176358341,-0.8371481880937839,-0.3438037099587738,-0.46597755746325953,-0.3731685056526333,-0.5505816726746068,0.2524315662096088,-0.087647246370195,-0.29204259150059675,-0.3909135574612779,0.7213511792242522,0.514940858823931,-0.023151864133209684,0.7308848235191691,0.7456852589752518,0.25737940376473434,0.37488267915535134,-0.3644866977076839,-0.5920410115249668,-0.39591492509377774,0.7991042638050428,-0.564902120069203,0.6619111142706355,-0.06445600854303488,0.08515002574121108,0.49559588083096906,-0.06047034329827382,0.6223644424421882,-1.9331114041590185,0.20908705860476562,-0.6684855538548728,-0.31025990699273026,0.27379484312516283,-0.2707059344638949,-0.018275461902712304,-0.4648490330555701,0.6110028011103944,0.9659818066375367,0.8951351451408072,0.14533983372806417,0.4998806917618862,-1.092533632078856,0.38491247007400714,-1.3683644322592157,0.6676288190074845,0.04534776209252326,-0.9489493554954932,-0.5601540836087934,0.060119898468926014,0.04171673588472224,-0.5771148941030995,-0.006639052321477466,-1.1565664282430002,0.039018138261191375,-0.5851085468695393,-1.4200258233115042,0.6290829320450402,0.6860736328030099,0.010507714613172962,0.5392676117212583,-0.00495029920897587,-0.23138690683074203,0.3269297552763086,-0.7511038596784152,0.37756999923616075,0.5974547978493228,1.9799352948251194,0.2631688870532837,0.2543575316012261,-0.1956755277736562,0.6683911744432398,-1.7812532575218396,0.32741952672670127,-0.6743106744447068,-0.5906278295387608,-0.9795743029942677,-0.4082111654901213,0.501002522775749,-0.7179250210223042,1.2181617906197764,1.4600399698300206,0.31507075610194923,-0.17989231587421461,1.1188690837409716,-0.8002723562441759,-0.6998145621384194,0.15370341702505055,-0.2974262884116978,-0.5617927548369788,-0.2790298225474056,0.45795561562167975,-0.04219251755045774,-0.29067468693106924,0.8869690864320633,0.6863792702143118,-0.6361097755948489,0.03796113952894218,-0.7065450478109409,0.0213809616253401,-0.6591485743210458,0.735812461067586,-0.5306043717291369,-1.1115781218149452,-1.1722763554830322,-1.1037118426510268,-0.3530340200356693,0.17203279742380578,-0.6397607664657471,-0.8392063493856445,-0.690027365840707,-0.69126408394433,0.10214267420628656,-1.1095330701072568,-1.1262426237669025,-0.11288676363326339,-0.6107936212263241,-0.2910203432421332,-1.3365284790842098,-0.04861147727926076,-0.7069740991366038,0.11249580526776656,0.4429370061407903,0.43915810453077603,0.15905379116756452,0.6978963232992177,-0.3741832816908649,-1.128243595325891,0.25875542490167286,-0.09506387145557378,0.2491601234335757,-0.45155195754322364,1.1053957700799781,0.42906305502320974,0.5259376697947393,-1.035060102312743,-0.032090370733915984,0.16746120219006344,-0.4972700820991704,-0.32782903447599815,0.02350171196876206,-0.2868646681627557,-0.7834929492412669,-0.5079061870027638,-0.19952769978152785,1.3364991624946165,1.9872367567411242,0.18173927708479734,-1.2012557895900022,-0.4863624710836759,0.2519391316142261,0.6081659694817708,-0.10143219419453792,-0.3867683310670169,-0.8482838532983403,-0.49295268859182945,-1.10369236526735,0.8212890951906057,0.5738231830602443,-0.01554284566053278,0.3406296095920921,0.48684357635842124,0.5840353911837919,0.05988894978787859,0.3458202954915872,-0.46622348190469265,0.371080358279902,-0.34976673881762393,-0.9350088870101889,0.27176650953711906,0.24111832524598692,-0.012323623840908876,-0.13196678803418527,-1.1429466487715538,-0.3632194572315436,1.0671572895815045,0.2225362336862656,-0.5402657053653726,0.19975975388197456,-0.04706030095113205,1.3142593628242754,-0.49213903191834024,0.20290733353144397,-0.24707556635875288,-1.0732030800283168,-1.1510582249602697,0.10550251075673614,0.11269338777278687,-0.9523073915500923,0.6817767545500879,0.28307125587471466,-0.031423117923927185,-0.045935670485678544,-0.6578765740229796,0.8809113903989323,0.039861581466401605,-0.08729205454848779,-0.5684146582132248,0.23888575953746558,0.5827138735079718,-0.4575337641125768,-0.4662033846981651,-0.28564780859341954,-0.4802055535264408,-0.5340746056310629,-0.8711563096798131,0.9976664585811811,-0.2890562623319837,-0.2378549411269177,-0.003428446607321247,0.8400188295253229,-0.10284538099549452,0.39702615860919965,0.9393577699976473,-0.067631274501709,-0.07164605311542589,-0.14297326696073911,-0.13439352912221111,0.5831442947593689,0.28926567266341574,0.08553582821503414,0.21830250004020682,-0.5819757157774141,0.2662858522155228,1.3990503065183255,-0.19833601784243898,0.7104194891329086,0.057743273525880004,-0.3696527637020062,-0.49379613855257753,-1.294834221622384,-1.4915799349939176,-0.4243135511037236,-0.3060302953667628,-0.5704220288725247,0.35600984123470597,-0.6049479374309389,-0.9992636096608775,-0.3463946231850885,-0.6152307176591036,0.0006457253231780362,-1.5182076700244993,-0.5231999325712764,-1.7980117670998164,-0.0142180314383004,-0.08945243496206237,-0.39622408022004096,0.12806888275712588,-0.4580533150295274,0.036088631002746056,-0.16837338845336855,-0.3437357741552002,1.3015823868969336,0.2833100824483917,-0.2009241467588097,0.49863312451783515,-0.13497810916358646,-0.9652346777489851,0.1927254044565489,-0.7632526311135075,0.490381813266702,-1.0778044011198338,0.6787258735781775,-0.2538231901104703,-0.433728767773512,0.5202254287567886,0.10987053633768351,0.5450559465232906,-0.9260828545642719,1.4093492733939463,0.45497898537732634,-0.09114406139617662,1.1468855490557357,-0.35649550447697836,-0.6616677263281812,-0.586588928217437,0.561458926022185,-1.070563355711395,1.0788859082951334,0.5960847586577934,0.24126113797196658,0.25731432283406175,0.149405977957415,0.292114821723779,-0.2932519262105761,0.1136479013961939,-0.0920546473153669,0.13869668636608654,-0.8077224708448728,0.001638704397509929,1.0458327360395352,-0.8140405578188508,-0.3436138505547139,-0.3638260355824759,0.11953044672274425,-0.014620136158728154,-0.9070674136696473,-0.2286155123739551,0.8431573493924345,0.25313215782919934,-0.6586208958543897,0.43935469866643084,1.1424845436638207,-0.14090060682581124,-0.04898572867555964,-0.8770274550559273,-0.42184710166978656,-0.015750573303174704,0.05124037233892466,-1.5838808007771816,0.6085542851452597,0.8844210718695192,-0.32777513295629984,-1.5450357515877888,-1.5434187093386702,-0.8424508984231311,-0.07177290570515495,0.1541785931360225,0.18705407488077752,0.7434671547212975,-0.3324841696101233,0.7187715699157536,0.2643295491019585,-0.8523290090431652,0.292072860130364,-0.39444643379495226,0.07277102109384975,-0.26862119785889393,-0.0884711339150963,0.35626591595228685,-0.6113499229523879,0.7743588054458519,0.8264912396437116,-0.024055258067010706,-0.862868822462485,-0.9379845686187867,-0.6587914324890947,0.1387733268935152,0.8073064219153211,-0.18197469524432502,0.3034991987160492,0.4294495373926262,-1.0813082041187791,-0.12568403461661315,1.404967448535404,-0.3947951191592743,-1.377888727108776,-1.0975322762084343,0.12419667229185602,-0.9849277167157817,-0.7680613455416805,-0.44536042283393595,-0.0015855418012748201,0.5346919443322409,0.7800712168741558,0.49050640346803814,0.3055046546820899,0.2926248664019182,-0.7060983326712242,-0.9853072941752027,-2.4628613366167413,0.7518025050530706,-0.40020346512626703,0.8149723068806061,-0.32135673805184506,-1.0913139599441,-0.557760314472815,0.1622678138746238,-0.07726116515562778,-0.07956947329305619,-0.540847815697352,-1.1529519497262042,1.0326310554188989,0.744037354970895,-1.4098704384408989,0.31855461991745865,0.8919721074596945,0.15389572335290036,0.05946653150707668,0.7449873055574351,0.13803014229210997,-0.032109697956045055,0.9915715456799791,0.14078515346836848,0.5826361080195349,0.8102985605829918,0.08518238958609414,-0.7613016247275498,-0.49160088757545817,1.2065998527865598,-0.710871364416116,-0.03807123784470749,-0.3539642157616005,-0.10786807402109967,-0.5826582519564407,-0.4257385702202434,-0.4361945967659204,1.0005596261085603,0.019310599401076104,-0.29069034427219886,-0.14731385713185804,0.30938348034620905,-0.2535167366917561,0.4996822724042089,-0.1395093549501663,0.6126969936465694,0.48057101419149273,-0.6417375532483967,-1.1357122436083964,-0.39402974740912045,-1.675299705095648,-0.23148750400827414,0.038341937567426036,-0.5828974785880241,0.7234202173877329,0.09494841146370278,-0.9652154360651541,0.7183648795602433,0.726938383021567,0.021023681700970277,-1.311796325335628,-0.3078057526334839,0.6541018509034966,-0.5023364415031103,0.8222520094122081,0.8624793342114532,0.555594104164355,-0.5779912866275085,-0.08740533763085435,0.44575509336233093,0.19368807260385307,0.5388920122172597,-0.1362658876209002,0.06880105516659119,0.38473458955945355,0.9336246973122105,-0.13488982624821683,0.7621009336125759,-0.4035379006419685,0.1971161195620764,0.14034668643079273,-0.44859656816881566,0.2233793245288874,-0.02386235930385653,0.8349218329194427,-0.12723736015055082,0.2461380009927926,0.6965537961178359,0.41701069005867836,0.8531059531701173,1.1744214870699106,0.27191899917961404,0.2590785484930755,1.3391672420740894,-0.5252732210007415,0.1853200859382834,-0.9122645786485165,0.36873902277336595,-0.5051553296542475,0.15098323230213542,0.07279510429584114,0.7735164120867198,0.5425154985319148,-0.3319985094550609,-0.7374149541243948,0.33753491704150346,-0.5803007032783758,0.21907611865032117,0.524389754334486,0.4020545859208122,-0.8839267378856835,0.8248721746613561,0.40914926006378605,0.6074480689218605,-0.8700654281618485,-0.9193123866679984,-0.2600627129231334,-0.08352457538352709,0.9115092647859256,0.1946622403557973,0.11323711359177847,-0.20654284502803788,-0.41207983893673383,0.7302268470522584,0.8045883583855981,-0.25114513563652163,0.07142317650498835,-0.3861324845385899,-0.8575962800291458,-1.2239781093942514,-1.3946930881612234,-0.4531635273038366,0.25810659078815057,0.33551849476366125,0.35865509160271913,-0.13691177917765013,0.6358163941187057,-0.8520815643473674,0.09010713528524926,0.01638232823950203,0.13110790724331423,-0.3048279929548576,-0.43424659761543255,0.4985298173640327,-0.5769527011781217,0.1662895324438361,-0.40621860372944835,1.8344855423904467,-0.22877525945028032,0.26862663257122554,0.48321311536234063,-0.3524861477311326,0.6003436299905824,0.24481566609743538,0.38723227318104947,-0.4771490169072029,1.4609425365233555,0.7818250943852207,0.4432812610532116,0.23736957789504748,-0.17290401257862562,0.28701866247806795,-0.2958800125111427,0.6492472756795912,-0.8512153722490009,-0.9484457903939759,-0.6551426895190724,0.5601416601209329,0.8603776296979497,0.09393294506917632,0.8977356245327923,-0.28273738367271206,0.24011560432233608,-1.2578888048515249,0.9041268748362852,0.48660492428702595,0.6399685144063865,0.453220169014105,-0.98235050876027,0.05905236802568417,-0.37575779465575365,0.9918789557951384,0.5580707779580109,0.048738241551751264,0.7367101666498453,-0.574303552656027,-0.08554312215014183,0.6369653797644979,-0.16163335887425878,-0.10271385973889123,-0.39670657095501466,-0.5042209581443843,0.09144046558354717,0.7436563154962793,0.21207434257289134,0.005782407747600294,0.2703882887328347,0.8274271927930311,0.030108962488482195,-0.17396879731718404,-0.4250497161894635,-0.08517730041791036,0.28588525410529364,-0.7747772676773698,0.043992913963602005,-0.8285287178368604,0.4943219445643128,0.6361391159527074,-1.2992911327111398,0.08382957137371108,0.5225172603764632,-0.6423264675042597,-0.48182097024590376,0.609413070140703,0.5590541496830015,-0.7513827462016841,-0.17692450971737853,-0.47474250460424927,0.005826013402178684,0.27075325079170537,0.5079240646960432,0.8325478550525706,0.16784796990642933,0.7471054968611054,-0.08687753080085564,-0.44443747785198345,0.7958905135790166,-0.4541657939662163,1.479982078244285,0.05953399411706522,0.19081905194110557,-0.36378295232132407,0.4772941700800655,-0.030386256954943777,-0.38488381725820453,-1.1481948564573758,1.1861738672516244,-0.7230828381265983,-1.4328370617185335,0.2462825528876267,-0.2942773581927967,0.4635513102643836,0.6232509807449851,-0.3676455600163974,0.2198575858122823,0.567026486947307,1.498489778899735,-0.19236306035375111,1.3493834916402272,0.4043362958431398,0.4858272759382977,0.6554941413189479,0.8402787026933938,-0.09316843578162554,-1.750438574994734,0.05496501867289265,-0.3918555316524567,-0.48360992686987986,0.29200721376541233,-0.09675004369239683,-0.42618136082738045,0.14479005104501294,0.1638193204959123,0.157388598620531,0.23666824142274112,0.3393058895954368,0.0020523030448300426,-0.5016628143158918,-0.22434072353688442,1.1179015225293754,-1.1472457797802744,-0.06402180132250918,-0.2078172950670173,0.156591717464258,0.22806829539661502,-0.08474710525255527,-0.7995020296054721,0.04607860878297925,0.3167455131451509,-0.3036130210148723,1.0228486856858934,-0.4049703643177548,0.12938624587585246,-0.23090922036353626,-0.0356042007701169,-0.2762578004089568,-0.1353205566747911,-0.35238942464507306,0.6758259639042551,0.058734433423672905,-0.9456465705396563,0.471037905241149,0.38099855870324356,-0.0991283986740464,0.598247408993364,0.22960601489273505,0.9846403433045061,0.1856783007034876,-0.5684440296969132,-0.9215662615158353,-0.3599135890546298,0.5397632491762892,0.28811399928025555,0.6400894653741521,-0.11084065922029768,-1.0247973006659283,0.32459169651082326,-1.1433265183484487,-0.46712880706266807,0.9029902714574914,-0.27999443886648584,-1.31562364908607,0.03164192536088494,0.5360473142088292,0.47760882204856436,-0.4853504197550773,0.007719560927204244,-0.5911561057667934,0.021593484700193726,-0.5533301026632185,-0.7405954564331477,0.05747692806906633,-1.2221807146068537,-0.7058613297948371,-0.40396201480170135,-0.29496509305656116,0.6340887787461887,-0.36842148916934475,-0.5872054745322619,-1.3053014177940632,-0.021698694641459043,-0.5895322825975827,-0.31194469810943615,0.33956827060469036,0.04508959156216074,0.546253816108502,-0.2775709435199518,-0.07475413721510783,-0.45194927322978296,-0.15272090013145367,-0.33224027871293765,0.45329038297771684,-0.7429854857096826,-1.7644085289727935,0.47760070082832506,0.7987596556852411,0.5839696902372984,1.0102472815256285,-0.5184748800001195,-0.26137838054466206,0.1492556223789401,0.767505537441483,0.5211771074511243,-0.5744745078891057,-0.011111325643737555,-0.2768906413446132,-0.3147136912270324,-1.0065593100921917,0.9059786157173212,-0.508169886339403,-0.2050476009564588,-1.1712650380028526,-0.12250526875869006,0.1615727102657997,0.5633270111328094,1.1093715436223746,-0.32873464266269686,0.3369084499230899,0.18766542577362622,0.8618843154492372,0.12832069973624766,0.021619835687282325,-0.2638444375296509,-0.06946951129222081,-0.1410782666461215,-0.13413744879781594,0.4793856845391686,0.5022041664264083,-0.9504562013334005,-0.04316724789807519,0.37554552612180625,-0.7122965842574038,-0.8388823473829754,-0.15008619230991418,0.7089217117793865,-1.2675372960347775,-0.21358893496481252,0.04977278631285452,-0.5401974479956938,-0.4231045238144215,-0.1645703113220147,-0.24758203773521115,0.6135619990851634,0.48391600214081754,-0.9090401787233653,0.3323544807799261,0.012116674867276373,0.10133487151404444,0.39539224314055055,0.9538479472920989,-0.7924570798767504,0.5825337082321139,0.8705093986853761,-0.09419408973167745,0.8644242658187056,0.3141974052280744,0.29167101860531686,1.099492245654787,-1.068094141660688,0.3573231386248858,-1.2644992840224425,0.45536808541578055,-0.4650239162602495,0.30319165497525324,0.34803431715774535,-1.7094923809841587,-0.4388081133835556,0.09048637488164324,-0.5348951076341002,-0.7944835246772073,0.022531043616298776,-1.2903467166505183,0.29299925687845807,0.33418659498935427,-0.56149679737499,0.30279061252120043,0.7375761019787385,-0.7513693736657829,0.9153417897033115,-0.29331995997678817,0.043069930545339544,-0.3597046049137161,0.450802560426942,-0.13998610913602424,-0.3345152775833117,-0.3545997094312213,0.5946733176526426,0.9379947102733623,-0.2923341932590342,-0.3645149434365564,0.3390225406942665,0.32729368441736795,0.16587536551230656,-0.5877223519513137,-0.6076305708790031,0.6480923485904306,0.5182009161967428,-0.727063333818807,0.41957928755591306,0.20474870900264644,-0.03161307821337683,-0.19939105554067446,-0.7111976594902091,0.07242005556278909,-0.043981183732812075,-0.7615419891814105,-0.5389070884853493,0.2727696193304751,-0.04739506859098658,0.2116488846717916,-0.3377898198564545,0.4654385467861981,-0.3076081275733117,-0.8678135817211673,-1.210750040063773,0.15535072865422403,-0.9492067532342998,0.32675986954346153,-0.0008685815271078007,0.39344415338102123,0.2591789702898099,0.0581415434593416,0.4916640111658276,0.05136527646160914,-0.27863921150455495,0.7961191298129993,0.11612813860254513,1.160324698563135,-0.020400437369282653,-1.3165879449302837,-0.002129351400410857,-0.21641793043696944,-1.0039606204638087,0.45415432171878417,0.07994118654282187,0.948387222151889,0.27494451860734753,0.052298503809003895,-0.551608138365877,1.1605360973830174,0.06549921220898522,-0.08351034935295966,-0.002499819125141769,0.25018486148180474,-0.21607364948844923,-0.539310584614488,-0.30959013663621754,-0.47940472975784765,0.8398769737960029,0.8461434914177295,-0.37288118993509545,0.5953957582406115,1.0562620513573022,-1.6076503821083432,-0.6860812446305824,0.08097126823814971,0.28580548655753624,1.8913382229197888,-0.390604385226596,-0.2764250889859805,0.23397915974862785,0.28545554166329445,0.21699628981194258,-0.39926391910001974,-0.08349416599804585,-0.08265262092301784,0.3838765495479413,0.5232432301435103,-0.7109180130814692,0.4922531028687186,-1.5994801324792527,-0.15505198751058502,0.7527764166273482,0.31691976322807286,-0.6027673171109574,0.27561006455465575,0.1006536144509661,0.5806134938734245,-0.933767526236238,-0.09953892040008573,-0.09517152520388467,-0.21848480829503128,1.1121606733264233,0.6524028954272583,-0.05785190208603897,-0.35459664910233957,-0.06902763297237012,-0.12612900764168725,0.8929003171940615,0.15545483345513209,-0.5661856770059583,0.8862401426795116,-0.1115114469358944,-0.8520080044979853,-0.3188330958204566,-0.19813667794461742,0.5226289793292308,0.111231086845689,0.9534995285101783,0.34757102923466465,0.1420634624638685,-0.7674788889414262,1.4123882021277545,0.0238324342007063,-1.006843060226273,-0.9258028255474244,0.6661144677884026,-0.2458525013378419,-1.5649372154532328,-0.5811612339693492,1.1896279043673041,0.6728715158522345,-0.5301048039540146,-1.167107693214071,0.31080558216595294,0.24800930698033405,0.4404722902086442,0.8334735462142564,0.03542911290670228,0.4987741812372743,0.22218840346376859,-0.19714682909296,0.008290712577550222,0.1330351056984412,-0.03773182157228229,-0.35582641196759573,0.4238374066846581,0.9509005692378668,-0.6194771526155362,-0.7715798884439832,-0.8355246918888308,-0.10525498695370214,-0.7729808778411342,0.23934726461353267,-0.013746438737831636,0.4156952378832473,1.139879474128127,0.20601275143514336,-0.06772922867577957,0.10014491089353185,-0.5194624030801344,-1.1536415317341762,-0.25865878282315824,-0.2976897434506803,0.47167040846681124,-0.6782131562979443,-0.8614673661059498,-0.7443761478822176,0.011246242699059678,0.5268575394875868,-1.0228549553007822,0.9846198464783965,-0.1736531147415192,0.44210141880626325,0.9723280223733317,-0.31645017688073523,0.1674664876696251,-0.8349251923715233,0.04239964500096714,0.07429974564850729,-0.1865160918070327,0.8925547867327093,1.1679971555727762,0.13682548820291984,0.4283340839462316,0.8925399391811523,0.6184839182511879,-0.18800704928014741,0.8169840421729654,0.5573592661038036,0.6462213270959499,-0.7446811646340181,0.2098578781215827,0.6837314716750287,-0.43062044752832984,-0.9506179949638099,-0.1985452007848516,0.3311956753760646,-0.3423915492441046,0.5893782977647811,-0.5151184963209,1.3658111517899543,0.0391278463138628,-0.03958440809297517,-0.28715356812031206,-0.5244897184615283,0.1816813407293926,-0.01882124415956149,0.19453008293715074,-0.058476025130517154,0.946280200319805,-0.10785052870926035,-0.4365087077729203,-1.7897232656162376,-0.2579130297073663,0.8369589023572745,1.4204613523209362,0.7030644843779763,-0.654535142922549,-0.8600060312684057,0.6155182118459563,-0.7245743954669841,0.10537333251474104,1.320762207374841,-1.6337700281352951,0.05438633342018988,-0.581710148322061,-0.5741588796883307,1.2913529266293455,-0.9609194336423587,0.6066746066868083,-0.2967380818038387,0.21495425324966783,-0.30616877848747576,-0.207594546781766,-0.28860830879612065,0.13017129934729021,0.45322285617850433,2.3369845735868013,-0.009856660313733029,-0.7762349813351008,-0.30031389982745915,0.6017775747951076,-0.5800266549698522,0.19693004215005402,-0.3584501285464518,0.6885324886623078,0.4509128862839575,0.7472688373862596,0.4125516916471152,-0.4551866203853405,0.002952949530821253,0.6955475865396317,0.014890514654422697,0.2477258429107087,-0.16372958214451902,-0.27750538475142633,0.5773506080928454,-2.209926110850253,-0.4751851107390251,-0.5097452869953815,0.0017379014439694376,-0.41107324780732346,0.6470355892491727,1.6864712913976097,-0.06032573213295082,-0.578465267611918,-0.03686394204668703,-0.7916196616574229,0.4095870072799133,0.3344907205879245,-0.9350822137791538,0.6200840119642543,-0.2575963412587749,-0.6796692146070029,-0.27697506709070285,-0.22563106506254993,-0.26870092941187596,-0.5582811315569625,0.18488496368352175,0.11408211698269805,-1.4708398278091095,0.60529081009412,0.5181629948570792,-0.5658516253943884,0.44769489040489135,0.5879710280238155,0.40997933700469363,-0.22164821951832483,0.4444899398191762,-0.5563093730827495,0.3854920588415605,-1.028184125670776,0.6986766337120811,0.39974434897730604,1.5635358651860065,-0.15873725266084715,-0.12083942997207314,0.3778874357242835,-0.9260594455104105,-0.15450690854258162,0.06142676258576296,0.4422438123386061,-1.1066531390698005,0.48131794857916776,-1.3309921084258995,0.21261272708185963,1.045896509297411,-0.43440601690242464,-0.4530087158032363,0.25371068905032174,-0.5008078773034549,0.9944119613301299,-0.7086961135546082,0.19288944841588251,0.589477663991275,-0.5007970563173391,-0.3414050838531264,0.10255814583170099,0.937616647115715,-1.2530444540040508,-0.21001097159724952,-0.0945122052514484,-1.5811766438849713,-0.2983268424146703,-0.3551752866312449,0.30059526274119813,-0.5607007688665614,0.17115594026815933,-0.20753161395051953,-0.4904351191392672,0.9450869127781061,0.4027485698445383,-1.3591109583894274,1.054672489904851,0.5721216241231429,0.7088335216930876,0.8952523669067123,0.4365137628050517,-0.12271019095275931,-0.42266164072958007,0.6584002638182037,-0.35497710275995276,-0.03712407875804079,-0.8226852427232058,1.0174240897165905,-0.5258801271819679,-0.5099842649745479,-0.6860835897663048,-0.1741469546647545,-1.7255437192364578,0.2217913195565958,0.8040356821106387,-0.2871476253243209,-0.17303812555793396,0.18184306184234386,0.02822038760776636,-0.13774356098242374,-0.7249528834592737,-0.01924324731761355,-0.7173149758436562,0.011569907364376138,0.4524656169285023,-0.1568471246468588,1.014344541542877,0.9276603101255618,0.12784289749560332,0.5560208001344918,0.6476971318090234,1.5688499362386739,-0.11621793990816019,0.8951671665794505,-0.09516173539507537,0.49644705372816716,0.16958137938045664,-0.06053906132995009,0.1371890409198625,0.3334288773216187,-0.25797597259035215,-0.09814745861441615,-0.30510191786499624,-0.2133433253958549,0.5090856626402721,0.9076970259495126,0.37949478911571227,0.668831244923455,0.13355759955761873,0.2666693859080368,-0.527244047135364,-0.3517505587336538,-0.46223364684527996,-0.08024904232663761,0.10110128980202882,0.37257099984493114,-0.5214348016306194,-0.5017427072196242,-0.3371076208649928,-0.4796214808040336,-0.10167248806311212,0.015806859050391225,-0.06969128593291307,0.5997444566014075,-1.3895967179917712,-1.7832451418415753,0.17713037679236376,-0.6437899509820494,0.4974344690576054,-0.812859208144479,-0.8596095683273036,-0.12982865665749463,0.2027276560555467,-0.5178851506777767,1.4157664791214726,0.06932505352182167,0.05824482287221154,0.6083314026199244,0.5119687655252975,0.5912746928576489,0.19357155960109354,-0.17075173544790057,-0.4157481185104475,-0.3594231291193778,1.0451029675323011,-0.233689600994866,0.0025533023460222737,-0.3355535723011309,0.8831993234122548,0.5840892986586516,0.19051369569443402,-0.23498144583577135,0.5061847064539429,-0.22152858609932297,-0.22375253637201542,0.04323175444895322,-0.21881731456062894,1.2681836542839011,0.9375478047779054,0.19044554873396993,0.14600337619357193,0.3629598513487831,-0.1644529349104143,-0.2148176803197162,1.446106887839583,-0.26682434894471696,-0.42822111116934586,-0.7445545400296264,1.52174184063015,0.15531412606783662,0.5669380818719109,-0.09986368003373146,0.49785290635060825,1.5836123708276844,0.8718209272512316,0.2610495410050645,-0.09744846486461642,0.9007794365569023,0.06268013587363391,-0.10733250797860906,0.8782627674704184,-0.22256717308409474,1.0300127313566385,1.167261118849116,-1.04366853152574,0.009933074591456911,0.27264134915388133,-0.8496610939788486,-1.3465130917882797,0.9567778974752283,0.7481387588254418,-0.5558988284045265,0.8410607849253691,-0.34592843238827814,-1.6650550865679974,0.2719134614694027,0.4787755966773436,0.3424943927992109,1.0193341788611148,0.4286345072477263,0.48489759076854716,-0.1542594231457005,-1.0745436090013005,0.011588440897897869,-0.09841813529668733,-1.098887147458218,-0.6440241934401052,-0.3704978168375288,-0.4142162949343443,0.23435458742770227,-0.542168411654492,-0.7318199117962663,-1.5093357550965518,-0.4737534115256414,0.05077834930095839,-1.1303495370062764,-1.125485657351286,-0.3398958475238991,-0.15850846661151097,1.0253768595226596,-0.5010736760076786,-0.7426768607549956,0.9483668536622977,-0.18271317091038053,-1.1089662495780432,0.4461164062553927,-0.7272330591701358,-1.1288186828752707,0.23913216389390834,-0.6439203842435475,0.47563894734241957,-1.4835613730683108,0.16283622850385315,0.28478067439764193,0.5337337066102893,-0.43201918672778516,0.4954550846424502,-0.4432354169531245,-0.04148179570683641,0.0834374767196,-1.7042530462704022,-1.2364225208606092,0.4847958961409301,-1.1344549136419912,0.45997674638372654,0.49684162461280773,0.9760716245617901,0.5229644647190677,-0.8175898626406961,-0.5865121434864735,0.13981208008436613,0.16283865266284991,0.3232635387334156,0.11558381112719816,-1.0687838921694357,0.7728483508424433,1.1092020705646408,-0.011307489234377988,1.1253151835906394,0.8473105665737622,-1.398583206103578,-1.3348902996742273,-1.9704000214776618,-0.4733104307788589,0.33559069216105614,-0.6488828465688609,-0.31588493857929484,0.46648723850357543,-0.5736659101318377,-0.2688463528433572,-0.1628019468773894,-0.06894628638399483,0.38783182231275665,0.2950167491505768,-0.2741248397037781,-0.5435365434021491,1.0341666923542514,0.2556849759140484,-0.6366824210817776,-0.1369876249520357,0.8938858693937238,-0.04746384216792051,-0.05191965147753641,1.1532083926792096,-0.20739078930443922,-1.1050895428004868,-0.4048934720065943,1.1455985152054615,0.5247050754596007,0.2019196792422372,-0.12007983362867224,0.4030897591652285,0.008564573916601093,0.5785822884601757,0.34587266375336245,1.0394934526342736,0.35876494585219665,0.10579398093452563,1.2259187493587143,-0.5640076413385126,1.4002825149944025,0.17310526740669974,0.8898355854196618,0.80888093733144,1.28004608482995,0.5515349359853422,-0.12713207349128514,-0.09610441991153593,0.4719163735231189,-0.23915453134715142,0.3756758255119118,-0.555023441783425,-0.5361893264611557,0.5143855150133269,0.40283880319467935,0.17842295579294357,0.5179365767065408,0.44929999987613517,0.6117227249907908,0.3963717565289982,0.22112333618287064,0.12788420605064,-1.0910625139281815,-0.5044356638625802,-0.5145340806976746,0.542116593384453,1.133570627740305,0.23141516335370033,0.28124314392942645,0.7132822405545212,0.9712329680433777,-0.5266170107023159,1.0555212651002859,0.49676212794022057,0.3021687271738166,-0.28021670621812733,0.13151459811017935,1.2219272645316797,-0.08697640317662124,0.27331173646911494,0.14995850705816477,0.31418728388897627,0.40310948862683893,-0.014675012640661567,0.5586063907885964,0.01487756828840595,1.1803540323520176,0.0834043244327834,-0.016219220480023295,0.269515053538694,1.2299226529026237,0.9898474878237545,-0.2046512067739385,0.6495428026342152,0.4485269445756928,0.4675219496618501,-0.9082639160056604,1.1716004470259267,-0.0391493268448892,0.20324335405434799,-1.3980892165302676,0.46911937935592174,0.4379250784394994,-0.2086049262277967,0.8944688465166816,-1.126216970549463,0.31186933213257395,-0.37162641793113727,-0.371535186671411,0.4275048955088104,-0.2820968509220371,0.13501245948875254,1.8429838802131513,-0.1708011705089244,-0.31166401768094704,-0.42837180341726194,-0.6446099903343274,-0.8113906176700559,-0.0614301452294202,0.30227748120776365,-0.30150214202237435,0.6271882174805301,0.03167709296874598,-0.18327251344454296,-1.259613191166299,0.2298979803174862,0.4030919795717215,-0.4371661824006468,-0.7780160028717849,-1.8275045082366508,0.31957329710182225,0.07489868188880343,0.2054751683172668,0.9876471552307101,-0.14238685419745006,0.19987863191602015,0.6725901301052176,-0.1302078282123343,0.14587766059966467,0.4965321666298155,-0.298771002328709,0.4514569164070728,0.8183404677907695,0.42825518123812467,-0.3102402170215104,-0.7323355688081626,-0.9280871474523534,-0.2781242760974728,-0.3340883882659101,-0.7178235301788383,0.5858520224292586,-0.4445614283536865,0.14394609430230887,0.7357620232380903,1.4718344929532257,-0.5426279019359993,0.7635751889182302,-0.3881720239664783,-0.42021605717712374,-0.34467982437417627,0.2967832496117581,-0.6013565314298827,0.07812703047668622,1.2225742323409023,-0.2181664513519436,1.0304461852203126,0.49064550436020604,1.4009579469950815,0.9777178183675842,0.01931325165750408,0.4290894012680001,-0.4455761751913767,1.1530961963951236,0.3068784696571345,0.1706679124342489,-0.060378917888472786,0.0999245993822469,-1.7076634724959898,0.25449654499566593,0.36964553049800075,-0.710548834077965,-0.949028239940107,0.3277528653942176,-0.8159538557806936,1.1046364574267453,-0.051621202450611324,-0.1466420838065663,0.40029375609824663,-0.058206866979688535,0.053603013325793376,-0.1366129001592884,-0.0572072359850304,-0.9394608440580727,-0.19329550716067173,0.17443335000168977,0.7803906931249869,0.8775541686726451,-0.0504933134778993,0.013919407920838293,0.5377665483845883,-0.24624675969709495,-0.20419651361427069,0.09499532792559948,-0.3746918502123757,-0.5487837007902701,-0.6471083764915468,0.45109549480978944,-0.42219487579169657,0.6212163413826454,0.3961852581104369,0.1690033707096404,1.4131887738859108,0.5484062144927118,0.6164079352444269,0.36270758350154403,0.04496346321508439,0.4472992857464565,-0.49871741672062375,1.1995827794946716,0.1755959093082223,-0.23403760535293325,-0.1348191793762479,-0.5920523316158718,0.5425301083315063,0.13988273250072117,-0.04752447313439583,-0.32679240821452016,0.48376285907550554,-0.801432148109827,0.6155241484132753,-0.28453143575735956,-0.2314586600000798,-0.44401029101452727,-0.40955502656939446,-0.6156482008600799,0.14106813161522883,0.6777370798019704,1.3740486731107868,0.39290659967608943,-1.0686924503755357,-0.2917358952167664,0.4494689796501131,0.11149984495230855,-0.5473468337999933,1.2303121272540496,0.15001789370224822,-0.19878414940873035,0.2763555062404816,-0.3659353536240562,-0.5151130653772091,-1.527675907423721,0.693082644189841,-1.109034367717856,0.31825625086140313,-0.372137920848959,-0.31591156081676547,-0.620779279511173,0.19219091873974922,0.5384525055679298,0.2692394252878973,0.6733982005776447,0.056781658740738816,1.1952015117524202,0.9504379500948228,0.7054845338265875,-0.4641974963011876,-0.15521285897051101,-0.267893893201912,0.483803094561728,-0.18157073813572425,0.307544398347148,0.3099210717070159,0.21000535811574705,0.4105419986234522,0.2524757040373474,1.0920175909743701,-0.11903398073515188,-0.40858907954835133,-0.4872505174262558,-0.2281572228958706,-0.43836783716231636,0.4341284177635099,-1.2888333009889696,0.8232960557179986,0.0061052618871428425,0.48234056933258795,0.31977475877618017,0.21439719665585025,-0.6454186346799593,-1.220722372126223,-0.4651864578258084,-0.4536376267715387,0.2928621782040332,-0.38050627561007744,0.04391274918711056,1.2636394855829325,0.4528283559117978,-0.6604120654324752,-0.3124120824954445,0.10992685647535327,-0.3398793608826105,-0.168118603938836,0.3301371451373084,-0.04195203418626191,0.25101867190714605,-0.3813307552176475,-0.012446888687624884,-0.508119661702291,0.7500271146895113,0.9835020545911801,-0.508575610518306,-0.3483264720510803,0.34530734272878455,-0.09521070225672654,-0.22982385615777343,0.7822103926978142,0.3103682237546512,-0.1886870773920079,-0.24886290457489732,-0.19933172679324002,0.03659558463931427,0.15999285284018805,0.6137068053453699,-0.48726751755468795,-0.3854882939326828,-1.7696767646308473,-0.482087993135733,0.5731731557809515,-0.7183716127012696,0.18628222391143817,0.7909206741246602,0.06714024559662374,-0.6638213470133628,-0.29967049011741476,-1.6750029324755156,-0.6181015103813906,-0.6024142604535316,0.5925807692224891,0.012458271673621728,-0.3614676208023089,0.3788087183767415,0.05388544075347608,0.09823530508157856,-0.7991915500363597,-0.30596778914133216,-0.45097105679671,1.2217943867813343,0.10343444914111781,0.21513193986702334,-0.30670598895603085,-0.05899884739304112,0.27086508630637063,0.8274340379035833,-0.5795970658642252,0.7210905771711795,0.123396865556782,0.4844427822328683,-0.7099311671942135,-0.13119744904745195,0.03661681703215082,-0.37138914264951584,0.7057725693801742,-0.9519619904136302,0.034532432205453364,0.18108463525744098,1.4244805700821586,0.9445071227474704,-1.038467068510766,0.9962775529509534,-0.5714389587441291,-0.09317653511481577,0.013385611389684526,0.41499008619657246,-1.2063816139586845,-0.5065175824631625,-0.953409546359393,0.11748762255688858,0.1854490933028572,0.8288219975179926,0.20102400441177587,-0.3754180080443588,-0.24040182403969548,0.8943279728993525,1.6888705712255818,0.5130513608177071,0.7518538823802475,-0.5942419385865537,0.6942905963691236,0.13612722057481846,-0.29231616715984704,-1.081906524554013,0.3972840023483009,0.22026919610130072,-0.04196747723353168,0.31211536135075024,-0.3534102242658964,-0.6029183090811113,-0.25272077378212154,-0.6719410607244944,-0.1371080574615673,0.15491973895181166,-0.06257353976526715,-0.03919591034368911,-0.42152843835409864,0.8337956707541782,0.32601294922163554,-0.332036918879911,-0.8725694940961113,-0.4422989061249287,1.2141249854960428,-0.5753825115230978,-0.23177773787482392,0.7047464966921076,0.308757643484866,-1.2490898694766106,-0.2816171475247268,-0.099486749932201,-0.6951737092187329,-0.034072798239457525,0.5624411504845143,-0.38712127137718155,1.1837664061466995,-0.6146209981678411,0.20415294439785786,0.34369361091489126,-0.2681803324656897,0.17373148020478607,0.5897202340227758,0.3635283353579677,-0.5022883612681573,0.5146573036373322,0.8985588807954292,0.40206256384692407,0.403270771225837,-0.7916775673805161,0.19355336898093145,-0.15437189399986084,0.2462042136474086,1.0599075426543418,0.5425844925664937,0.5119472891413862,0.16068040681742207,-0.140467248266569,-0.0647501722644206,-0.311938229083846,0.04728908747104644,0.14369229150279028,0.8298463332125582,0.2770042027543973,0.6810364220770644,0.9053262192465168,0.6907174893463409,-1.1569693775159622,-0.32580920137667346,-0.6847078702218169,0.3669455561810552,0.4683867547699842,0.17384017465346405,0.07930853694159011,0.02357636466481966,-0.6376190637088234,-0.4083433604497874,0.15209052540588208,-0.2609048829302289,-0.9307972721400593,-0.3809006320725695,0.7565532983864737,-0.3542633785066102,-1.746753000397019,-0.0059983684167945125,-0.7134908299207026,-0.3591384632023928,1.260943536730611,0.04445839798345095,0.2638458742951685,-1.2621779377909332,-0.2717721957217682,1.6600823821807036,0.15655877325735626,0.0008382151332676849,0.34698336879176683,-0.6725056877111418,0.09798940720721593,1.3391218727224954,1.145455496597844,-0.512659251827872,0.24122249942218968,0.1720198721495284,-0.07535097153766482,-0.4382265980123584,0.08131606623152621,0.05595757042065942,-0.35145848976515154,-1.3626287362314562,0.9738519492370269,-0.08574232656635472,-0.06100262931580977,-0.20791187245600315,0.45798418528294155,-1.2646338327575657,-0.2520065585853838,0.4355572526680656,-0.2516812910387918,-0.025305982380613073,1.2728452574881473,0.5767953340928749,0.41188020649400875,0.39808419093407177,0.33516584565389884,-0.8458113570922392,0.26774258860575684,-0.325618631180336,-0.6691259100175324,0.44863171180677336,-0.29544861759726615,-0.6602371573451148,-0.415579648124696,-0.34371133405811255,0.47338203447351823,0.9896820125750894,0.42927148491985023,0.22474193736619508,-0.523535186317427,-0.5062288235481337,-0.2733803924242754,-0.3593632743897401,-0.459128841266817,-0.3926606694909059,0.6980263797358,1.0111458425623154,-0.15124003144011502,-0.04398952275883711,-0.41274483772775994,0.6331707901248014,-0.46112533652995535,-0.5390370282221821,-0.31268004446319153,0.09490645654624111,0.6171137373388393,-0.23866206717323332,-0.11995093891711271,-0.02653484009560011,0.05711400489758425,0.7415077335174345,0.31869593617030656,0.40651232696939604,-1.1078258773004037,-0.19958800495675996,-0.8456252475109233,0.7835700325985409,-0.34972619408174355,0.5231579775194986,-0.7812902112950116,0.5854330004626259,-0.9976713443557805,-0.8285699236627072,-0.21379101505335277,0.9431068416416439,0.588625206862095,1.3891875157131683,-0.4989002075411019,0.10114481083552812,0.6571528145316049,-0.5805470005425022,-0.6664166533744886,-0.4653947727132176,0.28858269369519013,0.7990587453039152,0.4087564387934787,-0.7923558946488657,0.39849316726064726,0.030039546666536764,0.03233793116670144,-1.088724800658635,-0.4979224522312092,-0.8861536625138016,-0.6151210159054217,-0.8855691894734292,0.24066002956631047,-0.3137248960142331,-1.0621289366378437,0.016925922336562003,0.1657392550114385,0.5360538325258281,0.32764711423761594,0.6082961391655138,0.3226074318183081,0.08615966216275829,0.11888140119456868,-0.17077293062832524,-0.5681363493232208,-0.5134729946433567,-0.2940866992097259,-0.002524523713960364,-0.18397461709179513,0.7163493104696365,0.9706350492225742,-0.22139780241702617,-1.0113260385125316,0.25263204669706524,-0.014736167984334938,-0.33976390929761613,-0.24815416601395382,0.27082701557441247,0.11092772799644185,0.37405419496368797,0.18809185459922192,-0.5690965149850018,-0.9564318638781861,0.36513476132505507,-0.13771530383453018,-0.9988921610119836,0.45664233721729186,0.9084273671956176,0.78585357810159,-0.022988954083897298,-0.38269809677705535,-0.6947806611674244,0.3330505028518333,-0.21873436155266204,-0.27034240228258705,-0.6022915645220112,0.10714056832131666,1.0746967256382765,-0.43838555523088396,-0.11175047927828885,0.30820161875663626,0.8936488328110123,-0.006154845745212446,-0.25023762553175766,1.276998150480449,0.49018894799320245,0.628087911355275,1.0601589598411927,-0.22194149497782206,-0.9917028517873222,0.018120860949256024,0.29889459729715145,0.8141593151904304,0.5822324135131426,-0.9188537625293827,-0.3917342862977595,0.5993736687767591,-0.7516128718298395,-0.18583780247269027,-0.3362267138299654,-0.6765727621356705,0.1785106808622719,0.4138118700561828,0.18181523299838603,0.8867846492065008,0.41162931678334636,-0.25470258934825507,1.1239333261785465,-0.5365113020413225,0.6549225361458482,0.6109103532433917,-0.06044623088852853,-1.1937191903651603,0.14380597141554907,0.12309362787567818,0.5600428962911883,0.42610666775242734,-1.1852948132555157,0.5548724732007438,-0.4469525924158831,0.3098123999622717,0.3878093298927342,0.1416556097670053,0.49105484142002936,0.6241758211485278,-0.08815838919507774,0.5349888066663833,1.1525115929553083,-0.4596700550336309,-0.03197033168387162,-0.2687655398942155,0.23994979073705155,1.2261750763786152,-0.18236752972810027,-0.07962400857332796,0.1053826628445914,0.564059235526194,0.37406016394377717,-0.10423818921722305,0.041224776771246446,0.33922781625566817,0.555929224479496,0.565832261025611,0.6447207677195022,-0.21378191848796763,0.3686097962298802,0.11696272790700162,0.9792446530377213,-0.16997592833043393,-0.08905225050061648,-0.4466589983007362,0.7085817842641866,0.06014622546277133,0.26485671603531674,0.47545226908900307,-0.7356844814973709,-0.331087441167524,0.03317240884068745,0.5047823898173478,-1.0228653055799877,0.680569989502968,-0.9932869061839478,0.5636213044652986,-0.13926290117890053,-1.3100087508896203,0.6238565847624702,-0.2990805801951619,-0.14435470727677446,0.48582858894773184,-0.563598538349958,-1.2964621254191522,0.5780434758818457,-0.016054593207030024,0.2516421214225851,-1.217544728056241,0.41668175219327214,-0.019842059860499868,-0.4113023806535009,-0.21797396978890948,1.118116481220336,0.20836071605636947,-0.7465750803293421,0.12811919968732466,0.3714131391769557,-2.1616960546333845,0.753704617216343,0.10775822772351876,0.8844036036952424,0.1752689280459342,-1.0828223229127096,0.235287539328495,0.7201578019741794,0.5613973709592088,-0.16364049074401205,-1.3933908753759598,0.03359393156257774,0.02900825413027324,-0.3543656388323866,1.5923992842542432,-0.2553868876565957,0.3570879582064872,0.13192494569687396,-0.6403769748226905,-0.13356697455539657,-0.36730683314282037,-0.01457276598703864,0.022481104463152088,-0.16733487655650037,-1.2663406444346093,0.3507320289556389,0.05290080008352479,0.7843687218139548,0.6020318327247355,0.46871900079190265,-1.105211580505327,0.27748196560337984,1.361981357307298,0.7012931445562745,-0.7951992859602272,-0.3563061283806323,-0.6848045461419061,0.9646281804309232,-0.9743836258160983,0.7283793733660096,0.6286132871301875,-0.2186814202979428,-0.06818236341556165,0.9146615635850819,0.26732170097508506,-0.02316979727214971,-0.5067483331751254,1.245135730104511,0.7825416885475495,-0.5692579841700091,-0.532010400680191,0.3554298283061247,0.9127112597389778,-1.001280553493256,0.3784652150215859,0.08832678977570108,-0.7050718754540167,-1.3585865957173493,0.1533391495477291,0.29183489487517966,0.010976999038071589,0.6510096538324063,0.015065578078959717,0.805461880964478,-0.3307769478878841,-0.33236593191471,0.3835613141001267,0.792070841052408,0.5952837736575947,0.043421031373460796,0.10995588970158998,0.4877183196570208,1.4946852339410375,-0.08081667638262229,0.11850311122499704,-1.2833103280144496,-0.9307336440887336,-0.009841303996181702,0.4966224928497052,-1.4838657049030917,0.29843983395121837,0.17774371739515407,-0.9319609615951123,0.23379947254466263,-0.34119082803513423,0.6672474163041301,0.3344394195364853,-0.6492046046573156,0.07468792453890354,0.28512166792004295,-0.5183045555932251,0.0363588984444226,-0.12872733839959724,0.060261060371211025,-0.4380776285164611,0.6194927968991439,-0.40657239542934076,-0.7272006075756604,-1.7858347401610632,0.8446150566342722,-0.09420689915290587,0.04555844975339215,0.046606794324801686,0.4423839218418763,0.08523859825598035,0.279556661743391,0.3200248347234753,0.9647763576284817,-0.8276578116197589,0.4651598576852374,0.8820582664291708,0.8187705905466177,-0.3102399276043379,-0.44636287345416137,-0.5426542450314342,1.0206579384553596,0.18778729421486523,0.20185351681034847,-0.8110629507084305,0.32120048875223706,0.5572900272224405,0.7752957507426401,-0.023520008012658737,0.266577991146581,-0.4850303452390705,0.506808158322215,0.3191704302264873,0.33640662984169867,0.6392097161665015,-0.05130739923601861,-0.3925284139523989,0.8107117016322691,0.005408393001648727,0.3672156117982783,0.23831987899513452,-0.4163840611244902,-1.018144181772639,-0.43159929414931325,-0.8100320778498641,0.3645305081511395,-0.2852709364608811,-0.07683018067994792,-0.24686746532279522,-0.19015313405784326,0.40241566062050427,0.28468237475542013,0.4924330416977314,0.4589841459042728,0.8832319471733401,0.07358044170399536,0.31947763880273544,0.944357788472568,-0.9729968977404887,0.03640428738040828,0.34836903959268195,-0.35073664401381127,-0.6337391917090904,0.4071794828669944,0.352283431694796,0.3961042408550409,-0.16143407598732396,0.048378154719584086,0.1469700230592338,-0.2955780584783623,-0.6414991218275468,-0.7535160251875435,-0.04076462906249228,0.4806934661090619,-0.1880282903339273,-0.24603901028510416,-0.6111884067328728,-1.1375633532460456,-0.4113748332197027,0.7025530064715684,-0.7180371722815075,0.017692001843458434,0.4755847261003101,0.08470953335561199,1.0328546021032254,-0.8177838842529925,0.9406660161052719,-0.28175778259040546,0.00553349619354181,-0.9728563508024201,-0.40474059396532597,-1.0349627642397776,-0.5978674689468835,-0.19578091709190873,0.8801210537141878,0.01828257133789557,1.094343700417387,0.5600418088161833,1.2976914617079713,0.9263289245867552,-0.6303354163942523,-0.3521028839522664,0.02309629443348984,-0.5658858551806453,0.7904381162747243,0.6855576032704653,-0.303874264645842,0.531201370479429,0.6017128162068439,-0.2936929378289011,-0.7578873353928255,0.9832858320485002,-0.5561503776068211,-0.786889067404301,-1.0328541117648764,0.4000614922145288,-1.1761366720966102,-0.36710351117327583,-0.6896589970374176,0.014699533054866923,0.1793064177833823,0.3869132430515373,-1.1182996444604922,0.013817216877083347,0.6671995585509906,1.130978338471003,0.15004215905496143,-0.36838080931465034,-0.5848396349721348,0.5100313479004697,1.047385790841369,-0.08001495787495305,-0.8189854940689298,-0.08415431837361396,0.2998281799598996,-0.35545414347354043,0.28669856952866135,-0.3421237564036711,-0.7165022443511341,0.19376396794651293,-0.2719008180811077,0.624097423383627,0.42898136525447117,-0.13209086331070102,1.0426204168989577,0.7719618344234364,0.5506464043337289,0.33795796819018764,-0.4626053460045043,-0.9550987927943436,-0.7938710550936973,-0.005323060333622967,-0.11347848325318657,-0.24386701937430577,0.1644161552511223,-0.6904039284542802,-0.6197336004216587,1.652019612424218,-1.0783474322879347,-0.11361226985172088,0.06545349724775197,0.08518126555266206,-0.08855917051853063,-0.8160846527332367,0.430235578895471,-0.8202897752924302,-0.7551534296631706,-0.7992852379246469,-0.07944491567109983,-0.140721895722667,0.5877497313451254,1.3828335740575959,-0.2871577716704686,0.18246899134612568,-0.06733506708983387,0.14212551909287158,0.4508735326871724,0.19524614246271527,-0.23554300268296188,0.12583023952573577,-0.3722014570765555,-0.501787122836757,1.6136007385849271,-0.13024381616759512,-0.1837221947376898,0.05271448032971087,0.41905179748173693,-1.5090834505728044,-0.43357039314594564,-1.2547563875650305,-0.42601559137050427,0.09678431819124986,-0.24135430519300827,0.7085326649572612,-0.23862518989343845,0.13236001261179997,-0.6846785177241389,0.14804003823169368,0.7823074109792517,-0.4628413067910707,-0.15186695398493388,0.025257964386049953,-1.3022357642147064,-0.3186485249546115,-0.03862283854792606,0.6511987759768404,-1.7942317157863918,-0.2650098068098564,1.603223237294975,0.3838619122653745,-0.692950937742981,0.6283208035665286,0.2598099727867184,0.5244471614743101,0.19816858666820397,0.2824439434600947,-1.0186544568770024,1.06022054164886,0.732592439277334,1.6966618224640069,-0.8890813765679777,-0.601770577222345,-0.025850441151478998,0.5874312087361138,0.47258880289811583,-0.4417818069932393,-0.2690788203861879,0.4964414126713428,0.34537538148115976,-0.7520939228250683,-0.08544900579596404,-0.10662551707827043,0.12760785651277945,0.7768774070134931,0.15529357998245574,0.36306562281903837,-0.3965004061789834,0.10407017506227899,-0.5652629619821112,0.49676778770304963,-1.145538822830642,0.31118605183703385,0.4391281932370631,-0.6663086259518691,0.755924639280756,-0.43060985853905714,0.9356029708855863,-0.04738207714375356,-0.613637375735807,0.6205276277830181,-0.7456200810011736,-0.821939056339987,0.140798008044595,-0.37967614879349365,-0.854737327150186,0.6390934638564516,0.9844443646608897,2.1914639271262057,0.32884773917185317,-0.5408888460156653,-0.62313319473302,-0.5270359659884307,0.9992048680735086,0.6225083066140221,-0.020850585879936514,-0.10165892087665286,0.06622155201917948,0.3664947992039692,0.29359857250345694,-0.4324032502121297,0.8784763343507858,-0.03909333779684854,0.1127559947407786,-0.07786181157141919,0.01055588843271973,-0.480416641611186,-0.9902753483537347,-1.5515980792965476,0.5197466393961284,-0.001062987335656039,0.3852974887909596,-0.6099361245941191,-0.4743623091393985,0.31667633671759465,-0.8492576844667966,-1.1160782864826815,0.264260221876115,-1.2137434491535004,0.19472316342254264,0.36475648545031175,-0.6083791018695388,0.3970322953152716,0.19409320623858858,0.651385592272165,1.5191850965741496,0.06878042174527502,-0.7897978020738335,-0.3274752383772793,0.4761709135055603,-0.5043083588854894,0.812814865232598,-0.12347166338079973,-0.547648021343106,0.695068565843638,-0.4457404654694988,-0.8016507076798781,-1.3495724467665544,0.5160770843051568,-0.40552576651792066,0.9228148004217761,-0.6895472925902812,-0.8892031092911014,-0.5279558430989831,-0.6807372863737179,0.1534043318629621,-0.9154755612418916,0.15791392308490523,0.32096995373018844,-0.21993315730370594,-0.984361564273653,-0.8260617232049503,0.631806045229439,-0.2992645145364754,0.8593310735535439,0.5612329130583428,1.0689411979453183,-0.6045382794222621,-0.6751500659441741,-0.940616623841817,-0.0665368914162722,-0.660569724117829,0.2313411011191131,-0.616950229081258,-0.4780799696491253,0.540155553655086,-0.6260655990019931,0.030071197315680517,0.34000341469472073,-0.2177179637286336,0.03664151895236507,-0.7499937491603442,-0.3292922289044743,0.13065203061123506,0.15450758699253894,-0.3303817168069019,0.49875878396225687,-0.3606959084077466,0.2969605117142069,-1.7806618378024317,-0.4335887820258217,0.19966135980765615,-0.09095599063946411,0.27338351460575383,0.11517687729589321,0.043850514710010995,0.23288643859306463,1.0182490655347949,-0.048379193038694014,-0.00847766198659988,-0.12110978117033326,-0.12254950483095606,0.11847038280516664,1.2503458666572114,0.6671712235832546,0.6836505889088836,0.1356914952440153,-0.06854788243584292,0.4273640710341031,0.32363702122177973,0.1497176152436017,-0.5763317094236841,0.16910475788420312,-0.881763490292365,0.3454057402800323,0.399157013925673,0.5969827324070678,-0.18936947614795221,0.5515640423474079,-0.7476586751989042,-1.026322789267834,-0.6219650583477425,-0.7405043783920249,0.15472241010745155,0.1769785053699477,-0.16944237554852956,0.2180101613149261,0.291212558722998,-0.8145096799888073,-1.3077517798163942,-0.6368248354619658,0.9055182679796535,-0.16334360993486932,1.1258473701232692,0.7792478736850583,-0.012095689499272602,0.14608413816366214,0.014377948922919447,0.5723455423904513,0.05824099045011483,-1.0875847574248996,0.053751416203459704,0.5690499178931058,-0.14530508160032,0.11278527304283179,-0.12621195060880627,0.03474028438391574,-0.4341493093437019,1.0232081747146533,-0.11408539366163578,0.16073030617651599,-1.0962453004182247,-0.058111712984894565,-0.5676195675896564,0.3464172716673417,-0.689116875549782,-0.29753498538144135,-0.3483078846740362,1.0925167167234027,-0.3969561108956825,0.3911158102462154,0.11059006879903217,0.16536598720919934,-0.06828047477352522,-0.8475665106050656,-0.7774297974816227,-1.1290211757902233,0.6158853491019601,-0.7604539625132966,-0.5640765177411182,0.20777922589704625,0.3244456516599832,-0.21278898982289102,1.0627011314371915,-0.24841698246704358,0.14895098181095467,-0.23683287119916108,1.3135431132116917,0.29823136386557825,-0.16036492253906615,-0.7200104839386842,0.037165956394709855,1.08177439339257,0.16210064343893466,-0.024045607832584692,0.47149952313738286,0.6497061608871821,0.9729620174606962,-0.1923969778055174,-0.2834957173553784,-0.5460376370557605,-0.10392837565971638,-0.8009556070470495,-0.048010704543151754,0.4835709630699352,0.20745476153438022,0.12043811160048426,0.124498876113204,-0.6731151125734887,1.2890183227853236,0.40931352519609665,-0.4862475451074529,-1.5951010036058413,0.21737268619280006,-0.27310109466396243,-0.09604009835689997,-1.0587771488483066,-0.47699743151873114,0.40850981417375687,1.1704271171974798,-1.1671658568799361,0.3387059485876182,0.17286773802226651,-0.30908368607333236,-0.3370616034909787,-0.15262942257406442,-0.5309044881327367,0.08617032296459914,0.9077536545167577,0.11386871829141187,0.8208298656602413,-1.6545435485712332,0.84483384893495,-0.40792737390449263,0.5626027508722105,-1.6898250585048997,0.8849278705740463,0.8082410764473826,0.008236970402344015,-0.6526621885873658,-0.436524117986842,-1.042761299380188,0.2184164231632157,0.12200864188349236,-0.9798485572677011,-0.46817153565731345,0.658197702838375,-0.12037476546065212,-0.9478416926049625,0.3413226558076877,0.870146790622606,-0.3846306732313633,0.34428427251295374,0.20065125537634076,0.2922501243593352,0.2886107016015611,0.01884802176917804,-0.10005809452302557,-0.8106560711352301,0.8612100936824595,0.07739554595185147,0.8141880465911104,0.04009994429583357,-0.47028441813584226,0.4360196405609382,-0.9558419605704649,0.026757887275115813,-0.1371836037789973,-0.170207224599542,-0.33406288507545234,-0.0026775746897937415,-0.02560306689225031,-0.07440613152299247,0.6171759125541998,0.8810345832304928,0.5171690252275094,0.16595910806388037,1.0884694048498358,1.4831231637090307,-0.15188579902706362,0.49045569011284124,-0.7138421678797668,-0.3816133964784377,0.1671699012326911,0.302157052590477,-1.5148317500881785,0.38571282207470037,-0.17223465687875433,-0.2125766072642933,0.4214558124960772,0.7426752098944418,0.6142520643650682,0.00045966885904532087,0.44950885344621955,-0.2771647668563263,-0.018005405162247527,-1.170729208272671,0.013405987470229482,0.45968595364991216,0.08707325991544868,-0.10772743902680809,0.6811693206298128,0.18880778170647136,-0.702447700693448,0.26548368644120457,0.6412976157071326,0.46061178710854145,-0.07688355593553124,0.07406748424412525,0.2435786260933915,-0.6498255605060208,-0.7263858549171037,0.36499312425664454,0.1104534804064339,-0.5839553015744489,1.2924670787057821,0.037631631304613444,1.417693221607239,0.33995104570069107,-0.40408986505104777,-0.2959955916747804,-0.11258360063016803,-0.014328846942884076,-0.2264940962445915,0.2968628440117955,-1.2226981385202857,-0.1716589722593794,0.7946311033995476,-0.8102047977324484,0.1835487463817619,0.049015962122162485,-0.3260346722565104,0.8365753875031995,-0.5333853493121445,-0.17123323215792619,0.18346847904926017,-0.5083057559224623,0.7071352111738894,0.051953471210443594,0.25451699170185055,-0.35300523164511993,0.882020670483485,-0.016547369360017085,0.4839393382025212,-0.07880222837948872,0.25562254691181213,-0.14059877167214796,1.5370587427368299,-0.28697410630482106,0.44557338536894553,0.3703585188377567,-1.1285902297800219,-0.1878436041476974,0.2673973930623806,0.6239587077381867,0.19123884246082098,0.06707335219253074,-0.7408784833443249,-0.8809163452270707,-0.6177018566726322,0.5232593745259488,-0.8833036864477654,0.8229820659350715,0.47103810489570686,-0.0844457217024504,0.4238524200883185,-0.23471941924277867,-0.06938443740273596,0.6571846671695302,0.6004121774060723,0.3257940392100189,0.1581369265511811,1.391812256095248,-0.13571889400134038,0.25356665019267854,-0.7563244583760707,0.16756991740104785,0.280844614444355,-0.8790524356036619,-0.8291415934710856,-0.010229637967180346,-0.1239609511391154,-0.6511682372017991,-0.41754536419831306,-1.1258342950219606,-0.19729226785994006,0.23807456517120598,-0.697961675560412,-0.8495997871511394,0.8015647016924058,-0.12431183078815645,-0.427812916826665,0.29477344208324063,0.3460249794974291,0.3384494810645704,-0.7391399319128903,0.27550915191587066,0.3168018450898406,0.9904426776876096,-0.5353136778778856,0.3360943166449834,-0.22265507362442022,-0.9336686994400138,-0.1950910784124863,-0.16337911649091216,0.13769108161639362,0.15359937213332125,1.3285922517918396,-1.2845134702283438,1.0769349946632982,-0.5987091797842822,0.3133216320059568,0.31835080379809755,0.2588759438376227,-0.12998747839729197,-0.28820781010877994,-0.0993916838986213,0.2803395654671297,-1.1932484280108717,0.03498068882366109,-0.21475679996814703,-0.3338347460724618,0.9040539600906783,-0.35396156467497797,0.15378504629305706,-1.0978894600041196,0.04738015665438127,-0.17947211981484248,-0.44592249814374707,-0.4871509538728586,0.8270995539289698,-0.4848033210413406,0.8269794620251075,-0.6018305276545605,0.15235452831493196,-0.20203211173834487,0.20547097782223178,1.5026566811576945,-1.4104751262106596,0.14202015055514214,0.20174256152744044,0.5562753151259748,-0.3885126308548294,0.750644731030775,0.2242711304667456,-0.14025076235486272,0.43569828346115197,2.026816995122749,-0.4415164873459362,-0.2536639820062472,-0.1607606360022534,-0.8618125526460972,0.37042815192111617,-0.2285267177013289,0.039004503063796665,-0.46201380282060006,0.25152201585222433,0.5138038450686039,0.39363829614996265,1.1495875477708526,-0.17309832118831112,-0.7613450588090254,-1.0963488331305629,0.9909526935194081,-0.8456236544426751,-0.029494597592000602,0.2828612165510289,-0.30479662680275943,0.2501740762307982,0.2860024518019982,-0.23436598858448107,-1.183244731012611,-1.1064471731902037,0.16567132321501724,-0.9523480767888957,0.7277684060007253,1.1686286942779656,-1.0742592881448139,-0.17503058676607816,-0.20059126508578193,0.9809520645408496,-0.36783054654557124,0.14582130113640612,-1.2599356590372717,0.6948924891483417,1.0235475314166331,1.1115457460591953,0.8155722092125517,0.2814678509170748,0.05505618309194284,-0.2834083698817299,0.43744412928100146,-1.032332997005611,-0.5048085462084857,0.17762541761487022,-0.4809394468985242,-0.3644464001643604,-1.021503779122238,-0.6842348410211812,0.3885306435883,0.4125465383575283,0.3952654612751953,-0.7918675315936711,-0.13928602000350573,-0.48785393858109277,0.051341446883783434,0.46683262678549364,-0.08812585499847349,-0.8536353246725048,-0.31486410642637574,-0.270885628618285,0.0035786888201619488,-0.7266547278355462,-0.8414285371039049,-0.5383891134227482,0.06669939142723885,-0.45769033183244057,0.2599353384349843,0.23717334888090236,0.8857952396516062,-0.9517722066033663,0.47706699765071775,0.42116967263122473,0.07011369211373289,0.15858750094127305,0.678681841143177,0.0536322678538775,-0.26818858388000233,-0.34477826511392295,-0.5554476447534469,0.5494355947282331,-0.06686726566457223,1.0363993656655976,-0.9556956111541389,-0.29183075825165566,0.26962902435425046,-1.2238824156662427,0.29477608041904824,-0.8425579165882495,-0.49620771646768985,0.8093157748570781,0.820809667294104,-0.7822377608143999,0.936238216745344,-0.6300336645880388,-0.7902602436122985,-0.28235676268073856,0.29471972589813095,-0.27143971729222277,0.7384994331464155,0.304761622163664,-0.09187635516762573,-0.7826104755759181,-2.6170174905196264,-2.109260681931989,0.229567942892483,-0.8965508338126584,-1.3416438305113563,0.21506664810172924,0.3783212767669683,0.7573545229964875,0.8838371236446935,0.37192562477836144,-0.10452723658786715,-0.82333884336461,-0.43167818888975773,-0.028526738658541682,-0.5608856089641242,0.9220307645833955,0.2500481630646016,-0.99374741470294,-0.0630866572355046,-0.2848420630132145,-0.09570765369120629,-0.30574567641214256,-0.5728561756505289,-0.1380778112043975,-0.5161685508078862,0.10325923911607508,-0.42416317167364215,0.13051084634319784,-0.9851828095751586,-0.8564270804627346,0.8053898154596709,1.2258286789121016,-0.9345803370680189,1.224986120380929,1.105464110415357,0.19343293139158782,-0.23477981199639109,-0.7011563887185017,-0.7292753466395419,0.5539137084963842,-0.4733716840284,0.3209975564769916,0.20357945641376707,0.07410884766559177,-0.34740042532537235,-0.25384121872719956,0.4460285479690866,1.2562614157340162,-0.2129613194303371,0.21515283930864615,0.04973138065482432,-0.3067070289542818,0.25438007382616906,0.38137562031541916,0.21882202946239843,-0.2072720335727397,0.1695048469189638,1.1590216694606306,0.49631804061657714,-0.38623313167831147,-0.22413610064249725,-0.546414964734555,-0.5927147998989182,-0.31656543334586096,0.3166329744939863,0.354078574456236,-0.10628875575499075,-0.34322005977574976,0.37640200370256716,-0.2960265839930017,0.16471691071484917,0.02432503873870466,-0.010235868146821318,0.29268613150843276,1.1361549331278749,-0.18497510165437367,-0.8211863928105662,-0.44215130589840335,-0.08805980355575971,-0.7268349044880938,-0.7932340382455644,0.9007878706345029,0.254020501198714,-0.0540284554381167,-0.9010823879487648,-0.47751747439791953,-0.4431874769581463,-0.15125151922773997,0.08007295164893494,-0.3481302103238439,-0.8497086382589047,-0.2453208042785856,0.5831381330814517,0.7777183092723702,1.2710277028242918,0.25005848206580455,0.9427646470272782,-0.22153400774161797,-0.56866649028854,0.23440418561138204,0.01618743125919083,0.9427474149734815,0.23661079178583022,-0.17553352989817642,-0.20686041381978368,-0.28861092830165525,-0.42148398427996814,0.02285935072995183,-0.7601837627179516,0.16059462396790675,-0.9999445432075615,0.7436223899970787,0.509286150164335,0.3961317639728337,0.08377376543449107,-0.020941833108009938,-0.17706038215822123,0.12912856201572262,0.5698526675023781,0.09470265749855984,-1.0089387649633896,-0.3379053840197805,-0.037608828443103516,0.5633182381070271,-1.4932674765485725,0.7343521084029694,0.32326031547056566,0.5593688353218982,-1.2802280811402689,-0.878729189389987,-1.1331573767890515,0.6097391216125929,-0.6013133617953785,-0.3289873733934505,0.8165430307565582,0.567855411604577,1.057940850690733,-1.3084753490530914,0.16019928687321783,-1.1517682946722028,-0.7514868236362217,-1.285226361160769,0.1527514914486114,0.10589435322113164,-0.2969744883175895,0.8106544803940686,0.47541730922461856,-0.49694036064505825,-0.6634939606497272,0.682400986109703,-0.21434123157922047,0.043161306361696544,-0.44111031518639565,-0.27736771487756917,0.7348918348686988,0.5659582456582263,0.4859827979306747,-0.0515774797869256,1.0417894777857697,-0.7762495321814333,-0.6838728330448447,-0.5195266169266186,0.9494137046572662,-0.6179796210323325,0.9207300157095315,-0.37985429566861745,0.21434573203155063,0.6589129218961258,1.1728162022187925,-0.6684373555438805,0.46372026668475397,-0.2700570696627076,0.15729124884711676,0.640186879918226,0.6553470960707765,-0.20539523121186343,0.18955956858453882,-1.2559531443422247,-0.8181757982559722,-0.4554035106877712,-0.5300510817720292,-0.5022573953450893,-0.23878872838435064,0.634158217570968,1.0746155843435254,0.5068320908721511,0.3616917480008164,-0.0031632431140054887,0.16670277265181233,-0.01758682728549771,-0.45211956815012155,-0.24154233677242737,0.0830865746882525,-1.5267713014308681,-0.5324676961361801,-0.16928243018355935,-0.12141375487978025,-0.26694203061698296,0.89266545705488,0.1407769998014125,-0.1737677532120133,0.1474863355468479,-0.15338032661679887,0.9832258175791211,-1.289596894198929,0.33885158540685983,0.18463232434954935,0.9331149174221953,-0.631884121690517,0.8964661185678995,0.059870204866533015,0.05724922648127485,-0.03389809488243009,-0.16821548550968657,-0.8256642405486472,-0.8095256091462402,-0.20877040465678662,-0.10654301487231693,-0.31049741816674337,0.37905268025634775,-0.08021011931880315,-0.455111245672738,-0.0699104152502443,-0.3541223663237026,-0.583195974738796,-0.13579499276417495,0.9615451313286731,-0.2102993766805265,-0.7849895509053458,0.07308820419407125,-0.5547694274864707,-0.4364404920816054,-0.05911589485091428,-0.3817574742001725,0.13531954990122705,-0.27785205709698524,0.49636203567319387,-0.8416089972373051,-0.13417374815999053,0.3035190134439467,-0.6511152109997822,0.6185893831497056,0.6263328136996696,-0.04892862631406175,-0.04044412736493342,1.143411104245912,-0.12428305420087427,-0.6187316962781484,0.328734025783937,-0.01965584706620767,0.09584180579873454,-0.20466922820959377,0.522200690447799,-0.44739585480807664,-0.026744191309880098,0.8809616881791222,-0.5572359941755062,-0.4503969649162166,0.2686824671255812,-1.3677044843092132,0.20596117581311518,0.3476361055108709,0.624914399149639,-0.6391170147375491,-0.6464775336210871,-0.3799166558744171,-0.7140643345988215,0.31655850282228776,-0.3131221306557523,0.20281691670906718,-0.35867033172712875,-0.2197651257166321,0.5960464502489338,2.1831378624952498,1.436282427855716,-0.11860987206601885,-0.6390464544757305,